// Neural Network File Format by Kyle Julian, Stanford 2016
// Network written to file by adapted writeNNet() method for ReLUNet
4,11,1,64,
11,64,32,16,1,
0,
-1.0,-1.0,-1.0,-1.0,-1.0,-1.0,-1.0,-1.0,-1.0,-1.0,-1.0,
1.0,1.0,1.0,1.0,1.0,1.0,1.0,1.0,1.0,1.0,1.0,
0.0,0.0,0.0,0.0,0.0,0.0,0.0,0.0,0.0,0.0,0.0,0.0,
1.0,1.0,1.0,1.0,1.0,1.0,1.0,1.0,1.0,1.0,1.0,1.0,
-3.93662e-01,-2.87160e-02,7.41879e-02,-4.41717e-01,-4.65290e-01,2.60329e-01,9.44065e-02,2.59408e-01,-2.54469e-01,2.56629e-01,-1.24769e-01,
2.26481e-02,-2.86651e-01,-3.99132e-01,-2.08832e-01,1.78695e-01,-2.54667e-01,3.20739e-01,1.10749e-01,2.53749e-01,-4.15671e-02,1.25971e-02,
2.00956e-01,1.05771e-01,1.36061e-01,-4.16441e-01,1.35721e-01,3.07426e-01,1.17280e-01,2.08835e-01,1.95068e-01,-1.28386e-02,-2.35698e-01,
1.00679e-02,1.03521e-01,-3.28009e-01,-3.81012e-01,6.59674e-02,-3.17915e-01,-3.47711e-01,-6.98965e-02,6.79427e-02,-2.33542e-01,-2.99476e-01,
2.06112e-01,-3.38138e-01,5.34250e-02,-1.85263e-01,-1.39155e-02,-2.26849e-01,5.46025e-02,8.72568e-02,-2.10934e-01,-8.71098e-02,1.16592e-01,
-2.33780e-01,1.98307e-01,4.23257e-02,-2.60061e-01,1.06108e-01,-2.51307e-01,-3.68608e-01,-1.16573e-01,-1.64434e-01,-2.60563e-01,1.30047e-01,
2.11621e-01,-2.19221e-01,6.64570e-02,-2.69535e-01,1.64753e-01,1.97493e-01,-3.50501e-01,2.34727e-01,2.15371e-02,1.62606e-01,8.19450e-02,
-2.46458e-01,-4.82811e-01,1.39868e-01,2.68779e-02,4.60082e-02,-1.51993e-01,1.67586e-01,-3.01676e-01,2.06998e-01,1.53807e-01,-2.81255e-01,
2.21605e-01,2.34260e-01,-3.58142e-01,-1.68794e-01,3.73156e-02,-2.67571e-01,-4.47871e-01,6.26768e-02,2.57921e-01,-2.18654e-01,-2.47302e-01,
2.76892e-01,1.18631e-01,-1.43970e-01,2.91916e-01,-1.23554e-01,2.41586e-01,4.87979e-02,3.03181e-01,-2.07136e-01,2.49851e-01,-2.30953e-01,
1.66025e-01,3.24660e-01,-3.09886e-01,-9.23940e-02,3.42834e-01,-5.50878e-02,3.21100e-01,-1.12956e-01,-1.30080e-01,-2.39638e-01,2.71093e-01,
-1.34353e-01,2.66197e-01,-4.39390e-01,-1.60389e-01,4.11986e-01,-1.17065e-01,1.44604e-01,3.55530e-01,-4.63478e-02,-2.38141e-01,-2.39352e-01,
8.71583e-02,4.65323e-02,2.80084e-02,-2.50714e-01,2.10466e-01,2.99981e-01,2.24730e-01,-2.29252e-02,5.87964e-02,1.16996e-01,5.26395e-02,
1.67221e-01,1.88831e-01,-1.26331e-01,-4.47951e-01,1.37813e-01,1.64903e-01,3.38052e-01,6.37334e-02,-3.22336e-04,-1.23809e-01,-2.44074e-01,
1.68215e-01,-2.35011e-04,-3.15688e-02,-2.06403e-01,-2.24883e-03,2.54630e-01,1.67057e-01,6.99939e-02,-2.47087e-01,-4.09254e-02,1.99303e-01,
-9.58260e-02,-2.84006e-01,2.23890e-01,-4.31247e-02,6.57426e-02,-2.73741e-01,-1.98815e-01,-3.40221e-01,6.94388e-02,2.19006e-02,-2.78204e-01,
-1.02670e-01,-2.99066e-01,3.75831e-01,-6.06930e-03,1.95819e-01,-2.48738e-01,-3.45370e-02,2.81559e-02,-9.87243e-02,-1.55042e-01,1.74198e-01,
-3.68170e-01,6.07866e-02,-1.27157e-03,-1.17205e-01,2.32514e-01,9.13810e-02,-2.82062e-01,1.71872e-01,2.98772e-01,2.52243e-01,-2.55808e-01,
-4.31585e-01,2.01948e-01,-7.18580e-03,1.26150e-01,-2.62210e-01,1.78475e-01,1.51893e-01,7.19436e-02,-2.28254e-01,-1.43194e-01,-9.96500e-02,
6.15191e-02,-2.42491e-01,-9.20612e-02,-1.01303e-01,3.42145e-01,-4.38038e-02,1.56228e-01,-3.50948e-01,-1.71962e-01,2.70608e-02,-2.87092e-01,
-9.49182e-02,-2.79671e-01,3.77508e-01,2.02258e-01,1.95504e-01,1.78524e-01,-1.02320e-02,-1.12381e-01,2.24147e-01,-5.06610e-02,2.98181e-01,
1.43687e-01,-3.79578e-01,2.75397e-01,1.31353e-01,-1.03074e-01,9.06730e-02,2.61742e-02,-3.59408e-01,-5.27267e-02,5.78390e-02,2.40026e-01,
3.86888e-01,4.49125e-02,-6.34451e-02,1.28642e-01,2.13179e-01,9.18397e-03,2.14333e-01,3.42842e-01,2.62705e-02,-2.21495e-01,-1.38913e-01,
4.51155e-01,-1.71498e-01,1.82148e-01,-2.19254e-01,-2.69778e-01,1.40108e-01,-1.18149e-01,-1.72737e-01,-1.79632e-01,4.40004e-02,-2.16972e-01,
-5.69965e-01,-2.99916e-01,-7.07365e-02,1.08930e-01,-1.17977e-01,2.06983e-01,-1.76962e-01,-8.54911e-02,-5.32974e-02,-2.99653e-01,-7.74614e-02,
4.20158e-01,9.31520e-02,5.88576e-03,-4.00738e-01,-3.36613e-01,2.08354e-02,4.40412e-01,-1.17644e-01,2.80558e-01,-2.63402e-01,-1.35945e-01,
-2.56201e-01,-1.81911e-01,-1.37612e-01,-1.92923e-01,-3.80435e-01,-6.35598e-02,3.82133e-01,-7.62744e-02,-2.34181e-01,-2.93050e-01,5.50985e-02,
1.84487e-01,1.44945e-01,-1.11746e-01,-1.81956e-01,6.92576e-02,-1.90629e-01,-3.11640e-01,-3.15577e-01,1.96315e-01,-7.27291e-02,1.21381e-01,
8.58869e-02,1.63896e-01,4.07105e-01,-2.74177e-01,-2.13664e-01,-2.06129e-01,1.26110e-01,-1.87068e-01,-2.30647e-01,3.38847e-02,1.54148e-01,
2.01003e-01,3.21679e-01,6.23552e-02,3.23069e-01,-7.86663e-02,-4.58677e-01,1.28865e-01,-2.76873e-01,2.96898e-01,-1.39177e-01,2.87487e-02,
-3.34779e-01,3.96162e-01,1.48696e-01,2.80246e-01,9.45935e-02,-3.44621e-01,3.84072e-01,-1.48328e-01,-2.42763e-01,1.76751e-01,1.49428e-01,
2.20453e-01,1.77476e-01,2.03008e-01,7.87138e-02,-3.66824e-01,-3.22563e-01,1.77849e-01,-3.86063e-02,-2.12637e-01,1.31368e-01,4.62657e-02,
3.09335e-01,5.05305e-01,3.13848e-01,-2.32603e-01,2.18051e-01,-1.81568e-01,3.13590e-02,-1.04857e-01,-2.79829e-01,2.31209e-01,-2.50469e-01,
1.03178e-01,-1.68198e-01,1.58369e-01,3.46593e-01,5.53491e-02,3.91213e-01,-1.82416e-01,3.19325e-01,2.66773e-01,-2.88628e-01,-1.95842e-01,
-1.30648e-01,1.78103e-01,6.00522e-02,7.72170e-02,9.24893e-02,-1.21597e-01,4.58779e-01,-1.63658e-01,2.59665e-01,2.07378e-01,-2.79424e-01,
4.86491e-02,3.33284e-02,-4.01619e-01,-1.12463e-01,-1.85367e-01,1.38320e-01,1.30398e-01,1.80069e-01,2.90823e-01,1.32532e-01,3.08476e-02,
-3.46228e-01,1.73474e-01,2.07872e-01,-2.76412e-02,1.78123e-01,2.29357e-01,2.79940e-01,-8.16564e-02,2.97982e-01,6.74331e-02,-5.22198e-02,
-4.58087e-01,-4.73008e-01,-1.34883e-01,-5.32337e-02,1.16198e-01,-2.10152e-01,-1.48961e-01,2.45254e-01,-1.45745e-01,-2.54717e-01,1.57410e-01,
2.03653e-01,2.71802e-03,-4.91488e-01,-6.67823e-02,2.58181e-01,-9.27758e-02,4.38864e-02,5.71536e-02,1.24897e-01,-2.83863e-01,-2.69382e-01,
8.95892e-02,-2.23182e-01,3.04352e-01,-2.72338e-01,-3.58307e-02,1.52113e-01,2.27761e-01,-3.08856e-01,6.33074e-02,-1.72245e-01,-1.52313e-01,
6.09556e-02,-2.69023e-01,3.50886e-01,-3.29164e-02,-2.25463e-01,-3.83705e-01,-3.87531e-01,-3.16596e-01,1.26528e-01,1.71963e-01,1.68976e-01,
2.17080e-01,8.86361e-02,2.11194e-02,2.27511e-01,-2.56664e-01,-6.81707e-02,-3.70427e-01,2.26975e-02,-2.62380e-01,9.02880e-02,-2.82632e-01,
1.28600e-01,-1.34409e-01,-1.46548e-02,5.23525e-02,-6.11835e-05,2.79243e-01,-3.77781e-01,1.03746e-01,-2.15969e-01,-8.43713e-02,-1.23224e-01,
1.29211e-01,-3.14205e-01,4.53373e-01,1.29484e-01,4.52687e-01,-1.28545e-01,2.94411e-01,-5.59739e-02,8.70765e-02,-3.40048e-02,1.33280e-01,
-9.83294e-02,-1.44081e-01,-1.72357e-01,3.71154e-01,-2.38550e-01,-3.05104e-02,-3.40902e-01,-9.18628e-02,2.41229e-01,7.26336e-02,-1.66668e-01,
4.88325e-01,-3.26849e-01,-9.05957e-02,9.81037e-03,-4.01767e-01,1.60134e-01,-5.06758e-03,-1.79350e-01,-1.96818e-01,1.34673e-01,2.42246e-01,
-1.81687e-01,-3.19804e-01,-2.81093e-01,3.08869e-01,-2.95927e-01,7.34553e-02,9.45592e-02,3.06444e-01,1.22534e-01,2.49643e-01,8.44541e-02,
5.33474e-01,4.22803e-01,2.79808e-01,-8.72762e-02,1.72486e-01,-3.17961e-01,-5.09092e-02,2.52938e-01,1.66914e-01,8.81271e-02,-1.00785e-02,
1.33693e-01,-6.42524e-02,3.45254e-01,-3.98658e-01,-1.02461e-01,-2.21552e-01,3.99878e-01,1.43582e-01,1.92713e-01,-2.82794e-01,-8.85812e-02,
5.29424e-01,3.52567e-01,2.40167e-01,-2.85997e-01,-1.46370e-01,-1.08753e-01,5.65736e-02,1.17599e-01,5.29655e-04,1.16959e-02,1.23961e-01,
1.05479e-01,-2.43589e-01,4.08513e-01,2.59870e-01,2.94387e-01,1.58825e-01,-7.60039e-02,-3.38048e-03,1.74484e-01,1.16803e-01,2.41963e-01,
4.87413e-01,3.95194e-01,1.99980e-01,2.11449e-01,-3.38002e-02,-2.15055e-01,3.62886e-01,1.83655e-01,-1.64078e-01,2.17331e-02,1.74827e-01,
-4.58453e-01,-3.25951e-02,3.33289e-02,3.24525e-01,-3.16877e-01,1.42173e-01,1.60750e-02,-3.66037e-01,-2.71007e-01,-2.89083e-01,1.56466e-01,
3.33856e-01,-1.29672e-01,-1.09476e-01,-1.42458e-01,2.87084e-01,-1.40788e-01,-3.50404e-01,1.37069e-01,-1.22101e-01,2.49308e-01,1.98901e-01,
2.91428e-01,1.62865e-01,8.33819e-02,-5.05612e-02,1.42226e-01,4.52041e-01,3.29533e-01,3.35786e-01,1.48614e-01,-2.25611e-01,-1.91494e-02,
-2.26617e-02,3.15066e-01,-4.01192e-01,2.28052e-01,1.39856e-01,-2.18235e-01,3.40933e-01,-1.29376e-01,2.27159e-01,2.11092e-01,7.41435e-02,
1.54827e-01,3.68613e-01,-2.37074e-01,-8.24136e-02,3.99971e-01,3.57903e-02,-8.94049e-02,2.72022e-01,-7.20020e-02,-1.52172e-01,1.56515e-01,
1.27007e-01,-2.02153e-02,-4.53573e-01,-3.27265e-01,4.61690e-01,2.89845e-01,2.90325e-01,-6.59718e-02,-1.91730e-01,-2.96766e-01,-1.52386e-01,
2.19420e-02,8.85407e-02,-2.20832e-01,-3.30711e-01,-4.06966e-01,2.23088e-01,9.16864e-02,-2.40259e-01,-2.26233e-01,1.78761e-01,-1.75941e-01,
-5.72385e-01,2.29104e-01,-2.05263e-01,-2.87669e-02,-4.95521e-03,1.05448e-01,-2.23040e-01,-8.69551e-02,-1.88627e-01,1.39639e-01,2.11348e-01,
3.67541e-01,-2.59989e-01,-9.57356e-02,1.00079e-01,-3.23046e-01,-2.33682e-01,1.75473e-01,1.42037e-01,2.50724e-01,6.65201e-02,-1.34805e-01,
2.03823e-01,-1.23928e-01,-7.10296e-02,-3.15551e-01,2.78663e-01,1.91925e-01,2.06857e-01,2.39475e-01,-1.75438e-01,-9.96066e-02,-8.04047e-02,
-5.14181e-01,-3.52932e-01,-3.66182e-01,-1.79517e-01,2.70010e-01,-1.07333e-01,-3.82024e-01,2.48349e-01,-2.21450e-01,2.20485e-01,-9.12849e-02,
4.52039e-01,-4.84598e-01,3.94705e-01,-5.71309e-02,-2.29303e-01,1.20529e-01,1.13008e-01,-2.21706e-02,1.06530e-01,-3.55323e-02,2.23376e-01,
-1.57117e-01,
1.60243e-01,
-2.99996e-01,
2.25072e-01,
3.81797e-01,
1.54390e-01,
2.89633e-01,
-1.24334e-01,
6.36135e-02,
1.05436e-01,
2.12732e-01,
2.97735e-02,
-4.38133e-01,
-2.33207e-01,
-2.83973e-01,
-2.78677e-01,
2.72774e-01,
-6.92421e-02,
3.57713e-01,
2.06842e-01,
2.54811e-01,
1.53074e-02,
2.41379e-01,
-1.31431e-01,
-1.38332e-02,
9.64971e-02,
2.18905e-01,
4.18025e-01,
-3.00741e-01,
-2.09819e-01,
4.07704e-01,
-3.83611e-02,
-1.18109e-01,
-2.01779e-01,
-1.29117e-02,
3.05696e-01,
5.74764e-01,
1.23567e-01,
-1.07262e-01,
-1.22558e-01,
1.10394e-01,
-3.29001e-01,
1.17181e-01,
-6.46742e-02,
1.27720e-01,
4.96275e-02,
6.82649e-02,
5.95903e-02,
2.08768e-01,
-1.42939e-01,
-7.81902e-02,
-1.74404e-01,
3.73057e-01,
-3.22882e-01,
3.41437e-01,
-1.31921e-01,
-6.57971e-02,
2.14162e-01,
3.41159e-01,
2.22661e-01,
-9.56545e-02,
-4.67059e-02,
-3.11136e-02,
3.40587e-01,
-2.58720e-02,-1.98594e-02,-7.56054e-02,-5.53514e-02,1.57888e-02,1.24363e-01,-2.64469e-02,4.29461e-02,-9.06208e-02,-6.52331e-02,5.46259e-02,-3.69059e-02,9.77111e-02,5.05253e-02,9.65111e-02,-4.75178e-02,-9.72569e-02,-4.56811e-02,-3.47150e-02,-9.78906e-03,2.32414e-02,-4.96387e-02,-1.16620e-02,7.48786e-03,1.10484e-01,2.58499e-02,-2.23003e-02,-6.46344e-02,1.66838e-02,7.79571e-02,-1.12321e-01,-4.84388e-03,1.00399e-01,9.47178e-02,-1.01771e-01,-3.77515e-02,-4.35166e-02,-5.51414e-03,2.13077e-02,3.03638e-03,2.93733e-02,-1.58380e-02,2.94757e-02,-1.91569e-02,2.14239e-02,-6.67470e-02,-1.87795e-02,1.07337e-01,-9.16182e-02,-1.02607e-01,-1.19979e-01,1.13935e-01,-6.54066e-02,-4.89019e-02,-3.48779e-02,1.24424e-01,-8.35844e-02,-2.12447e-02,-2.76608e-02,-9.96305e-02,1.07876e-01,-8.21511e-02,-4.85840e-03,-1.12002e-01,
5.01049e-03,9.84329e-02,9.56944e-02,2.26920e-01,1.28548e-01,1.17069e-01,2.66191e-02,1.41209e-01,2.33728e-01,4.99317e-02,-8.43163e-02,2.08528e-02,-1.93128e-01,7.90346e-02,-1.10302e-01,2.09565e-01,1.58695e-01,-1.48611e-01,-9.57482e-02,-3.79061e-02,1.87288e-01,1.86863e-01,8.07427e-02,-2.00726e-01,-1.66918e-01,-3.92533e-02,1.14649e-01,1.56412e-01,1.32869e-03,5.57666e-02,1.47573e-01,-1.54581e-02,-1.22034e-01,1.24034e-01,1.36247e-01,-9.25079e-03,6.74497e-02,-8.17646e-02,1.19145e-01,4.23692e-02,1.89297e-01,2.40481e-01,5.90494e-02,2.57518e-01,7.06624e-02,-1.01376e-02,-3.47651e-02,-1.41684e-01,4.51050e-02,-1.82749e-01,8.95351e-02,-4.20629e-01,7.69686e-02,6.27358e-02,7.01088e-02,5.44205e-02,-1.78883e-02,2.10663e-01,-7.26018e-02,-1.47988e-01,-1.79056e-01,2.00819e-01,2.96842e-02,-1.80078e-02,
7.71401e-02,1.31494e-01,-1.21742e-01,1.34881e-01,8.18469e-02,1.74405e-01,6.44036e-03,2.76971e-01,3.28778e-01,7.68490e-02,-2.97965e-02,1.28527e-01,-2.67737e-01,2.82609e-02,-1.95886e-01,1.91520e-01,2.28186e-01,-1.05088e-01,1.78075e-01,1.72476e-01,2.37740e-01,2.05115e-01,1.53321e-01,-1.64568e-01,-1.86382e-01,-9.00797e-02,-5.12445e-02,1.26830e-01,-1.70315e-01,-2.61606e-02,7.53466e-02,-1.41536e-01,-1.27010e-01,-1.55401e-02,1.36092e-01,-2.36803e-02,7.56657e-02,1.10058e-02,1.32787e-01,8.06637e-02,4.35059e-02,1.15728e-01,2.60538e-02,2.20832e-01,8.93959e-02,-1.03284e-01,-3.53617e-02,-1.00547e-01,3.78637e-02,-2.88346e-01,2.29588e-01,-1.21017e-01,3.82215e-02,3.34461e-02,1.80280e-01,1.48688e-01,1.95568e-02,7.47466e-02,-1.42270e-02,-1.09975e-01,-1.08013e-01,-3.04439e-02,-1.19100e-01,-5.27267e-02,
4.27316e-02,-7.03394e-02,-1.30914e-01,-2.43607e-01,8.76809e-03,-5.83907e-02,5.64875e-02,-2.70165e-01,-2.60399e-01,-6.94168e-02,-8.88603e-03,-6.58396e-02,-5.45254e-02,-1.35605e-02,3.34433e-02,-1.85919e-01,-1.87563e-01,1.38183e-01,-3.71552e-02,-1.22305e-01,-4.99137e-03,4.15312e-03,-1.13098e-01,7.16126e-02,2.58372e-01,2.36127e-01,1.06493e-01,5.60511e-02,2.04766e-01,3.34061e-02,-3.41390e-03,2.17310e-01,3.84391e-02,2.04940e-02,-5.42157e-03,-8.08537e-02,-4.04870e-02,6.68346e-02,-6.80461e-02,6.46724e-02,-1.14504e-01,-1.44160e-01,6.35424e-02,-6.30175e-02,-2.87472e-02,1.70007e-01,1.46441e-01,1.43449e-01,6.94051e-02,2.33825e-01,-1.96682e-02,1.76072e-01,1.34370e-01,-1.65638e-01,-1.52095e-01,1.41389e-01,-1.96833e-01,2.35372e-02,1.35798e-01,2.25494e-01,2.49674e-01,-9.32242e-02,1.52660e-01,1.07225e-01,
1.17775e-01,1.19400e-01,-1.10218e-01,4.49062e-02,-5.17730e-02,9.93844e-02,-1.33083e-02,1.65967e-01,1.04963e-01,1.25990e-01,3.99391e-02,-5.36767e-02,-1.77269e-01,-4.39319e-02,-7.45064e-02,2.41364e-01,2.18450e-01,-7.86899e-02,1.39753e-01,-4.26020e-02,1.58512e-01,2.00877e-01,1.34624e-01,-1.99796e-01,-1.52560e-01,-1.91444e-01,6.69250e-02,-7.14641e-02,8.30807e-02,-1.90793e-01,1.34939e-02,-1.58661e-01,-1.52114e-01,1.54097e-02,8.13512e-02,-1.97345e-02,1.63646e-01,-9.09690e-02,1.29469e-02,1.90931e-01,2.05635e-01,1.64670e-01,2.96873e-02,2.43568e-01,-3.43752e-03,-3.86340e-02,-1.01723e-01,-1.19309e-01,-8.74257e-03,-3.07732e-01,5.24587e-02,-1.91833e-01,2.35599e-02,2.54136e-01,2.45647e-01,8.39767e-02,1.20059e-01,-1.03671e-01,1.25953e-01,-1.83705e-01,-1.06980e-01,-7.18243e-02,-2.67223e-01,2.06168e-01,
1.98199e-01,-6.06235e-02,-2.70007e-03,5.98627e-02,6.20481e-02,-1.11885e-01,1.35486e-01,-2.39399e-01,-1.38422e-01,-3.56866e-02,-3.19967e-03,-2.20879e-03,1.99842e-01,2.62718e-01,7.42889e-02,-4.11750e-03,-4.18520e-02,2.23323e-01,-8.62807e-02,-1.50298e-01,4.18638e-02,6.99088e-02,-8.36006e-02,2.13835e-01,1.66625e-01,1.07744e-01,1.67658e-01,-5.54318e-03,1.75992e-01,-9.07643e-03,-2.90244e-01,1.19348e-01,1.54726e-01,1.17214e-01,-1.29978e-01,1.45658e-01,1.77786e-02,1.51538e-01,-1.00136e-01,9.45118e-02,5.63496e-02,-2.58132e-01,-2.63699e-02,5.12711e-02,6.90980e-03,2.26352e-01,1.78933e-01,1.78386e-01,-2.38465e-02,3.16910e-01,-1.88101e-01,3.33440e-01,-6.81024e-02,-2.19346e-01,-1.04635e-02,-2.12145e-01,-5.32594e-03,3.15956e-02,2.03852e-01,2.28486e-01,2.98178e-01,9.68185e-03,8.28311e-02,1.04607e-01,
-4.14266e-02,-1.68623e-01,1.47728e-01,-2.16173e-01,6.30315e-03,-7.90488e-02,1.70918e-01,-7.06761e-02,-3.76998e-01,7.31129e-02,1.03889e-01,-1.31694e-01,1.27385e-01,1.05508e-01,1.67035e-01,-5.14403e-02,-3.46534e-02,7.57813e-02,7.95564e-02,-2.01272e-01,-6.94029e-02,-3.37913e-02,-1.27647e-01,-3.37532e-02,3.75295e-02,1.58778e-01,-3.35035e-02,-6.26585e-02,9.22062e-02,1.41824e-01,-4.98467e-03,2.94553e-02,2.61341e-01,9.50820e-02,1.68058e-01,9.70046e-02,-2.98191e-02,2.22915e-01,-2.44938e-01,-4.21755e-02,-6.90459e-02,-1.02663e-01,-2.63147e-02,-2.89651e-01,1.80742e-02,1.18982e-01,3.80644e-02,2.23182e-01,1.83287e-02,2.33532e-01,-1.25787e-01,3.64825e-01,1.63046e-01,-1.41377e-01,3.85202e-02,5.50760e-02,1.19492e-01,-2.42438e-02,-2.87402e-02,7.72466e-02,2.02961e-01,-3.20679e-02,9.77748e-02,-2.56122e-01,
5.01621e-02,-8.18848e-03,-1.28734e-01,3.67973e-02,1.83835e-01,-1.07956e-01,1.51153e-01,-1.50314e-01,-2.01568e-02,-4.32561e-02,-6.76657e-03,-2.22204e-01,-1.95289e-03,-1.80166e-01,1.11732e-01,4.90687e-02,-2.17429e-01,-1.55865e-01,-2.66479e-01,9.56267e-02,-2.14458e-02,9.16437e-03,1.60169e-02,2.13126e-01,2.37439e-01,2.89867e-01,-1.26345e-01,1.19456e-01,9.82310e-02,3.61653e-02,-1.34569e-01,-1.45055e-03,-1.71808e-01,-1.83228e-02,-2.86552e-01,6.85915e-02,-3.11574e-01,-3.00269e-02,-2.27681e-01,2.56152e-02,5.44445e-02,-2.35414e-01,-2.44226e-02,8.24885e-02,2.66004e-02,2.90796e-01,8.48952e-02,2.49001e-01,4.15990e-02,3.29944e-01,-1.92035e-01,2.03073e-01,-5.56186e-02,1.65717e-01,5.59764e-02,-1.36869e-01,-1.86733e-04,-6.61804e-02,1.48679e-01,1.23633e-01,1.96406e-01,-2.54593e-02,9.96533e-02,1.74478e-01,
-5.20094e-02,-1.38839e-01,9.11063e-02,-2.56917e-01,-1.11444e-01,-1.75848e-01,1.45792e-01,-9.42540e-02,-1.96808e-01,5.69682e-03,5.99261e-02,-7.39704e-02,1.99501e-01,-2.33762e-02,2.50628e-01,-9.90630e-02,-9.31002e-02,2.17501e-03,-6.25852e-02,-2.05684e-01,-1.42177e-01,-4.89103e-02,-3.87825e-02,2.12323e-01,1.90915e-01,1.87770e-01,6.71371e-02,8.48392e-02,2.37366e-01,4.57975e-02,7.55120e-02,7.38299e-02,3.33836e-01,-9.66187e-02,-3.19112e-02,-1.13624e-01,5.56465e-02,2.22036e-01,-1.59698e-01,-7.43652e-02,7.76167e-02,-2.27886e-01,-9.50626e-03,-2.37741e-01,-4.55695e-02,4.20896e-02,1.91032e-01,2.49950e-01,7.89386e-02,2.13224e-01,-1.25126e-01,3.94552e-01,1.07221e-02,-1.44472e-01,-6.70076e-02,1.07311e-01,5.93227e-02,5.95671e-02,5.78574e-02,1.52220e-03,3.02173e-01,3.60524e-02,2.30198e-01,-3.89505e-02,
1.79031e-01,-7.83628e-02,9.16110e-02,-1.55973e-01,2.11352e-01,-1.11713e-01,5.09238e-02,-9.95770e-02,-2.64609e-01,2.05010e-02,1.59231e-01,1.41710e-01,1.87041e-01,1.81516e-01,6.93011e-02,-8.59841e-02,-3.50740e-05,2.00939e-01,2.70897e-02,-2.23257e-02,-1.04961e-01,-1.08580e-01,-3.48784e-02,2.30578e-01,1.56719e-01,2.72951e-01,1.11800e-01,2.92886e-02,2.46623e-01,1.81487e-01,-1.23785e-01,2.29607e-01,2.39715e-01,1.47168e-01,1.92465e-01,1.13058e-02,3.98071e-03,2.42074e-01,-3.85942e-02,9.99016e-03,7.61729e-02,-1.91324e-01,7.85372e-02,-1.57465e-01,7.37513e-02,2.25543e-01,1.57830e-01,2.12730e-01,1.86578e-01,2.37732e-01,-1.72606e-02,2.97148e-01,8.52070e-02,-4.17792e-02,-2.95943e-02,1.57295e-01,-1.77295e-03,-2.01784e-02,1.20933e-01,2.15995e-01,2.48277e-01,6.79427e-02,2.99287e-01,2.82804e-02,
7.35457e-02,9.93220e-02,2.32231e-01,7.97073e-02,6.18156e-02,1.58685e-01,2.38742e-01,9.19481e-02,-5.43865e-02,1.37021e-01,2.29249e-01,5.39179e-02,4.42460e-02,7.32390e-02,9.89209e-02,1.60887e-01,5.22305e-02,1.59397e-01,2.57560e-01,1.00814e-01,2.30946e-01,5.22950e-02,1.48605e-01,1.35220e-01,9.95061e-02,3.12986e-01,2.08248e-01,1.08421e-01,9.65481e-02,3.22496e-01,2.36676e-01,2.01142e-01,3.02272e-01,1.78435e-01,2.77877e-01,1.96644e-01,1.92196e-01,2.96416e-01,6.27291e-02,1.34799e-01,1.07541e-01,-7.79082e-02,2.29059e-01,8.77036e-02,1.44632e-01,1.91686e-01,8.10558e-02,1.86832e-01,2.82764e-01,3.16426e-01,1.80868e-01,1.83554e-01,2.51162e-01,-8.08692e-02,6.27613e-02,2.19610e-02,2.05597e-01,1.57615e-01,2.42627e-01,8.71570e-02,2.34953e-01,7.84389e-02,2.81225e-01,2.30995e-01,
2.29940e-01,1.77135e-01,-9.51554e-03,7.94378e-02,-4.83765e-02,-1.13553e-02,-3.08237e-02,-2.32837e-02,1.40617e-01,-1.46573e-01,-9.26977e-02,1.21722e-01,2.62570e-02,1.03735e-01,-1.13404e-01,-5.46408e-02,-8.92362e-02,4.43156e-02,6.99489e-02,-1.15176e-01,-2.39878e-01,1.84802e-01,-4.24498e-02,1.86358e-01,1.08771e-01,-5.81875e-02,7.16728e-02,-1.60002e-02,9.67143e-02,4.81109e-02,-2.43081e-01,1.57220e-01,-6.23405e-02,-1.89248e-01,-1.47886e-01,5.69966e-02,4.29382e-02,2.06853e-01,-6.73293e-02,1.29173e-01,1.80397e-01,-1.42245e-01,-9.33828e-02,-7.50695e-03,-7.82537e-02,2.39732e-01,1.49661e-01,2.43900e-02,1.19904e-01,-7.14692e-02,-3.07710e-01,1.65782e-01,-1.41162e-01,2.74268e-02,-1.67322e-01,1.15130e-02,-1.22936e-01,-3.74793e-03,1.33270e-01,3.87830e-02,1.16289e-01,1.13478e-02,3.32831e-02,3.03714e-02,
6.16160e-02,-8.21881e-03,1.98282e-01,-5.05508e-04,-2.55248e-02,-1.92661e-01,1.55727e-01,2.79532e-02,-2.85365e-01,3.83184e-02,1.70302e-02,-4.61039e-02,8.87686e-02,1.08073e-01,2.38829e-01,-6.67740e-02,-9.68133e-03,7.73196e-02,1.67850e-02,-1.34056e-01,-3.32774e-02,-1.70611e-01,-1.30740e-01,-2.18238e-02,1.93427e-01,5.09613e-02,2.84779e-02,-4.16185e-02,-5.29049e-03,1.71462e-01,5.70176e-02,5.74726e-02,1.91020e-01,2.23422e-02,1.12268e-01,1.23624e-01,1.48099e-01,8.93041e-02,-8.23942e-02,-2.69163e-02,-4.70604e-02,-2.67136e-01,2.40155e-02,-1.27820e-01,2.00932e-01,1.58565e-01,1.69449e-01,9.90963e-02,-4.76596e-02,3.25560e-01,1.12177e-01,2.39451e-01,3.71828e-02,-1.40423e-01,-1.24235e-02,-6.44254e-02,1.02132e-01,-8.97498e-02,1.70607e-01,1.84588e-01,2.91551e-01,6.76416e-02,2.62112e-01,-1.58699e-01,
6.97042e-02,-8.66911e-02,1.28669e-01,-3.23136e-01,-1.29504e-01,-3.48102e-02,8.41661e-02,-1.23438e-01,-2.61507e-01,-2.30586e-02,-4.60011e-03,-7.55139e-02,2.83885e-01,1.31917e-01,1.41178e-01,-1.04799e-01,-7.66949e-02,1.50773e-01,2.91170e-02,-2.23613e-01,6.69087e-02,-2.83312e-01,-9.03615e-02,1.84568e-02,2.07575e-01,4.47211e-02,6.64880e-02,-1.55223e-01,2.33487e-01,1.68261e-01,8.61364e-02,2.29369e-02,3.63329e-01,-5.01130e-02,9.30168e-02,-1.55747e-01,1.23797e-01,5.82648e-02,-5.91236e-02,-2.17485e-01,-1.93587e-02,-1.33570e-01,1.08851e-01,-4.14720e-01,4.44360e-02,-1.09424e-01,1.98580e-01,2.18275e-01,9.72857e-02,2.84426e-01,-3.50289e-02,2.22557e-01,5.69601e-02,-2.01492e-01,-1.76338e-01,7.81778e-02,-1.17643e-01,3.55569e-02,6.52216e-02,7.78071e-02,1.87262e-01,-3.37570e-04,2.35027e-01,-4.08944e-01,
-2.60172e-02,1.79580e-01,-7.76330e-02,2.57645e-01,1.50357e-01,2.64317e-01,-1.10727e-01,3.17244e-01,2.62639e-01,3.86952e-02,5.16013e-02,1.79178e-01,-1.68022e-01,-2.11245e-02,-2.03050e-01,7.93258e-02,2.71391e-01,-1.87421e-01,-1.82527e-03,2.36239e-01,1.42445e-01,1.34467e-01,1.13543e-01,-1.88353e-01,-1.33113e-01,-2.28392e-01,3.99369e-02,9.55198e-02,-9.50135e-02,-1.14672e-01,8.15824e-02,-5.31204e-02,-2.40558e-01,1.33759e-01,-4.23520e-02,7.54791e-02,5.93691e-02,-1.53836e-01,1.64380e-01,1.44285e-01,3.80356e-02,1.76335e-01,1.47506e-01,1.96785e-01,2.76398e-02,-6.38396e-02,-6.61933e-03,-1.09862e-01,-4.12759e-03,-3.21312e-01,4.52836e-02,-2.91980e-01,1.21841e-01,2.27552e-01,1.93373e-01,1.20201e-01,7.64403e-02,5.04799e-02,-5.32955e-02,6.39411e-02,-2.36683e-01,9.32593e-02,-1.88777e-01,1.72342e-01,
-1.59931e-02,-8.07798e-02,4.12753e-02,6.98152e-03,6.52611e-02,7.68068e-02,-1.26937e-01,3.12724e-02,1.20925e-02,-7.34754e-02,1.06174e-01,-3.93488e-02,1.90126e-02,-8.26456e-02,4.16261e-02,-5.19229e-02,-1.14253e-01,-1.27797e-02,-4.24068e-02,1.10378e-01,-2.97682e-02,-8.72997e-02,-8.86340e-02,-5.43813e-02,-5.50708e-02,-9.10099e-02,3.24554e-03,8.58383e-02,3.63181e-02,-8.32860e-02,4.46731e-02,-6.48430e-02,2.49116e-02,4.06475e-02,-1.18982e-01,-4.81382e-02,8.90491e-02,-5.23008e-02,9.00728e-02,7.74483e-02,-6.37333e-02,-7.29859e-02,-5.86097e-02,5.05824e-02,-1.00984e-02,-1.54736e-02,-1.39681e-02,-9.03111e-02,-7.60680e-02,-1.16511e-01,9.04115e-03,-1.57007e-02,-1.11050e-01,2.25178e-02,-9.79205e-02,-9.50943e-02,-1.10413e-01,-5.64021e-02,-9.94537e-02,6.45923e-02,-8.76090e-02,7.19512e-02,-9.94962e-02,-1.31005e-01,
1.27465e-01,8.37980e-02,2.17461e-01,1.60947e-02,-1.09576e-01,-2.62686e-01,5.03915e-02,4.59644e-02,-3.11931e-02,2.07818e-02,8.82402e-02,7.18066e-02,9.92551e-02,1.63599e-01,1.87188e-01,1.15176e-01,-1.14005e-02,8.22072e-02,-5.53416e-02,-1.73032e-01,4.86383e-03,1.92044e-02,-7.55089e-02,-1.64442e-01,-1.91394e-04,-4.65071e-02,2.35086e-02,-1.51612e-01,-1.55257e-01,-1.14262e-01,-2.90256e-01,-3.18782e-02,4.98054e-02,-7.78285e-02,-3.61697e-02,2.06101e-02,6.64062e-02,1.32590e-01,-2.10098e-02,-8.56859e-03,-8.39016e-02,6.81936e-02,-4.23145e-02,-1.15780e-01,3.82763e-02,-1.56207e-01,-3.84486e-02,8.07659e-02,6.10334e-02,1.51852e-01,-1.01676e-01,1.74419e-01,7.97654e-02,-1.28311e-01,-4.39678e-02,-1.52476e-01,-2.38670e-02,1.50425e-01,3.80789e-02,7.58031e-02,-8.12617e-02,-3.61154e-02,-4.40061e-02,-2.73456e-01,
2.79031e-01,1.80371e-03,-1.34757e-01,-7.62783e-03,-8.39713e-02,2.81050e-02,3.09043e-02,-2.90556e-01,-1.78975e-01,-5.97457e-02,-2.10877e-02,-2.61562e-02,2.00852e-02,-7.18797e-02,-8.41072e-02,-9.01611e-02,-1.29165e-01,4.91898e-02,1.20201e-01,-7.20140e-02,-1.31729e-01,-2.18155e-01,-1.91549e-01,-2.43957e-01,1.86225e-01,-2.48138e-02,1.97994e-01,-6.27249e-02,3.84582e-02,1.04504e-02,8.41367e-02,9.16273e-02,1.33808e-01,1.04815e-01,1.16425e-02,1.16821e-02,3.91480e-02,2.74579e-01,-1.65548e-01,1.47808e-03,-2.29877e-01,-1.65339e-01,8.24791e-02,-1.25873e-01,1.37494e-01,6.44692e-03,1.54095e-01,3.39657e-02,6.97361e-02,9.92503e-02,-3.27469e-03,3.22345e-01,1.55558e-01,-4.22755e-03,-2.40441e-01,1.60549e-01,-1.42331e-01,-7.32159e-02,1.38750e-01,2.17185e-01,4.39226e-02,-1.08386e-01,2.27344e-01,-1.54231e-01,
-3.97826e-02,2.23981e-01,-1.24119e-01,3.26225e-01,1.61074e-01,1.33140e-01,-1.09487e-01,1.59083e-01,2.75365e-01,2.33008e-02,7.06011e-02,2.43678e-01,-1.37676e-01,-1.05400e-02,-7.28386e-02,4.19439e-02,2.67475e-01,-2.81649e-02,-4.30764e-02,1.35253e-01,1.78179e-01,3.23077e-02,2.72127e-01,-5.46778e-02,-1.38402e-01,4.11563e-02,4.88381e-02,1.95557e-01,-1.93636e-01,-4.01048e-02,1.86808e-01,-1.94821e-01,-1.12322e-01,3.52556e-03,2.98609e-03,9.02915e-02,1.14656e-01,-1.06351e-01,9.92354e-02,2.48838e-02,1.60836e-01,1.24894e-01,1.98724e-02,2.32507e-01,3.05046e-02,-2.14123e-01,4.45182e-02,-1.12452e-01,-4.31062e-02,-1.55119e-01,5.54652e-02,-1.16036e-01,9.43541e-03,-5.89023e-02,3.96714e-03,1.21401e-02,1.48016e-01,7.00920e-02,9.34738e-02,1.02830e-01,-2.78567e-01,-1.44648e-02,-2.43794e-01,-8.95609e-03,
-1.57348e-01,1.27989e-02,2.55797e-02,8.32616e-02,1.88962e-01,-2.15674e-01,5.20944e-02,-6.68992e-03,4.37086e-03,1.63285e-01,-4.55410e-02,-1.05065e-01,4.66679e-02,7.01646e-02,5.91817e-02,-1.08698e-01,-7.89783e-02,-1.93422e-01,-2.99952e-01,6.22664e-02,-9.74966e-02,1.51792e-01,2.42090e-01,1.53126e-01,-2.19631e-01,6.28703e-02,-2.17618e-01,6.46548e-02,-1.16092e-02,1.38334e-02,-1.51275e-01,8.28903e-02,-3.73788e-02,1.10077e-01,-8.65891e-02,-1.13976e-01,-2.64683e-01,-8.25333e-02,-5.00159e-02,-4.89571e-02,-2.04027e-03,-3.03002e-01,8.93426e-02,6.97587e-02,-3.47806e-02,2.71976e-01,9.18173e-02,2.56023e-01,8.77272e-02,2.50999e-01,-2.24902e-01,2.47672e-01,-3.07960e-01,-5.23876e-01,-1.23416e-02,-9.06157e-02,-6.42884e-02,-1.30265e-01,-5.45448e-02,-8.63612e-02,2.98103e-01,-2.75765e-02,-1.72947e-01,1.47946e-01,
1.43272e-01,1.88629e-01,-7.42244e-02,2.48240e-01,-7.20299e-02,2.37512e-01,-5.03971e-02,2.93829e-01,3.52429e-01,1.54664e-01,8.47210e-03,3.83633e-03,-2.77143e-01,-1.41659e-01,-5.49225e-02,2.48408e-01,2.42006e-01,1.00970e-03,-2.30845e-02,-2.02646e-02,2.27673e-01,5.33629e-02,-1.92628e-02,-1.81872e-02,-2.19849e-01,-1.67531e-01,5.44720e-02,3.55516e-02,-1.75768e-01,-2.77473e-02,-2.02763e-02,-1.86189e-01,-1.22256e-01,-2.56047e-02,-5.85716e-02,1.67194e-01,1.45714e-01,-1.93152e-01,2.86615e-01,4.51530e-02,1.51505e-01,2.00590e-01,5.23295e-02,1.63915e-01,1.49860e-01,-1.43252e-01,4.09019e-02,3.05026e-02,-7.05177e-02,-8.10237e-02,3.80208e-02,-1.88300e-01,1.02796e-01,4.87101e-02,1.52432e-01,8.15703e-02,2.24502e-02,1.35737e-01,-7.76058e-02,-1.26078e-01,-2.13570e-01,-1.37106e-01,-2.41748e-01,8.12751e-02,
5.53209e-02,2.86038e-01,-2.43067e-02,3.21223e-01,8.34692e-03,9.66315e-02,-1.50438e-01,3.07817e-01,2.51525e-01,-1.25060e-02,9.32016e-02,4.17170e-02,-1.16486e-01,3.47175e-02,-1.67367e-01,1.95180e-01,1.43536e-01,-5.42985e-02,-7.61256e-02,8.75067e-02,7.58388e-02,-4.08770e-02,-3.11693e-02,-1.30894e-01,-4.67377e-02,8.25963e-02,1.02905e-01,2.18397e-01,-1.41080e-01,-1.08592e-01,1.67613e-01,-4.37756e-02,-1.71926e-01,-1.33903e-01,8.77238e-02,2.29289e-01,1.87194e-02,1.90804e-02,1.42536e-01,1.60946e-01,-4.72230e-02,2.04138e-01,1.18281e-01,6.80987e-02,5.67533e-02,3.12938e-02,7.98285e-02,-3.49398e-01,6.68999e-02,-2.21446e-01,4.30261e-02,-2.37549e-01,6.90393e-02,1.05670e-01,1.69753e-01,8.77884e-02,2.13282e-01,1.34600e-01,1.76898e-02,1.39736e-01,-1.66649e-01,1.24871e-01,-3.20026e-02,1.90446e-01,
2.29992e-01,7.07702e-02,2.18836e-01,2.07708e-01,1.81127e-01,2.57711e-01,1.64159e-01,2.26570e-01,1.85602e-01,2.66789e-01,1.45979e-01,2.06588e-01,1.39985e-01,7.47746e-02,1.16752e-01,2.67663e-01,3.40778e-01,2.79098e-01,2.88387e-01,2.47730e-01,3.24089e-01,2.73603e-01,1.45481e-01,1.45312e-01,1.90948e-01,2.88584e-01,2.01499e-01,2.81090e-01,2.68768e-01,3.04339e-01,2.01498e-01,3.35267e-01,1.94976e-01,1.20621e-01,1.22477e-01,1.79937e-01,2.91898e-01,2.82408e-01,1.84628e-01,1.39498e-01,2.67044e-01,1.41845e-01,1.53536e-01,2.99747e-01,2.59170e-01,9.92242e-02,1.25183e-01,2.79704e-01,1.41931e-01,2.86147e-01,4.06025e-01,2.17408e-01,2.49941e-01,1.69288e-01,1.10621e-01,1.65987e-01,3.09860e-01,4.31580e-02,2.97930e-01,1.91115e-01,1.69211e-01,2.04577e-01,2.54471e-01,3.60141e-01,
-6.13906e-02,1.29652e-01,-4.72907e-02,1.41393e-01,5.87745e-02,1.00037e-01,-3.73113e-02,2.33604e-01,1.95145e-01,-7.13774e-02,-5.49855e-02,8.64146e-02,-1.35752e-01,-1.03831e-01,-2.14192e-01,1.48668e-01,2.22173e-01,-1.67098e-01,-9.53563e-02,1.64153e-01,2.78977e-01,8.50661e-02,3.14416e-02,-1.26600e-01,-1.60286e-01,-1.02296e-01,1.16124e-01,1.43179e-01,-7.86369e-02,-4.26764e-02,1.79996e-01,-2.08151e-01,-2.53998e-02,1.54759e-01,1.63968e-01,5.49500e-03,1.64275e-01,1.35048e-02,2.79812e-01,-1.98414e-02,-7.08108e-03,3.00996e-01,4.54766e-02,2.24769e-01,3.96928e-02,-4.71749e-02,2.35686e-02,-1.22483e-01,9.87655e-02,-2.29147e-01,2.19849e-01,-3.93445e-01,1.06846e-01,2.67336e-01,2.16063e-01,1.18199e-01,1.67267e-02,1.56261e-01,1.16790e-01,-1.17121e-01,-2.73342e-01,7.95582e-02,-7.92454e-02,7.88371e-02,
-6.50674e-02,-6.81088e-02,1.74992e-01,-1.62171e-01,-2.23535e-03,-9.19775e-02,5.44935e-02,-3.10975e-01,-3.93345e-01,-3.63015e-02,1.27319e-02,-1.28676e-01,1.90346e-01,9.12097e-02,2.82802e-02,-2.75478e-01,4.09777e-03,6.23178e-02,1.21027e-01,-1.11365e-01,-5.86119e-02,-1.82049e-01,-2.25573e-02,-9.50858e-03,2.87904e-01,1.72134e-01,1.11116e-01,-3.64331e-02,1.90102e-01,1.03700e-01,-8.37762e-02,5.50574e-02,2.41474e-01,-4.36665e-02,1.32003e-01,5.23934e-02,9.76905e-02,6.46155e-03,-4.99890e-02,-1.08606e-01,-6.27735e-03,-1.03716e-01,8.34535e-02,-3.25301e-01,1.03494e-01,7.71132e-03,1.58830e-01,2.16793e-01,4.21244e-02,1.81585e-01,9.83324e-02,2.96216e-01,2.25960e-01,-5.46365e-02,2.21068e-02,8.90598e-02,-6.34890e-02,-8.86351e-02,-7.98589e-02,-6.30565e-02,3.44177e-01,1.28907e-01,1.73574e-01,-2.89963e-01,
1.04684e-01,-2.07825e-01,-1.16519e-01,-1.47223e-01,-1.24048e-01,-1.08543e-01,-7.10886e-02,-2.10318e-01,-3.27658e-01,1.14370e-01,1.36067e-01,-6.72863e-02,3.78930e-02,-1.85338e-01,3.84503e-02,-1.77599e-01,-1.33243e-01,-2.31419e-01,6.17207e-02,7.63784e-03,-2.67584e-01,-2.54041e-01,-2.96651e-03,-2.88186e-01,-7.58517e-02,1.41634e-01,1.04139e-01,6.42792e-02,2.64613e-01,2.09137e-01,2.15831e-01,8.91410e-02,3.59645e-01,-4.53486e-02,1.82140e-01,-1.84853e-01,1.21118e-01,-1.16012e-01,-2.62379e-01,-1.67588e-01,-8.17947e-02,-7.02653e-02,-1.38780e-01,-2.69026e-01,-1.45976e-01,-1.04560e-01,8.58314e-02,9.97632e-02,1.23038e-01,1.70637e-01,-2.47223e-01,3.16766e-01,-6.05261e-02,-1.32738e-01,-6.75863e-04,1.87420e-01,-1.29384e-01,-2.41892e-01,-1.50533e-01,-1.88968e-02,8.65052e-02,-9.66282e-02,5.52794e-02,-2.65747e-01,
4.37101e-02,2.08822e-01,-1.76613e-01,7.04469e-02,7.50946e-02,-9.44058e-02,-1.16239e-01,3.21295e-01,2.54957e-01,7.84241e-02,1.50576e-01,1.16109e-01,-6.64796e-02,-7.46828e-02,-1.37309e-01,1.02468e-01,1.55723e-01,-1.03451e-01,-3.10142e-02,1.04286e-01,2.41425e-01,7.86363e-02,5.61555e-02,-5.27369e-03,-1.23957e-01,2.73981e-02,5.42286e-02,-7.89308e-02,-3.22563e-02,-1.53238e-01,1.04974e-01,-2.48387e-01,-1.28420e-01,1.18787e-02,1.90905e-01,2.07590e-01,2.31176e-01,9.86838e-04,7.99328e-02,2.32565e-01,2.95147e-02,1.47921e-01,-8.50987e-03,6.00079e-02,-1.86744e-01,-2.08444e-01,1.29998e-01,-1.48349e-01,8.52053e-02,-3.08882e-01,5.23068e-02,-2.38410e-01,-5.45454e-02,2.76346e-01,1.13834e-01,7.58692e-02,6.44600e-02,1.77531e-01,-1.00344e-01,-1.60419e-01,-1.94375e-02,-6.78518e-02,-5.10440e-02,1.62529e-01,
9.97918e-02,4.63528e-03,1.00004e-01,1.31065e-01,1.37450e-01,1.30900e-01,-1.26763e-01,2.73232e-01,2.23055e-01,1.92535e-01,-9.12715e-02,-3.69160e-02,-1.96870e-01,-8.27283e-02,3.69045e-02,1.94817e-01,1.37083e-01,2.85839e-02,1.85777e-01,7.49964e-02,2.58849e-01,1.60732e-01,8.02434e-02,-6.08870e-02,-1.57498e-01,-1.35902e-01,1.60479e-01,-5.30481e-03,-2.36229e-02,-2.51556e-01,1.29618e-01,-1.52288e-01,-1.46438e-01,1.88391e-01,-4.46939e-02,-3.79172e-03,1.41193e-01,-2.55151e-01,-4.65681e-02,1.80399e-01,7.26730e-02,3.13386e-01,-6.79161e-02,7.43668e-02,-1.96069e-02,7.69895e-03,1.59582e-01,-9.49088e-02,1.15706e-01,-9.71330e-02,9.82624e-02,-2.26583e-01,1.66706e-01,2.92824e-01,2.16139e-01,-1.56776e-01,5.49302e-02,-1.67459e-01,2.17408e-02,-1.32154e-01,-1.75035e-01,-7.16683e-03,-3.14903e-01,9.24065e-02,
6.85690e-02,5.93956e-03,1.67948e-01,-5.46151e-02,-3.10479e-02,8.33628e-02,6.08908e-02,-1.97879e-01,-1.30545e-01,-8.32872e-02,8.47518e-03,5.42959e-02,8.88611e-02,1.34289e-01,1.72450e-01,-1.77946e-01,-4.28352e-03,2.19562e-01,-1.67441e-01,-7.57456e-02,8.26542e-02,7.54801e-03,-6.46456e-02,-4.90358e-02,2.50449e-01,1.16573e-01,-2.80564e-03,-4.40862e-02,-2.30190e-01,1.74690e-02,-1.91319e-01,3.71537e-02,1.88742e-02,4.41483e-02,-2.31940e-01,-6.23998e-02,9.47953e-02,1.36736e-01,-1.98658e-01,-1.65693e-01,-8.06799e-02,-3.98345e-02,4.96705e-02,-1.41484e-01,1.11825e-01,5.49754e-02,1.78775e-01,4.42911e-02,-6.33296e-02,1.90640e-01,-6.12431e-02,1.03369e-01,2.26652e-01,-3.02622e-02,6.27469e-02,-1.43798e-01,1.23370e-01,1.44791e-01,-5.15328e-02,1.01216e-01,2.73234e-01,-1.77475e-02,2.31479e-01,-9.12763e-02,
8.54401e-02,-1.23600e-01,2.15185e-02,-2.07727e-01,-1.04821e-01,6.26730e-02,1.54578e-01,-2.25632e-01,-3.55388e-01,-1.65449e-01,6.73467e-02,-1.13369e-01,1.95038e-01,-4.12097e-02,1.95165e-01,-8.43682e-02,4.71834e-02,7.97175e-02,1.18062e-01,-9.44232e-02,-5.10275e-02,-2.39665e-01,-2.01154e-01,-1.67520e-01,6.84533e-02,-2.91235e-02,1.50071e-01,5.03325e-02,3.17260e-02,1.04631e-01,-8.18707e-02,1.48807e-01,2.18303e-01,-4.19999e-02,2.32795e-02,-6.82033e-02,1.24750e-01,6.00734e-02,-8.18897e-02,-1.79660e-01,-1.28411e-01,-1.76945e-01,9.91662e-02,-1.97977e-01,1.13028e-01,-5.95578e-02,9.37481e-02,1.62720e-01,3.35065e-02,5.16287e-02,4.31351e-02,3.04614e-01,2.34815e-01,-2.00447e-01,-2.20459e-02,1.27706e-01,1.68098e-02,7.18519e-02,6.19996e-02,9.29211e-02,1.71482e-01,9.77240e-02,1.99607e-01,-2.87656e-01,
2.35847e-01,3.64885e-02,-1.47806e-01,-1.59419e-01,1.63863e-02,-1.72429e-02,9.67711e-02,-1.61264e-01,-6.24289e-02,-3.24669e-02,1.25207e-01,-8.71248e-02,3.04480e-02,-8.10873e-02,-1.29377e-01,-1.93484e-01,-1.63782e-01,9.86711e-02,1.13372e-01,-2.12747e-01,-7.95591e-02,-1.37278e-01,-1.62814e-01,-1.03535e-01,-5.30514e-02,1.48839e-01,2.16716e-02,-8.34157e-02,1.68158e-01,2.93786e-02,1.32368e-01,3.48987e-02,2.19315e-01,-8.99062e-02,2.02244e-01,5.92820e-02,-2.27012e-02,2.07555e-01,-1.44549e-01,-1.42196e-01,-2.04870e-02,-2.89589e-01,2.84245e-01,-3.13213e-01,7.01156e-02,-5.02035e-02,2.33597e-01,1.35415e-01,-6.87132e-02,1.60308e-01,-1.19012e-02,1.42832e-01,1.90102e-01,-1.59934e-01,-7.14174e-02,2.07808e-01,-2.12145e-01,-2.49009e-01,1.16160e-01,8.35361e-02,2.26927e-01,-1.11268e-01,2.21834e-01,-2.68444e-01,
-1.25169e-01,1.89545e-01,-2.07386e-03,1.96481e-01,1.33729e-01,1.71057e-01,-1.45968e-01,1.70942e-01,1.86133e-01,-1.48987e-01,1.42407e-01,1.28075e-01,-2.08862e-01,1.03333e-01,-2.17031e-01,2.50250e-01,7.29179e-02,2.46427e-02,-5.69253e-02,2.46864e-01,1.87064e-01,3.01677e-02,9.80565e-02,-1.40256e-01,-8.89641e-02,-1.20387e-01,-6.33432e-02,1.93200e-01,-1.06377e-01,1.06746e-01,1.21392e-01,1.42241e-02,-1.24767e-01,-5.94567e-02,-5.07659e-02,1.65737e-02,-2.38848e-02,4.45336e-02,2.39143e-01,-8.20920e-02,1.86933e-01,8.27659e-02,-1.03027e-01,1.08998e-04,1.73116e-01,-6.33769e-02,-2.72310e-01,-1.72657e-01,-2.67828e-02,-2.15881e-01,-1.54026e-01,-1.15340e-01,1.41360e-01,2.00238e-01,-4.26340e-02,1.15360e-01,1.26107e-01,1.53313e-01,8.00713e-02,4.10219e-02,-1.35383e-01,1.03111e-01,-7.61598e-02,-6.18795e-02,
-6.65407e-02,
-2.16259e-02,
2.04500e-01,
1.05985e-01,
1.63005e-01,
-8.46671e-02,
2.83635e-02,
-1.23466e-01,
6.73729e-02,
-7.68151e-03,
6.03738e-02,
-1.46807e-01,
-1.17662e-01,
-2.68984e-02,
1.03939e-01,
-4.93347e-02,
-1.73783e-01,
5.50912e-02,
2.32576e-01,
3.15759e-02,
1.80995e-01,
5.26311e-02,
3.24071e-01,
2.49023e-01,
-1.11491e-01,
-1.18467e-01,
1.71000e-01,
1.84034e-03,
-7.78634e-02,
-8.35588e-02,
1.70858e-02,
2.40845e-02,
5.11102e-03,-3.65020e-02,3.63893e-02,-1.10611e-01,1.76638e-02,7.59144e-02,-8.18172e-02,-9.05788e-02,2.43406e-02,-6.08671e-02,-7.96938e-02,-1.09856e-01,-1.23441e-01,-9.92683e-02,1.36503e-01,-1.37893e-01,-1.37354e-01,-4.78375e-02,1.34067e-01,-1.10241e-01,-1.02082e-01,-9.27892e-03,1.71994e-02,-3.25597e-02,5.57736e-02,-6.43881e-02,-1.15244e-01,3.66819e-03,1.08031e-01,1.37269e-01,1.25540e-01,-9.14909e-02,
1.30696e-01,-3.63809e-02,-7.64327e-02,-5.82776e-02,-8.48184e-02,1.15966e-01,1.14952e-01,1.29256e-02,-1.68396e-01,-1.12732e-01,-1.68871e-02,8.17263e-02,-2.41286e-02,-1.71298e-01,-8.08422e-03,-1.04722e-01,1.35061e-01,-1.17584e-01,3.93638e-02,4.10859e-02,5.92952e-02,2.76559e-02,-1.26458e-01,-5.21125e-02,8.69794e-02,1.09281e-01,-1.17719e-01,-1.07892e-01,2.11124e-02,-6.66403e-02,1.24646e-02,-9.04323e-02,
1.70895e-01,2.17533e-01,3.70794e-01,-2.43848e-01,4.39780e-01,-7.10941e-02,-2.03405e-01,-8.96336e-02,3.35346e-02,9.86016e-02,8.75319e-02,-3.84767e-01,-7.86345e-02,-3.73585e-01,1.99914e-01,1.79332e-01,-2.20215e-01,-1.41611e-01,1.67673e-01,-2.74289e-01,2.40755e-01,2.31772e-01,5.86565e-02,3.33285e-01,-2.50648e-01,-2.75239e-01,2.82231e-01,2.97682e-01,-1.03716e-01,-1.09923e-01,-4.83606e-03,2.94281e-01,
1.64041e-02,-1.78234e-01,-1.41895e-01,2.63787e-01,-3.25872e-01,2.85031e-01,1.89456e-01,3.34668e-01,2.58574e-01,3.65041e-01,3.06367e-01,2.19254e-01,1.76009e-01,2.46461e-01,-2.67384e-01,3.71259e-02,2.00186e-01,3.60723e-01,-2.98015e-01,1.47989e-01,-3.22280e-01,-6.77079e-03,1.77512e-01,-8.93316e-02,3.56163e-01,3.38141e-01,-3.26477e-01,-3.99598e-01,1.61049e-01,3.46853e-01,3.29944e-01,-1.48162e-01,
7.92701e-02,-1.61940e-01,-2.55827e-01,3.11511e-01,-2.83550e-01,1.13630e-01,2.33619e-01,2.87291e-01,1.70068e-01,3.37672e-01,2.19947e-01,3.93330e-01,3.32671e-01,2.16330e-01,-2.56708e-01,-4.61741e-02,9.22517e-02,2.51778e-01,-5.43648e-02,2.38253e-01,-3.89884e-01,-9.72170e-02,2.76492e-01,-1.56285e-01,2.30514e-01,3.55993e-01,-3.37616e-01,-3.60516e-01,3.13384e-01,7.41460e-02,3.84644e-01,-3.17158e-01,
-8.52467e-02,1.65407e-01,1.62431e-01,-2.14657e-01,2.88134e-01,-1.16275e-01,-2.82166e-01,-3.18754e-01,-2.50578e-01,-6.94556e-03,1.06053e-01,-3.10685e-01,-5.95811e-02,-2.28922e-01,2.57495e-01,-5.87570e-02,-2.24957e-01,-2.47260e-01,3.55906e-01,-1.13260e-01,1.32738e-01,2.58949e-01,1.57888e-01,2.82620e-01,-1.32939e-01,-2.28880e-01,2.18564e-01,1.99475e-01,-1.04054e-01,-1.71142e-01,-1.25982e-02,2.12260e-01,
-1.10240e-01,-3.15729e-01,-3.29752e-01,3.37115e-01,-2.30772e-01,1.16163e-01,3.20528e-01,2.51292e-01,3.11921e-01,2.41005e-01,2.04470e-01,3.44249e-01,3.21237e-01,1.44172e-01,-2.71755e-01,-1.60783e-02,3.09864e-01,1.02539e-01,-1.34114e-02,3.27282e-01,-1.98991e-01,-2.24929e-01,2.27199e-01,-2.37847e-01,2.87974e-01,1.43667e-01,-1.38279e-01,-3.30574e-01,3.69037e-01,3.71886e-01,2.54642e-01,-2.69625e-01,
-1.09999e-01,2.12816e-01,2.43875e-01,-3.02652e-01,1.82429e-01,-1.34286e-01,-1.90854e-01,-2.66569e-01,-2.16747e-01,-1.29899e-01,1.52122e-01,-3.55340e-01,-1.68096e-01,-3.81507e-01,2.95646e-01,-1.14824e-01,-1.78667e-01,-1.43165e-01,3.88492e-01,-3.44968e-01,1.96429e-01,3.14274e-01,2.49595e-01,2.26682e-01,-2.07199e-01,-3.21134e-01,3.06894e-01,3.62977e-01,-2.19306e-01,-2.18527e-01,-1.34447e-01,3.28055e-01,
5.04530e-02,1.85345e-01,3.03401e-01,-1.29323e-01,2.46968e-01,-2.55938e-01,-1.46516e-01,-3.46664e-01,-9.94972e-02,-8.39973e-02,1.68744e-03,-1.24090e-01,-2.89671e-01,-3.20344e-01,1.57109e-01,1.30756e-01,-2.73445e-01,-1.20141e-01,3.31410e-01,-2.62028e-01,3.39061e-01,3.99016e-01,2.81047e-01,3.59935e-01,-8.65857e-02,-3.59860e-01,2.95538e-01,4.47966e-01,-2.20077e-01,-2.50038e-01,-1.45017e-01,1.14587e-01,
7.44059e-02,-4.60568e-02,1.17803e-01,3.72409e-02,3.79618e-02,3.23733e-02,1.70884e-01,-1.65347e-01,-1.72193e-01,4.76660e-02,-1.51604e-01,4.00002e-02,-1.08000e-01,-1.15728e-02,-1.17293e-01,1.47643e-01,2.25792e-02,3.94926e-02,-7.52363e-03,1.74721e-01,1.23315e-01,8.02171e-02,-6.16160e-02,-7.04840e-02,4.61649e-02,6.62075e-02,3.41493e-02,-8.03826e-02,-2.50545e-02,3.44641e-03,-1.17445e-01,-1.68602e-02,
6.18058e-02,-7.47067e-02,-1.18878e-01,1.36008e-01,-1.00484e-01,-1.63233e-01,2.29100e-02,-1.54102e-01,5.85618e-03,3.96293e-02,2.61373e-02,1.34354e-01,-1.44260e-01,-1.20248e-01,-1.12476e-01,1.28360e-01,-6.22848e-02,4.32797e-02,1.89553e-01,-3.80726e-03,2.07539e-01,-9.46813e-02,-1.58038e-01,-4.51480e-02,-1.06222e-01,-6.24927e-02,-9.72776e-02,1.40622e-01,-1.77465e-01,1.40596e-01,1.29682e-01,-6.15658e-02,
-8.05143e-02,2.08629e-01,3.53538e-01,-2.25669e-01,2.98350e-01,-2.21675e-01,-3.35881e-01,-1.09537e-01,-2.71133e-01,1.90361e-03,2.44735e-01,-2.17689e-01,2.13759e-02,-1.52339e-01,2.61142e-01,-4.15271e-02,-2.85777e-01,-2.59356e-01,3.24026e-01,-2.77512e-01,2.77708e-01,3.36901e-01,2.99421e-02,4.02161e-01,-1.64314e-01,-2.19802e-01,4.18268e-01,4.94183e-01,-1.53145e-01,-1.35633e-01,-1.66487e-01,3.14358e-01,
-9.92276e-02,5.27998e-01,2.25633e-01,-2.86652e-01,2.00613e-01,-1.53456e-02,-8.78413e-02,-2.13109e-01,-1.04668e-01,-1.84792e-01,9.58106e-02,-2.76952e-01,-5.09220e-02,-4.15973e-01,2.03851e-01,-1.25318e-01,-2.72298e-01,-2.57145e-02,2.51468e-01,-2.64700e-01,5.05582e-01,2.92906e-01,1.40104e-01,2.23571e-01,-2.18274e-01,-2.06638e-01,3.27823e-01,2.92318e-01,-1.01328e-01,-2.15270e-01,-9.68418e-02,4.60460e-01,
-6.06784e-02,9.99608e-02,-4.39825e-02,5.39417e-03,1.87396e-02,-1.66246e-01,-1.02990e-02,-8.49904e-02,2.89410e-02,-1.75647e-01,-3.48407e-02,1.70010e-01,9.66329e-02,-1.64067e-01,1.27676e-01,-9.07781e-02,-8.91796e-02,2.18877e-02,-1.19909e-01,8.65852e-03,-1.56432e-01,-1.17885e-01,1.14426e-01,-9.00191e-02,-9.40623e-03,-6.18558e-03,-4.58321e-02,-8.12815e-02,-1.02882e-01,7.32219e-02,5.75927e-02,8.83626e-02,
-1.54856e-01,1.53103e-01,2.68207e-01,-3.29921e-01,4.23708e-01,-3.19521e-01,-2.97762e-01,-1.33246e-01,-2.18249e-01,-6.83020e-02,1.05949e-01,-3.95991e-01,-1.38297e-01,-1.03391e-01,4.11533e-01,-7.14689e-02,-1.57782e-01,-3.79853e-02,4.17719e-01,-3.62581e-01,1.72329e-01,4.06037e-01,2.79921e-01,4.11251e-01,-2.92930e-01,-3.95172e-01,4.63630e-01,2.19111e-01,-2.25962e-01,-3.14614e-01,-2.76523e-01,3.95786e-01,
1.21001e-01,-2.88821e-01,-1.80076e-01,1.90873e-01,-3.75017e-01,3.55459e-01,3.09931e-01,1.68862e-01,2.24605e-01,2.04999e-01,2.55538e-01,9.25374e-02,3.66408e-01,2.83803e-01,-3.42239e-01,-1.47738e-01,1.14306e-01,2.88838e-01,-1.12696e-01,2.46854e-01,-3.71137e-01,-1.40293e-01,1.59390e-01,-2.51198e-01,2.40089e-01,1.69084e-01,-2.30802e-01,-2.00814e-01,2.86511e-01,2.63359e-01,1.50951e-01,-8.21777e-02,
-1.15291e-01,
-1.72684e-02,
1.82325e-01,
-3.60571e-02,
-3.34640e-02,
2.22645e-01,
1.00355e-01,
2.83127e-01,
2.40184e-01,
-1.45626e-01,
2.61339e-02,
1.09938e-01,
2.16802e-01,
-1.79107e-01,
1.49258e-01,
1.38037e-01,
2.48014e-02,6.87298e-02,-4.15027e-01,4.52799e-01,4.44699e-01,-4.03742e-01,3.87683e-01,-5.15519e-01,-3.46387e-01,-1.86925e-01,-3.02101e-02,-3.73058e-01,-3.45905e-01,9.98116e-02,-3.40913e-01,4.73073e-01,
1.54391e-01,
