// Neural Network File Format by Kyle Julian, Stanford 2016
// Network written to file by adapted writeNNet() method for ReLUNet
9,11,1,256,
11,256,128,64,32,16,8,4,2,1,
0,
-1.0,-1.0,-1.0,-1.0,-1.0,-1.0,-1.0,-1.0,-1.0,-1.0,-1.0,
1.0,1.0,1.0,1.0,1.0,1.0,1.0,1.0,1.0,1.0,1.0,
0.0,0.0,0.0,0.0,0.0,0.0,0.0,0.0,0.0,0.0,0.0,0.0,
1.0,1.0,1.0,1.0,1.0,1.0,1.0,1.0,1.0,1.0,1.0,1.0,
-5.01476e-02,3.18244e-01,-2.57687e-01,-2.52057e-01,3.42721e-01,1.43502e-02,8.20303e-02,8.48563e-02,-2.27606e-01,-8.72447e-02,-1.43618e-01,
-1.77740e-01,-3.20219e-01,-8.98782e-02,-3.30007e-01,-2.64762e-01,1.91481e-02,1.71617e-02,-1.58856e-01,2.08339e-01,-1.80206e-01,-2.08696e-01,
3.08362e-01,-1.87029e-01,-1.95002e-01,-1.68779e-01,1.58796e-01,-1.42271e-01,-1.51939e-01,-2.62493e-01,7.67498e-02,2.30471e-01,3.27748e-02,
5.39859e-02,-3.41497e-01,3.30978e-01,-6.97980e-02,2.90229e-01,-1.67665e-02,3.44856e-01,-1.27415e-01,1.06888e-01,6.11653e-02,1.29462e-01,
2.07109e-01,-1.03319e-01,-1.70450e-01,9.11786e-02,-2.79816e-01,2.55037e-01,2.41894e-01,-8.35007e-03,1.59119e-01,1.64510e-01,2.76581e-01,
-1.06178e-01,-1.35853e-01,6.08925e-02,1.73498e-01,3.25360e-02,2.70412e-01,-2.12127e-01,3.01867e-01,-2.21627e-01,-1.62224e-01,-8.85984e-02,
-5.14407e-02,9.28612e-02,-2.25527e-01,1.73691e-01,-2.54208e-01,7.44513e-02,-1.31983e-01,1.76644e-01,-5.70254e-02,-2.52828e-02,3.26775e-02,
-3.39313e-01,-2.59628e-01,1.86825e-01,1.24132e-01,-4.65629e-02,-1.84366e-01,-3.16547e-01,-1.97497e-01,-2.26301e-01,-1.20253e-02,1.21628e-01,
-1.14328e-01,1.72713e-01,2.26135e-01,1.76385e-01,-1.57176e-01,1.01329e-01,-1.03061e-02,-4.64163e-02,-7.54479e-02,9.98498e-02,1.82409e-01,
-2.69367e-01,2.18929e-01,-9.22915e-02,-1.47907e-01,1.34141e-01,1.73922e-01,-8.41887e-02,2.97213e-01,8.70698e-02,-1.38173e-01,2.48666e-01,
3.45192e-01,-6.45449e-02,2.09205e-01,5.71160e-03,-2.82608e-01,9.77290e-02,6.75131e-02,-6.13371e-02,2.32719e-01,1.93521e-02,3.63698e-02,
1.93992e-01,2.88907e-02,2.53504e-01,7.32624e-02,6.33695e-02,1.71236e-01,4.26670e-02,2.96919e-01,-1.89080e-01,-1.37668e-01,-1.74005e-01,
3.42040e-01,-1.58629e-01,2.39770e-01,-2.93934e-01,1.28322e-01,3.10658e-01,2.56520e-01,1.88894e-03,2.13148e-01,-1.90193e-01,-6.09163e-02,
3.16266e-01,2.34877e-01,1.04623e-01,-4.60952e-02,-2.95553e-01,1.84458e-01,1.90778e-01,-5.96418e-02,7.59310e-02,2.73877e-01,2.88500e-01,
-2.40811e-01,-9.64543e-02,-1.36411e-01,2.29002e-01,6.52705e-02,-2.88065e-01,3.36141e-01,-3.28056e-01,-2.68009e-01,-1.37566e-02,-7.49016e-02,
2.02575e-01,-6.60146e-02,3.11047e-01,2.66759e-01,-3.59926e-01,-2.40384e-01,3.99626e-01,2.44817e-01,-2.20553e-01,4.65308e-02,-1.10712e-01,
-8.16349e-02,-1.96017e-01,-1.20517e-01,-1.40250e-01,1.68245e-01,-3.97281e-02,-1.89681e-01,2.50058e-01,1.56449e-01,-1.80381e-01,-2.53118e-01,
3.71659e-02,2.03740e-01,-2.68949e-01,7.33455e-03,3.02649e-01,2.20934e-01,-3.01337e-01,-2.26066e-01,2.86361e-01,8.41903e-02,-2.34696e-01,
3.56098e-01,-2.68047e-02,3.92141e-02,-4.21824e-02,-1.13499e-01,-2.94729e-02,2.21671e-01,1.19725e-01,6.71370e-02,-1.78587e-01,-6.42044e-02,
-4.11284e-01,-1.46864e-01,8.22207e-02,-4.52284e-03,9.71813e-02,1.43783e-01,-1.90423e-01,3.37435e-02,3.00962e-01,-2.31788e-01,-6.18607e-02,
2.12349e-01,8.66047e-02,2.66519e-01,-6.04844e-02,-2.96939e-01,-2.26634e-01,2.81372e-01,-2.45680e-01,-4.04912e-03,-1.69882e-01,2.92823e-01,
1.30422e-01,-1.53016e-01,-1.65206e-01,-7.43262e-02,3.18181e-01,-2.55922e-01,-9.19501e-02,-2.55190e-01,-1.61160e-01,2.10596e-01,-2.47459e-01,
5.69710e-02,2.53821e-01,4.52060e-02,-1.34805e-01,2.79462e-01,4.54659e-02,-3.19569e-01,2.31092e-01,-2.20648e-01,1.59324e-01,-2.92034e-01,
-4.31667e-01,-2.29911e-01,3.15060e-02,-1.57884e-01,-8.68837e-02,-5.45879e-02,-2.25451e-01,2.35548e-01,2.04610e-01,-2.97511e-01,-1.20254e-02,
-2.13188e-01,-2.92971e-01,2.33419e-01,1.67814e-01,1.57678e-01,-5.52295e-02,-5.49069e-02,-1.85961e-01,-9.42774e-02,7.85347e-02,-2.68707e-01,
-2.09044e-01,-1.54325e-01,3.61765e-01,-7.33610e-02,1.43665e-01,1.99103e-01,2.83541e-01,-2.02415e-01,1.09654e-01,1.74990e-01,-1.50279e-02,
9.35257e-02,1.35424e-01,2.00933e-01,-2.97902e-01,-4.70118e-02,2.82690e-01,-5.53309e-02,9.60516e-02,-4.62686e-02,1.70835e-02,-1.85011e-01,
-3.31060e-01,1.33800e-01,3.19394e-01,6.75608e-02,1.32914e-01,-1.43012e-01,1.81567e-01,-1.54987e-01,-8.09149e-02,-1.67162e-01,-1.71690e-01,
2.11437e-01,-1.09402e-01,-3.65081e-01,-1.18056e-01,-2.31704e-01,2.58025e-01,-1.75995e-01,-2.34137e-01,1.63789e-01,-1.87197e-01,-1.53574e-01,
-2.53166e-01,2.16062e-01,-1.76532e-01,-3.16028e-01,2.26588e-01,8.31842e-02,-1.27890e-02,1.77776e-03,-1.96175e-01,1.28268e-01,2.06665e-01,
-4.27944e-01,-1.27766e-01,-2.69106e-01,-4.40748e-02,-7.41558e-02,2.96578e-01,-9.47887e-02,-4.88283e-02,2.52132e-01,2.02178e-01,-1.30742e-01,
-2.23661e-01,-5.95155e-02,5.07939e-02,1.91592e-01,-9.12587e-02,-1.78713e-01,-2.17987e-01,1.97913e-01,2.41276e-01,-9.69693e-02,3.96766e-02,
1.99442e-01,-2.93237e-01,-2.02314e-01,-2.13453e-01,3.09958e-01,-2.33923e-01,3.05417e-02,-3.05248e-02,2.65558e-02,-4.92774e-02,2.98425e-01,
-2.47659e-01,3.19521e-01,1.00893e-01,-2.98787e-01,1.14613e-02,-1.81326e-01,1.20402e-01,3.04453e-01,-1.97462e-01,2.66695e-01,-1.20664e-01,
-7.45817e-02,-3.12053e-01,2.40019e-01,-2.06317e-01,9.90864e-02,1.55410e-01,2.35758e-01,1.20376e-01,-1.31721e-01,2.20617e-01,5.02048e-02,
-1.14463e-01,-1.49577e-01,-2.60983e-01,1.53184e-01,-2.51349e-01,-4.95148e-02,-1.30172e-01,-1.46681e-01,-1.61363e-01,2.80670e-01,1.25988e-01,
3.91197e-01,2.44857e-01,3.26798e-01,4.17100e-02,-1.36709e-01,1.79791e-01,2.76140e-01,-2.77616e-01,-2.29255e-01,-2.81699e-01,1.21771e-01,
3.01877e-01,-9.59276e-02,-1.86095e-01,3.05059e-01,-7.05464e-02,2.04241e-01,-1.48689e-01,-2.68875e-01,-4.15288e-02,-1.93951e-01,1.96577e-01,
-3.18971e-01,-2.84942e-01,-2.48389e-01,2.52677e-01,-2.75895e-01,-2.05240e-01,1.14211e-01,2.04524e-01,2.38765e-01,-1.23954e-02,-3.18846e-03,
2.88203e-03,-2.57793e-01,9.39164e-02,-2.82163e-01,-8.70923e-02,-1.88248e-01,-1.24568e-02,2.33906e-01,-2.55957e-01,3.20255e-02,1.81839e-01,
3.42355e-01,-2.69751e-01,1.13265e-03,-7.65531e-02,-1.94208e-01,-6.41018e-02,8.34380e-02,-1.49584e-01,1.36747e-01,-2.31630e-01,2.10634e-01,
-3.06323e-01,-4.76405e-02,-6.48640e-02,2.02624e-01,-8.16947e-02,2.37521e-01,1.99282e-01,5.60347e-03,-3.48654e-03,-1.56722e-01,-7.83899e-02,
-2.49968e-01,-1.14157e-01,-1.82850e-02,-1.96525e-01,-3.34790e-01,-1.49385e-01,1.54746e-01,4.84194e-02,1.04018e-01,-1.43840e-01,-2.40091e-01,
4.15535e-01,3.01869e-01,-1.31478e-01,-1.21723e-01,-1.38378e-02,-1.17548e-01,3.03937e-01,-1.66952e-01,2.92582e-01,-2.21229e-02,1.71113e-01,
-1.50409e-01,-1.69590e-01,2.05293e-02,-2.40817e-01,-1.54077e-01,-1.09407e-01,-4.27707e-02,1.03799e-01,-2.49948e-01,-2.76293e-01,-1.76357e-02,
-1.07949e-01,8.46879e-02,-1.80208e-01,4.64999e-02,1.59245e-01,-1.16469e-01,3.09941e-01,-1.58209e-01,-5.99008e-02,-1.31151e-01,-2.51206e-02,
-2.28550e-01,-3.03183e-01,2.66496e-01,3.80180e-02,3.23481e-01,-5.48241e-02,2.37726e-01,1.52598e-02,-3.98338e-03,2.00888e-01,-7.42835e-02,
-2.50093e-01,-1.44999e-01,1.10178e-01,-2.63577e-01,-1.71860e-01,-2.27539e-01,-2.63905e-01,-8.94313e-02,-7.87388e-02,-2.41347e-01,-2.80758e-01,
3.10123e-01,8.49334e-02,-2.60334e-01,1.37487e-01,2.69319e-01,2.67480e-01,-2.45483e-01,-1.33123e-01,-1.24474e-02,-2.12750e-03,2.69260e-01,
-5.71031e-02,2.58863e-02,-1.96752e-01,1.87406e-02,5.73272e-02,9.93578e-02,-2.92633e-01,-2.83501e-02,-1.01429e-01,-2.46068e-01,1.71355e-01,
1.44447e-01,3.03891e-01,8.38290e-02,-8.94933e-02,-2.73450e-01,-1.43024e-01,2.05104e-01,-1.08880e-01,-2.50042e-01,-2.82060e-01,9.33908e-02,
-1.55863e-01,-3.29255e-01,3.23709e-01,2.24301e-01,-1.10285e-01,1.69909e-01,3.78472e-01,-1.95758e-01,-2.96785e-01,-1.55959e-01,2.03592e-02,
1.22892e-01,-1.52903e-01,-2.01363e-01,-2.85660e-01,2.42411e-01,-2.63595e-01,8.31656e-02,-1.74573e-01,2.30492e-01,1.46968e-01,2.20563e-02,
-1.75678e-01,-3.02267e-01,-1.67347e-01,-1.30352e-01,3.08790e-01,1.58504e-01,-2.41812e-01,3.45635e-02,-8.24211e-02,-2.37411e-01,-7.89947e-03,
3.79413e-01,-5.38943e-02,-1.41913e-01,-2.51226e-01,-1.47816e-01,-6.20382e-02,-2.04917e-01,2.52800e-01,2.78261e-01,-4.29160e-02,-1.28166e-01,
1.26881e-01,-1.84684e-01,-2.84951e-01,1.11479e-01,-1.51412e-01,2.07468e-02,1.33719e-01,-1.28432e-01,-2.49187e-01,-1.52715e-01,-1.74920e-03,
-7.87757e-02,-3.35150e-01,-2.73971e-01,-3.40171e-01,1.50147e-01,-7.98817e-02,-1.00002e-01,-1.15665e-01,-2.31343e-02,-2.92483e-01,1.70815e-01,
-1.56272e-01,-1.82191e-01,2.74899e-01,1.96734e-01,1.75910e-01,-3.34041e-01,-1.08771e-01,-2.99219e-01,-2.41192e-03,-2.99618e-01,-9.98619e-02,
-1.86377e-01,-7.50779e-02,-1.79210e-01,-1.95298e-01,2.89050e-01,2.31969e-01,-3.09404e-01,-1.25696e-01,1.70391e-01,8.57354e-02,-1.73317e-01,
2.22746e-01,-1.39748e-01,1.25983e-01,1.72182e-01,-1.57224e-01,-1.23155e-01,-1.94695e-02,6.42340e-02,2.18875e-01,-2.01782e-01,-1.67415e-01,
5.31846e-02,-1.49924e-01,2.18981e-01,1.34329e-01,1.12390e-02,-3.14802e-01,-2.07125e-01,-1.44318e-01,-2.88513e-01,-2.50763e-01,1.17444e-01,
7.33957e-03,4.31605e-02,1.45231e-01,-9.04361e-02,-3.41510e-01,-1.50613e-01,2.22863e-01,-3.31578e-02,-1.94661e-01,1.48673e-02,1.76978e-01,
-2.41837e-01,-1.24047e-01,1.43965e-03,2.43004e-01,-1.95864e-01,3.08336e-03,-2.01866e-01,-2.45566e-01,-9.90082e-02,1.04929e-01,-2.42519e-01,
-2.30003e-01,-2.39814e-01,1.86179e-01,-4.35997e-02,-2.67733e-01,-8.75697e-02,-2.09093e-01,1.54754e-01,-1.29048e-01,-1.44824e-01,5.96786e-02,
-2.45757e-01,-3.77845e-02,-1.38495e-02,3.37527e-01,5.67965e-02,-7.18495e-02,-2.02480e-01,2.48069e-01,-9.75355e-02,-1.66646e-02,1.09247e-01,
-1.86357e-01,-4.20625e-02,-1.17579e-01,-1.26318e-01,2.76505e-01,2.53879e-02,-3.45847e-02,2.40840e-01,1.68255e-01,3.01023e-01,6.78079e-02,
-1.33401e-01,2.02222e-01,1.81009e-01,-2.27651e-01,1.81125e-01,2.80258e-01,1.02520e-01,-4.47053e-03,-2.16059e-01,2.10840e-01,-2.25684e-01,
2.05358e-01,1.89077e-01,-2.04601e-01,1.32335e-01,2.39197e-01,-2.32704e-01,8.93102e-02,2.09705e-01,1.62543e-02,-2.67610e-01,1.84356e-01,
2.61126e-01,2.39038e-01,-1.54726e-01,2.58036e-01,2.39809e-01,-5.94123e-02,-1.67525e-01,-2.42093e-01,8.89748e-02,-1.07392e-02,-2.58936e-01,
-2.87720e-02,1.22714e-01,-1.11492e-01,-1.49463e-02,1.69103e-01,1.32948e-01,1.12171e-01,1.21050e-01,3.00898e-01,3.31448e-02,2.61575e-01,
1.17858e-01,1.14082e-01,7.14774e-02,-3.80323e-01,-2.94011e-01,2.74714e-01,-1.89784e-01,2.26899e-01,9.20869e-02,2.97302e-01,1.93929e-01,
5.11455e-02,-5.32430e-02,-1.64425e-01,-1.90973e-01,8.07573e-02,-5.51585e-02,-1.15661e-01,-2.37067e-01,2.45578e-01,-1.39621e-01,3.34295e-02,
2.61539e-01,-1.57316e-02,-3.07674e-01,2.56153e-01,7.94431e-02,3.33906e-02,-3.33730e-01,-8.19720e-03,-3.38277e-02,4.58240e-03,1.05017e-01,
2.94746e-01,-1.06036e-01,5.71584e-02,2.74496e-01,2.64960e-01,-1.24959e-01,1.36370e-02,-1.51172e-01,1.87058e-01,-2.16046e-01,-1.29766e-02,
2.75382e-01,-1.21191e-01,2.04514e-01,-1.69054e-01,8.06483e-02,-1.32922e-01,-1.86818e-02,6.99526e-02,7.00175e-02,7.58102e-02,-2.75498e-01,
-1.28741e-01,1.01887e-01,-6.50761e-02,-2.73507e-01,-7.54763e-02,-1.84589e-01,2.72729e-02,2.81518e-01,-1.16155e-01,8.86814e-02,1.15659e-01,
3.85112e-01,-2.46536e-01,-3.83547e-02,-1.74620e-01,-3.32551e-01,3.10234e-02,-1.12343e-01,-5.93828e-02,-2.34572e-01,2.55691e-01,-5.08444e-02,
1.42619e-01,-1.52722e-01,-3.64649e-01,-2.09942e-01,3.17768e-01,-8.27149e-02,2.88230e-02,-2.69616e-01,2.97096e-02,-1.76735e-01,5.85700e-02,
-7.79670e-03,3.42978e-01,-1.41595e-02,2.45232e-02,-1.09285e-02,-2.26898e-01,1.20267e-01,-3.14662e-01,-1.90865e-02,1.14469e-01,5.59992e-02,
-1.17621e-01,3.58316e-01,-3.23372e-01,-2.92464e-01,-1.26787e-01,-8.79699e-02,1.86944e-01,-2.59817e-01,-2.66607e-02,5.91098e-02,-1.95112e-01,
1.60756e-01,-2.14826e-01,2.61848e-01,-2.28287e-01,1.13156e-01,-2.45977e-03,4.23151e-02,-1.52269e-01,-5.98317e-02,1.12325e-01,9.03485e-02,
-1.12808e-01,-3.24055e-01,3.38894e-01,-1.45237e-01,-2.11611e-01,-2.16281e-01,1.44234e-01,-1.53623e-01,4.66573e-02,1.22591e-01,-1.97003e-01,
-2.12865e-01,-1.96328e-01,-4.13712e-02,-3.28585e-01,-2.23503e-01,3.07499e-01,-1.79568e-01,2.98754e-01,2.24989e-01,2.64721e-01,-1.83593e-01,
1.79328e-01,1.44065e-02,3.32264e-01,2.34481e-01,-2.18257e-01,-2.80469e-01,-2.75499e-02,-7.23546e-02,1.46824e-01,-2.23236e-01,-2.65023e-01,
3.53237e-01,-2.43457e-01,2.51871e-01,-1.08145e-01,-2.80541e-02,-2.32467e-01,6.09791e-02,1.81544e-01,-7.29919e-02,2.52178e-01,2.78209e-01,
1.82333e-01,1.31059e-02,2.44410e-01,-1.36694e-01,-1.17638e-01,-3.04696e-02,-1.38076e-01,-4.63722e-02,2.82418e-01,2.35629e-01,-1.02632e-01,
-4.98011e-03,3.60199e-01,1.65887e-01,-3.70723e-03,9.88428e-02,-2.87625e-01,1.64081e-01,1.72541e-01,-8.43865e-02,2.90487e-01,1.72656e-01,
-2.99321e-01,1.54107e-01,-1.65622e-01,3.71600e-01,1.25734e-01,1.72629e-01,-2.83494e-01,-1.90120e-01,2.88756e-01,1.78619e-01,2.14792e-01,
2.92954e-01,-3.53513e-02,-2.12327e-01,8.30343e-02,-2.96801e-01,-1.17653e-01,2.69880e-01,-2.00548e-01,-1.62596e-01,2.56234e-01,2.09223e-01,
2.79079e-01,-1.47902e-01,-1.24274e-01,-6.89545e-02,-1.05970e-02,-4.42908e-02,-9.48065e-02,-6.32404e-03,-1.91806e-01,-1.11380e-01,6.33652e-02,
-2.14015e-01,-2.87659e-02,-1.69704e-03,1.08054e-01,-7.29302e-02,1.40091e-01,-3.08444e-01,9.81199e-02,2.68535e-01,-1.72620e-01,-2.84499e-01,
2.33179e-01,1.12646e-02,-1.45567e-01,-2.67642e-01,-2.30719e-01,-2.19923e-01,1.47569e-01,-2.63307e-01,-4.63678e-02,-6.16778e-02,-2.10903e-02,
2.06175e-02,-8.40712e-02,-1.86552e-01,-1.80827e-04,2.01482e-01,2.61050e-01,-2.74801e-01,-2.49314e-02,-1.62998e-01,-8.59254e-02,1.96387e-01,
8.99218e-03,-1.98522e-02,-4.26988e-02,2.84918e-01,-1.21806e-01,-2.08232e-01,-2.72842e-01,1.66679e-01,-8.11048e-02,1.11621e-03,-1.90134e-01,
1.95771e-01,1.62234e-01,-1.57702e-01,7.55334e-02,1.47753e-01,1.63234e-01,1.61250e-02,-2.69217e-01,3.56626e-04,-1.36641e-02,-2.14752e-01,
-2.82991e-01,-1.36580e-01,-3.61893e-02,-8.89127e-03,3.09818e-01,2.78691e-01,-1.80155e-02,-1.59212e-01,-1.26332e-01,-8.81113e-03,1.97996e-01,
-7.19411e-02,-1.90736e-01,-3.11081e-01,-2.95183e-01,1.61967e-01,3.05147e-01,1.07772e-01,1.30958e-01,7.28208e-03,-1.92734e-01,-4.92954e-02,
-1.39560e-01,-1.44716e-01,4.68220e-02,1.74443e-01,-1.37636e-01,-3.18997e-01,-1.11535e-01,-1.14278e-01,-6.53262e-02,2.50611e-01,9.99488e-02,
-1.66819e-01,2.68653e-01,-1.39534e-01,1.47592e-01,-2.59202e-01,-1.27030e-01,-2.75570e-01,-9.49132e-02,2.33208e-01,-2.46201e-01,1.89627e-01,
1.82457e-01,1.90278e-01,-4.24466e-01,-3.67661e-02,-2.34060e-01,-1.93149e-01,-2.18818e-01,3.35331e-01,-2.30028e-01,1.91905e-01,-2.17671e-01,
1.53493e-01,-4.26840e-02,-1.09661e-01,-1.32150e-01,2.30631e-01,-2.95270e-02,-1.62321e-01,-2.10036e-01,-1.68697e-01,1.23455e-01,-1.48694e-01,
1.99222e-01,2.85589e-01,1.43834e-01,-1.25178e-01,-6.16496e-02,1.73919e-01,-1.69647e-01,-2.73665e-01,-5.97217e-02,-1.25672e-02,2.28603e-01,
-2.04288e-01,-2.64398e-01,-1.27649e-01,-7.78980e-02,2.15258e-02,-1.41637e-01,-2.28747e-01,-5.31290e-02,-6.51241e-02,-3.41779e-02,-3.65873e-02,
-2.86668e-01,2.32311e-01,1.53947e-01,2.80605e-01,1.80703e-01,-2.24924e-01,3.15326e-01,1.41737e-01,-2.75648e-01,-2.65360e-01,1.28205e-02,
3.41963e-01,-7.67293e-02,3.61879e-01,-2.69579e-01,1.96087e-01,2.83742e-01,2.46278e-01,1.21809e-01,3.96954e-02,-6.35246e-02,7.07167e-02,
-3.28763e-01,-1.74284e-01,2.93076e-01,-1.65505e-01,1.68517e-01,-3.24125e-01,-1.20308e-02,-1.01691e-01,5.14123e-02,2.23435e-01,2.05762e-01,
1.61522e-01,-4.77669e-02,-3.08128e-01,-1.62807e-01,1.67813e-01,4.23377e-02,1.45934e-01,5.71671e-02,1.14004e-01,-2.75442e-01,-1.97113e-01,
-4.27947e-02,2.73478e-01,-2.19541e-01,-1.33509e-01,1.04510e-01,7.18440e-02,2.55110e-01,-2.79711e-02,-1.36581e-01,-1.40422e-01,1.50376e-01,
2.66673e-01,3.15772e-02,3.35216e-01,-3.46273e-01,1.41586e-01,-2.90486e-01,8.19615e-02,-1.44783e-01,-1.87877e-01,-2.49497e-01,1.17754e-02,
7.24741e-03,-1.42198e-01,-1.17298e-01,5.08518e-03,3.00610e-02,2.67715e-01,1.74474e-01,2.74851e-01,2.31790e-01,-2.94693e-01,7.67805e-02,
8.87538e-02,-5.21200e-02,1.52580e-01,1.95087e-01,-2.02927e-01,1.81037e-01,1.64771e-01,-1.07845e-01,1.96908e-02,-1.65328e-01,-2.26094e-01,
-2.38671e-01,-1.75229e-01,1.48167e-01,-2.87124e-01,-9.13981e-02,1.41505e-03,2.01444e-01,-9.98150e-02,2.10262e-01,2.54278e-01,2.00876e-02,
1.34734e-01,1.14729e-01,1.14309e-01,-2.37943e-01,-3.02171e-01,4.07818e-02,-4.97375e-02,1.05955e-01,-2.55936e-01,-1.81637e-01,9.57585e-02,
3.56204e-01,2.02302e-01,3.64157e-02,-5.12221e-02,-3.41924e-02,-2.42620e-01,-7.15565e-03,-1.05667e-01,-1.85093e-01,1.68105e-01,-4.89946e-02,
-3.90132e-01,-2.10701e-01,-1.21675e-01,7.08374e-02,2.69456e-02,3.86748e-03,-2.79680e-01,1.86267e-01,6.75204e-02,1.68568e-01,-6.12966e-02,
-1.99461e-01,-2.92384e-01,2.16092e-01,-6.23547e-02,2.32664e-02,1.68325e-01,-2.20319e-01,-2.53557e-01,6.38576e-02,1.29350e-01,-2.08663e-01,
-2.32042e-01,-2.64351e-01,3.44406e-02,7.86105e-02,9.49310e-02,1.24616e-01,-2.11424e-01,2.83524e-01,2.11956e-01,9.00108e-02,1.55380e-02,
-1.82115e-01,-1.70728e-01,-2.78232e-01,-7.10818e-02,-8.25142e-02,3.04637e-01,3.74136e-02,-7.16249e-03,2.02712e-01,-1.98656e-01,-2.10199e-01,
2.20648e-01,2.46676e-02,1.99912e-01,-2.73481e-01,-1.67896e-01,6.58876e-02,-1.63096e-01,-2.78577e-01,-1.89953e-01,-2.14217e-01,-2.17917e-02,
-3.66073e-01,-4.34433e-02,-3.10731e-01,-6.77355e-02,-2.41718e-01,-2.32989e-01,2.31350e-01,1.71356e-02,-2.73289e-01,-2.32095e-01,-2.00001e-01,
1.22003e-01,-9.47711e-02,-1.63262e-02,-3.34870e-01,-6.86748e-02,3.35872e-01,1.53722e-01,-1.74761e-01,-7.60707e-02,-2.78535e-01,6.95248e-02,
-3.63420e-01,-1.26164e-01,-3.35952e-01,-1.47986e-01,1.34125e-01,2.52564e-01,-2.35657e-01,1.50328e-01,2.50578e-01,2.59500e-01,2.03416e-01,
-1.30865e-01,-1.32958e-01,-1.79668e-01,-4.57807e-02,6.41132e-02,1.09158e-01,-1.94664e-01,-5.00370e-02,6.69660e-02,2.34818e-01,-1.89615e-01,
-2.64185e-01,-3.14912e-01,1.63460e-01,-2.97998e-01,6.32696e-02,-2.08487e-01,2.88011e-01,-4.36485e-02,-2.55045e-01,-1.52695e-01,-2.69712e-01,
-3.25291e-01,-7.17080e-02,-1.54591e-01,-9.23672e-02,1.50295e-02,-1.99878e-01,-1.33411e-01,2.90521e-01,7.46847e-02,-4.65436e-03,-2.40166e-01,
2.21342e-01,-1.56245e-01,1.21731e-02,2.33925e-01,3.23494e-01,2.15869e-01,1.32186e-01,2.76382e-01,-7.11996e-02,1.03725e-01,-1.79752e-01,
-3.25029e-01,-1.02997e-01,-7.97946e-02,1.85663e-01,8.36058e-02,-2.20329e-01,6.56730e-02,2.23393e-01,1.04542e-01,1.61088e-01,-6.26549e-02,
-3.36373e-01,2.65286e-01,-7.76687e-02,-4.08122e-02,1.06161e-01,-3.13569e-02,-1.80743e-01,-1.84780e-02,3.82176e-02,1.54545e-02,-8.11842e-02,
-1.55320e-02,-4.15596e-02,-3.04939e-01,1.10986e-01,-1.60698e-01,-2.75492e-01,3.63208e-01,-2.89141e-01,2.25186e-01,1.70648e-01,1.98475e-01,
-5.54405e-02,-1.94867e-01,-1.26785e-01,3.65537e-02,9.23089e-02,1.78741e-01,1.98828e-02,1.54353e-01,-5.22634e-02,-7.83578e-03,1.68439e-01,
2.00740e-01,-2.72871e-01,-1.49144e-01,-7.28937e-03,-7.44349e-02,3.28674e-01,-2.18073e-01,2.71622e-01,-3.49706e-02,1.92965e-01,-1.78078e-01,
-3.63746e-01,7.92189e-02,1.84264e-01,-1.32025e-01,1.50064e-01,2.05870e-01,-1.23855e-01,2.21951e-01,-1.14855e-01,-9.90402e-02,2.45761e-01,
-4.01242e-01,-4.63187e-02,1.36111e-01,2.55161e-01,-9.96270e-02,-5.28917e-02,-1.21248e-01,2.87141e-01,2.45927e-01,-2.06641e-01,2.66817e-01,
-3.45169e-01,2.11194e-01,-1.19226e-01,1.73450e-01,6.52933e-02,-3.53375e-03,-1.94369e-01,-1.21018e-01,1.46212e-02,-5.92370e-02,-2.87848e-01,
2.54375e-01,2.69990e-01,2.20106e-01,1.62698e-02,-1.99216e-01,-2.08130e-01,3.40914e-01,-3.94325e-02,-1.64592e-02,1.67189e-01,-4.14883e-02,
-4.51350e-03,1.34300e-01,-2.66310e-01,-2.98840e-01,2.12531e-01,1.72770e-01,-7.02946e-02,3.80489e-02,-3.33225e-02,8.85720e-02,-2.45886e-01,
-1.30316e-01,1.18378e-01,6.37008e-02,3.49723e-01,6.49164e-02,8.73576e-02,-1.36942e-01,1.07527e-02,5.89110e-02,5.60962e-02,-5.61569e-03,
2.05386e-01,-2.01633e-01,1.28345e-01,-3.18176e-01,-2.13953e-01,2.73475e-01,-6.17998e-02,1.47773e-01,-1.01149e-01,-2.93726e-01,8.77103e-02,
1.17295e-01,2.84232e-01,-3.20444e-01,-1.12412e-01,2.67084e-01,9.09660e-02,-9.08330e-02,-2.75767e-01,-1.38563e-01,-2.95852e-01,3.10100e-02,
4.39211e-01,1.77759e-01,3.42023e-01,-2.30145e-01,-2.46415e-01,-4.40337e-02,2.86966e-01,1.52045e-01,-1.55803e-01,1.14813e-01,2.85055e-01,
-1.11120e-01,-2.68478e-01,3.32301e-01,4.12776e-02,2.28349e-01,4.12821e-02,-3.47618e-02,-2.08019e-01,-1.00099e-01,-1.85083e-02,1.01202e-01,
-3.87818e-02,-3.70160e-01,3.00582e-01,1.82952e-01,1.20805e-01,-2.48494e-01,2.04096e-01,-2.48790e-01,8.72292e-03,2.22983e-01,3.64612e-02,
1.81389e-01,-2.96259e-01,2.53100e-01,2.06440e-01,-1.85073e-01,-1.52784e-01,-2.02251e-02,-7.59160e-02,2.83833e-01,1.93157e-01,2.05178e-01,
2.95697e-01,1.40820e-01,5.52078e-02,1.21759e-01,-1.06805e-01,-9.14396e-02,3.80438e-01,-2.46095e-01,-1.54725e-01,-2.82925e-01,-1.77060e-02,
-2.98991e-01,1.44131e-01,-4.14491e-01,-1.25802e-01,9.34299e-02,-1.47365e-01,5.63780e-02,-1.88758e-01,-1.42213e-01,1.63500e-01,-8.26891e-02,
3.28066e-01,-2.60963e-01,-1.58133e-01,-1.28600e-01,-3.28947e-01,-1.38784e-01,1.00792e-01,-1.01145e-01,1.32190e-01,-1.02216e-01,-7.04989e-02,
-3.57283e-01,2.89959e-01,-1.33173e-01,-2.93254e-01,2.13586e-01,4.00500e-02,3.16430e-02,-1.96425e-01,-1.75650e-01,2.71336e-01,2.04887e-01,
-1.08334e-01,-2.91101e-01,2.50356e-01,1.74807e-01,1.48389e-01,1.41135e-01,3.67335e-01,1.86883e-01,-2.06595e-01,1.31277e-01,-2.02224e-01,
1.10339e-01,-4.61532e-02,2.53383e-01,-1.14681e-01,-3.04245e-02,-1.10249e-01,-7.26039e-02,2.69230e-01,-1.83528e-02,-1.22630e-01,-9.99988e-02,
-3.55293e-01,-1.63100e-01,1.11411e-01,1.23497e-01,9.80121e-02,-2.44954e-01,2.47346e-01,-2.40320e-01,1.51486e-01,-5.45877e-02,2.70524e-01,
3.70282e-01,-3.87231e-02,-1.22991e-01,-3.69993e-01,-2.48138e-01,-7.28163e-02,-3.88295e-02,1.88117e-01,2.05219e-01,8.98296e-02,-3.54178e-02,
2.48759e-01,-2.45101e-01,3.38863e-01,4.49934e-02,-5.90520e-02,-2.75021e-01,-2.06065e-01,-1.12309e-01,-9.35955e-03,-2.76030e-01,-2.11055e-01,
-3.05036e-01,2.25843e-01,-3.41524e-01,-2.49569e-01,2.52759e-01,-3.07535e-02,-2.72771e-01,-6.84437e-02,1.82624e-01,-2.16599e-03,-5.89784e-02,
7.28680e-02,2.79639e-01,9.40945e-02,1.34271e-01,-2.64037e-01,2.47694e-01,-5.92665e-02,-1.19421e-01,8.95916e-02,1.47208e-02,5.79027e-02,
-6.23348e-02,5.21691e-02,-1.67184e-01,7.77636e-02,2.42259e-01,1.34892e-01,-2.91501e-01,1.49022e-01,1.94145e-01,-1.83552e-01,-2.10101e-01,
-1.57599e-01,2.89310e-01,-2.72420e-01,2.70086e-01,-1.90301e-01,-1.98744e-01,-2.08376e-01,8.74203e-02,-2.57558e-01,-1.08468e-01,2.76207e-03,
2.14436e-01,2.29362e-01,-3.26462e-01,-2.00892e-01,1.20373e-01,2.50939e-01,2.09541e-01,-1.52585e-01,-8.22101e-02,1.57078e-01,1.62094e-01,
-4.01543e-01,-3.24415e-01,-2.85841e-01,-7.18935e-02,1.40069e-01,1.79338e-01,-7.20741e-02,2.82125e-02,1.20801e-01,-1.33983e-01,2.04321e-03,
-1.97019e-01,1.62109e-01,-1.18916e-01,3.44570e-01,1.69183e-01,-3.15587e-02,4.81218e-02,2.23502e-01,3.68782e-02,1.61561e-01,2.65389e-01,
-5.73617e-02,-5.23540e-02,3.98896e-01,2.53487e-01,2.43966e-02,9.46296e-02,1.79443e-01,9.89156e-02,1.93353e-01,1.12076e-02,-6.86045e-02,
-1.54616e-01,1.87720e-01,-8.91164e-02,-1.92180e-02,1.82504e-01,-1.85153e-03,-1.46314e-01,-3.52827e-01,-2.78773e-01,1.04570e-01,1.97625e-01,
7.99875e-03,1.66049e-02,-2.57917e-01,1.58233e-01,1.64940e-02,1.02190e-01,-9.96359e-02,2.69035e-01,1.91852e-01,-1.97695e-01,1.26459e-01,
-6.36656e-02,1.37259e-02,2.54574e-01,-2.50920e-01,1.58982e-01,2.16518e-02,-3.21069e-01,1.31257e-02,-2.03695e-01,-1.49382e-01,9.78698e-02,
3.61809e-01,1.94000e-01,1.95538e-01,-1.27003e-01,-9.12089e-02,3.34951e-02,1.31094e-01,-1.05091e-01,9.93821e-02,-1.08043e-01,2.71747e-01,
-2.07612e-01,-3.56891e-01,1.48578e-01,1.23330e-01,1.76768e-01,-2.27192e-01,1.94562e-01,-2.71707e-01,2.97380e-01,-2.23467e-01,-5.92989e-02,
-2.17720e-01,-2.35573e-01,-1.71032e-01,-3.35038e-01,-3.46383e-01,-1.87960e-01,-3.86174e-01,-2.77692e-01,9.54210e-02,2.54595e-01,4.62853e-02,
-2.28493e-01,-2.36592e-01,-2.71032e-01,2.96639e-01,-5.34581e-03,-1.01489e-01,-3.34990e-01,-3.00795e-01,-5.22039e-02,6.77644e-02,-7.02998e-02,
-1.66933e-01,-3.15024e-01,3.49347e-02,-3.16395e-01,-1.41374e-01,2.38812e-01,1.66829e-01,-2.18612e-01,2.08225e-01,5.13319e-02,-2.73108e-01,
-2.87653e-01,4.27463e-02,-2.29758e-01,-3.01063e-01,-1.74104e-01,-1.27812e-01,2.36433e-01,-1.17040e-01,-1.63137e-01,-1.42575e-01,1.43508e-01,
3.52301e-01,2.10599e-03,3.13198e-01,-3.38933e-02,2.51160e-02,7.38864e-02,3.39692e-01,3.74224e-02,8.03326e-02,2.79629e-01,-1.68087e-01,
3.54151e-01,3.53175e-01,2.58251e-01,-3.30562e-02,-5.43651e-02,-1.29209e-01,2.38605e-01,-5.25814e-02,5.05321e-02,3.00984e-01,-1.85981e-01,
2.55148e-01,-1.72557e-01,2.09639e-01,3.23999e-01,7.23463e-02,2.57683e-01,1.81395e-01,-1.78977e-01,2.01003e-01,-2.27288e-01,2.19255e-02,
1.21344e-01,-1.15539e-01,2.28341e-01,3.05006e-01,1.26075e-01,-1.00820e-01,2.03572e-02,-1.37917e-01,1.49128e-01,2.61635e-02,2.09612e-01,
-5.54592e-02,3.68691e-01,-3.98666e-01,2.59470e-01,-4.00634e-02,-2.62582e-01,1.07369e-01,1.03483e-01,-2.55208e-01,1.37842e-02,5.76341e-02,
1.31730e-01,1.09249e-01,-2.69101e-01,-2.71122e-01,-9.27689e-02,-1.47256e-01,-1.45036e-01,-1.29500e-01,-1.33731e-01,2.73080e-01,-5.09682e-02,
8.12793e-02,1.39401e-01,8.00146e-02,1.43266e-01,-3.42544e-01,-2.25297e-01,3.14533e-01,2.36013e-01,1.36784e-01,-1.49329e-01,1.51212e-01,
-2.56560e-01,6.41510e-02,1.73058e-02,6.16822e-02,-8.14708e-02,2.20645e-01,-2.80750e-01,1.74170e-01,-1.71872e-01,-2.26830e-01,-8.17501e-03,
1.32229e-02,1.88238e-01,-3.54903e-01,-3.38901e-01,5.22602e-02,-1.97178e-01,1.58100e-02,-1.10175e-01,-1.01743e-01,3.29816e-02,8.97706e-02,
-3.61479e-02,2.98964e-01,3.24102e-01,3.04712e-01,-2.02764e-01,2.70130e-01,1.58064e-01,-8.33228e-03,5.88012e-02,-3.64634e-02,-2.85270e-01,
1.51902e-01,1.42607e-01,-9.22524e-02,1.25987e-01,5.05532e-02,3.06304e-01,3.32420e-02,1.40516e-01,1.51776e-01,-1.86311e-01,-4.75302e-02,
2.83283e-01,2.54775e-01,3.70996e-01,2.55972e-01,5.28817e-02,2.84331e-03,3.14215e-01,-6.98681e-03,3.61362e-02,2.91364e-01,1.81052e-03,
-1.57767e-01,-2.56090e-01,-1.76853e-01,8.73301e-02,-1.19991e-01,1.18846e-01,-3.10427e-01,1.26730e-01,-1.73662e-01,-2.71076e-01,-1.98039e-01,
8.11198e-02,8.52276e-02,-1.60434e-01,-3.16155e-01,1.25200e-01,2.03318e-02,-3.28968e-01,-1.10147e-01,-7.96135e-02,-6.44256e-02,8.88382e-02,
-2.97584e-01,-9.10395e-02,-7.76800e-02,-2.58906e-01,2.95946e-01,-7.29998e-02,-4.54763e-02,2.99825e-01,-2.21046e-01,9.00733e-02,2.97937e-01,
-2.11321e-01,-8.88387e-02,-2.01294e-01,-1.14044e-02,1.16516e-01,8.58360e-02,-1.64037e-01,-1.94832e-01,-1.62940e-01,-1.26961e-01,-5.44362e-02,
-3.76454e-01,-2.89557e-01,7.88669e-02,-2.00758e-01,6.42392e-02,2.64823e-01,-6.20616e-02,-2.58172e-01,-1.80459e-01,-2.81298e-01,3.67226e-03,
-3.11811e-02,8.76902e-02,-1.19440e-01,-8.29995e-02,1.51890e-01,-1.10479e-01,-3.15467e-01,-6.86740e-02,1.62822e-04,-4.36366e-02,6.08669e-03,
-2.97334e-01,-2.04100e-01,-2.23371e-01,2.20412e-02,1.75665e-01,-8.48964e-03,2.29832e-01,3.29834e-01,-2.18188e-02,1.88823e-01,2.45158e-01,
1.97277e-01,-1.23767e-01,-1.12865e-02,1.75557e-01,-3.35896e-01,-2.20269e-01,-2.24379e-01,-1.85793e-01,2.75266e-01,2.58420e-01,-1.34791e-01,
1.91387e-02,2.52902e-01,-1.69502e-01,1.97895e-01,-2.36214e-02,3.16339e-01,-3.48361e-02,2.56568e-01,-1.83599e-01,1.90067e-01,2.65187e-01,
1.21901e-01,-1.39759e-01,3.04603e-01,-8.06464e-02,-3.86668e-02,-1.08389e-01,-2.02987e-01,1.47134e-01,-2.20269e-01,-2.23055e-01,2.20774e-01,
2.85286e-01,1.80432e-01,2.21720e-01,-3.87650e-01,-3.71579e-04,1.29836e-01,5.17424e-02,1.48493e-01,2.04744e-01,-1.56194e-01,-9.64487e-02,
-1.99174e-01,-9.87156e-02,1.25180e-02,-1.96046e-01,-2.91461e-01,-1.51865e-01,1.77790e-01,-1.14566e-01,-2.05590e-03,1.70667e-01,-9.82932e-04,
1.08115e-01,2.71153e-01,-3.60634e-01,7.49064e-02,2.15937e-01,1.71982e-01,-3.36840e-01,-1.33088e-01,2.19527e-01,-1.98884e-01,-1.37002e-01,
9.09645e-02,2.20665e-01,-3.60097e-01,3.08311e-01,-1.25655e-01,3.24835e-02,1.21311e-01,1.82798e-01,1.57084e-01,1.28908e-01,2.52532e-01,
-2.52516e-01,-2.45498e-01,2.36657e-01,-2.29450e-01,7.90565e-02,-2.35737e-01,3.11535e-01,2.61181e-01,-6.10359e-02,-9.46258e-02,9.41577e-02,
2.86593e-01,3.33281e-01,2.55740e-01,-1.81891e-01,2.60871e-01,-1.21220e-01,2.61303e-01,2.56443e-02,4.07628e-02,1.53315e-01,1.66503e-01,
5.85220e-02,-2.37428e-01,-2.07527e-02,2.27681e-01,-2.74295e-01,-4.99388e-02,6.95977e-02,8.15714e-02,2.83360e-01,-2.79499e-01,1.70327e-01,
3.89937e-01,3.01570e-01,3.00334e-02,-1.87475e-01,-2.28016e-01,-4.70577e-03,2.35259e-01,-1.88041e-01,-2.32323e-01,-2.86159e-01,2.12351e-01,
1.24685e-02,-3.81997e-02,2.56975e-02,-3.30082e-01,-1.83813e-01,2.76652e-01,-2.91408e-01,3.00727e-01,2.32176e-01,1.44979e-01,1.11885e-01,
-2.77965e-01,7.51208e-02,3.04399e-01,-2.92563e-02,-1.00787e-01,2.89047e-01,3.08950e-01,-2.15399e-01,2.78401e-01,5.71963e-02,1.18864e-01,
-6.23605e-02,-2.34737e-01,9.64346e-02,1.20771e-01,2.53006e-01,-2.29516e-01,1.34123e-01,2.17017e-01,7.40948e-02,2.42110e-01,1.88109e-01,
3.39977e-01,-1.23037e-02,3.33019e-01,4.07254e-02,9.99862e-02,-9.60923e-02,-2.38579e-01,-1.82304e-01,2.32472e-01,-2.50114e-02,2.73230e-01,
-5.30298e-02,2.51474e-01,-1.34453e-02,2.27952e-01,1.88985e-01,-2.73955e-01,1.12939e-01,-2.72299e-01,2.34748e-01,2.25696e-01,-4.20277e-03,
1.87079e-01,1.80215e-01,-1.01655e-01,6.13802e-02,1.57768e-01,-1.00562e-01,-2.88059e-01,-1.61779e-01,7.99715e-02,-2.12098e-01,-1.13562e-01,
6.44618e-02,-2.66541e-01,-1.59658e-01,-1.74657e-01,5.63241e-02,-7.04915e-03,1.36097e-01,2.87607e-01,2.48735e-01,1.67047e-02,-4.49831e-02,
-2.68084e-01,3.08180e-01,-2.07905e-01,3.33422e-01,-7.12211e-02,-1.53661e-01,3.13089e-01,2.02130e-01,-2.33139e-01,-1.68928e-01,2.66069e-01,
-1.30272e-01,1.83181e-01,1.26156e-01,2.44500e-01,-1.71898e-01,-3.21077e-01,2.83583e-01,1.95762e-01,2.21023e-01,2.47177e-02,-2.10704e-02,
3.67353e-01,-2.70131e-01,1.52239e-01,-5.30701e-03,-3.68895e-01,-1.04126e-01,-2.69066e-02,1.26649e-01,1.76306e-01,-5.08200e-02,6.41186e-02,
-1.19887e-01,-5.28496e-02,3.50126e-01,3.07981e-02,-4.02316e-02,-1.25275e-03,1.53338e-01,2.40474e-01,1.87570e-01,4.39673e-02,2.54504e-02,
3.97997e-02,-3.37715e-01,-2.55503e-01,1.05457e-01,6.73178e-02,2.39309e-01,-1.62613e-01,8.15214e-02,-2.55511e-01,1.57190e-02,1.14091e-01,
1.54174e-01,-1.11340e-01,1.31659e-01,3.10827e-01,7.98363e-02,3.49260e-02,1.07603e-01,8.71858e-02,-7.06718e-02,1.64507e-01,9.61862e-02,
-1.50895e-02,-2.93724e-01,1.82416e-01,2.10706e-01,7.93044e-02,-2.02889e-01,5.86532e-03,-2.30030e-01,2.11096e-01,-1.22896e-01,-2.89052e-01,
3.20474e-01,1.53786e-01,2.45984e-01,-1.05600e-01,-1.40727e-01,-1.25899e-01,2.57799e-02,4.12853e-03,6.05940e-02,-9.23725e-02,1.77843e-01,
-2.19037e-01,-1.58390e-01,-1.22256e-01,3.07981e-01,4.37262e-02,-1.63970e-01,-1.45680e-01,-2.48523e-01,-2.80594e-01,9.73971e-02,-8.49706e-02,
-1.52385e-02,-2.73547e-01,6.87811e-02,2.09368e-01,-4.67340e-02,-2.72318e-01,5.28513e-02,6.62282e-02,-2.91798e-01,2.33700e-01,8.02153e-03,
2.01987e-01,1.82459e-01,-1.93821e-01,2.26823e-01,9.86259e-02,-2.79986e-01,2.97820e-01,-1.25289e-02,2.99997e-01,5.21675e-02,1.02274e-01,
-2.62095e-01,3.35593e-01,-3.16898e-01,-2.95334e-01,-7.37564e-02,-2.97084e-01,-3.31838e-01,1.52914e-01,-2.39656e-01,-1.46372e-01,2.33001e-01,
-3.15700e-01,-4.47974e-03,-2.19107e-01,-9.31123e-02,-3.19425e-01,-4.39843e-03,5.28095e-02,-1.43090e-01,-6.97035e-02,-1.81597e-01,-2.12366e-01,
-2.73886e-01,1.29950e-01,2.93917e-01,3.05987e-01,4.88126e-02,-1.53614e-01,1.40882e-01,-2.10842e-01,2.38884e-01,-1.68686e-02,-2.83478e-01,
-2.32671e-01,2.81082e-01,-2.49460e-01,-3.18987e-01,1.65514e-01,3.38555e-01,-2.80194e-01,-2.28444e-01,2.50073e-01,1.43033e-01,-5.53269e-02,
2.24729e-02,-2.00553e-01,-3.16042e-01,-1.84572e-02,-1.70922e-02,3.07423e-01,1.69060e-01,2.16921e-01,2.54265e-01,2.26163e-01,-2.32249e-01,
-2.01029e-01,-5.04421e-02,2.50730e-01,2.68043e-01,-2.08739e-01,5.92132e-02,3.21186e-01,1.55971e-01,2.81720e-01,-2.98792e-01,-1.86940e-01,
2.39683e-01,-2.69928e-01,-4.15020e-01,1.32973e-01,3.19476e-01,-9.93465e-02,9.96989e-02,-9.44625e-02,5.99666e-02,2.22756e-01,1.40551e-01,
1.13558e-01,-6.49828e-02,-1.57191e-01,1.06388e-01,-1.07374e-01,-1.19490e-02,-3.00494e-01,2.02426e-01,-9.31535e-02,-2.78645e-01,-2.99225e-03,
-2.58793e-01,8.58252e-02,1.34854e-01,-2.91769e-01,1.49198e-01,-5.38975e-02,3.11712e-01,2.64724e-01,2.92776e-01,2.98389e-01,-2.28105e-01,
2.60127e-01,-6.77017e-02,2.96246e-01,1.04837e-01,-1.45270e-02,-2.47126e-02,-9.83952e-02,-2.95546e-02,-8.14572e-02,2.49452e-01,-5.15446e-02,
5.18201e-02,-2.55662e-01,-1.16884e-01,-1.14032e-01,3.03313e-01,-2.26776e-01,6.64946e-02,-9.68652e-02,1.27174e-01,3.62011e-02,2.71396e-01,
7.42463e-02,1.55518e-01,1.54596e-01,2.35892e-01,2.07040e-01,3.10672e-01,-1.51018e-01,-1.12949e-01,-5.20850e-02,2.33309e-01,2.23319e-01,
-2.91402e-01,-2.98804e-01,2.25004e-01,4.12106e-01,2.36015e-01,-4.06403e-02,-2.55401e-01,-1.56181e-01,-2.26692e-01,-9.55711e-02,-7.97340e-02,
2.05006e-01,-2.91002e-01,5.89231e-02,1.65867e-01,2.64445e-01,1.76725e-01,-8.55375e-02,9.00028e-02,-1.47183e-01,1.11633e-01,-1.43313e-01,
-2.07225e-01,-2.03677e-01,-7.03029e-02,2.19390e-01,-1.56748e-01,-1.52180e-01,-3.29306e-01,7.29856e-02,-2.40922e-01,2.61278e-01,-1.21321e-01,
1.90973e-01,2.00094e-01,1.27073e-01,-9.18211e-02,1.28890e-01,-1.86658e-03,-4.99141e-02,2.69126e-01,-2.74093e-01,-1.19649e-02,-1.77973e-01,
-1.75132e-01,-8.91617e-03,3.36929e-01,-1.56074e-01,-2.34943e-01,-2.37099e-01,3.10990e-01,-2.20574e-01,2.72901e-01,-8.22550e-02,1.96289e-01,
-1.91091e-01,8.32154e-02,-2.70717e-04,-2.74522e-01,-2.50743e-01,-1.85471e-01,1.18145e-01,-2.72427e-01,9.73774e-02,-1.86350e-01,-2.42067e-01,
-2.56233e-01,1.88181e-01,-1.53553e-01,2.43582e-01,-4.84480e-02,9.32917e-02,3.75841e-02,2.73069e-01,-1.90113e-01,-1.83420e-01,-1.02408e-02,
2.00216e-02,1.97468e-01,-3.97786e-01,-3.52588e-01,3.29962e-02,2.08936e-01,-1.65692e-01,-8.19061e-02,-1.62516e-01,1.43765e-01,9.20995e-02,
1.88127e-01,5.27601e-02,-2.25948e-01,-9.75778e-02,-9.29142e-02,4.95172e-02,-1.51236e-01,1.84123e-02,3.62208e-02,-7.61101e-02,-1.66941e-01,
3.50132e-01,-2.18862e-01,2.84407e-01,3.57459e-01,-2.93150e-01,-1.54232e-01,-1.21502e-01,-3.01915e-01,-1.41628e-01,1.77879e-01,-3.53879e-02,
-2.87941e-01,2.12833e-01,-8.26519e-03,-2.69761e-01,1.06317e-01,3.01548e-01,2.21070e-01,-2.34581e-01,-1.60427e-01,-1.54181e-01,9.90454e-02,
-1.55807e-01,-3.14929e-01,-4.37727e-02,-2.89443e-01,-2.75803e-01,2.53353e-01,3.41338e-03,3.25546e-01,-9.62157e-04,2.61484e-02,-8.09365e-02,
-4.26577e-02,2.06345e-01,2.39968e-01,1.54522e-01,-3.03382e-01,6.91727e-03,6.13004e-03,-2.03480e-01,8.05518e-03,2.53168e-01,-1.95222e-01,
-2.48579e-01,-3.27309e-01,-1.15169e-01,-1.61930e-01,1.45791e-02,-5.86882e-02,1.31835e-01,6.40821e-02,5.37547e-02,-9.86550e-02,-8.36313e-02,
-1.27885e-01,2.17377e-01,-3.33973e-01,2.62157e-01,1.68557e-01,-8.61024e-02,-2.94477e-01,-8.67824e-02,-1.53830e-02,-1.16489e-01,-6.88437e-02,
-3.44672e-02,-1.79839e-01,-7.36269e-02,6.57756e-02,-1.25664e-02,1.49353e-01,-1.82053e-01,4.72626e-03,2.35568e-01,-1.81900e-01,1.75290e-01,
1.54728e-01,-1.76795e-01,-2.13935e-01,2.68174e-01,-8.04489e-02,-3.14914e-01,1.54541e-01,8.92168e-02,-1.18935e-01,1.18966e-01,-9.77262e-02,
-1.78717e-01,3.41560e-01,7.06756e-03,1.81680e-01,-3.23109e-02,-1.85152e-01,-8.75867e-02,2.33699e-01,1.01708e-01,2.85656e-01,2.71016e-01,
8.40720e-04,1.03562e-01,-1.59208e-01,-1.21449e-01,-2.64464e-01,-1.12689e-01,1.70094e-01,-9.24028e-02,1.58880e-01,-3.91764e-02,2.48573e-01,
3.93743e-01,2.23790e-01,-2.25162e-02,-6.41550e-02,-2.24654e-01,2.50083e-02,6.77807e-02,-4.23183e-02,-2.29557e-02,7.10222e-03,-2.96990e-01,
-1.54104e-01,-6.52228e-02,-1.78177e-01,-1.24943e-01,6.21550e-02,3.52036e-03,-2.78761e-01,-1.78493e-01,-7.25690e-02,-9.70695e-02,-2.00695e-01,
1.40908e-01,-9.20247e-02,-1.75001e-01,-1.96658e-01,-1.86175e-01,2.56972e-01,1.18784e-01,-5.57373e-03,2.96690e-01,4.05128e-02,2.60688e-01,
1.86053e-01,-2.74129e-01,-3.19750e-01,7.69254e-02,1.77540e-01,-2.44930e-01,2.45990e-01,2.39430e-01,-9.34033e-02,2.00711e-02,2.16266e-01,
-1.63637e-01,-4.48074e-01,6.59342e-02,-1.82735e-01,-7.96366e-02,-1.71668e-01,1.72051e-01,-7.97989e-02,-1.76221e-01,-1.70227e-01,-2.35773e-01,
-2.85489e-01,-2.47413e-01,-9.69576e-02,2.44437e-01,-2.19627e-01,2.35574e-01,2.22624e-02,-8.73522e-02,-1.48319e-01,-5.62097e-02,-4.61119e-02,
-3.59991e-01,-3.33648e-01,1.33170e-01,2.83169e-01,8.78497e-02,4.66130e-02,2.37176e-01,-1.03938e-01,-1.59906e-01,-1.86072e-01,2.32509e-01,
-2.55842e-01,7.63166e-02,1.24023e-01,-2.43538e-01,3.05032e-01,1.54292e-01,-1.00989e-02,2.57133e-01,1.88971e-01,2.91669e-01,2.17117e-01,
-2.25431e-01,
-1.98188e-01,
3.72979e-01,
-1.28261e-01,
2.36828e-02,
3.68211e-02,
3.29199e-01,
1.93836e-01,
1.87805e-01,
1.96685e-01,
-1.92480e-01,
2.69394e-01,
2.18124e-01,
-1.92706e-01,
3.01869e-01,
-3.46830e-02,
1.47423e-01,
1.99013e-01,
-1.43872e-01,
-1.08420e-01,
-2.48968e-01,
2.91657e-01,
-2.24436e-01,
-2.17643e-01,
1.76316e-02,
3.03182e-03,
-1.61058e-01,
-9.45442e-02,
1.49730e-02,
-1.58777e-01,
-1.35598e-01,
1.85455e-01,
3.33248e-02,
-2.27223e-01,
3.34660e-01,
5.19601e-02,
-1.17730e-01,
-1.80945e-01,
1.42422e-01,
-1.53057e-01,
1.03961e-01,
1.54174e-01,
2.09552e-01,
1.07590e-02,
-1.98776e-01,
1.80202e-01,
1.71241e-01,
2.40913e-01,
-1.48297e-01,
2.39228e-01,
-1.96640e-01,
-1.66480e-01,
1.20102e-01,
2.81103e-01,
-1.10047e-01,
3.58434e-01,
3.66990e-01,
-2.38372e-01,
3.54066e-02,
2.12889e-01,
-1.27286e-01,
1.89393e-01,
2.84384e-01,
2.89530e-01,
-2.50473e-01,
-2.46876e-01,
-2.76954e-01,
-2.90678e-01,
-2.26747e-02,
-1.46069e-01,
4.68710e-02,
1.70248e-01,
2.05744e-01,
-8.18395e-02,
-1.85336e-01,
-1.01020e-01,
-7.67353e-02,
7.50305e-03,
-1.74335e-01,
-1.34005e-01,
-1.86430e-01,
-2.42425e-01,
8.61350e-02,
1.48698e-01,
-1.80100e-01,
1.95842e-01,
-2.57393e-01,
-1.68215e-01,
1.80136e-01,
3.21265e-01,
2.54309e-01,
6.65685e-02,
-5.92388e-02,
1.33292e-03,
-2.85082e-01,
-3.78476e-02,
1.40619e-01,
-2.33279e-01,
-3.38808e-02,
2.24500e-01,
3.16592e-02,
7.26921e-02,
3.07249e-01,
-2.12685e-01,
-1.04429e-01,
-2.23682e-01,
2.04344e-01,
8.25250e-03,
-2.61640e-01,
-1.35382e-01,
2.40761e-01,
7.16853e-02,
2.74798e-01,
-1.39686e-01,
-1.82273e-01,
2.57643e-01,
-4.21560e-02,
2.67275e-01,
-3.78909e-02,
-1.86466e-01,
-2.31366e-01,
2.18958e-01,
-1.28774e-01,
-1.92485e-01,
-7.48015e-02,
1.27104e-01,
-2.31482e-02,
1.55585e-01,
2.46337e-01,
-1.39254e-01,
7.38511e-02,
4.65667e-02,
-6.93159e-02,
-1.78391e-01,
5.20012e-02,
9.11020e-02,
-1.78783e-01,
-1.99582e-01,
3.00006e-01,
-2.31783e-01,
2.18311e-02,
6.82334e-02,
-3.79829e-02,
1.91336e-01,
2.39601e-01,
4.31061e-02,
1.49033e-01,
4.72893e-02,
3.01760e-01,
-3.67995e-02,
-2.06024e-01,
-3.87527e-02,
4.22331e-02,
2.28292e-01,
3.05618e-02,
-4.93750e-02,
-2.28599e-01,
-1.91461e-01,
-2.02139e-01,
-7.57567e-02,
3.04462e-01,
-1.06104e-01,
2.72809e-01,
2.18893e-01,
-1.36151e-01,
8.96021e-03,
1.41832e-02,
1.00447e-01,
2.63035e-02,
-1.15908e-02,
-1.43160e-01,
1.72576e-02,
-1.93264e-01,
2.83557e-01,
6.06153e-02,
1.02736e-01,
2.83697e-01,
-2.21165e-01,
1.57224e-01,
-1.49676e-01,
-2.64071e-02,
-5.41206e-02,
2.33652e-01,
-1.25204e-01,
3.42946e-01,
5.63422e-02,
1.73643e-01,
1.64816e-01,
3.16406e-01,
1.54994e-01,
1.95373e-01,
-4.96519e-02,
-6.30312e-02,
2.14943e-01,
1.38296e-01,
1.59954e-01,
-6.20661e-02,
1.97975e-01,
-1.04632e-01,
1.57650e-01,
2.13405e-01,
2.87338e-01,
-5.01972e-02,
1.69840e-01,
-7.30120e-02,
-7.27460e-02,
-1.87320e-01,
-2.64426e-01,
-2.11969e-01,
-2.24603e-01,
-9.27952e-02,
-2.60550e-02,
-2.82735e-01,
-1.39232e-01,
1.19707e-01,
-2.21467e-01,
-1.70782e-01,
-2.05865e-01,
5.99053e-02,
1.15615e-01,
2.33227e-01,
-4.00322e-02,
2.75179e-01,
-1.95329e-01,
1.34083e-01,
2.98705e-01,
2.86153e-01,
2.50581e-01,
1.61748e-01,
-1.89544e-01,
-1.37771e-01,
-9.67861e-02,
-3.15674e-01,
1.13668e-01,
-2.73093e-01,
-1.21649e-01,
2.77746e-01,
1.65958e-01,
1.36261e-02,
-6.43585e-02,
4.29351e-03,
-1.90324e-01,
-1.91126e-01,
1.69539e-01,
-2.50236e-01,
-2.62544e-01,
2.68391e-02,
1.27635e-01,
2.50180e-01,
1.89914e-01,
-4.35683e-02,
-6.17312e-02,
1.97464e-01,
-1.57321e-01,
2.49687e-02,
-2.29993e-01,
3.86905e-02,-2.92302e-02,9.07411e-02,4.40536e-02,4.10630e-02,-7.62606e-03,-6.24038e-02,-4.45835e-02,3.18028e-02,-2.68059e-02,4.76456e-02,7.83422e-02,-7.91862e-03,6.94339e-02,-7.50736e-02,7.79547e-02,-7.03004e-02,-1.05558e-01,7.50775e-02,-2.55548e-02,1.30390e-01,-4.46240e-02,4.06786e-02,-8.60890e-02,-1.06725e-01,-1.11854e-01,-1.26715e-03,-2.60355e-02,6.30723e-02,1.24312e-04,-6.04713e-02,-4.88603e-02,-2.64469e-02,1.06592e-01,-6.34195e-02,-1.04410e-01,1.21581e-01,9.86307e-04,-1.36604e-01,5.24673e-02,9.54193e-02,-2.46958e-02,2.65389e-02,3.74843e-02,1.62850e-03,4.86685e-02,-7.65466e-02,-4.95468e-02,1.16635e-02,-5.35943e-02,8.47280e-02,-5.22828e-02,-3.33816e-03,-4.48331e-02,5.48192e-02,1.19851e-02,-1.01693e-01,-4.30662e-03,4.00029e-02,4.14603e-02,-2.56614e-02,-2.57676e-03,-4.22366e-02,-4.34468e-02,-6.71869e-02,4.68021e-02,-3.03294e-04,2.91668e-02,-4.73482e-02,-2.87543e-02,7.70434e-02,5.72451e-02,-3.56070e-03,-8.74711e-03,9.30499e-02,-1.96439e-02,8.66140e-02,-8.66673e-03,-2.26384e-02,-2.97197e-02,6.10058e-02,5.03944e-02,-5.89699e-02,1.18838e-03,8.24542e-02,8.69055e-02,5.11472e-02,-5.65533e-02,1.05077e-01,3.79260e-02,-9.36218e-02,-1.00194e-02,1.97219e-02,-9.93094e-02,-5.11322e-02,3.50490e-03,-1.15403e-02,-8.48368e-02,-2.99398e-02,-8.36788e-02,3.97238e-02,8.13510e-02,-1.26967e-01,1.05141e-01,4.10319e-02,-1.09091e-01,7.17706e-02,2.50723e-02,5.89472e-02,-1.86185e-02,8.75288e-02,-4.97185e-02,3.41458e-02,6.04784e-02,2.26162e-02,-1.23881e-01,-9.45626e-02,-4.24912e-02,1.25775e-02,-5.97221e-02,9.52326e-02,-7.92605e-02,-7.08522e-02,-1.53701e-01,2.04479e-02,1.32225e-03,-7.94182e-03,-1.64186e-02,-2.69982e-02,5.92289e-02,6.01014e-02,-2.74203e-02,-6.25668e-02,5.03685e-02,1.39946e-01,5.17794e-02,2.97002e-02,9.29635e-02,6.72401e-02,9.17069e-02,-1.68091e-02,5.76029e-02,4.36844e-02,2.33833e-02,3.47839e-02,2.28127e-02,-2.43971e-02,-4.20178e-02,1.06980e-02,1.77220e-02,1.02191e-01,2.87566e-02,-7.80447e-02,9.77348e-02,3.50823e-02,-5.76168e-02,1.05926e-01,-3.49478e-02,6.81583e-02,-1.19968e-01,-4.32752e-02,1.16459e-01,3.98308e-02,9.00468e-02,-1.07523e-01,-7.15314e-02,-1.07923e-01,-1.33716e-01,-5.94435e-02,1.19010e-01,1.60609e-01,-2.39087e-03,-4.32763e-02,-6.45043e-02,-2.28313e-02,8.32292e-02,-9.11298e-02,-6.95776e-03,2.54392e-02,6.05238e-02,1.61193e-01,-6.92548e-02,2.88138e-02,-7.24511e-02,-1.18454e-01,-9.58653e-02,-3.69233e-02,-6.58080e-02,5.38161e-02,3.97146e-02,-1.45391e-02,1.12659e-01,-3.35262e-03,-5.90143e-02,4.07381e-02,-1.14714e-01,9.27147e-02,6.99160e-02,1.41717e-01,-3.78514e-02,3.15919e-02,7.46949e-03,1.05758e-01,5.74500e-02,1.50516e-02,-1.31139e-02,1.34084e-02,1.40906e-02,1.10948e-01,-4.76428e-02,5.67888e-02,4.57313e-02,-1.13637e-01,7.76179e-02,-7.43310e-02,-7.78851e-02,9.36877e-02,-3.59312e-02,-4.81387e-02,-4.24774e-02,-1.00269e-01,2.10805e-02,-3.36895e-02,1.03044e-02,1.63788e-02,-9.01888e-02,4.11837e-02,3.18898e-03,-2.17428e-02,-1.04412e-01,-4.30661e-02,-6.07591e-02,3.15245e-02,7.88489e-02,7.80592e-02,-3.21662e-02,-1.71787e-02,7.98265e-02,5.95133e-02,-4.05595e-02,-2.38638e-02,1.41444e-02,2.65124e-02,-9.66675e-03,-3.81708e-02,2.80378e-03,6.77786e-02,8.78685e-02,1.36057e-01,-1.22701e-01,-3.77600e-03,1.62895e-02,-4.45079e-02,3.34766e-02,-4.30165e-02,-6.67887e-02,
7.94479e-03,1.73556e-03,-7.25816e-02,-3.98131e-02,6.26429e-02,3.13020e-02,4.63130e-02,-3.16380e-02,-1.59248e-02,-4.10001e-02,3.70099e-02,-1.70871e-03,4.57671e-02,1.47132e-01,5.39198e-02,3.86040e-02,6.58021e-02,-3.11606e-02,1.05342e-01,1.82991e-02,9.61934e-02,-9.31829e-02,1.83865e-02,1.20509e-01,-8.64860e-02,1.36473e-02,7.22952e-02,3.98782e-02,-2.81984e-02,5.23723e-02,8.88825e-03,2.28954e-03,-1.78212e-02,9.19760e-02,6.31003e-02,2.63918e-03,7.03170e-02,3.94825e-02,8.60426e-03,1.05121e-02,4.76141e-02,4.37979e-02,4.44235e-02,3.85679e-02,1.48501e-01,8.37275e-02,-6.28403e-02,-2.14613e-02,-3.35550e-02,2.93050e-02,8.30534e-02,-5.26221e-02,4.90106e-03,3.71504e-02,-2.63435e-02,7.17955e-02,-8.16936e-02,-4.53013e-02,-3.53867e-03,2.46085e-03,-2.37324e-02,5.49089e-02,7.64061e-02,7.98674e-03,5.43640e-02,9.33472e-02,2.55024e-02,-3.01628e-02,-6.65321e-02,-3.09623e-02,-1.41600e-02,-1.59488e-02,3.26627e-02,-5.45361e-02,5.03828e-02,5.80904e-03,1.43865e-01,-7.43997e-02,7.47760e-02,-8.88965e-03,9.26552e-02,-2.38438e-02,4.95753e-02,7.76865e-02,6.56039e-02,6.98189e-02,4.43299e-02,-1.11912e-02,3.43635e-02,-7.42423e-02,-3.63755e-02,1.72333e-02,3.20147e-02,8.52078e-02,-7.22711e-02,2.83005e-02,2.68182e-02,2.57804e-03,1.48300e-02,-8.55178e-03,-2.34217e-02,4.10927e-02,-2.96787e-02,1.67227e-02,3.32919e-03,-1.32998e-01,-8.06709e-02,-1.25791e-02,2.59945e-02,3.21500e-02,-2.90438e-03,3.24408e-02,9.59928e-02,-9.39847e-04,1.78231e-02,7.02140e-02,7.64604e-02,-8.76509e-03,9.36069e-02,1.02936e-01,3.58901e-02,-8.02119e-03,-4.97420e-03,-4.66734e-03,5.37174e-02,5.82540e-02,1.45891e-02,5.27018e-02,4.75777e-02,3.38916e-02,4.33104e-02,1.91580e-02,1.20570e-01,3.21421e-03,1.34712e-01,-4.77154e-02,5.21052e-02,6.01800e-02,7.04608e-03,1.01491e-01,-1.39402e-02,1.78317e-03,-1.56925e-02,3.69075e-02,5.35650e-02,-7.37194e-03,5.24676e-02,2.10409e-02,4.32971e-02,-7.97419e-03,4.29996e-02,-9.99461e-03,4.05665e-02,6.95743e-03,2.72955e-02,4.87734e-02,7.53596e-02,-5.86205e-03,6.99068e-02,-8.15365e-02,-3.20802e-02,2.47945e-02,2.29888e-03,1.21737e-01,-3.65925e-02,-4.43403e-02,1.32689e-02,-5.94485e-02,3.60743e-02,3.09008e-02,1.70131e-01,2.04965e-02,-4.80528e-04,4.14024e-02,1.77300e-02,3.46417e-02,-3.09958e-02,-3.25203e-02,1.52955e-02,-1.47883e-02,6.22607e-02,-3.98818e-02,5.91308e-03,-2.70889e-02,1.60771e-02,6.52028e-02,-7.73020e-02,1.11986e-02,4.97243e-02,6.59171e-02,3.50829e-03,4.06923e-02,1.15484e-01,-5.80988e-03,5.06473e-02,-1.98059e-02,2.83583e-02,5.71511e-02,1.00397e-01,7.79010e-02,4.71132e-03,-3.38267e-02,2.25357e-02,-1.42561e-02,-4.75307e-02,-1.23297e-02,-1.28703e-03,7.04233e-02,1.23629e-01,2.89039e-02,-3.30876e-02,2.21230e-02,-6.94235e-02,5.26627e-02,-1.55369e-03,-1.15973e-01,3.49676e-02,-7.70545e-02,4.22471e-02,3.91116e-02,6.38438e-02,-9.26851e-03,2.00648e-02,-1.05980e-01,1.92920e-02,5.41179e-02,1.99665e-02,-9.23715e-02,8.28573e-02,6.05373e-02,1.51376e-02,3.67050e-03,1.39819e-01,1.06061e-01,2.49753e-02,9.00870e-02,-2.95400e-02,2.42159e-03,2.46222e-02,6.44640e-02,2.33957e-02,2.63468e-02,4.46827e-02,4.73994e-02,1.61224e-02,2.86368e-02,8.37389e-02,-2.11258e-03,4.67753e-02,-2.15093e-02,6.47781e-02,-6.48070e-02,4.42175e-02,1.06233e-01,1.37881e-02,3.64953e-02,
-5.39320e-02,6.89827e-03,-7.55427e-02,-9.41629e-02,2.87375e-02,-1.62587e-02,7.80636e-02,-3.17017e-02,-8.25904e-03,-3.20723e-02,4.05443e-02,2.03174e-02,-8.04088e-02,1.95608e-02,6.27642e-02,-3.47247e-03,8.28769e-02,2.11968e-02,-2.72316e-02,8.14788e-03,-1.27211e-02,-5.98535e-02,8.50546e-02,1.21343e-02,4.71527e-02,-9.77207e-03,5.46012e-02,1.96141e-02,-4.41111e-03,1.43307e-03,6.11928e-02,7.10381e-02,-1.47619e-01,6.68719e-02,2.19508e-02,2.61560e-02,5.76529e-02,-1.72363e-02,8.32031e-02,-3.37310e-02,-9.25668e-02,-8.27401e-03,3.59566e-02,1.49293e-02,1.11648e-01,6.83729e-02,-2.23972e-02,-8.17772e-02,2.81959e-02,3.78363e-02,1.14014e-01,-9.41705e-02,-1.54590e-02,-2.49718e-02,-1.61400e-02,-4.69955e-02,-4.48032e-02,1.69584e-02,7.54893e-02,4.51291e-02,-3.06781e-02,-4.30594e-02,7.47303e-02,3.24048e-02,2.72272e-03,3.91685e-02,-1.15499e-02,3.15223e-04,-2.20375e-02,-3.53515e-02,3.96021e-02,-3.96144e-02,1.26640e-02,-1.12405e-01,-8.04648e-02,3.20882e-02,4.40128e-02,-1.48838e-01,2.79923e-02,9.83865e-02,-4.45726e-02,-1.26519e-01,7.05392e-02,-5.39331e-02,-5.29908e-02,-1.06982e-01,3.64790e-03,-1.14597e-03,-1.05410e-02,-7.79267e-02,-6.08111e-03,4.13197e-03,1.61266e-02,4.76477e-02,-8.02658e-02,-3.51750e-03,-4.91651e-02,2.67672e-02,-1.77494e-02,-3.64196e-02,-1.13774e-01,-7.13296e-02,-1.70705e-02,-5.34657e-02,-1.59234e-03,-6.47188e-02,-3.82259e-02,-1.25704e-02,2.29554e-02,4.52689e-02,-3.58585e-02,2.69509e-02,-3.64918e-02,-3.92285e-02,9.05307e-02,-3.27310e-02,4.42368e-02,5.96278e-02,2.50060e-02,2.53230e-02,3.03938e-02,1.97959e-02,2.44148e-02,-5.22027e-02,7.24590e-03,-3.57004e-02,4.12874e-02,-4.88608e-03,4.75426e-02,-2.79204e-02,-1.89262e-02,2.68645e-02,3.86955e-02,2.19662e-02,-6.84077e-03,3.57596e-02,5.19836e-02,6.36044e-02,-2.50366e-02,7.43841e-03,-3.73637e-02,-1.45898e-02,-7.32432e-02,-5.73389e-03,3.41787e-02,3.46838e-02,-1.24387e-02,-4.64638e-03,-7.19181e-02,-1.27200e-02,5.28193e-02,-4.64730e-02,-3.75491e-02,6.28445e-02,6.17261e-02,5.44604e-02,-2.35118e-02,9.91555e-02,5.34736e-02,-2.74433e-02,1.79515e-02,6.92679e-03,2.17510e-02,3.76512e-02,-7.37423e-02,-6.70234e-02,5.99138e-02,2.29291e-02,4.25978e-02,-9.28687e-02,3.70914e-02,-2.47042e-02,-1.23552e-01,3.33117e-02,6.26371e-03,8.27134e-02,3.58500e-02,-2.58569e-02,-3.09663e-02,-7.06286e-04,8.02044e-03,7.72957e-02,-8.08499e-03,-9.31474e-03,-3.52812e-02,3.22356e-02,-4.17461e-02,-5.34132e-02,-4.10760e-02,6.47451e-03,-8.98551e-02,1.96803e-02,7.23564e-04,1.49460e-02,1.70223e-02,5.26961e-03,7.53628e-02,8.28664e-03,2.85408e-02,8.40380e-02,-6.42958e-02,-7.40918e-03,-7.54440e-02,3.34318e-02,-7.32139e-02,-1.71764e-02,5.50029e-02,1.26043e-01,6.87325e-03,-3.65812e-02,4.66756e-02,-3.16227e-02,-3.46760e-02,5.33178e-02,-2.84056e-03,-8.97845e-02,8.71041e-02,-7.47031e-02,4.82897e-02,6.05729e-02,-2.80339e-02,5.16748e-02,4.06951e-02,-1.06529e-01,-3.63264e-02,-2.34813e-02,-7.94679e-02,-7.55792e-03,5.87067e-02,1.73257e-03,-5.03935e-02,4.26750e-02,4.36928e-02,-1.14887e-02,1.80514e-02,9.76584e-02,-5.73478e-02,2.40492e-02,1.79624e-02,2.70951e-02,-4.15500e-02,2.12365e-02,-2.96839e-02,4.86779e-02,3.65291e-02,2.77094e-02,3.80135e-02,-1.03416e-02,6.79811e-04,-6.24846e-03,6.13251e-02,-1.18614e-01,-1.90707e-02,1.53974e-01,-2.55786e-02,3.12431e-02,
-6.06655e-02,1.47689e-01,-6.44221e-02,-9.04632e-04,7.98355e-02,6.50046e-02,-1.39399e-02,1.28359e-03,-6.67960e-02,-1.86977e-02,9.98217e-02,-1.00975e-02,-1.99859e-02,3.98089e-02,-4.29019e-02,1.40188e-02,2.47199e-02,-7.47435e-02,5.97138e-02,9.54033e-02,9.53015e-02,-1.21647e-02,-9.66073e-03,1.18105e-01,-7.45693e-02,-2.48521e-02,4.78710e-02,1.00930e-02,4.97895e-02,-2.06466e-02,7.74364e-02,-4.10446e-02,-7.01596e-02,1.29686e-01,5.74249e-02,-2.49671e-02,7.46051e-02,-6.30428e-02,1.04835e-02,3.28792e-03,-2.52358e-02,6.28577e-02,7.74688e-02,1.23451e-01,7.06695e-02,-3.50402e-02,-3.27187e-02,1.64707e-03,6.11415e-03,-2.01404e-02,7.65179e-02,-7.33649e-02,-1.26875e-02,8.09621e-02,6.09907e-02,-2.32402e-02,4.02387e-02,-4.02533e-02,5.09324e-02,-2.60471e-02,1.38665e-02,9.34768e-02,3.23828e-02,-1.50952e-02,2.38288e-02,1.36484e-03,8.09717e-02,-6.77808e-02,-8.81054e-02,5.62114e-02,8.94418e-02,-7.76591e-02,4.14276e-02,-3.02835e-04,9.33298e-02,6.59707e-02,6.05747e-02,-2.32751e-02,-1.96718e-02,1.31638e-02,9.29082e-02,4.01500e-03,6.95438e-02,5.26337e-02,1.11420e-01,5.79930e-02,7.82568e-02,5.53160e-02,-8.08021e-03,3.49646e-02,7.18721e-03,6.88384e-02,7.77788e-02,6.18371e-02,-3.29448e-02,5.08960e-03,7.74920e-02,-8.78256e-02,5.97690e-02,-3.45607e-02,-8.55283e-02,-2.19778e-02,6.66411e-03,-1.25077e-02,-2.95251e-02,-1.13518e-01,-6.73749e-02,-3.21763e-02,5.27783e-02,3.58200e-02,-6.04857e-03,6.57532e-03,4.62704e-02,2.62703e-02,4.53019e-02,5.00107e-02,6.44218e-02,9.83596e-02,7.08076e-02,1.90772e-02,1.00934e-01,1.11508e-01,1.04597e-01,-3.37978e-02,1.22517e-01,1.64193e-02,2.76012e-02,6.44338e-02,-2.01945e-02,2.72919e-02,3.83153e-02,5.34190e-02,1.09898e-01,9.34543e-02,1.00272e-01,-2.18345e-02,3.70324e-02,1.96066e-02,-2.76263e-02,7.24854e-02,-4.10019e-03,4.16433e-04,-3.99239e-02,1.02425e-01,4.29966e-03,8.92973e-02,6.62201e-02,-1.39385e-02,8.08818e-02,-4.32440e-02,5.21560e-02,2.68697e-02,1.43617e-02,1.73381e-03,5.96879e-02,7.42268e-02,-2.12158e-02,6.79069e-02,9.20820e-02,-4.66064e-02,-5.90103e-02,-3.23330e-02,1.41805e-02,1.04928e-02,-6.93245e-02,-5.60182e-02,1.23277e-02,6.52133e-02,-1.44906e-02,8.36199e-02,1.14811e-01,-3.36404e-03,-6.77342e-02,6.30876e-02,-1.70849e-02,1.27015e-02,2.23381e-02,1.73137e-03,7.95271e-03,-2.80613e-02,4.69584e-02,1.17625e-02,2.36230e-02,1.64672e-02,7.13167e-03,9.47266e-02,-9.66051e-02,4.48116e-02,2.08255e-02,-7.68679e-03,-1.16276e-02,7.86351e-02,6.43708e-02,2.72801e-02,-5.39914e-02,-4.13354e-02,9.59737e-02,7.02196e-02,1.17130e-01,3.91760e-02,3.15825e-02,-4.09207e-02,2.61988e-02,-4.99354e-02,-8.81120e-02,8.68309e-02,1.13055e-02,3.47609e-02,3.08420e-02,1.39641e-02,2.41878e-02,-2.63820e-02,-9.87455e-02,7.58544e-02,4.59741e-03,-1.13827e-01,-1.58938e-02,-9.56997e-03,7.14219e-02,-5.70729e-02,8.63415e-02,6.31683e-02,5.69084e-02,-1.86154e-02,4.47963e-02,-5.16792e-02,2.57599e-02,-9.25242e-02,6.68440e-02,2.53011e-02,-1.65621e-02,1.04832e-01,1.31786e-01,7.93190e-03,-6.68390e-03,6.78447e-03,-5.69848e-02,-3.31079e-03,2.56615e-02,-3.57318e-03,7.91961e-02,1.60534e-02,6.11565e-02,5.16817e-02,7.29708e-02,8.17719e-02,5.48400e-02,7.45898e-02,8.72341e-03,-2.61701e-02,-1.74823e-02,-6.27067e-02,3.37619e-02,1.38783e-01,6.16199e-02,-9.29853e-03,
2.07247e-03,8.93544e-03,1.27500e-01,7.80842e-02,-3.63648e-03,6.50200e-03,1.00504e-01,1.74468e-02,-2.54300e-02,1.64227e-02,-1.01430e-01,1.13536e-01,5.75143e-02,-6.09379e-03,4.54490e-02,-6.80641e-02,6.18757e-02,1.21673e-01,-6.13246e-02,-3.78253e-02,7.41394e-03,9.69020e-02,6.02664e-02,3.36455e-02,1.07711e-01,1.33757e-01,2.53775e-03,-8.87096e-03,5.17612e-02,5.68758e-02,-3.33432e-02,1.01118e-01,2.51828e-02,-4.95891e-02,1.29473e-01,1.02526e-01,-1.40424e-01,7.97976e-02,2.37395e-02,2.37408e-02,7.22182e-02,4.53080e-02,5.42506e-03,-6.44267e-02,-1.09239e-01,7.33990e-02,6.60450e-02,3.28895e-02,3.07550e-02,1.12359e-01,-4.00019e-02,1.77731e-01,6.96841e-02,1.67511e-02,8.73792e-02,1.06368e-01,4.66499e-02,6.27970e-02,5.89131e-02,5.49258e-02,1.55130e-02,1.74735e-02,3.39282e-02,4.24643e-02,3.90238e-02,7.18234e-02,-2.65380e-02,3.12709e-02,8.44510e-02,1.16559e-01,7.95837e-02,1.29489e-01,5.81360e-02,1.67751e-02,-7.36255e-02,3.63758e-02,-4.89880e-02,1.28073e-01,-4.49872e-03,2.07550e-02,3.50180e-02,5.14656e-02,2.34651e-02,8.43289e-02,-1.07921e-02,-2.59071e-02,-6.03609e-02,6.92189e-04,4.61871e-02,5.72382e-02,1.17229e-01,-4.10823e-02,-4.32287e-03,8.68316e-02,4.17876e-02,2.86815e-02,1.92766e-02,1.21376e-01,-3.62335e-02,9.11086e-02,6.40665e-02,1.56532e-02,1.14486e-01,1.46823e-02,4.06507e-02,8.34799e-02,8.94854e-03,6.35613e-02,-1.42542e-02,9.78253e-02,5.24494e-02,-2.29656e-04,3.25739e-02,2.25158e-02,3.21111e-02,6.43736e-02,5.00509e-02,1.19207e-02,3.96178e-02,3.10846e-02,3.66026e-02,1.02031e-01,2.72830e-02,3.99361e-02,2.55071e-02,9.87095e-02,6.37405e-02,-1.33024e-02,3.32370e-02,5.91136e-02,7.58596e-02,5.88783e-02,2.10092e-02,-5.58445e-02,-3.91066e-02,6.80526e-02,4.55594e-02,-4.58808e-03,5.71778e-02,-3.05674e-02,4.40429e-02,8.22534e-02,3.59797e-02,-8.28297e-03,1.29222e-01,-1.73156e-03,6.55672e-02,1.34880e-01,1.09501e-01,6.16918e-02,-6.22796e-02,2.07762e-02,7.20775e-02,-4.22971e-02,-2.07546e-03,2.70922e-02,-2.04429e-02,-2.80823e-02,2.41808e-02,1.06471e-01,4.72686e-02,7.28472e-02,7.85429e-02,-5.14331e-02,1.05431e-01,3.03980e-02,-1.47228e-02,9.15276e-02,4.89737e-02,-4.95406e-03,-1.35886e-01,1.01588e-01,1.37543e-01,2.06413e-02,1.87794e-02,4.30747e-02,1.12340e-01,7.99094e-02,6.36898e-02,1.39936e-02,-7.16688e-02,9.76463e-02,2.59277e-02,7.03193e-02,1.20802e-01,4.22675e-02,6.29467e-02,6.00739e-02,3.42451e-02,-2.19675e-03,8.15302e-03,-2.73699e-02,7.18868e-02,1.22800e-01,3.72009e-03,1.02142e-01,4.31403e-02,3.95110e-02,-7.80238e-02,6.63491e-02,2.42897e-02,9.88630e-02,1.70229e-02,-1.10079e-02,3.36633e-02,2.48124e-02,3.02721e-02,-1.10452e-01,-1.19609e-01,1.45545e-01,1.28245e-02,9.60391e-02,1.59049e-01,-9.35136e-02,-2.00701e-02,7.72342e-02,8.53265e-03,1.20522e-01,-2.22550e-02,-2.34145e-02,1.04080e-01,8.71694e-02,4.27923e-02,1.28966e-01,1.03833e-01,1.26905e-01,-3.00221e-02,1.34993e-01,-1.85078e-02,7.00237e-02,3.20776e-02,6.42884e-02,-6.33897e-02,-1.71066e-02,5.17825e-02,6.41728e-03,1.13360e-01,1.38858e-01,-3.51121e-03,5.88827e-02,5.24267e-02,-5.21865e-04,2.66864e-02,6.62735e-02,9.77366e-02,1.90292e-03,2.11065e-02,2.42066e-02,1.98772e-02,7.75597e-02,1.01379e-01,1.06905e-01,9.68783e-02,-1.08482e-01,-3.27448e-02,5.94569e-02,
2.05877e-02,-6.47275e-02,9.32891e-02,1.25058e-01,2.27674e-02,2.49879e-02,1.30427e-01,-1.85313e-03,6.45311e-02,-1.74519e-02,-2.07441e-02,5.09867e-02,4.04531e-02,1.98169e-02,2.96773e-02,6.62323e-02,1.89976e-02,1.21437e-01,3.06512e-02,-2.57074e-02,-4.23588e-02,4.47886e-02,-3.68620e-02,-1.88873e-02,5.37826e-02,1.00858e-01,3.87901e-02,1.32281e-01,2.63364e-02,7.53146e-02,-4.69438e-02,7.10212e-02,4.92860e-02,2.76124e-02,7.76391e-02,1.13163e-01,3.21802e-02,8.05846e-02,4.06480e-02,5.36219e-02,1.25536e-03,5.89427e-02,1.20445e-01,2.94772e-02,-7.26459e-02,4.34735e-02,3.85253e-02,2.70865e-02,1.02353e-01,-1.00949e-02,3.70210e-02,6.05636e-02,5.08358e-02,3.04889e-02,2.94548e-02,1.26089e-01,9.06674e-02,4.13934e-02,-3.64327e-02,1.12046e-01,8.67781e-02,1.17130e-01,1.09760e-01,3.74812e-02,-2.68662e-02,7.56597e-02,-2.86423e-02,3.81179e-02,1.15130e-01,5.60696e-02,5.80786e-02,1.03324e-01,6.51750e-02,8.64042e-02,1.74732e-02,7.04020e-02,-3.53248e-02,5.07064e-02,8.67847e-02,7.68968e-03,3.45243e-02,1.78300e-02,9.11181e-02,1.14821e-01,4.01267e-04,1.20360e-01,-5.50891e-02,-1.42109e-02,7.07092e-02,1.18667e-01,8.96367e-02,8.30224e-02,1.46568e-02,2.29536e-02,-2.81207e-02,-2.96315e-02,5.37445e-02,6.48672e-02,1.39815e-01,3.64541e-02,7.53378e-02,6.61428e-02,2.01369e-02,4.41297e-02,1.01904e-01,1.32546e-01,4.35540e-02,7.96556e-02,3.02925e-02,8.85712e-02,1.42534e-01,6.26440e-02,7.87042e-02,5.64004e-02,2.34434e-02,3.41568e-02,-1.27482e-02,1.90743e-02,-2.80855e-03,8.90860e-02,-1.13954e-02,7.76011e-02,-2.82294e-03,5.60808e-02,-4.00239e-02,1.02520e-01,2.73856e-02,6.28455e-02,7.85922e-02,1.72458e-02,3.87941e-02,1.81774e-02,-6.59081e-02,6.28467e-02,2.24345e-02,1.02704e-01,-4.68502e-02,9.84436e-02,6.99311e-02,6.68205e-02,1.44910e-02,5.39171e-02,6.99847e-02,1.16154e-02,5.64383e-02,3.24955e-02,8.75628e-02,3.66429e-02,4.46080e-02,1.09187e-01,2.27125e-02,3.43642e-02,6.72904e-02,4.31300e-02,-3.59355e-02,4.35277e-02,4.98144e-02,2.52665e-02,-3.13080e-02,7.61757e-02,3.65907e-02,-1.70310e-02,1.08645e-01,-8.53964e-03,1.63330e-01,5.14089e-02,2.04324e-02,9.98294e-02,2.47227e-02,5.88516e-02,-6.56008e-02,4.89736e-02,5.46194e-02,1.03343e-01,1.05428e-01,1.75121e-02,4.97001e-02,-5.16141e-03,1.33790e-01,8.68792e-02,7.88675e-02,2.04037e-02,-4.50251e-03,-1.76191e-02,1.42177e-02,4.95092e-02,7.34821e-02,-5.22229e-03,6.42168e-02,3.15808e-02,1.01651e-01,-2.36421e-02,5.06305e-02,8.14893e-03,1.39557e-01,8.90365e-02,-3.50149e-02,9.79809e-02,-2.04633e-02,6.85605e-02,4.07118e-02,5.43598e-02,1.29503e-01,6.89391e-02,1.11453e-01,5.77483e-02,4.78018e-02,8.21443e-02,1.36968e-02,9.46416e-02,6.16728e-02,1.08340e-01,7.15688e-02,6.65741e-02,8.43897e-02,7.67976e-02,6.93684e-02,6.66170e-02,2.96804e-02,3.63138e-02,7.57880e-02,7.97191e-02,1.15102e-01,-1.01333e-03,4.19785e-02,3.95581e-02,6.20261e-03,8.73005e-02,-8.06105e-03,6.52641e-02,1.01190e-01,-3.48951e-03,-6.43155e-02,3.56996e-02,5.95978e-03,4.37886e-02,2.88332e-02,4.10819e-02,1.04663e-01,-2.92732e-02,9.86352e-02,2.13907e-02,-3.46658e-02,1.19117e-01,9.66367e-02,2.36126e-02,3.17960e-02,1.68694e-02,1.26600e-02,4.73944e-03,4.25922e-02,6.87300e-02,3.28650e-03,-1.07191e-01,-4.58928e-02,5.59780e-03,
2.66179e-02,-6.83357e-02,-1.34528e-02,8.77687e-02,1.79610e-03,8.68288e-03,-5.16483e-02,-3.93799e-02,5.15439e-02,6.65862e-02,4.74853e-02,-1.91325e-02,-7.51305e-04,-5.52739e-02,2.94749e-03,9.60937e-02,-4.84444e-02,3.63470e-02,-3.07082e-02,-4.48128e-02,-8.67795e-02,4.83426e-02,-1.04943e-01,-9.55030e-02,2.52829e-02,1.23413e-01,-8.24074e-03,4.92354e-02,-5.17168e-02,-1.78256e-02,-6.84308e-02,2.96740e-02,-2.20220e-02,-1.45755e-02,7.07388e-02,-1.05488e-01,2.77854e-02,-2.55807e-02,3.23479e-02,5.02469e-02,-1.81689e-02,9.43985e-02,2.25305e-02,-1.33068e-01,-4.66751e-02,1.24406e-02,5.47560e-02,-3.66431e-02,-1.24621e-02,-3.48132e-02,-5.07421e-02,1.63674e-01,-1.58401e-02,1.27282e-02,-5.30721e-02,-4.76752e-02,4.10959e-02,2.18765e-02,-1.13267e-01,4.14259e-02,4.98367e-03,-4.21720e-02,-5.81362e-02,1.04894e-01,8.75503e-03,-4.27194e-02,-3.26047e-02,6.07901e-02,1.69855e-02,-2.85559e-02,-2.05586e-02,7.31299e-02,-8.93207e-02,1.82670e-02,-3.14735e-02,-9.11387e-02,6.37605e-03,8.84834e-02,-8.37041e-02,-1.10753e-01,1.28234e-01,1.89383e-02,-5.74317e-02,3.60509e-02,5.03892e-04,-8.24343e-04,-1.14291e-02,-6.01059e-03,-4.76306e-03,-6.65594e-02,3.46729e-02,-9.94269e-02,-7.59815e-02,-1.00587e-01,6.31191e-02,3.47669e-02,-2.71270e-02,-1.63537e-02,-1.01963e-02,-1.01811e-02,1.69785e-02,-4.67589e-02,9.86061e-03,1.10359e-01,6.17860e-02,2.81668e-02,-6.30622e-02,1.23885e-02,-1.31345e-04,6.82942e-02,-2.42726e-02,1.01768e-02,-1.75246e-02,-3.45735e-03,-5.83688e-02,6.63118e-02,-7.04490e-02,9.88966e-03,2.54304e-02,-1.79628e-02,-1.00528e-02,-4.07316e-02,-1.79514e-02,-1.08013e-02,-1.09171e-01,-2.48113e-02,1.24885e-03,3.64701e-02,-4.61197e-02,-9.43138e-02,-9.98945e-02,7.32942e-02,7.32268e-03,-8.19116e-03,-6.23661e-02,-1.07914e-02,8.42442e-02,4.03518e-02,2.74280e-02,4.39279e-02,4.92699e-02,9.33774e-02,8.91990e-02,2.56002e-02,-7.17102e-03,-4.68213e-02,2.98688e-02,7.05394e-02,7.39186e-02,1.00308e-01,-6.03259e-02,1.03834e-01,-4.02529e-02,6.61663e-02,3.06264e-02,6.21900e-02,-6.83655e-02,-6.21040e-02,1.18052e-01,1.08928e-01,5.09619e-02,-5.57869e-03,-1.42114e-02,-5.97763e-03,9.53520e-02,1.14286e-02,-3.66161e-02,9.22059e-02,-7.65440e-02,3.61209e-02,-1.00364e-01,9.02650e-02,6.59333e-03,-2.09358e-02,-7.57227e-02,1.35108e-02,-3.24822e-02,-8.26019e-02,8.86874e-02,-1.48057e-02,4.43207e-02,-4.11398e-02,-3.82885e-02,-1.05269e-01,1.89252e-03,6.93507e-02,-6.20647e-02,6.54639e-02,-3.74077e-02,2.57852e-02,-2.23274e-02,-6.79491e-02,-5.98305e-02,-5.83772e-02,-1.16259e-02,7.71002e-02,-1.29479e-02,1.04829e-02,-1.14915e-01,-6.62535e-02,5.66779e-02,1.21962e-01,1.21640e-02,3.60639e-02,-9.56422e-02,-3.80463e-02,1.34800e-02,-6.78077e-02,-1.94716e-02,7.46703e-02,7.08288e-03,6.14290e-02,1.25026e-01,-2.51959e-02,3.86173e-03,1.20962e-01,3.21200e-02,-2.14739e-02,-5.51419e-02,2.89299e-02,-5.39961e-02,-4.23764e-02,6.46368e-02,-3.22023e-02,3.87642e-03,2.05952e-02,-4.56627e-02,5.68967e-02,7.54536e-02,4.39821e-03,-3.02404e-02,-7.92241e-02,-8.09741e-03,5.43185e-02,1.15235e-02,4.08093e-02,-4.60465e-02,-9.07810e-02,-3.40252e-02,5.84794e-02,-4.92268e-02,-9.03271e-02,-2.05036e-02,3.84130e-02,-5.58784e-02,-1.07770e-01,7.39843e-02,-7.19009e-02,-2.06021e-02,5.64037e-03,-1.10241e-02,4.07794e-02,6.59975e-02,-4.45875e-02,9.72589e-02,-2.98457e-02,
-8.16677e-03,3.06813e-02,-1.25459e-04,-2.89912e-02,-3.01242e-02,-7.70749e-03,-1.84405e-02,-5.64464e-02,-2.30149e-02,7.05902e-03,-2.48238e-04,-3.62066e-02,3.65171e-02,4.27011e-03,4.31325e-02,-5.89068e-02,4.10887e-02,-3.51035e-02,-3.70458e-02,3.96708e-02,5.35735e-02,-1.13953e-02,-1.49375e-02,-1.21806e-02,2.17954e-02,-6.52143e-02,3.04186e-02,-2.35506e-03,3.11791e-03,4.38529e-05,-1.78860e-02,-1.79382e-02,-3.24164e-02,-4.70192e-03,2.34055e-02,-4.26797e-02,-3.28641e-02,4.21839e-02,-3.92111e-02,3.59842e-02,-6.22024e-02,-4.73739e-02,-2.64030e-02,3.07473e-02,2.87147e-02,-4.64688e-02,-3.46408e-02,-4.09962e-02,-8.46694e-03,-3.12730e-02,-8.49548e-03,5.92370e-02,-5.38115e-02,-6.13934e-02,-9.69625e-03,-4.71523e-02,4.99654e-02,3.18545e-02,3.72353e-02,3.13522e-02,6.11363e-02,1.77467e-02,-2.93904e-03,-6.42451e-02,3.22667e-02,-3.26166e-02,4.61855e-02,1.74502e-02,5.82594e-02,-3.20336e-02,-6.88493e-02,-5.79761e-02,-1.14411e-02,1.87450e-02,-2.27440e-02,-5.86566e-02,-1.27716e-02,5.10036e-02,4.31668e-02,-7.08824e-02,8.21830e-03,3.88417e-02,1.97635e-02,-5.33753e-02,5.92772e-02,-5.36455e-02,2.77577e-02,1.98227e-02,-5.51203e-02,4.65995e-02,-3.50704e-02,-1.52299e-02,-6.38220e-02,3.52070e-02,1.76834e-02,3.29388e-02,2.75203e-04,4.37799e-02,4.11696e-02,-4.51907e-02,-3.77017e-02,4.64637e-02,-5.17276e-02,3.07445e-02,3.48373e-02,-2.66530e-02,-2.47489e-02,-6.29389e-03,2.71884e-02,-1.91017e-02,-2.30851e-02,4.19030e-02,-2.99679e-02,-3.76384e-02,-2.92758e-02,7.10936e-03,-7.13338e-02,-5.56783e-02,-4.18376e-02,-6.73176e-03,2.62304e-02,3.25878e-02,-1.53491e-02,3.98493e-02,4.23839e-02,-1.11043e-02,-6.84099e-02,-6.26144e-02,-1.91982e-02,2.81135e-02,-2.98973e-02,-9.86020e-03,4.53028e-02,-3.90712e-02,2.56533e-02,-5.22496e-02,1.66637e-02,-3.39845e-02,9.14165e-03,-8.65277e-03,-8.47722e-03,-3.22937e-03,2.14363e-02,8.51482e-03,-2.42211e-02,-4.80260e-02,5.54174e-03,-7.00249e-02,7.90349e-03,4.11368e-02,-4.57381e-02,9.32341e-03,-4.75978e-02,-4.20020e-02,-4.81199e-02,4.63200e-02,2.93503e-02,-2.48498e-02,9.06952e-05,-3.52540e-02,3.16352e-02,2.57555e-02,4.67873e-02,-1.00163e-02,-5.83514e-02,1.81568e-02,1.56785e-02,-1.37304e-02,2.16386e-02,-7.52464e-03,-2.69237e-02,-2.50972e-02,-2.29616e-02,-1.91779e-02,-3.58200e-03,-7.13540e-02,1.59909e-02,-3.59727e-02,-2.46632e-02,-6.90963e-02,-3.62083e-02,-4.69543e-02,-1.99650e-02,-6.06266e-02,-6.16222e-02,5.00639e-02,5.08352e-02,3.35576e-02,9.81614e-04,-3.79873e-02,5.53302e-02,-3.84629e-02,-3.99669e-02,-6.73665e-02,-4.36451e-02,2.28259e-02,3.64534e-02,5.66812e-03,-6.26003e-03,3.68439e-02,-4.10760e-02,-6.90920e-02,1.90197e-02,-7.23198e-04,5.97847e-02,7.03930e-03,2.42994e-03,-5.60206e-02,-3.64315e-03,-3.76746e-02,2.05382e-02,-8.08425e-03,-5.71438e-02,-1.31172e-02,5.52257e-02,-1.55471e-02,-6.93939e-03,-3.88588e-03,-1.78802e-02,2.80731e-02,-1.65936e-02,-1.01267e-02,1.82325e-02,1.73963e-02,4.77729e-02,2.73755e-02,2.46624e-02,-6.30399e-02,4.48743e-02,2.85884e-02,-6.13774e-02,2.83572e-03,-3.08619e-02,-6.50411e-02,1.68139e-02,3.05471e-02,1.26298e-02,4.59276e-02,-6.10159e-02,2.46430e-02,-4.68004e-02,-4.98630e-02,-1.28653e-02,-4.47826e-02,6.05479e-02,3.95201e-02,3.80115e-03,-3.06568e-02,-1.63291e-03,-5.04533e-02,-4.69988e-04,-5.71573e-02,-3.66018e-02,9.94761e-03,2.01332e-02,1.32668e-03,
-7.31345e-03,2.80904e-02,-8.66390e-02,3.70995e-02,-1.22703e-02,6.89327e-03,5.69848e-02,6.29795e-02,-1.77390e-02,7.22274e-02,6.12004e-02,8.20908e-02,7.19106e-02,1.21520e-01,6.94148e-03,8.32997e-02,3.01413e-02,-5.95533e-02,9.58033e-02,1.10653e-01,1.38450e-01,-2.05192e-03,-9.91481e-04,8.33052e-02,2.84013e-02,-1.50217e-02,8.42659e-02,-5.59724e-03,-5.07631e-02,3.82589e-02,7.77635e-02,4.62462e-02,-9.28624e-02,1.29135e-01,2.73227e-02,8.49431e-02,1.34836e-01,1.61993e-02,7.92469e-02,8.28078e-02,7.96892e-02,6.60007e-02,3.14169e-02,7.66376e-03,1.05931e-01,2.00105e-02,1.96043e-02,1.15524e-03,2.61703e-02,4.37418e-02,2.76968e-02,-9.66476e-02,-1.20529e-03,5.31689e-02,3.09120e-02,2.78182e-02,4.84201e-02,2.16427e-02,-1.24224e-02,3.42363e-02,-2.26641e-02,9.84627e-02,5.30975e-02,-1.90754e-02,8.67976e-03,7.22268e-02,7.04002e-02,1.26353e-02,-6.31012e-02,9.11890e-02,8.02147e-02,-3.84321e-02,1.53071e-04,-7.75200e-02,2.44758e-02,9.63083e-02,1.32653e-01,-2.93390e-02,2.70905e-02,6.33888e-02,1.00354e-01,-7.48530e-03,2.38254e-02,-3.18031e-02,1.52451e-02,9.85510e-03,8.54752e-02,7.20555e-02,1.62954e-02,-6.27445e-02,2.11926e-03,2.17421e-02,2.06668e-02,-4.57762e-03,2.42466e-02,1.11002e-02,1.63571e-02,-1.12284e-01,8.42238e-02,3.72898e-02,-8.77400e-02,7.39279e-02,2.37081e-04,-4.81687e-02,-1.31915e-02,-1.03161e-01,-3.50033e-02,8.97912e-02,8.61469e-02,8.04899e-02,-1.41428e-02,6.77454e-02,-1.22550e-03,5.73936e-02,1.10309e-01,3.96535e-02,1.99594e-02,4.21619e-02,4.18389e-02,1.12233e-01,3.98381e-02,7.74513e-02,6.23832e-02,-1.20439e-02,7.22758e-02,-2.70385e-02,1.39422e-01,-1.74375e-02,7.16995e-02,7.82311e-03,5.39734e-02,2.22397e-02,1.16965e-01,-4.54639e-03,1.31969e-01,5.68436e-02,7.58436e-02,8.53318e-02,-4.89744e-02,5.71670e-02,-8.18848e-02,-6.45641e-02,-4.01880e-02,9.42501e-02,4.35482e-02,1.98024e-02,-6.94654e-03,5.70310e-02,2.29394e-02,-4.98220e-02,8.00666e-02,4.13978e-02,7.60176e-02,7.72740e-02,1.69607e-02,7.99691e-02,6.78375e-02,1.05113e-01,-4.48344e-03,-5.60507e-02,-4.89191e-02,5.66656e-02,-2.28622e-03,3.83054e-02,-4.68489e-02,-1.32759e-03,6.42738e-02,-3.04483e-03,6.36959e-02,4.98285e-02,1.65642e-01,-5.65609e-02,-1.04999e-01,1.84849e-02,3.92149e-02,5.31723e-02,-5.35439e-03,-4.07303e-02,3.24595e-02,1.99042e-02,4.83207e-02,6.55856e-02,-2.80621e-02,5.21717e-02,-2.00208e-02,5.30606e-04,-6.59496e-02,7.86735e-02,5.03148e-02,8.23352e-02,6.15402e-03,1.17132e-01,1.95324e-02,4.03473e-02,2.27268e-02,2.76715e-03,1.31105e-02,-3.18408e-02,3.20051e-02,-1.81316e-02,1.58020e-02,1.55805e-02,6.51382e-02,-5.09790e-02,-8.41067e-02,5.34651e-02,6.14627e-02,8.75463e-02,7.92478e-02,-8.34326e-04,4.97989e-02,1.29735e-02,-1.37061e-01,9.18910e-02,4.61122e-02,-9.04921e-02,-2.95651e-02,-8.69193e-02,1.10228e-02,-6.39493e-03,8.15490e-02,3.42328e-03,1.47124e-02,1.35971e-02,-3.44130e-02,-1.13203e-02,2.92877e-02,1.61858e-02,-4.84699e-03,4.45056e-02,4.65817e-02,4.93777e-02,5.77792e-02,9.79022e-02,5.76144e-02,8.08799e-02,-5.03027e-02,-5.38387e-02,6.40286e-02,9.12553e-02,7.51195e-02,6.05828e-02,3.78706e-02,3.92622e-02,3.31496e-02,3.30498e-02,6.35974e-02,8.85049e-04,3.80247e-02,8.77615e-02,2.40255e-03,-4.21774e-02,-2.06414e-02,1.43712e-01,6.16636e-02,1.55696e-02,
6.34845e-02,-5.69196e-02,7.21852e-02,3.44519e-02,1.95395e-03,1.05727e-02,6.39004e-02,-8.68967e-03,4.63191e-03,-4.82005e-03,-1.24983e-01,8.09035e-02,-1.10704e-02,-1.26727e-01,7.68733e-02,-4.71318e-02,4.19036e-02,1.12883e-01,-9.04692e-02,-4.63755e-02,-3.61565e-02,5.33478e-02,-5.50942e-02,-1.27702e-01,1.65862e-02,1.09803e-01,-4.74151e-02,-2.17302e-02,9.72765e-02,3.85362e-02,-1.21970e-01,-1.37679e-02,7.47215e-02,-1.18409e-01,9.25182e-02,-8.79232e-03,-1.16864e-01,-6.89342e-03,1.97203e-02,-5.08942e-02,-2.57880e-02,2.76043e-03,5.59148e-03,-7.06883e-02,-1.29962e-01,-2.51541e-02,1.35307e-01,6.73911e-03,6.85130e-02,8.80925e-02,-1.29418e-01,1.63101e-01,5.61564e-02,2.58852e-03,1.24981e-02,9.38254e-02,7.85312e-02,8.07314e-02,-2.61758e-02,5.96276e-02,3.73989e-02,-3.38944e-02,-1.96780e-02,5.04120e-03,-1.52304e-02,-3.08905e-02,-9.24548e-02,8.89248e-04,4.83700e-02,7.89285e-02,5.68791e-04,7.59886e-02,6.95108e-02,6.19799e-02,-4.21157e-03,-4.29553e-02,-1.07806e-01,1.10793e-01,-1.09550e-02,3.67987e-02,4.82416e-02,4.78188e-02,-1.10659e-02,-3.43058e-02,-5.85737e-02,-2.18908e-02,-7.93290e-02,-3.76688e-02,1.84873e-02,1.23783e-02,5.89329e-02,8.10546e-04,3.44877e-02,2.21747e-02,6.54557e-03,-4.92420e-02,-5.14496e-04,7.56701e-02,-5.72416e-02,7.07749e-02,1.08227e-01,-2.48377e-02,5.60625e-02,-3.52460e-02,5.17685e-02,1.66925e-01,3.07574e-02,6.15264e-02,-2.23551e-02,-1.88181e-02,4.75546e-03,5.53539e-02,-4.52868e-02,4.30213e-02,-9.97463e-02,-3.41845e-02,-5.92276e-02,6.96651e-02,2.49489e-02,-4.20303e-02,-2.19321e-04,1.06911e-02,-1.03783e-02,1.23970e-01,-1.63198e-02,1.51428e-02,-3.54908e-02,-6.41994e-03,2.97182e-02,-6.26937e-02,1.23516e-02,-5.99672e-02,-8.82066e-02,3.38661e-02,-1.03169e-01,1.63579e-02,-4.73746e-02,-2.00121e-02,-1.28274e-02,-1.28045e-01,1.03129e-01,-7.39196e-03,7.12044e-02,3.33901e-02,5.88360e-02,-1.77128e-02,-1.60074e-03,8.06513e-02,-1.15178e-02,-4.65741e-04,-1.03004e-01,-1.87130e-02,5.06766e-02,5.93207e-02,3.17886e-02,4.94564e-02,3.54719e-02,-5.47552e-02,-2.58229e-02,3.92992e-02,8.98169e-02,-1.71109e-02,7.42117e-02,-2.19753e-02,1.52793e-01,9.96348e-02,-6.08147e-02,2.93857e-02,6.02348e-03,-1.14400e-02,-9.12296e-02,7.76506e-02,9.73148e-02,3.48523e-02,1.25517e-02,4.91756e-02,7.62420e-02,4.23081e-02,6.48166e-02,4.51087e-02,7.33129e-03,2.94424e-02,8.91602e-03,-6.88920e-02,9.75958e-02,1.95130e-03,1.08166e-01,3.49159e-02,-1.03267e-02,1.28191e-03,5.38234e-02,-2.26347e-02,2.98269e-02,1.11730e-01,1.90091e-02,1.16118e-01,-1.74361e-02,-1.79910e-02,-3.79326e-02,-6.04183e-02,1.12284e-02,1.20901e-01,6.05771e-02,6.68391e-02,9.27696e-02,-5.12639e-02,-4.77455e-02,-9.80127e-02,-2.50731e-02,8.14661e-02,-9.63257e-03,1.13736e-01,1.53175e-01,-1.03314e-01,1.29220e-02,1.27155e-01,-2.31466e-02,8.88558e-02,-1.05111e-02,-3.81473e-02,5.79596e-02,5.38561e-02,-9.33363e-04,8.47735e-02,1.30533e-02,6.63021e-02,4.12783e-02,1.25876e-01,3.40134e-02,-6.14463e-02,2.23344e-02,-7.17169e-02,-9.50140e-02,-5.43262e-02,4.43450e-02,-2.11066e-02,5.49089e-02,7.25124e-02,5.73841e-02,-4.81432e-02,4.47276e-02,2.21247e-02,3.18091e-02,2.46966e-02,-1.68850e-02,-6.26719e-02,-7.72803e-02,-5.73252e-02,1.66756e-02,-2.80389e-02,6.26697e-02,1.25083e-01,7.94819e-02,-2.03120e-01,5.09507e-03,-6.26302e-02,
4.10442e-02,-1.10728e-01,1.24699e-01,2.31621e-02,-4.66599e-02,5.09044e-02,1.83172e-02,-8.02423e-03,6.55051e-03,2.92704e-02,-1.08383e-01,2.91020e-02,6.86435e-03,-6.92571e-02,-5.12018e-02,-8.58964e-02,1.07793e-02,1.21874e-01,1.25373e-02,1.37493e-02,-1.81528e-02,6.40072e-02,8.99620e-02,-5.95838e-02,-7.91015e-02,-2.32001e-02,-1.25793e-01,-1.15080e-01,1.72353e-02,-1.87572e-02,1.92246e-02,-5.47837e-02,2.87849e-02,-3.59857e-02,4.87962e-02,-9.32215e-03,-1.14609e-01,-3.63581e-02,4.82928e-03,-4.92213e-02,-7.39956e-02,2.89331e-02,-2.49000e-02,3.06685e-02,-6.72361e-02,-2.11401e-02,-3.00504e-02,1.42859e-02,9.12853e-02,2.08523e-02,4.58250e-02,-7.35397e-02,9.27576e-02,5.77214e-05,5.26152e-03,5.14881e-02,5.93502e-02,-1.24955e-01,8.94717e-02,-4.92368e-02,-1.19915e-01,4.28340e-02,-2.32858e-02,-2.54632e-02,3.51819e-02,8.78625e-03,-8.09925e-02,-1.61759e-02,6.64374e-02,-3.76268e-02,-1.15294e-02,1.36911e-01,7.08464e-02,4.54182e-02,-9.60496e-02,-1.41160e-03,-4.95471e-02,1.15460e-01,7.92414e-02,2.87541e-02,-8.19557e-02,-6.95356e-02,-3.29520e-02,-9.54791e-03,-1.46334e-02,8.03037e-03,-5.58364e-02,-1.67895e-02,4.59475e-02,3.73794e-02,-4.47163e-04,6.84884e-02,3.25878e-02,5.61904e-02,-1.26404e-02,5.21487e-02,-5.51229e-03,-4.44424e-02,6.30605e-02,9.62250e-02,1.01247e-01,-1.26084e-02,7.56954e-02,-3.66631e-02,-2.16263e-03,-2.23497e-02,1.07244e-01,6.03565e-02,1.57872e-02,-1.05323e-02,3.81946e-02,-5.79093e-02,5.27374e-02,1.99777e-02,-7.45945e-02,-2.36860e-02,4.96170e-02,6.34281e-02,-1.05857e-02,3.78705e-02,1.90186e-02,-2.69741e-02,3.48636e-02,9.16990e-03,-3.75080e-02,6.67005e-02,-8.82482e-02,3.81212e-02,-2.79837e-02,7.09440e-02,6.70902e-02,-7.59784e-02,-9.23357e-02,3.93658e-02,-3.07933e-02,2.09957e-03,-4.46183e-03,-1.62402e-02,1.72739e-02,-5.74736e-02,2.18818e-02,-6.33511e-02,-3.67323e-02,-8.16868e-03,1.14484e-01,-1.01635e-02,4.97137e-02,-5.51394e-03,4.05935e-02,-7.85398e-02,-6.77173e-02,-5.82817e-02,3.88121e-02,-2.40580e-02,4.27370e-02,6.78883e-02,1.75166e-02,1.73480e-02,-1.08017e-01,1.42472e-02,-9.07560e-03,4.27181e-02,2.56991e-02,1.64940e-02,-4.15115e-02,8.05657e-02,2.36054e-02,-4.18551e-02,5.34199e-02,-1.17099e-01,-3.38862e-02,-6.00447e-02,-8.16373e-02,7.80910e-03,4.54959e-02,3.54309e-02,-4.71813e-02,1.46464e-01,-7.00403e-02,-1.86214e-02,-1.30232e-01,-4.53500e-02,4.41744e-02,-2.80660e-02,4.92875e-02,3.21154e-02,5.88800e-02,2.75913e-02,-3.15347e-02,3.35511e-02,-4.01426e-02,-6.12855e-02,-2.43209e-02,1.12139e-01,8.36021e-03,-5.42272e-02,-5.02632e-03,-5.67599e-02,2.03548e-02,-5.03235e-02,-1.10707e-01,1.68586e-02,-4.43213e-02,-1.37380e-02,4.98937e-02,6.69347e-02,4.31815e-02,-1.17001e-01,-7.70398e-02,-1.55234e-01,-1.78872e-02,3.12303e-02,-2.21905e-02,-1.13543e-01,-6.83076e-02,-6.30804e-02,6.14020e-02,1.05691e-01,6.05300e-03,-9.74430e-02,1.16945e-01,-3.59566e-02,-5.08439e-02,5.88711e-02,5.57421e-02,-7.37077e-02,-6.57059e-04,1.37302e-02,-6.98449e-02,-3.82026e-02,7.72340e-02,-7.77801e-02,-5.71131e-02,-7.19809e-02,3.19207e-02,-2.36472e-02,3.20883e-02,1.25829e-01,-9.99227e-02,-3.65660e-03,-3.64366e-02,4.54605e-02,9.32136e-03,2.41106e-02,-3.26386e-02,-1.10318e-01,-5.54159e-02,8.57325e-03,-1.26844e-02,1.28020e-02,7.38231e-02,5.87907e-02,-3.18509e-03,-8.27009e-02,-1.32682e-01,-3.77868e-02,
-3.06346e-02,1.00269e-01,2.02018e-02,-1.87150e-03,-1.09191e-02,8.27974e-02,-2.23855e-02,7.52490e-03,3.07482e-02,7.74792e-02,1.39509e-01,-3.85476e-02,4.55107e-02,1.22178e-01,-3.81786e-02,6.46182e-03,8.84415e-02,4.87280e-03,1.20405e-01,1.11855e-01,3.98837e-02,-1.01374e-01,2.02548e-02,3.16957e-02,-1.58313e-02,-2.53981e-02,2.69400e-02,-5.74509e-02,4.59626e-02,-1.04249e-02,7.35731e-02,-1.29713e-02,-2.96583e-02,1.37419e-01,1.20739e-02,6.51529e-03,1.05075e-01,-8.49078e-02,4.71293e-03,6.83394e-02,5.90815e-02,8.20880e-02,-1.61109e-02,1.10879e-01,1.10438e-01,-2.05295e-02,-7.37330e-02,-1.56109e-02,3.03138e-02,-1.50007e-03,1.00941e-01,-1.26231e-01,-5.66910e-02,2.09425e-04,1.35224e-02,-5.79669e-02,2.00344e-02,-2.34385e-02,-3.72349e-03,-7.59505e-03,-2.30952e-02,-1.03700e-02,3.29498e-02,2.13134e-02,9.83898e-02,2.60828e-02,3.35454e-02,8.17486e-03,-6.29726e-02,-1.84703e-02,6.49100e-02,-1.66234e-02,6.15728e-03,-7.44137e-02,7.69188e-02,8.07400e-03,8.76828e-02,-1.08922e-01,3.85021e-02,-1.11967e-02,6.41065e-02,4.27711e-02,1.29100e-02,6.78655e-02,6.97963e-02,4.07548e-02,6.73007e-03,9.09208e-02,6.13728e-02,3.56659e-02,-6.51465e-03,6.00986e-03,1.67730e-02,6.43047e-02,2.70210e-02,1.04573e-01,-1.58786e-03,-8.15120e-02,-7.33710e-02,-1.76598e-02,-1.39483e-02,6.72150e-03,4.43231e-02,-5.41938e-02,2.85853e-03,-4.34293e-02,4.04479e-02,-3.36851e-02,1.04858e-01,4.43440e-02,2.52343e-02,1.03612e-03,8.45093e-02,7.86620e-02,7.71425e-02,-1.09304e-02,9.36741e-02,6.99510e-02,6.20720e-02,8.44234e-03,1.03607e-01,1.11852e-02,4.63157e-02,-3.27483e-02,3.16348e-02,3.85627e-02,2.63055e-02,3.24092e-02,-2.34719e-02,5.03156e-02,3.38400e-02,9.20137e-02,5.75486e-02,4.19203e-02,7.19310e-02,1.46746e-02,2.83700e-02,7.85820e-02,5.32949e-03,1.25999e-01,-2.43941e-02,3.78116e-02,-2.02112e-02,5.54830e-02,-1.52082e-02,8.70122e-02,3.79966e-02,5.75596e-03,4.59374e-02,3.34427e-02,7.20322e-02,-3.23138e-02,-4.59455e-02,8.81112e-03,4.65560e-02,4.29865e-02,-3.69427e-02,1.17540e-01,1.14834e-02,-7.82179e-03,-1.88187e-02,9.50873e-03,8.36551e-02,1.19168e-01,-9.61199e-02,-5.84158e-03,5.17306e-02,-7.86307e-03,4.28383e-02,1.12590e-01,1.19612e-01,4.32221e-02,-5.34757e-02,3.87785e-02,3.44389e-02,-8.19833e-03,-2.95893e-02,-9.82466e-02,-2.77327e-02,8.66685e-03,5.84161e-02,6.84764e-02,-6.96005e-02,-5.96817e-04,-3.35764e-02,6.60967e-02,9.39259e-03,1.30989e-02,-3.78991e-02,-3.13457e-02,6.35303e-02,6.80324e-02,3.25325e-02,2.41536e-02,-8.99008e-02,3.69179e-02,7.37801e-03,-3.99655e-02,4.83522e-02,-1.92503e-03,5.86868e-02,-6.31040e-02,3.60301e-02,1.58010e-02,-1.33145e-02,2.74572e-02,2.97341e-02,1.80533e-03,9.33493e-02,-2.10565e-02,2.89920e-02,-6.43904e-02,-2.80794e-02,1.04375e-01,-4.64450e-02,-7.13951e-02,9.38574e-03,-5.61448e-02,1.52574e-02,-3.37154e-02,-1.02303e-02,-1.73701e-02,2.55270e-02,-8.17160e-02,5.23897e-03,-3.44868e-02,5.85044e-03,-5.54720e-02,4.31534e-02,7.99690e-02,4.32697e-02,5.52995e-02,1.39549e-01,2.28212e-02,-5.06264e-03,3.37409e-02,-5.39588e-02,-4.24667e-02,3.14807e-02,-2.26971e-04,6.56124e-02,7.53834e-02,7.89261e-03,5.00597e-02,5.18912e-02,-1.25228e-02,1.00439e-02,6.49209e-02,1.04667e-01,6.50736e-02,6.32131e-02,-2.28249e-02,-3.53909e-03,1.92222e-01,4.69796e-02,6.11207e-02,
-1.65770e-02,6.13884e-02,3.81832e-02,1.35203e-02,-4.70727e-02,1.98037e-02,-3.97171e-02,4.77667e-02,9.94273e-03,3.30660e-02,6.70912e-03,-9.71019e-03,4.21972e-02,5.67736e-02,-4.53062e-02,5.76854e-03,3.25898e-02,-4.89660e-03,-3.94022e-02,-7.83114e-03,4.82107e-02,-2.22707e-03,3.17961e-02,4.54562e-02,-5.22640e-02,-2.66449e-02,5.88449e-02,2.30402e-02,-5.76397e-02,-5.10167e-02,3.67622e-02,-2.31654e-02,1.95603e-02,-4.69214e-02,6.02750e-02,5.56028e-02,-8.30807e-03,-7.45247e-03,4.58394e-02,2.00999e-02,2.39791e-02,1.75425e-03,-1.78621e-02,4.51240e-02,-2.73551e-02,-5.21189e-02,-5.29532e-02,1.48496e-02,-1.31491e-02,-1.65983e-03,1.28020e-02,-3.50591e-03,-9.69834e-03,-5.19327e-02,-1.03772e-02,-2.61730e-02,-5.38840e-02,-1.72669e-02,-5.62847e-02,5.37310e-02,-4.65219e-02,-2.92892e-02,-2.22519e-02,-2.30644e-02,4.08501e-02,-6.97947e-03,-5.01534e-02,4.14964e-02,4.67276e-02,8.78292e-03,2.07752e-02,-2.24699e-02,-5.81764e-02,-1.72399e-02,1.41404e-02,2.96506e-02,-4.77098e-02,-6.22211e-02,3.77808e-02,3.05050e-02,2.13587e-02,3.31220e-02,-5.50819e-02,5.36891e-02,-2.04145e-02,-2.27846e-04,-4.23570e-02,2.03984e-02,-2.76869e-02,-4.96670e-02,3.64540e-02,-1.07258e-02,-2.84221e-02,3.47798e-02,5.76372e-02,9.65381e-03,2.59790e-02,3.17203e-02,-2.37793e-02,-9.73806e-03,5.39429e-03,-4.06350e-03,5.46042e-02,-9.56378e-03,-2.20767e-02,9.25078e-03,3.33076e-02,-6.15334e-02,3.26477e-02,-5.74816e-02,-4.07099e-03,-5.11374e-02,5.62455e-02,-1.37983e-02,3.54547e-02,-1.00178e-02,1.03487e-02,-6.10756e-03,-3.91552e-02,5.04667e-03,1.62080e-02,-4.60142e-02,-9.36250e-03,-5.53311e-02,2.63025e-02,-4.80050e-02,1.27193e-03,-5.94726e-02,-4.45434e-02,3.44979e-02,6.03025e-02,-5.70550e-02,2.67205e-02,-3.09720e-02,-1.75472e-02,-1.02821e-02,4.65339e-03,-7.26264e-03,-1.98563e-02,-3.78199e-02,4.66030e-02,-1.93419e-02,4.24818e-03,2.24460e-02,4.09276e-02,-6.12603e-02,2.45448e-02,-2.18327e-02,-1.56179e-02,-1.39897e-02,1.71186e-02,5.16580e-02,1.17026e-02,-4.97093e-02,-3.07571e-02,-3.53228e-02,-5.96284e-02,9.53423e-03,6.02258e-02,-1.88126e-02,2.58814e-03,6.10804e-02,-2.05214e-02,-5.41487e-02,2.60805e-02,2.01855e-02,4.03350e-02,-1.02488e-03,2.90528e-04,-3.41649e-02,1.77952e-02,1.40472e-02,-5.22904e-02,6.04910e-02,-4.14708e-03,-3.31222e-02,2.37135e-03,4.69605e-02,-4.19536e-02,3.38504e-02,4.19076e-02,4.16257e-02,-3.41732e-02,-1.50986e-02,-1.01835e-02,3.94436e-02,-5.62746e-03,3.98426e-02,-3.69772e-02,1.07868e-02,-1.58957e-02,-9.93219e-03,-5.17505e-02,-2.36839e-04,3.14752e-02,1.62735e-02,3.27077e-02,-5.89051e-02,-1.93503e-02,-1.28741e-02,4.92114e-02,-4.25093e-02,-5.24600e-02,-2.01146e-02,-3.31802e-02,-5.75093e-02,-5.01731e-02,-2.94226e-02,-7.73743e-05,-5.38296e-03,-5.29329e-02,-4.29567e-02,-1.73387e-02,2.41014e-02,-4.80892e-02,9.20119e-03,-2.34584e-02,1.81014e-02,6.01711e-02,-3.23159e-02,5.84853e-02,1.67771e-02,-3.79221e-02,2.06459e-02,-5.27043e-02,2.61062e-02,2.29103e-02,4.27004e-02,2.87822e-02,-1.03507e-02,2.35382e-02,-4.59708e-02,-6.11370e-02,1.97632e-02,2.68040e-02,-5.06337e-02,3.33375e-02,1.85020e-02,-6.28752e-03,-4.03723e-02,-2.81297e-02,-4.51151e-02,-6.15265e-02,-5.62902e-03,1.61940e-02,1.62266e-02,5.11732e-02,2.89488e-02,-5.96808e-02,-1.20232e-02,-3.28939e-02,-5.14138e-02,4.46063e-02,5.87840e-02,-6.28862e-03,-6.19538e-02,
5.09646e-02,-1.09210e-02,5.40856e-02,6.85991e-04,1.81953e-02,-3.31134e-02,8.01375e-02,-7.15897e-03,5.51994e-02,6.42271e-02,-1.96770e-02,-1.25630e-02,-2.48722e-02,-1.03256e-01,4.28666e-02,-3.64459e-02,-3.56535e-02,1.13968e-01,1.29995e-02,-1.14580e-01,-8.15017e-02,1.67317e-02,-2.89485e-02,-8.20461e-02,1.10530e-01,5.89105e-02,-9.01576e-02,2.36326e-02,1.07010e-01,-1.39337e-02,-1.39334e-01,2.34792e-02,8.89231e-04,-4.79042e-02,-2.05155e-02,5.48979e-02,-1.08531e-01,3.40830e-03,4.09285e-02,-4.18310e-02,-3.39642e-02,7.22200e-02,1.01431e-01,-5.19952e-02,-1.57640e-01,1.33957e-02,8.92316e-02,-1.04821e-02,3.66962e-02,-3.56092e-02,-1.93432e-02,1.57908e-01,5.49688e-02,-1.89503e-02,-6.42184e-02,3.11263e-02,-1.76202e-02,5.99553e-03,-1.17614e-01,-3.83871e-02,8.52326e-02,1.09824e-02,4.69685e-02,2.54209e-02,-2.09803e-02,-7.01910e-02,2.10880e-02,-9.46408e-03,1.18698e-01,4.21838e-02,-1.13720e-02,4.66368e-02,1.02977e-01,3.91597e-02,-1.19095e-02,-4.73232e-02,-1.18079e-01,4.44657e-02,8.23864e-03,1.79506e-02,5.11687e-02,-3.18785e-02,-4.89842e-02,-3.00483e-02,-3.66919e-02,4.76507e-02,-1.06799e-01,-4.99934e-02,6.91026e-03,6.13948e-02,2.74575e-02,-5.42279e-04,-1.27607e-02,-8.53861e-03,7.54914e-02,-1.02413e-01,2.11892e-02,3.82182e-02,-3.57919e-02,1.18265e-01,1.05944e-01,-5.41621e-02,-2.11306e-02,9.37448e-03,4.46945e-02,8.63091e-02,6.67176e-02,2.24474e-02,2.95858e-02,4.74392e-02,2.57818e-02,2.67221e-02,-9.77377e-04,-6.60156e-02,-1.51506e-01,-4.54773e-02,-3.96429e-02,-4.02307e-02,4.40141e-04,1.05404e-02,-7.56098e-02,-1.02538e-02,-6.42114e-02,1.21000e-01,-7.29463e-02,2.10331e-02,-8.17005e-02,2.12713e-02,2.23628e-02,2.00957e-02,-5.15180e-02,-4.66033e-02,-1.23211e-02,4.24076e-02,-6.15288e-02,4.24856e-02,8.76430e-03,-5.87401e-02,7.80969e-02,-5.00825e-02,1.20123e-01,4.41137e-02,8.68599e-02,-4.88938e-02,6.55498e-02,-1.03219e-02,-1.41022e-02,1.04404e-01,-1.04113e-03,-1.12098e-02,-1.88693e-02,7.10181e-02,-4.48657e-02,4.92428e-02,-7.16710e-02,-3.90595e-02,4.39977e-02,-1.36567e-01,6.25509e-03,7.21343e-02,6.88897e-02,2.34195e-02,-3.97048e-03,2.06771e-04,1.35340e-01,1.03248e-01,-4.03601e-02,1.12810e-01,5.47873e-02,5.94177e-03,-8.61184e-02,2.12819e-02,1.01436e-01,4.39697e-02,8.94033e-03,-8.35600e-04,3.93501e-02,7.85846e-02,5.55720e-02,7.95812e-02,-2.39532e-03,-7.70829e-02,2.56306e-02,-1.31374e-01,1.90766e-03,-7.01298e-02,1.09948e-01,3.03067e-02,-5.93556e-03,-6.27488e-03,7.14162e-02,-8.24720e-02,4.33573e-02,6.33350e-02,1.44003e-02,9.51996e-02,-6.09916e-02,6.46797e-02,-1.28103e-01,7.40410e-04,6.23997e-02,1.07643e-01,2.16530e-02,4.47948e-02,2.08113e-02,-7.08212e-02,1.50378e-02,-4.95988e-02,-9.05244e-02,1.45419e-01,3.02850e-02,1.08374e-01,1.41223e-01,-1.01322e-01,4.49026e-02,5.96667e-02,5.33262e-02,1.04601e-01,3.90187e-02,-3.93587e-02,5.90845e-02,1.26386e-02,1.12205e-01,3.12934e-02,7.57482e-02,1.06640e-02,5.45018e-02,5.97706e-02,3.41275e-02,2.96324e-02,5.50495e-02,-4.40121e-02,-9.59208e-02,4.26612e-02,4.24835e-04,-6.76568e-03,9.66997e-02,1.51468e-02,5.70590e-02,-1.15472e-03,7.84213e-03,-3.10820e-02,-8.16353e-02,5.95080e-03,-4.12437e-02,-2.76346e-02,3.89060e-02,-6.07897e-03,-6.77964e-02,-6.18633e-02,2.93483e-02,6.66622e-02,5.38604e-02,-1.05933e-01,-4.71164e-02,-6.67327e-02,
-2.09044e-02,-3.32367e-02,1.10417e-01,8.56644e-02,4.68743e-03,4.75906e-03,2.67985e-02,5.66787e-02,6.54526e-02,3.28428e-02,-3.73060e-02,6.11984e-03,4.62155e-02,-2.32517e-02,7.55115e-02,6.74002e-02,5.42732e-02,5.57198e-02,-4.54850e-02,-6.48513e-02,-5.16682e-02,1.76937e-02,8.84912e-03,-8.11304e-03,5.81235e-02,7.87207e-02,-3.22222e-02,-3.08637e-03,5.28584e-02,-3.53154e-02,-2.16078e-02,-3.96094e-02,4.74111e-02,1.82181e-02,8.02530e-02,-9.78484e-04,-3.16419e-02,8.88774e-02,-1.18988e-02,2.79568e-02,1.22741e-02,3.24138e-02,9.58210e-02,-5.47337e-02,-3.11671e-02,-1.86143e-02,8.49316e-02,9.86524e-02,4.70028e-02,6.52026e-02,-1.27278e-02,5.22798e-02,1.29208e-03,1.70212e-03,1.33415e-02,2.76911e-02,1.93559e-02,8.48564e-02,-2.24303e-02,6.35361e-02,4.10460e-02,6.09233e-02,4.18397e-02,1.00904e-01,-8.01066e-02,5.14335e-02,4.78237e-02,-3.63410e-02,3.81687e-02,5.68794e-02,2.43609e-02,8.69593e-02,6.66637e-02,7.33573e-02,4.68298e-02,-1.60327e-02,2.37107e-02,1.12755e-01,-3.52360e-02,4.17839e-02,8.27939e-02,9.73220e-02,-2.77729e-02,9.02136e-02,5.02036e-02,1.10125e-01,-2.47474e-02,-3.84542e-02,-2.86353e-02,3.69681e-02,-3.92171e-02,8.84025e-02,-9.39190e-03,-1.55857e-02,4.47315e-02,-5.77079e-02,6.04405e-02,6.80433e-02,1.63315e-02,1.13819e-02,9.85986e-02,6.50252e-02,-2.72687e-02,3.06673e-02,1.03871e-02,1.39711e-01,7.02639e-02,-1.97251e-02,5.09953e-02,3.93497e-03,2.83163e-02,1.05905e-01,2.00709e-02,-4.60974e-02,3.79206e-03,-4.34811e-02,-1.32074e-02,1.13811e-02,7.37341e-02,-2.14331e-02,6.13437e-02,2.99069e-02,-5.23491e-02,-3.41147e-02,-2.46799e-02,2.28388e-02,-8.27412e-02,2.29771e-02,9.76446e-03,-2.67366e-02,6.16573e-02,5.63441e-02,2.31608e-02,1.19372e-03,1.81437e-02,7.74448e-02,-2.33324e-02,5.26660e-02,5.61128e-02,5.01574e-02,7.25740e-02,3.60565e-02,4.57061e-02,1.45826e-02,4.90330e-02,8.41019e-03,3.25421e-02,4.30421e-02,-9.80459e-03,1.04767e-01,4.58465e-02,1.43007e-02,3.72632e-02,1.11310e-01,-5.14178e-03,-2.50037e-02,-1.35233e-02,-1.22597e-02,-6.29194e-02,7.35402e-04,5.14241e-02,-1.88472e-02,8.78837e-02,-6.22804e-03,4.56430e-02,6.92259e-02,-7.05222e-03,1.14177e-02,8.04962e-02,9.27658e-02,-2.46203e-02,-7.77746e-03,7.52455e-02,6.46260e-02,5.07466e-02,-1.09780e-02,8.37173e-02,-1.16003e-02,9.94498e-02,-3.15510e-02,-1.16575e-02,-5.02369e-02,3.75284e-02,6.02274e-02,2.03729e-02,-8.66967e-03,1.29521e-02,-2.70668e-02,3.17136e-02,1.15188e-02,6.08780e-02,-2.94434e-02,8.07975e-02,7.52152e-02,6.58085e-02,9.28722e-02,-3.87653e-02,6.03109e-02,4.11154e-03,-2.20753e-02,-4.30980e-03,5.25900e-02,3.73374e-02,-1.61528e-02,8.60738e-02,2.75022e-02,-5.53253e-02,-5.86805e-02,-5.46982e-02,9.23092e-03,-4.52692e-02,8.81979e-02,9.54526e-02,-2.86476e-02,7.04497e-02,1.04218e-01,-2.04430e-02,8.17778e-02,2.06625e-02,3.59738e-02,1.43846e-02,-3.08401e-04,1.24650e-02,4.65325e-02,-9.90630e-03,3.13254e-02,6.01179e-02,2.03418e-02,7.06293e-02,1.16551e-02,-4.36195e-02,3.25284e-02,-6.65807e-02,7.11279e-03,5.10845e-03,3.04611e-02,1.16349e-01,5.93957e-02,9.35789e-02,-9.39321e-03,5.63759e-02,9.81427e-03,9.55924e-03,-3.28029e-02,4.74583e-02,1.65471e-03,-5.13121e-03,4.32285e-02,3.94538e-02,-2.32275e-03,6.61856e-02,8.28501e-03,1.05851e-01,-7.44916e-02,-4.30193e-02,2.60791e-02,
-7.71952e-02,-4.63415e-02,4.46836e-02,5.57626e-02,1.31764e-01,-6.73732e-02,-5.51947e-02,-9.46778e-02,-2.64922e-02,-2.69751e-02,8.12240e-02,8.50147e-02,6.48771e-02,1.71319e-01,-4.19852e-02,9.06144e-02,5.41320e-02,-5.58214e-02,6.23909e-02,-4.67176e-02,8.65261e-02,-2.09822e-02,9.40235e-02,-2.85082e-02,-1.72205e-01,-8.60439e-02,8.98277e-02,-9.41722e-03,-4.16298e-02,-1.96889e-02,-7.74277e-02,-5.49681e-02,2.05198e-02,1.98307e-02,2.33266e-03,-7.32287e-02,1.49324e-01,6.08724e-02,3.68516e-03,1.37651e-02,3.72243e-02,1.18736e-03,4.68724e-02,3.42525e-02,9.92967e-02,3.27428e-02,-6.10253e-02,-9.17753e-02,-1.12296e-02,-1.41262e-01,1.47208e-01,-1.59438e-01,2.39050e-02,-6.39480e-02,3.81377e-02,1.56205e-02,-1.43763e-01,-2.34934e-02,5.40397e-02,6.98470e-02,-3.04258e-03,4.75536e-02,-1.30294e-02,-1.68765e-02,-8.96259e-02,7.95387e-02,-6.23236e-02,-8.49667e-02,4.88202e-03,-7.07392e-03,2.49192e-02,-1.51831e-02,-4.47862e-02,2.95969e-02,1.42149e-01,-2.67654e-02,1.05357e-01,1.55122e-02,5.84210e-02,-2.88511e-02,3.69919e-02,1.78923e-02,-2.49699e-02,4.86909e-02,4.57203e-02,1.20802e-02,1.21938e-01,1.24663e-02,1.01901e-01,6.14849e-02,-1.29661e-01,8.06894e-02,1.24924e-02,2.01401e-02,-7.16538e-02,-1.26677e-02,-2.14695e-02,-2.03039e-03,7.07985e-02,-2.09980e-02,-1.67582e-02,8.54265e-02,-1.20730e-01,1.48020e-01,6.29488e-02,-3.04037e-02,-3.11774e-02,-1.11478e-02,-2.77093e-03,4.31245e-02,1.02270e-02,5.24269e-03,9.25298e-02,3.69397e-02,-9.30943e-03,-5.66876e-02,-1.17877e-02,-7.25028e-02,3.21103e-02,2.50693e-02,2.49147e-02,-1.02090e-01,-1.00110e-02,-1.56201e-01,-4.59373e-02,-1.88426e-02,7.61413e-02,5.07267e-02,3.07622e-02,1.13906e-02,6.41466e-03,-9.84799e-02,-2.34165e-02,-2.52860e-02,1.09115e-01,-8.26668e-02,-2.15654e-02,1.00295e-01,6.28897e-04,8.42370e-02,-7.18903e-02,-4.18355e-02,6.09032e-02,1.17346e-01,-6.96369e-02,4.60504e-02,6.69914e-03,-6.56611e-02,5.05952e-02,-2.16428e-02,7.57724e-02,2.58608e-03,-6.86444e-02,7.00191e-02,5.88030e-02,-3.15076e-02,5.56627e-02,-5.07996e-02,1.24541e-01,-8.28337e-02,1.43890e-02,5.34132e-02,2.18729e-02,1.06288e-01,-9.42057e-02,-9.66927e-02,-1.13113e-01,-1.20260e-01,1.87305e-03,7.12589e-02,5.05307e-02,6.75705e-02,-2.33905e-02,-1.33431e-02,3.40833e-02,8.58296e-02,-1.04431e-01,-1.10843e-01,1.08847e-01,3.48820e-02,1.15999e-01,-4.68678e-02,-3.79724e-02,-2.49581e-03,-1.01136e-01,-1.39188e-01,-8.98424e-02,-3.89915e-02,3.78306e-03,3.69523e-02,1.61645e-03,8.65109e-02,-2.50453e-02,-1.23980e-01,1.98726e-02,-8.99853e-02,2.04322e-03,3.43591e-03,1.19822e-01,4.52883e-03,2.34858e-03,-1.82810e-02,4.03457e-02,5.42821e-02,-5.70381e-02,9.19514e-02,1.22247e-01,9.61956e-02,3.96278e-02,-9.27762e-02,8.97993e-02,-5.09519e-02,-8.55981e-02,6.60006e-02,3.69612e-03,-6.51150e-02,8.23421e-02,-1.13026e-01,6.38653e-02,-2.78483e-02,-1.50346e-01,1.69550e-02,1.04488e-02,-1.21236e-02,-7.20640e-02,-8.73789e-02,-9.23452e-03,-8.91306e-02,-1.95021e-02,-9.31688e-02,-1.48483e-02,-1.42912e-01,5.23728e-02,9.14805e-02,7.51229e-02,5.32910e-02,-5.14227e-02,-1.50015e-02,8.38024e-02,-5.69542e-02,-2.98833e-02,8.20008e-02,-2.99620e-02,-6.79736e-02,-1.92134e-02,1.10541e-01,1.01273e-01,4.00590e-02,8.61210e-02,-1.70666e-01,2.02193e-02,3.63136e-02,-8.07479e-03,9.83658e-02,-6.63366e-02,-7.09862e-02,
5.66813e-02,1.20257e-01,7.76409e-05,4.66694e-02,3.96580e-02,3.49016e-03,6.19367e-02,3.68846e-02,1.64520e-02,-8.11805e-03,9.49058e-02,5.76993e-02,3.56980e-02,6.78667e-02,-3.70137e-02,3.64998e-02,-3.70095e-03,-7.57840e-02,9.92531e-02,-1.22401e-02,1.04227e-01,2.95340e-03,8.92318e-02,9.43087e-02,-1.62820e-02,4.17595e-02,8.19957e-02,3.21826e-02,-3.29736e-02,2.26999e-02,2.66566e-02,-3.62312e-03,-8.49227e-02,3.59653e-02,3.67383e-02,4.21215e-02,9.84638e-02,2.33650e-02,8.65566e-02,8.73766e-03,1.38083e-02,4.96479e-02,1.02668e-01,9.28605e-02,2.24804e-02,-1.02602e-02,5.36316e-02,4.83173e-02,2.61457e-02,7.33034e-02,1.22920e-01,-1.02710e-01,1.79305e-02,1.14560e-02,5.82868e-02,-2.01819e-02,-2.87291e-02,1.89269e-02,1.78430e-02,4.50539e-02,-1.09057e-02,1.08949e-02,4.17302e-02,-3.43016e-02,1.06468e-03,6.62297e-02,7.13569e-02,-5.62857e-02,-3.75359e-02,-1.67686e-02,7.79463e-02,3.93264e-02,7.18287e-03,-7.38389e-02,1.14755e-01,4.32366e-02,1.12351e-01,-1.12762e-01,-1.33968e-02,2.90221e-02,4.49475e-02,-1.09540e-02,5.60702e-02,9.13044e-02,4.97451e-02,2.84086e-02,6.51978e-02,4.16032e-02,-7.57484e-03,-3.98786e-02,-2.41958e-03,6.36819e-02,2.10950e-02,2.25403e-02,-5.77847e-02,6.81105e-02,2.26236e-02,6.60443e-03,6.08808e-02,5.59961e-02,-9.63819e-02,8.61312e-02,-1.35904e-02,2.35208e-02,9.91497e-02,-5.99141e-02,-1.01729e-02,2.75652e-02,9.38442e-02,-2.20225e-02,2.91270e-02,9.13699e-02,3.48869e-02,8.83333e-03,4.39325e-02,5.84500e-02,6.99272e-02,7.48130e-02,7.69531e-02,7.45383e-02,2.72039e-02,7.98978e-02,-2.18221e-02,4.37373e-02,-2.70852e-03,2.83279e-02,4.97566e-02,4.83335e-02,4.79829e-02,4.25000e-02,4.66125e-02,6.83293e-02,3.89236e-02,1.46061e-02,1.11552e-01,6.40295e-02,9.36440e-02,7.60632e-02,3.14221e-03,1.15181e-01,1.21054e-02,2.23050e-03,-3.20890e-02,4.52199e-02,-1.63553e-02,8.18478e-02,-1.14467e-02,-3.77532e-02,-1.06460e-02,5.65418e-02,3.22799e-02,6.13595e-03,2.18268e-02,4.92421e-02,-3.93826e-02,3.08340e-02,5.96524e-02,4.96719e-02,3.53302e-02,-3.71267e-02,8.59516e-03,5.82044e-02,8.99755e-03,6.17130e-02,-5.37963e-02,6.58484e-02,9.02331e-02,8.10054e-02,3.23474e-02,1.42294e-02,9.61292e-02,3.71648e-02,-4.84039e-02,3.45991e-02,3.65448e-02,3.45290e-02,1.83100e-02,-7.53466e-02,8.55249e-02,-3.95190e-02,1.05012e-01,-2.03567e-02,7.54340e-02,-1.96449e-02,1.52484e-02,3.48628e-02,1.74108e-02,3.34102e-02,8.29260e-02,4.18302e-02,8.62529e-02,3.10080e-02,5.54646e-02,5.13236e-02,-2.32348e-02,4.46068e-02,1.17609e-01,1.64277e-02,1.26051e-01,1.74301e-02,-6.68105e-03,-2.65921e-04,-6.14269e-03,-1.29629e-02,-7.42552e-02,6.03859e-02,8.77492e-02,8.29910e-02,4.72290e-02,-4.11308e-02,-1.50803e-02,-3.91667e-02,-2.37951e-02,1.03535e-01,1.91550e-02,-6.92364e-02,-3.18549e-02,2.44622e-02,7.84935e-02,4.25578e-02,7.45521e-02,5.61770e-02,5.01267e-02,-9.08452e-02,-4.87892e-02,9.53766e-02,6.32455e-02,-5.12421e-02,2.29478e-02,6.29856e-02,7.37130e-02,2.67525e-02,7.79330e-02,5.59031e-02,5.77276e-02,-5.24447e-03,4.68428e-02,3.71115e-02,1.79076e-02,4.81415e-03,6.09121e-02,8.07616e-02,9.77335e-02,3.89102e-02,1.59993e-02,7.65558e-02,6.18042e-02,6.78860e-02,9.28803e-03,6.36280e-02,-1.51796e-02,-2.75737e-02,5.45594e-02,1.36677e-01,-7.85334e-03,5.38859e-03,
3.02601e-02,1.53021e-01,-6.20972e-02,2.20330e-02,6.82944e-02,4.08667e-02,3.85684e-03,-2.99980e-02,-1.42285e-02,2.09219e-02,1.38968e-01,-6.02626e-02,2.90118e-02,1.36690e-01,1.61689e-02,8.52129e-02,7.71175e-02,-1.06435e-01,3.29738e-02,4.63876e-02,8.30703e-02,-1.17173e-01,-3.45845e-02,1.57396e-01,-2.14705e-02,-5.62174e-02,3.88734e-02,-3.51717e-02,-1.18434e-02,4.75097e-02,1.04621e-01,-4.95988e-02,-1.11503e-01,1.38909e-01,5.96689e-02,5.02221e-02,1.00119e-01,-5.58594e-02,7.05285e-02,-1.18763e-02,8.70531e-03,-1.85126e-02,9.52425e-02,6.43329e-02,1.54441e-01,-4.76863e-02,-5.12727e-02,6.52280e-05,8.05402e-03,-6.72470e-02,9.89492e-02,-5.99043e-02,-5.44339e-02,9.22239e-03,2.74973e-02,1.36420e-02,1.31679e-02,-5.86278e-02,-4.53516e-03,1.04403e-02,-3.88550e-02,9.84693e-02,8.70148e-02,-3.45854e-02,2.68355e-02,9.44141e-02,1.02624e-01,-3.35328e-02,-3.60590e-02,3.96685e-02,4.73104e-02,-2.44996e-02,-6.08448e-02,1.07653e-03,7.47581e-02,8.70347e-02,9.06663e-02,-6.45136e-02,1.64581e-02,-5.88390e-02,3.69855e-02,2.77539e-02,9.12457e-02,3.66233e-02,1.16043e-01,-4.80436e-02,5.63582e-02,2.12712e-02,1.49611e-02,2.00088e-02,-1.85909e-02,4.35451e-02,-5.45295e-02,-1.17498e-02,-1.95675e-02,-9.97888e-03,4.81082e-02,-4.46239e-02,-1.13967e-02,1.70468e-02,-1.28070e-01,7.09589e-02,1.35465e-02,3.87957e-02,4.14591e-02,-1.48778e-01,-7.25439e-02,-2.63282e-02,9.05468e-03,3.92697e-02,5.68572e-02,-3.14954e-02,6.94504e-02,-1.62488e-02,3.35709e-02,2.20716e-02,5.11329e-02,3.11689e-02,5.61600e-02,3.74905e-02,8.56261e-02,1.17357e-02,4.87286e-02,-5.51291e-02,2.30476e-02,-1.62969e-02,5.38298e-02,3.00897e-02,6.17371e-02,3.70462e-02,-2.91921e-02,1.53030e-02,-1.40665e-02,-1.91564e-02,1.13198e-01,-3.30439e-02,5.70279e-02,8.00722e-02,1.58764e-03,7.62735e-02,7.96079e-04,2.44289e-02,-2.95700e-02,-5.13466e-03,-1.83206e-02,4.96715e-02,3.83522e-02,-5.03723e-02,6.61946e-02,-7.02688e-02,1.49660e-01,1.71072e-03,-5.49920e-02,4.12514e-02,4.08769e-02,5.21672e-02,-2.05983e-02,1.09845e-02,6.76492e-02,-4.99639e-02,-7.91241e-02,4.47068e-02,1.94831e-02,1.14654e-01,-3.62195e-02,3.70246e-02,-6.72222e-03,1.04491e-03,1.27793e-02,6.87444e-02,5.48464e-02,-3.95768e-02,-1.07639e-01,1.13494e-02,3.51114e-02,-1.78718e-02,-3.53547e-02,-5.48189e-02,-5.25689e-02,-3.59557e-02,9.22747e-02,6.86538e-02,-2.26024e-03,8.98211e-02,-7.19722e-02,8.92678e-02,-5.78523e-02,6.93142e-02,-4.15576e-02,-3.43354e-02,-3.41355e-02,1.33467e-01,4.33340e-02,-1.10070e-03,2.81437e-02,1.43544e-02,9.35578e-02,-3.43461e-03,2.40008e-02,9.91948e-02,-5.66147e-02,-2.41087e-03,3.00150e-02,-5.29507e-02,-4.73856e-02,8.09011e-02,1.72514e-02,8.39223e-02,1.38325e-01,-5.55222e-02,2.35532e-02,5.16743e-03,-1.09842e-01,3.62135e-02,5.73161e-02,-4.70743e-02,6.11050e-02,-8.97117e-02,3.92986e-02,5.34331e-02,4.60244e-02,-4.09502e-02,2.98950e-02,-1.24852e-01,-2.13533e-02,-1.96644e-02,-7.39112e-03,-7.66905e-02,-9.54150e-03,-1.47454e-02,8.11158e-03,-2.50443e-03,1.47358e-01,6.08460e-02,2.55143e-03,2.46450e-02,-3.55908e-02,-5.12169e-02,3.81628e-02,8.04614e-02,1.82763e-02,1.15050e-01,4.10925e-02,1.23958e-02,5.98144e-02,9.17176e-02,-2.43276e-02,7.63258e-02,5.99956e-02,5.02499e-03,1.90618e-02,-1.03320e-01,-3.44702e-03,1.86779e-01,-2.93435e-02,-2.17281e-03,
2.67504e-02,1.03312e-01,-1.40800e-02,-2.42948e-03,-8.12851e-03,-6.98492e-03,3.85044e-02,9.81714e-03,-6.99100e-03,9.31882e-02,4.24085e-02,1.08337e-02,7.30360e-02,1.06803e-01,-5.42506e-02,-4.75352e-03,3.96482e-02,-1.10571e-02,7.75468e-02,6.29281e-02,8.17381e-03,1.32404e-02,1.24512e-02,9.93335e-02,5.94256e-02,-3.68718e-02,1.89828e-03,-7.04708e-03,-9.39934e-03,9.81941e-03,7.53924e-02,1.22043e-02,-6.28582e-02,1.45028e-01,2.47259e-02,2.31470e-02,7.33990e-02,-8.75274e-02,4.58605e-02,7.71005e-03,6.19608e-02,5.99041e-02,6.51153e-02,2.72019e-02,1.27637e-01,-3.87536e-02,-1.34334e-02,-1.27546e-02,1.12763e-02,-2.34137e-02,6.14174e-02,-6.05740e-02,-4.64031e-02,3.24024e-02,1.71995e-02,-1.25403e-03,3.83502e-02,3.96367e-02,8.06857e-02,-6.52748e-03,3.27178e-02,6.13306e-02,5.63971e-02,-7.69627e-03,2.59925e-02,1.07286e-01,1.13959e-01,-1.94898e-02,-7.09215e-02,4.93263e-02,6.15571e-02,-2.31098e-02,-1.87248e-02,-6.02508e-02,1.34558e-02,1.67539e-02,9.29333e-02,-1.43833e-01,2.20530e-02,3.76212e-02,1.51141e-02,3.54762e-02,-1.47900e-02,-3.59621e-02,5.24315e-02,4.10800e-03,8.15361e-02,4.31476e-02,9.36724e-02,-5.79453e-02,4.51771e-02,-1.20377e-03,8.21572e-02,-3.13345e-02,-4.87642e-02,2.14679e-02,7.45307e-02,-5.90455e-03,8.45987e-02,2.75688e-02,-1.14664e-01,-2.40851e-02,3.02622e-02,-3.34133e-02,8.19826e-02,-7.31080e-02,-6.00120e-02,-2.75704e-02,6.69569e-02,3.88729e-02,-3.66819e-02,7.23199e-02,9.37420e-02,-1.96947e-02,5.75126e-02,5.37642e-02,-1.05156e-02,6.57286e-02,1.48003e-02,4.13169e-02,5.63264e-02,9.16575e-03,3.31979e-02,-3.67510e-02,5.98651e-02,5.09149e-02,4.68930e-02,-1.42318e-02,6.38309e-02,7.25970e-02,-1.04967e-02,4.70740e-02,-1.09113e-02,7.09992e-02,3.71350e-02,4.17397e-02,3.81153e-02,4.95818e-03,-3.93461e-02,3.66618e-02,-3.51516e-02,4.16474e-02,4.11147e-03,5.94940e-02,1.96931e-02,1.02663e-01,1.18486e-02,-1.63308e-02,1.22444e-04,-6.36118e-03,1.15699e-01,-2.04270e-02,2.28179e-02,-3.48803e-03,-1.29040e-02,3.85302e-04,3.56301e-02,7.73689e-02,3.65465e-02,1.89683e-02,-4.69338e-02,1.44883e-02,8.04068e-02,4.18843e-02,-1.13894e-01,-1.56083e-02,4.18162e-02,-1.75612e-02,2.84776e-02,6.52153e-02,7.09992e-02,3.55113e-02,3.20291e-02,2.75641e-02,4.41446e-02,9.43755e-02,8.51566e-02,-6.95348e-02,4.67283e-02,1.09806e-03,1.29426e-01,-1.05562e-03,-3.41800e-03,1.55910e-02,-2.64600e-02,6.57387e-03,1.32466e-02,4.37974e-02,-3.21994e-02,-1.92532e-02,1.73129e-02,6.74036e-02,4.38721e-02,-6.36267e-02,1.56400e-02,1.12825e-02,9.32402e-02,-8.71164e-03,-8.34091e-03,1.69666e-02,-6.05677e-03,6.09328e-02,-5.58570e-02,-3.52325e-02,-7.55327e-03,-2.43631e-02,6.05355e-02,-8.54216e-03,1.18611e-01,5.42734e-03,8.69478e-03,-6.20784e-02,-1.15718e-01,-1.62176e-03,5.85609e-02,-8.26804e-02,-1.21783e-02,-4.94928e-03,2.75582e-02,-2.05415e-02,6.18061e-02,8.38086e-02,1.65082e-03,-9.13145e-02,-2.19426e-02,2.15648e-02,-1.43580e-02,1.24395e-02,4.71235e-03,9.50648e-02,2.22070e-02,9.93061e-02,7.60029e-02,2.84799e-02,7.20135e-02,1.39783e-02,6.86296e-02,-6.91643e-02,5.82587e-02,6.17206e-02,-9.43671e-03,2.59703e-02,4.89620e-02,-5.75164e-02,4.59834e-02,-1.14716e-02,8.89426e-03,5.91369e-02,1.09733e-01,-2.50006e-02,2.06629e-02,-7.76195e-02,3.09316e-02,4.85983e-02,1.05387e-01,9.68426e-02,
