// Neural Network File Format by Kyle Julian, Stanford 2016
// Network written to file by adapted writeNNet() method for ReLUNet
3,11,1,11,
11,4,2,1,
0,
-1.0,-1.0,-1.0,-1.0,-1.0,-1.0,-1.0,-1.0,-1.0,-1.0,-1.0,
1.0,1.0,1.0,1.0,1.0,1.0,1.0,1.0,1.0,1.0,1.0,
0.0,0.0,0.0,0.0,0.0,0.0,0.0,0.0,0.0,0.0,0.0,0.0,
1.0,1.0,1.0,1.0,1.0,1.0,1.0,1.0,1.0,1.0,1.0,1.0,
2.98561e-01,1.98994e-01,-7.17769e-02,-7.32088e-03,-1.36586e-01,-1.26600e-01,2.18852e-01,1.42008e-01,-2.90854e-01,1.45010e-01,-2.31155e-02,
1.47741e-01,-1.42998e-02,-2.53720e-01,9.32446e-02,2.86470e-01,-3.28598e-02,6.85198e-02,-2.79371e-01,1.93791e-01,-1.80025e-01,1.35568e-01,
-2.80962e-01,-1.96446e-01,-6.97113e-02,4.24282e-02,8.60377e-03,2.06119e-02,9.72251e-03,-2.68525e-01,-1.73903e-01,-3.18056e-02,-2.22328e-01,
2.28472e-01,-2.05671e-01,6.68539e-02,1.73085e-01,8.17875e-02,-2.03546e-01,-1.51934e-02,5.70163e-02,1.22777e-01,-2.52260e-01,-2.64374e-02,
-8.62704e-02,
1.99757e-02,
1.52861e-01,
-2.85876e-01,
-1.92497e-01,2.49681e-01,8.83855e-02,1.14058e-01,
1.52052e-01,-3.77592e-01,-5.07769e-02,3.27004e-01,
-1.81854e-01,
-4.16427e-01,
5.61211e-01,1.46639e-01,
1.30364e-01,
