// Neural Network File Format by Kyle Julian, Stanford 2016
// Network written to file by adapted writeNNet() method for ReLUNet
4,11,1,64,
11,64,32,16,1,
0,
-1.0,-1.0,-1.0,-1.0,-1.0,-1.0,-1.0,-1.0,-1.0,-1.0,-1.0,
1.0,1.0,1.0,1.0,1.0,1.0,1.0,1.0,1.0,1.0,1.0,
0.0,0.0,0.0,0.0,0.0,0.0,0.0,0.0,0.0,0.0,0.0,0.0,
1.0,1.0,1.0,1.0,1.0,1.0,1.0,1.0,1.0,1.0,1.0,1.0,
-4.71974e-01,-1.32703e-01,-2.56973e-01,5.26726e-01,1.10001e-01,1.90078e-01,1.59624e-01,-6.22217e-02,-7.91813e-03,8.14381e-03,2.29446e-01,
2.42905e-01,3.03588e-01,9.40654e-02,8.40668e-02,-2.86200e-01,5.78299e-02,2.58845e-01,-2.98864e-01,-2.92174e-01,-2.93047e-01,-1.53037e-01,
-3.04943e-01,-2.77395e-01,3.33310e-01,-3.71668e-01,-3.04649e-01,2.50942e-01,3.49799e-01,2.32187e-01,2.37249e-01,-1.42447e-01,2.49158e-01,
3.97299e-01,3.07331e-01,3.10135e-01,7.99370e-02,1.73595e-01,-2.28659e-01,5.65127e-01,-3.37812e-01,1.61126e-01,2.78575e-02,2.49165e-01,
4.96202e-01,3.32747e-01,1.69994e-01,8.66595e-02,-1.90623e-01,1.82559e-01,7.23123e-02,-2.79323e-01,2.07940e-01,1.01716e-01,2.89386e-01,
-5.16135e-01,-1.18497e-01,-1.31671e-01,-2.95897e-01,1.15961e-01,1.31191e-01,-3.08889e-01,9.64617e-02,4.86887e-02,-2.00689e-02,6.03933e-02,
-6.99153e-02,-1.67612e-01,-8.06438e-02,8.42406e-02,-3.89642e-01,-4.08561e-01,-2.84395e-01,-3.64277e-01,1.57568e-02,-1.46542e-01,2.99178e-01,
-1.75830e-01,-1.75292e-01,-4.50250e-01,-4.23186e-01,-2.11226e-01,-1.88910e-01,-4.84339e-02,1.92183e-01,-2.58849e-01,2.24956e-01,-1.88373e-01,
2.92255e-01,2.95606e-01,-1.23822e-01,-4.45675e-01,-2.92898e-01,-8.42980e-02,8.19938e-02,2.36914e-01,2.22296e-01,2.47629e-01,-2.67571e-01,
-5.58224e-02,1.89788e-01,-4.12863e-01,1.16820e-02,2.77031e-01,-2.44059e-01,2.68188e-01,2.02814e-01,1.19825e-02,2.00843e-01,-2.63211e-01,
2.43063e-01,3.15421e-01,7.22203e-02,1.76170e-01,-5.07631e-01,-6.91491e-02,-3.01402e-01,-1.13773e-01,2.82698e-01,4.20824e-02,2.09259e-01,
-3.19813e-01,-8.21313e-02,-1.85537e-01,-2.20086e-01,1.82913e-01,3.45448e-01,-2.99860e-01,2.39735e-02,1.65361e-01,2.91673e-02,1.65409e-01,
9.04700e-02,-4.22201e-01,4.03750e-01,1.72577e-01,-3.26032e-02,-3.33939e-01,-3.88094e-02,-3.18438e-01,-9.92863e-03,2.65634e-01,5.89026e-03,
-4.68695e-01,3.04468e-01,-3.84818e-02,2.07834e-01,3.35367e-01,2.55268e-01,-5.14680e-02,3.24790e-01,-2.95501e-01,5.56447e-02,-1.97918e-01,
-6.26585e-01,-2.64061e-01,-2.36677e-01,-2.22872e-01,-2.72558e-01,2.84339e-01,-2.86876e-01,-6.15687e-03,2.38419e-01,-2.82832e-03,1.89116e-01,
-4.12884e-01,-1.28218e-01,-2.30053e-01,-8.50277e-02,2.40913e-01,-9.03634e-02,-2.82156e-01,2.73263e-01,-2.83706e-01,-2.90500e-02,-2.60793e-01,
4.26249e-01,3.67441e-01,3.11242e-01,-1.07943e-01,2.46415e-02,-2.50476e-01,2.04861e-02,2.57545e-01,2.76337e-01,3.01091e-01,2.64023e-01,
-5.33087e-01,-3.48318e-01,3.23798e-02,2.19331e-02,-2.56315e-01,5.53551e-02,-1.31487e-01,2.35343e-01,1.13206e-01,-6.15058e-02,-1.82775e-02,
-2.50790e-01,3.68017e-01,6.94803e-02,4.51242e-02,-1.07821e-01,-2.67956e-01,1.14954e-01,-1.10683e-02,-2.07456e-01,4.92919e-02,2.75397e-01,
-2.94146e-01,-2.00727e-01,4.67065e-04,-2.15997e-01,3.72580e-01,-5.44170e-02,2.58933e-01,-2.61090e-01,-2.44893e-01,-2.49803e-01,1.31257e-01,
1.38136e-01,2.84029e-01,3.09869e-01,3.68770e-01,-3.10400e-01,-3.69352e-01,2.22227e-01,-2.63669e-01,-2.06796e-01,-1.13002e-01,-1.37580e-01,
-6.55232e-02,-1.78045e-01,-5.02311e-01,-4.32935e-02,4.66687e-01,-5.46783e-02,1.31795e-01,-2.99748e-01,1.27269e-01,-1.53533e-01,-1.87450e-01,
3.52645e-01,3.41050e-01,-4.00876e-01,-4.29550e-02,1.65514e-01,3.44806e-01,-1.02489e-02,-1.03076e-01,-1.87759e-01,-2.75321e-01,-3.32526e-02,
-2.29958e-01,7.98649e-02,-1.89960e-01,3.65890e-01,-1.20697e-01,1.46337e-01,-3.91945e-02,2.31743e-01,1.00148e-01,-2.29207e-01,2.83067e-02,
2.97726e-01,-1.11830e-01,1.91130e-01,-3.98194e-02,3.84167e-03,-2.18135e-01,4.52091e-01,-3.39655e-01,1.39853e-01,2.97567e-01,-1.05012e-01,
-2.41000e-01,1.53291e-01,-4.18808e-01,2.35399e-01,4.40573e-01,-1.00170e-01,-2.04949e-01,-2.33834e-01,-2.03500e-01,1.86385e-01,-1.60158e-01,
-2.24491e-01,7.88975e-02,3.97659e-01,1.57117e-01,-9.60353e-02,-6.06796e-02,1.54287e-01,4.14161e-01,2.84368e-01,6.83903e-02,-1.82037e-02,
-1.42090e-01,-3.40524e-01,2.81337e-01,1.40595e-01,5.30225e-02,-1.14931e-01,4.71137e-01,1.84140e-01,-1.71751e-01,1.58719e-01,1.38616e-01,
3.94436e-01,1.11248e-01,1.68910e-01,1.92442e-01,-7.32472e-03,-1.52690e-02,-2.58465e-01,-1.01116e-01,1.43738e-01,-2.28203e-01,6.36875e-02,
4.01303e-01,-1.17358e-02,-1.67189e-01,-1.18389e-01,9.87027e-02,2.50699e-01,-2.76810e-02,-2.44972e-01,2.77946e-01,8.73694e-02,-3.43872e-02,
2.17685e-01,-1.20172e-02,-7.65672e-02,1.59109e-01,3.75640e-01,1.05338e-01,-1.79665e-01,-3.56309e-01,-1.47240e-01,1.43807e-01,1.40266e-01,
2.04544e-01,5.73440e-02,2.53554e-02,-2.06064e-01,8.18896e-02,2.44330e-01,1.88450e-01,1.82098e-01,-4.44353e-02,1.44444e-01,-2.16015e-02,
2.37674e-01,2.64939e-01,-4.99329e-01,-4.04160e-01,2.97775e-01,-1.58219e-01,-2.60005e-01,-7.30171e-02,-1.71123e-01,-2.41864e-01,2.26631e-03,
5.08068e-01,3.33234e-01,5.86910e-02,-4.09288e-02,-1.94147e-01,-5.31211e-02,2.74141e-01,2.79298e-02,-2.15132e-01,-6.21241e-02,-2.85444e-01,
2.57545e-01,1.89395e-01,6.51576e-02,1.85853e-01,-2.46940e-01,-2.38386e-01,5.20041e-01,-2.75448e-01,-1.21504e-01,-2.48084e-01,2.58226e-01,
-2.53568e-02,-1.01627e-02,-5.36582e-01,-2.72875e-01,-2.24023e-01,-9.91386e-03,2.47505e-01,3.45671e-01,-2.07913e-01,-6.06291e-02,1.36587e-01,
-1.29748e-01,-1.49489e-02,-4.33679e-01,-3.28831e-01,-2.42430e-02,-2.42355e-02,-3.64321e-01,-3.77491e-01,-2.52045e-01,-2.00630e-01,-2.49932e-01,
-1.86010e-01,-3.46372e-01,1.88416e-02,-3.85454e-02,1.74446e-01,1.32916e-02,2.37320e-01,1.20014e-01,2.29979e-01,-2.67598e-01,1.22631e-01,
4.50849e-01,-1.22882e-01,7.14803e-02,-1.81073e-01,-3.43778e-01,1.50986e-01,-1.98637e-01,-1.76834e-01,6.28993e-02,-2.45636e-01,-6.97806e-02,
-7.02393e-02,-2.34834e-01,3.83660e-01,4.80302e-01,2.74831e-01,7.77642e-03,8.01513e-02,1.92372e-01,2.88982e-01,4.06613e-02,1.62725e-01,
-5.13694e-01,-2.86687e-01,-2.24903e-01,-3.90758e-01,1.97342e-01,3.41980e-01,-2.10178e-01,-1.45148e-01,1.91593e-01,-2.52839e-01,-5.52809e-02,
-5.66878e-01,9.67467e-03,-1.52182e-01,2.45352e-01,-2.28276e-01,8.82926e-02,-7.66335e-02,-1.65993e-01,-2.33766e-01,7.88910e-02,8.79028e-03,
4.02999e-01,9.22742e-02,1.25484e-01,-1.13611e-01,4.24927e-01,3.07805e-01,2.82364e-01,2.77750e-01,2.92256e-01,2.32288e-01,-2.74732e-01,
5.15100e-01,4.08682e-01,6.02514e-02,-2.43996e-01,-6.82721e-02,5.55999e-02,2.72406e-01,-2.11300e-01,-2.36342e-01,7.21512e-02,1.99872e-01,
-1.30265e-01,-9.23925e-02,1.44005e-01,-1.10150e-01,9.49314e-02,1.62644e-01,-2.17835e-01,2.40225e-01,-2.63352e-01,-2.19454e-01,-1.64415e-01,
-3.63479e-01,-3.49992e-01,-9.99424e-02,1.28902e-02,3.52714e-01,6.86209e-02,-2.16782e-01,3.25071e-01,1.13671e-01,1.92370e-01,-2.97228e-01,
-1.56022e-01,1.72258e-02,-2.79997e-01,3.23214e-01,-2.95759e-01,-3.21317e-01,-5.07991e-01,-1.67085e-01,2.48024e-01,1.93857e-02,-5.40894e-02,
5.58193e-01,-3.69492e-01,-3.62523e-02,-2.37420e-01,-3.72584e-01,-1.61344e-01,-2.62820e-01,4.33660e-02,2.33720e-01,-1.47627e-01,1.31928e-01,
-1.09485e-01,-2.07778e-02,-4.69434e-01,4.14788e-01,1.92143e-01,-3.20783e-04,-3.95411e-01,3.75459e-01,4.16285e-02,-1.68301e-01,-2.40730e-02,
-7.04975e-02,-2.94346e-01,-2.45804e-01,-2.21728e-01,1.72693e-01,-4.32517e-01,3.84226e-03,-2.22441e-01,2.63887e-01,6.23561e-02,-2.19746e-01,
2.17362e-01,2.56642e-01,2.91020e-01,-4.90596e-01,-1.13446e-01,3.16725e-01,-1.28655e-01,-1.00769e-01,1.45938e-02,-2.82641e-01,2.20550e-01,
1.57001e-01,-3.40047e-02,-5.41567e-02,-4.05223e-01,-2.31833e-01,3.13128e-01,9.28363e-02,-7.83601e-03,1.34790e-01,2.97141e-01,-2.76610e-01,
-2.78351e-01,7.23447e-02,1.73060e-01,-9.79152e-03,9.96779e-02,2.83192e-01,-4.97953e-02,1.12329e-01,-1.23031e-01,-1.96976e-01,-2.39259e-01,
-1.90068e-01,4.40750e-01,9.12994e-02,2.04228e-01,-2.57625e-01,-2.90181e-01,9.21391e-02,1.60875e-01,-2.48223e-01,1.29067e-01,5.04931e-02,
4.03712e-02,2.54392e-01,-3.42008e-01,2.59864e-02,2.79884e-01,-1.41817e-01,-5.33852e-01,-1.09211e-01,2.71537e-01,-2.85288e-01,2.74937e-01,
4.63118e-03,-1.84843e-01,9.30524e-02,-3.76059e-02,1.08702e-01,-2.86516e-01,-3.69428e-01,-2.78757e-01,3.46185e-02,-1.59813e-01,-2.70226e-01,
-2.87826e-01,4.11487e-02,4.98719e-01,3.94689e-02,1.21725e-01,1.58047e-01,-3.60626e-01,-2.93618e-01,-2.68942e-01,-1.31683e-01,8.03405e-02,
-8.69249e-02,-6.24226e-02,-1.01954e-02,-3.33090e-01,2.41746e-01,-8.49140e-02,1.88920e-01,2.98867e-01,-1.10801e-01,2.42083e-01,-2.55720e-01,
-1.43327e-01,1.12578e-01,-3.49886e-02,-3.40748e-01,-6.54205e-02,3.46717e-01,-3.62453e-01,2.21023e-01,3.00084e-02,-2.48958e-01,1.34705e-01,
4.97394e-01,2.59570e-01,1.12400e-01,-2.74571e-01,5.20120e-02,-1.16742e-02,2.04355e-01,-9.92784e-02,1.30375e-01,5.88866e-02,9.25139e-03,
-7.78164e-02,2.82471e-01,-4.08044e-01,1.25345e-01,-5.02068e-02,-3.31490e-01,2.12402e-01,-6.55091e-02,-2.74233e-01,-1.55545e-01,2.19182e-01,
-5.48476e-01,-2.83533e-01,-2.07261e-01,-1.85437e-01,-1.21024e-01,-1.07054e-01,-1.76409e-01,2.08856e-01,-6.13298e-03,1.34179e-01,-1.06854e-01,
-1.53568e-01,-4.97332e-01,4.05308e-01,1.08826e-02,2.47644e-01,-2.57625e-01,1.63056e-01,-3.51437e-01,1.82382e-01,-6.23917e-02,-1.70299e-01,
2.53662e-01,2.13684e-01,-1.69954e-01,2.14956e-01,1.74355e-01,-3.12792e-01,-1.31743e-01,-9.81019e-02,7.48261e-02,6.88630e-02,-2.63518e-01,
-1.87739e-01,
-2.50079e-01,
1.94608e-01,
3.74606e-01,
1.35139e-01,
-1.30726e-01,
7.50550e-02,
3.31794e-01,
3.39306e-01,
2.36502e-01,
1.78868e-01,
-2.07993e-01,
-1.31840e-01,
-1.34081e-02,
-2.60969e-01,
1.34671e-01,
-1.40718e-02,
-2.18547e-01,
-2.84888e-01,
1.27466e-01,
-1.49864e-01,
8.05878e-02,
4.31486e-01,
-2.60197e-02,
2.07945e-01,
3.59452e-01,
4.38203e-01,
5.70999e-02,
8.52123e-02,
4.22714e-01,
8.56635e-02,
-3.26980e-01,
2.47073e-01,
-1.58163e-01,
-1.73127e-01,
4.01482e-01,
3.91390e-02,
3.43645e-01,
-1.17836e-01,
2.36503e-01,
-1.58150e-01,
1.65792e-01,
2.96716e-01,
8.45415e-02,
3.06097e-02,
-5.05882e-02,
1.49202e-01,
-6.06561e-02,
-4.80038e-03,
3.14557e-01,
1.44182e-01,
-2.17082e-01,
-2.35485e-02,
-1.96141e-01,
1.05784e-01,
-6.71012e-02,
3.91133e-01,
-3.44252e-01,
4.30522e-02,
5.05784e-02,
2.72168e-01,
-1.00463e-01,
2.28918e-01,
1.24032e-01,
1.29999e-01,-2.02046e-01,2.11792e-01,5.36422e-02,-6.59356e-02,-8.75083e-02,1.32888e-01,3.46468e-01,-4.59465e-02,9.88570e-02,-5.51208e-02,-2.15574e-01,2.38493e-01,1.09900e-01,-1.57210e-01,-1.34986e-01,-1.93559e-01,-1.02606e-01,-2.56011e-01,2.37953e-01,-7.00270e-02,1.74075e-01,-5.09204e-02,9.68649e-02,-6.15285e-02,1.51421e-01,1.81901e-01,3.39620e-01,1.39293e-01,1.04924e-01,9.89232e-02,-9.86409e-02,2.68429e-02,-2.34086e-01,1.24803e-02,7.78310e-02,3.49672e-01,7.22394e-02,-2.12512e-01,1.41803e-01,-3.22384e-01,-1.45224e-01,1.80451e-01,-7.82671e-02,-7.65041e-02,-1.63996e-01,-3.27378e-03,-1.45998e-01,5.88358e-02,4.70396e-02,3.20019e-02,-1.83601e-01,-9.01053e-02,-1.63971e-01,4.64163e-02,-1.63545e-02,1.43832e-01,-2.34569e-01,-1.30974e-01,-1.79489e-01,7.75719e-02,-2.57606e-01,2.65040e-01,1.52897e-01,
1.45581e-01,1.49244e-01,6.02009e-02,2.54867e-01,1.25195e-01,-1.12255e-02,6.90920e-02,1.99685e-01,1.98126e-01,1.08125e-01,2.98716e-01,5.81553e-02,2.85136e-01,1.32297e-01,5.27463e-02,3.00575e-02,2.62867e-01,1.25086e-01,1.55595e-01,2.60795e-01,1.27655e-01,-1.44489e-01,2.38321e-01,1.69075e-02,2.75347e-01,1.43587e-01,2.08279e-01,3.19419e-01,9.44174e-02,1.75214e-01,2.61718e-02,1.75151e-02,6.70159e-03,1.74650e-01,1.37953e-01,1.78135e-01,3.39070e-02,1.77690e-01,2.73803e-01,4.37690e-02,1.45356e-01,2.92964e-01,2.83499e-01,1.37946e-01,8.00305e-02,-7.05575e-03,2.56686e-01,2.36837e-01,-6.82118e-03,1.16446e-01,1.51260e-01,1.67573e-01,-1.22085e-02,2.81403e-01,4.40659e-02,2.07696e-01,8.60884e-02,1.30124e-01,1.85887e-01,2.14185e-01,1.53155e-01,1.20844e-01,1.54137e-01,3.39584e-01,
-2.70805e-02,-5.36585e-02,2.56271e-01,2.63148e-01,1.51468e-01,-2.39796e-02,2.79194e-01,1.83908e-01,1.34368e-01,2.59784e-01,2.34617e-01,-8.08112e-02,2.27584e-01,-1.47838e-02,-2.81501e-02,-1.05821e-01,2.24202e-01,-6.46943e-02,1.96210e-01,2.32315e-01,2.02983e-01,2.01598e-02,1.78241e-01,7.84506e-02,1.77592e-02,3.71576e-02,1.56423e-01,1.91080e-01,2.47661e-01,2.03162e-01,2.01976e-01,1.63649e-01,4.91694e-02,-1.14671e-01,4.73737e-02,2.39919e-01,9.94283e-02,9.98247e-02,1.76252e-01,2.02078e-03,1.13557e-01,2.05464e-01,1.23600e-01,9.53983e-02,1.63209e-01,1.79340e-03,2.33885e-01,1.18418e-01,-1.19319e-01,1.73350e-01,1.94994e-02,1.72325e-01,1.48825e-01,3.36009e-03,-4.72804e-03,1.05514e-01,1.10358e-02,1.93358e-01,-1.47671e-02,8.85778e-02,6.45652e-02,1.23824e-02,2.39419e-01,1.66071e-01,
1.46778e-01,5.78362e-02,-6.24288e-03,-1.22366e-01,-4.63559e-02,8.34260e-02,4.44114e-02,-4.04552e-02,2.30957e-01,-9.56288e-02,-4.36760e-02,1.35923e-01,-2.59219e-01,2.12095e-01,1.99865e-01,6.57549e-02,-6.71623e-02,2.49282e-01,-6.81581e-02,-8.46922e-02,-1.06639e-01,5.36389e-02,-1.16465e-01,6.84130e-02,-9.90924e-02,-3.77057e-02,-9.03615e-02,-1.85093e-01,-1.98071e-02,2.59083e-02,6.11547e-02,9.47370e-02,1.42523e-02,2.34777e-01,-1.50682e-01,-6.37534e-02,7.69946e-02,9.98629e-02,3.32577e-02,1.25506e-01,7.74929e-02,3.20750e-01,2.71479e-02,1.55747e-01,1.40662e-01,9.57472e-02,1.34661e-01,1.52070e-01,1.64913e-01,-9.89095e-02,2.07480e-01,9.09382e-02,7.22570e-02,-7.47426e-02,-1.01563e-02,-5.65023e-02,-4.46698e-02,-6.95337e-02,1.73749e-01,2.46152e-01,-2.18604e-01,2.71928e-01,-8.13945e-02,-1.96150e-01,
9.19965e-02,-1.37968e-01,1.36948e-01,1.49125e-01,-1.26778e-01,-4.23070e-03,-1.64819e-01,2.99309e-01,-4.85494e-02,8.58181e-02,-2.37129e-01,-1.91647e-01,3.04551e-02,-1.54388e-02,-3.68536e-02,-1.29457e-01,-6.04723e-02,3.88709e-02,-2.80138e-01,1.42817e-01,-4.61356e-02,2.54712e-01,6.67516e-03,-2.99889e-02,1.62602e-01,5.17304e-02,1.61645e-01,1.36873e-01,-1.17564e-02,1.57929e-01,2.02747e-01,2.35621e-02,2.12213e-01,-3.12779e-01,1.05415e-02,1.32640e-01,1.55318e-01,1.74712e-01,-2.51253e-01,2.86344e-01,-4.17255e-02,-7.94916e-02,1.61820e-01,-1.97642e-01,9.32154e-02,2.01811e-02,-2.17007e-01,-1.06235e-01,1.60412e-01,2.28185e-01,-4.19597e-02,-2.89274e-02,1.22030e-01,-2.46972e-01,8.83373e-02,-7.95785e-03,1.59670e-02,-1.27919e-01,-7.55733e-02,-1.68834e-04,1.79524e-01,-2.27892e-01,1.56521e-01,1.39398e-03,
6.62132e-02,2.22241e-01,-1.06812e-02,1.43729e-01,2.52024e-01,1.50962e-01,8.04907e-02,-2.06775e-01,1.74810e-02,9.36617e-02,-1.80182e-02,1.73173e-02,1.98477e-02,1.31743e-03,1.53057e-01,-6.00609e-02,3.50162e-01,8.86036e-02,3.82959e-02,-6.64850e-02,1.52516e-01,-1.23255e-01,-7.68711e-02,-1.16767e-01,1.92789e-01,-1.36091e-02,1.83905e-01,-1.96804e-01,1.81320e-01,1.90200e-02,-1.28696e-01,1.49329e-01,-1.13224e-01,2.63239e-01,2.63577e-01,3.71745e-02,-1.71973e-01,-3.08006e-02,9.66103e-02,-6.92079e-02,1.77021e-01,1.38823e-01,1.19775e-01,2.08006e-01,1.09496e-01,8.80947e-03,1.31404e-01,3.40523e-01,-8.96377e-02,-1.53857e-01,1.95099e-01,2.44848e-01,1.06420e-01,1.33360e-01,-3.26245e-01,-7.18075e-02,-4.41437e-02,1.98192e-01,1.78392e-01,3.20952e-01,3.80689e-02,1.18194e-01,-2.07071e-01,-4.17763e-02,
5.94880e-02,1.19634e-01,-1.23137e-01,-1.07942e-01,-1.25730e-01,-3.55370e-02,6.59970e-02,-1.12407e-01,-3.68094e-02,1.06905e-01,-1.24017e-01,6.24059e-02,3.80367e-02,-1.19828e-01,-1.20961e-01,-1.05301e-01,-3.69049e-02,5.38664e-02,3.80384e-02,2.55691e-02,-5.42552e-02,5.22324e-03,-2.34796e-02,-1.11468e-01,-6.87636e-02,-5.64271e-02,9.48889e-02,5.23251e-02,-1.30726e-01,-1.27063e-02,-1.03555e-02,8.36964e-02,-1.24293e-01,8.22667e-02,2.48536e-03,-1.34878e-02,5.84434e-02,-5.51320e-02,-2.34936e-02,1.86973e-02,-8.63175e-02,-5.09859e-02,-7.10508e-02,9.49344e-02,5.71977e-02,6.40875e-02,-6.96121e-02,6.08788e-02,-9.62595e-02,-6.78754e-02,7.76013e-02,5.35279e-02,-7.38348e-02,-9.57835e-02,-7.42649e-02,-1.92450e-02,2.85375e-02,7.96002e-03,9.29353e-02,-1.10236e-01,3.46592e-02,-9.03109e-02,3.01632e-02,1.09261e-01,
-6.31388e-02,-2.61516e-01,1.38540e-01,1.02994e-01,-1.56276e-01,-7.38450e-02,-3.69696e-02,2.44982e-01,-1.41488e-01,2.00847e-01,-2.57547e-01,-2.69836e-01,2.08695e-01,1.88717e-02,-1.75538e-01,-1.03421e-01,-1.13469e-01,-6.79876e-02,-2.30226e-01,1.71523e-01,-1.18062e-01,2.56001e-01,1.41555e-01,4.71133e-02,1.56275e-01,1.51102e-01,1.04835e-01,3.19582e-01,-4.06330e-02,1.72554e-01,2.04594e-01,-2.08096e-01,1.42197e-02,-3.04187e-01,-6.11707e-02,2.50719e-01,2.13102e-01,1.21480e-01,-7.31883e-02,3.10707e-01,-5.36138e-02,-2.00900e-01,1.10641e-01,-9.89819e-02,-4.40400e-02,-1.53613e-01,-2.15377e-01,-2.29418e-01,1.36999e-01,1.86911e-01,-3.45463e-02,-1.59345e-01,-9.06643e-02,-3.58175e-02,5.96287e-03,1.29716e-01,1.66742e-01,-2.10630e-01,1.14469e-02,5.44991e-02,7.78939e-02,-2.15137e-01,1.88813e-01,1.29952e-01,
-5.61877e-01,6.64228e-03,-2.17752e-01,-1.13533e-01,6.25430e-02,-4.07274e-02,1.38744e-02,2.24115e-01,2.27021e-01,-4.31145e-02,1.98106e-01,-1.61884e-01,-4.49581e-02,1.11855e-01,-2.47124e-02,-2.01498e-01,-2.38319e-01,-6.29588e-02,1.89647e-01,-4.56350e-02,-7.86700e-02,-1.55234e-02,8.70359e-02,8.95945e-02,-2.15168e-01,1.15747e-01,-5.48566e-02,-3.25929e-01,3.06036e-01,1.12491e-01,1.36504e-01,-2.35004e-01,1.55468e-01,5.21144e-02,1.99701e-02,-1.87079e-02,2.34131e-01,-3.00227e-01,-1.17327e-01,3.11170e-01,-1.18601e-01,-2.51669e-02,1.50649e-01,2.16814e-01,-9.18999e-02,-1.52202e-01,1.83394e-01,-1.16971e-01,1.18152e-01,-9.24984e-02,-1.43318e-01,-1.70937e-01,-6.12267e-02,2.80300e-03,4.14506e-01,-4.62938e-02,1.47044e-01,-1.68777e-01,4.37656e-02,-1.88637e-01,5.20216e-02,-1.07043e-01,-1.75511e-01,2.01323e-01,
1.38729e-01,4.33341e-02,2.94634e-02,1.22010e-01,1.07866e-01,1.64914e-01,-4.98496e-02,-1.59846e-01,-2.25463e-02,6.52671e-02,-8.73252e-02,1.97798e-01,-3.53747e-01,2.54897e-02,6.98429e-02,6.87883e-02,2.67691e-01,2.12742e-01,2.18200e-01,-1.19618e-02,4.52277e-02,-7.44497e-02,-8.08548e-02,1.34618e-01,5.36840e-02,1.50647e-01,1.83078e-01,-2.34534e-01,-2.05376e-01,-1.71598e-01,-1.20675e-01,-6.34906e-02,-1.65115e-01,1.46588e-01,1.78968e-01,-1.90904e-02,-2.75649e-01,-5.52368e-02,4.46029e-02,-7.29785e-02,4.63076e-02,2.16961e-01,-2.81940e-01,-6.05380e-02,-8.67003e-03,1.94601e-01,1.01942e-01,-1.19558e-01,1.16238e-01,-2.93139e-02,1.23602e-01,5.42432e-02,1.09719e-01,1.69208e-01,-7.01319e-02,-1.92094e-01,7.67640e-02,-7.77603e-02,1.53411e-01,3.29593e-02,9.60496e-02,1.74335e-01,3.59781e-03,4.03434e-02,
-2.41012e-02,2.45325e-01,1.33303e-01,1.27084e-01,1.26236e-01,2.32062e-01,7.06242e-02,-1.03481e-01,1.70847e-01,1.01254e-01,1.90035e-01,4.06441e-02,6.53752e-02,5.76712e-02,2.55871e-01,-5.07181e-02,3.23782e-01,1.18106e-01,3.70216e-02,6.32444e-02,1.99387e-01,-2.49834e-01,1.04107e-01,-8.97402e-02,1.22599e-01,-1.37850e-01,5.32013e-02,-3.32961e-01,-3.07356e-02,1.44229e-01,-2.79612e-01,8.90860e-02,-1.04424e-01,1.33690e-01,1.18617e-01,1.01778e-01,-1.44981e-01,-1.26477e-01,3.04020e-01,-2.03575e-01,1.05749e-01,1.30628e-01,1.51097e-01,2.61556e-01,4.58806e-02,3.35596e-02,-2.70129e-02,1.42351e-01,-1.95936e-01,1.88487e-03,1.15179e-01,2.19994e-01,-7.48672e-02,2.12604e-01,-1.85728e-01,-1.68540e-01,-2.55579e-01,3.37485e-02,1.19520e-01,3.07276e-01,7.93205e-02,1.93996e-01,-2.12139e-02,-1.09774e-01,
3.04442e-01,1.38495e-01,8.81523e-02,1.99444e-01,1.69905e-01,1.30537e-01,-8.57848e-02,-2.92428e-02,2.28423e-01,1.11007e-01,1.93073e-01,7.92924e-02,2.13036e-02,2.20516e-01,2.44827e-01,2.50286e-01,3.02361e-01,1.03914e-01,2.41640e-01,-5.77071e-02,2.39427e-01,4.29718e-02,-9.19908e-02,2.21848e-01,1.79576e-01,-9.99238e-02,1.29518e-02,-1.78312e-01,-1.07674e-02,-2.30781e-02,-1.03556e-01,1.77047e-01,-3.52125e-02,1.76026e-01,1.61420e-01,1.06930e-01,-2.60970e-01,5.44952e-02,1.69721e-01,-5.04756e-02,2.38986e-01,1.56939e-01,-7.68097e-02,1.11251e-01,1.64334e-01,1.14377e-01,1.17460e-01,1.61814e-01,-4.96462e-02,-5.44089e-02,9.79543e-02,3.19745e-01,1.28745e-01,3.96956e-02,-2.05166e-01,-1.59386e-01,5.63697e-02,4.30790e-02,2.39908e-02,2.65809e-01,1.11344e-01,2.05116e-01,-2.35490e-01,-2.25554e-03,
4.35341e-02,1.95371e-01,7.37606e-02,6.56674e-02,1.47102e-01,6.75685e-02,-1.28473e-01,-6.53649e-02,2.36190e-01,3.91122e-02,5.43741e-02,1.17678e-01,7.90097e-03,-4.14263e-02,2.83691e-01,1.05951e-01,1.79654e-01,1.95109e-02,8.45709e-02,2.43931e-02,9.21581e-02,-2.26959e-01,9.72588e-02,-1.67836e-01,1.67517e-01,-1.44252e-01,-6.24982e-02,-1.95032e-01,1.14225e-01,8.77380e-03,-1.72207e-01,3.50263e-02,-6.09487e-02,3.86472e-01,1.88040e-01,1.24294e-01,-2.92930e-02,-7.69104e-02,1.03123e-01,-2.94993e-01,5.33250e-02,4.63630e-02,5.38555e-02,3.19603e-01,-6.03675e-05,-4.93753e-02,6.31059e-02,2.14272e-01,-1.12534e-01,-1.55717e-02,1.66818e-01,1.85701e-01,-7.34749e-02,2.29656e-02,-3.81787e-01,-6.85671e-03,-1.28061e-01,1.22623e-01,1.73164e-01,2.03540e-01,1.29406e-01,1.60813e-01,-1.50681e-01,-9.48889e-02,
2.77324e-01,-1.46380e-01,-1.18788e-01,-1.10859e-01,-9.10806e-02,8.99320e-02,1.10845e-01,-2.02977e-02,7.82727e-02,-1.64385e-01,-1.39964e-01,1.44443e-01,-2.61869e-01,-1.29303e-02,1.13509e-01,7.79146e-02,-1.25825e-01,1.17438e-01,-1.92616e-01,-2.49849e-01,-2.36640e-02,-8.20686e-03,-2.93150e-01,1.41436e-01,-3.28650e-02,1.68779e-01,1.55213e-01,-2.23255e-01,-8.34631e-02,-1.24188e-01,-2.45940e-02,-1.26486e-02,-5.80990e-02,-1.05836e-01,-2.96565e-02,-1.63164e-01,-1.48977e-01,-2.72682e-02,9.01245e-02,2.76542e-01,-5.35955e-02,2.59994e-01,-2.93523e-01,5.67543e-02,1.52543e-02,1.84988e-01,2.77005e-01,6.35811e-02,1.58729e-01,-1.13061e-01,5.76578e-02,4.02289e-02,1.43154e-01,-1.59015e-01,9.84674e-02,-9.28250e-02,1.63451e-01,-2.18178e-01,-8.62172e-02,1.54930e-02,-1.57486e-01,3.82864e-02,9.90075e-02,-1.41440e-02,
-2.20173e-01,-2.57400e-01,-6.19556e-02,3.44190e-02,-4.32973e-02,-1.72973e-01,1.21398e-01,1.94957e-01,-6.43193e-02,1.00916e-01,-3.93601e-02,-2.14102e-01,2.12024e-01,-4.84719e-02,-1.01010e-01,5.62237e-02,-1.74799e-01,-4.09476e-02,-1.95533e-01,1.97950e-01,-7.87861e-04,2.29250e-01,1.05994e-01,-1.25509e-01,1.07594e-01,2.51794e-01,-7.39016e-02,2.61607e-01,1.37365e-01,3.86655e-02,1.21459e-01,4.58245e-02,1.86925e-01,-2.06193e-01,-1.52769e-01,1.18940e-01,3.77529e-01,7.72294e-02,-1.85970e-01,5.95999e-02,4.69634e-02,-1.29137e-02,2.66747e-01,4.91276e-02,-7.12880e-02,8.89502e-02,1.75468e-01,1.39382e-02,-8.22997e-03,2.66418e-01,-1.65091e-01,-1.30722e-01,-1.43567e-01,-1.03809e-02,3.12723e-01,2.33031e-01,2.55166e-01,3.80464e-02,-1.37332e-01,-5.33128e-02,1.22083e-01,-1.08086e-01,1.79336e-01,1.49129e-01,
-3.08290e-02,4.70582e-02,5.51818e-02,-3.14738e-02,3.98182e-02,1.11159e-01,2.55654e-02,1.59873e-01,1.93156e-01,-8.89761e-03,1.73627e-01,2.08662e-01,-8.90173e-02,1.85810e-01,9.47541e-02,2.17041e-01,2.04406e-01,9.96925e-02,-2.39426e-01,3.76096e-02,6.67902e-02,-1.54023e-01,-4.93238e-02,-1.11283e-01,-8.97282e-02,-2.52761e-01,7.63904e-02,-1.04451e-01,3.62185e-02,2.88021e-02,-1.31184e-01,5.66493e-02,5.02851e-03,2.82990e-01,-4.40740e-02,7.47213e-02,-5.43140e-02,9.94271e-02,1.10725e-01,-2.17213e-01,2.12511e-01,1.51651e-01,-3.28636e-02,7.62852e-02,8.11101e-03,-6.54132e-02,5.38206e-02,2.36244e-01,5.14486e-02,-5.20602e-02,1.20000e-01,8.50545e-02,1.40783e-01,-2.21586e-01,-4.60468e-02,8.81918e-02,-4.97740e-02,8.16735e-02,8.33688e-02,9.10657e-02,-2.39527e-01,2.21975e-01,-1.67411e-01,-2.39208e-01,
4.12327e-03,5.14542e-02,1.20790e-01,5.75947e-02,1.55207e-01,7.81676e-02,-1.06605e-02,1.82008e-01,1.43292e-01,1.39204e-01,1.19128e-01,-8.99101e-02,1.78207e-01,-9.22452e-02,4.92406e-02,4.68395e-02,1.35603e-01,9.82577e-02,7.42795e-02,2.02538e-01,-8.26025e-02,8.13753e-02,1.88781e-01,-3.24826e-02,1.45177e-01,9.85946e-02,1.99801e-02,1.59452e-01,-5.29054e-02,6.67004e-02,1.14136e-01,1.42185e-01,2.14154e-01,1.46229e-01,1.14647e-01,2.22894e-01,1.30954e-01,1.08992e-01,-1.66707e-02,-6.58500e-02,1.14702e-01,1.10051e-01,1.67317e-01,7.16934e-02,-1.37169e-02,-1.07580e-01,1.93709e-02,-7.15347e-02,-3.43083e-02,-1.63240e-02,1.55524e-01,1.75852e-01,-5.38573e-02,9.35903e-02,-8.06974e-02,8.00095e-02,-6.23644e-03,8.89506e-02,6.93908e-02,-1.32877e-02,9.88658e-02,2.45175e-02,-2.90038e-02,-1.51509e-02,
3.07338e-01,1.05965e-01,-2.81288e-01,1.11427e-01,5.22715e-02,3.52223e-02,-7.32295e-02,-3.44797e-01,-8.79012e-02,-1.27067e-01,-7.29214e-02,9.14035e-02,-2.17460e-01,7.36379e-02,9.39464e-02,1.07671e-01,2.08578e-01,1.76394e-01,2.14002e-01,-9.40661e-02,-1.33768e-02,1.04531e-01,-1.40662e-01,1.19813e-01,2.03309e-01,1.92484e-01,6.28218e-02,-3.50986e-01,2.32835e-02,-1.30427e-01,3.80286e-02,-1.01443e-01,-1.51265e-01,2.67974e-01,2.89615e-01,-2.44314e-01,-2.64757e-01,-2.67772e-02,3.21570e-02,1.18416e-01,2.93656e-02,-1.30327e-02,-2.72480e-01,2.22942e-01,1.41881e-01,2.00791e-01,9.00371e-02,-3.34988e-02,4.33149e-02,-2.04481e-01,5.36868e-02,-4.45626e-02,1.71689e-01,9.45540e-02,1.29175e-02,-1.14747e-01,8.95284e-02,-1.61810e-01,-6.91167e-02,2.00317e-01,1.22881e-01,1.57201e-01,-1.13504e-02,1.73577e-02,
2.31144e-01,1.83760e-01,-1.03773e-01,2.30403e-01,2.81412e-01,-1.56769e-01,-1.18067e-02,-3.23713e-01,6.32703e-02,6.50414e-02,-1.76922e-02,7.67194e-02,2.41861e-02,-6.28789e-02,2.96823e-03,-9.78840e-02,1.63429e-01,-6.43931e-02,1.59579e-01,-6.55669e-02,6.17185e-02,-2.29958e-01,9.91387e-02,-9.40941e-02,4.58831e-02,4.41493e-02,2.65151e-02,-1.77402e-01,1.40427e-01,1.50662e-01,-1.68918e-03,1.31604e-01,1.07622e-01,2.51194e-01,2.76856e-01,3.60002e-02,-2.03369e-01,-2.46714e-01,2.25416e-01,-3.12219e-01,-9.55980e-04,-1.31753e-01,2.20261e-01,1.95322e-01,-1.31882e-01,-3.74851e-02,-1.43503e-01,2.68668e-01,-6.96812e-02,-1.37014e-01,2.06136e-02,7.93933e-02,4.99974e-02,1.22324e-01,-2.40764e-01,-7.39115e-02,-2.17701e-01,1.00242e-01,1.03203e-01,2.97912e-01,1.04787e-01,-1.33686e-01,-5.75348e-02,3.54702e-02,
2.99544e-01,2.11627e-01,1.15938e-01,2.33101e-01,5.73755e-02,2.64185e-02,-1.07158e-01,-1.73977e-01,4.30634e-02,1.85099e-02,9.64933e-02,1.32856e-01,-1.62897e-01,-3.33601e-02,1.98298e-01,7.75121e-02,1.56752e-01,2.22453e-01,1.43319e-01,5.90346e-02,1.74981e-01,-9.34115e-02,3.01517e-02,-6.22424e-02,6.00448e-02,-1.53176e-01,-3.52108e-02,-1.92539e-01,1.98325e-01,-2.48919e-02,-6.50696e-02,6.60253e-02,-3.04212e-02,1.26013e-01,1.19426e-01,-5.52390e-02,-1.53070e-01,-1.95944e-01,1.78016e-01,-2.53797e-01,1.89372e-01,-2.57780e-02,1.73528e-01,1.56234e-01,-4.26416e-02,7.68633e-02,-1.79936e-02,2.17104e-01,-2.43878e-01,6.02530e-02,9.57924e-02,2.13981e-01,-3.84262e-02,1.77251e-01,-2.69168e-01,-3.00739e-02,-2.36256e-01,1.20520e-01,1.15949e-01,2.67394e-01,4.72373e-02,2.11776e-01,-1.09991e-01,1.23033e-01,
-3.60382e-03,-1.06170e-01,1.96348e-01,8.30004e-02,8.60931e-02,-1.05932e-01,2.97181e-01,2.89344e-01,1.86962e-01,2.44952e-01,1.98634e-01,1.49284e-01,3.01084e-01,-2.59519e-02,-3.20274e-02,5.54697e-02,9.48212e-02,2.42661e-02,4.09119e-02,1.88491e-01,6.87077e-03,2.30157e-01,2.51281e-01,-1.82095e-02,7.61276e-02,3.58773e-02,2.11793e-01,2.71889e-01,5.04540e-02,1.41341e-01,2.27397e-01,1.39284e-01,2.38988e-01,-9.46141e-02,2.31864e-02,1.81383e-01,3.23025e-01,1.63860e-01,-2.68408e-02,5.29880e-02,4.44102e-02,1.71135e-01,1.05381e-01,1.67188e-01,1.49618e-01,8.77496e-02,2.32103e-01,-4.62940e-02,9.55391e-02,2.98454e-01,7.19786e-02,1.56857e-01,5.74077e-02,1.28712e-01,2.54744e-01,7.62169e-02,1.15755e-01,6.34476e-02,8.75745e-02,9.08241e-02,2.27884e-01,-1.87995e-02,2.77959e-01,2.18616e-01,
4.49917e-02,1.83339e-01,1.10090e-01,-5.07555e-02,1.86024e-01,1.77106e-01,-2.94522e-02,-1.80187e-02,1.63972e-01,-1.46846e-01,6.62346e-02,1.86120e-02,1.22297e-01,1.32017e-01,2.29968e-01,1.72584e-01,2.15046e-01,1.52179e-01,-4.28224e-03,-1.83871e-01,1.21104e-01,-1.33573e-01,6.25376e-02,-7.93666e-02,2.18609e-02,-2.40863e-01,6.82521e-02,-1.43515e-01,1.17724e-01,-6.45355e-02,-6.50012e-02,1.14043e-01,8.92471e-02,1.44163e-01,1.93336e-01,9.15063e-02,-2.31786e-01,-2.45298e-02,8.89342e-02,-6.27931e-02,6.97566e-02,2.07144e-02,-2.27676e-02,1.42551e-01,-7.73836e-02,-6.90873e-02,-2.49920e-02,2.05272e-01,2.10971e-02,-1.91952e-01,1.14727e-01,1.08839e-01,-4.70458e-03,-1.29399e-01,-1.13613e-01,4.78930e-02,-1.65092e-01,3.74434e-02,1.02997e-01,2.51183e-01,-7.21763e-02,3.02263e-01,2.24730e-03,-1.79349e-01,
2.33238e-01,1.53402e-01,-2.85604e-02,1.46250e-01,7.86329e-02,1.07698e-01,-3.30627e-02,-1.72027e-01,1.38313e-01,6.64115e-02,1.66567e-02,1.53242e-01,-7.88362e-02,9.95798e-02,1.65467e-01,1.40742e-01,2.28909e-01,8.49161e-02,-2.92721e-02,-1.63829e-01,1.56333e-01,-1.25529e-01,-1.79581e-01,1.39344e-01,8.36958e-02,-4.17887e-02,-1.14380e-02,-1.80376e-01,-9.87029e-02,-1.21921e-02,-3.81184e-02,1.10552e-02,-8.59793e-02,2.24211e-01,6.08886e-02,4.64532e-02,-2.50870e-01,1.60845e-01,1.78541e-01,-6.94357e-02,2.15062e-01,2.66341e-01,2.31342e-02,2.37727e-01,1.39906e-01,1.89752e-01,-8.51845e-02,2.76011e-01,1.88137e-01,-8.61521e-02,1.31752e-01,8.61789e-02,-4.71698e-02,4.93309e-02,1.01242e-02,-7.16909e-02,4.34344e-02,2.66995e-02,9.69356e-02,2.90181e-01,-1.64152e-01,2.35561e-01,-4.22640e-02,-7.73747e-02,
3.66486e-01,2.39392e-01,4.61070e-02,1.57168e-01,6.55304e-02,2.75760e-02,-1.29006e-01,-6.34877e-02,-2.59334e-03,3.32628e-02,1.14169e-01,8.60325e-02,-1.73875e-01,2.16063e-01,1.45562e-01,2.01317e-01,5.24837e-02,9.24397e-02,9.76195e-02,-1.49540e-01,1.95634e-01,-9.49233e-02,9.75584e-03,9.65293e-02,1.03245e-01,7.90913e-02,-1.85941e-02,-3.33753e-01,-8.30793e-02,-8.35633e-02,-6.98482e-02,-1.10160e-02,1.33322e-02,2.50355e-01,1.64936e-01,-6.14735e-02,-3.16043e-01,1.23641e-01,1.79310e-01,4.87941e-02,3.55350e-02,2.00299e-02,-1.17579e-01,2.59463e-02,-5.41781e-02,1.73210e-01,8.83800e-02,1.21347e-01,7.73910e-02,-2.40127e-02,9.90240e-02,1.99828e-01,1.91359e-01,1.28205e-01,-1.40106e-01,-1.51975e-02,7.25258e-02,-8.49772e-02,1.32755e-01,1.21894e-01,-1.23480e-01,9.75460e-02,1.26913e-02,-1.32067e-02,
-1.20623e-01,-7.53181e-02,2.10805e-01,-6.52513e-02,-6.18754e-02,-1.17457e-01,6.34130e-02,1.13396e-01,-1.81570e-01,2.76113e-02,-7.37012e-02,-8.98983e-02,1.02021e-01,-2.15189e-02,-1.86700e-01,-7.54601e-02,-5.54281e-02,-7.44990e-02,-6.35756e-02,6.55805e-02,1.30879e-01,2.46052e-02,-6.81479e-02,-1.17759e-01,9.98437e-02,-8.55264e-02,5.62052e-02,3.63362e-01,1.48429e-02,-1.70184e-02,1.56339e-01,9.74191e-03,-6.68874e-02,-2.62336e-01,6.89792e-02,-2.85902e-02,2.01384e-01,1.86404e-01,-7.14802e-02,3.24452e-01,-2.37716e-01,6.43852e-02,1.69655e-01,-1.16384e-01,2.09994e-01,6.43374e-03,1.65020e-01,-6.23042e-02,-2.32457e-02,2.36679e-01,2.02538e-02,6.58517e-02,2.36864e-02,-1.64575e-01,-2.73491e-02,2.14296e-01,1.97594e-01,-3.92352e-02,-1.20807e-01,-1.24962e-01,-1.33800e-01,-3.09638e-01,3.01970e-01,-7.46196e-02,
-1.38714e-01,-1.96225e-01,7.32419e-03,-2.45348e-02,-4.74058e-02,-6.48397e-02,2.10187e-01,3.91996e-01,-3.11392e-02,1.51420e-01,1.11756e-01,-2.42059e-01,2.71878e-01,8.54071e-02,-2.40743e-01,4.45852e-02,-2.70352e-01,-2.06586e-01,-2.21594e-02,2.91564e-01,-1.19328e-01,3.05777e-01,2.43222e-01,-7.26923e-02,7.15762e-02,1.22137e-01,1.87030e-02,2.40971e-01,9.37251e-02,1.89174e-01,1.58336e-01,-1.71546e-01,2.25269e-01,-1.97683e-01,-1.19274e-02,1.78260e-01,3.89722e-01,1.59726e-01,-2.00480e-01,2.79453e-01,-2.06381e-02,-1.19823e-01,1.43532e-01,-1.92093e-01,-1.60853e-01,-1.51034e-01,3.17134e-02,-6.19211e-02,1.43583e-02,1.52893e-01,-1.21890e-01,-1.43303e-01,-1.38982e-01,-1.71271e-01,2.49741e-01,6.08749e-02,8.04615e-02,-1.40930e-01,5.09241e-02,-1.45206e-01,4.80169e-02,-2.48024e-01,2.92226e-01,5.51325e-02,
-2.87338e-01,-1.23005e-01,1.81850e-01,-4.12349e-02,-9.61411e-03,-3.06261e-01,1.69562e-01,3.19933e-01,-1.18635e-01,-3.19761e-02,1.39465e-01,-2.88301e-01,2.12217e-01,6.35294e-02,-3.37177e-01,-1.47989e-01,-9.77225e-02,-5.32851e-02,-5.53632e-02,1.15478e-01,-1.23390e-01,-6.82320e-02,8.62270e-02,1.22989e-01,-1.53934e-01,9.09253e-03,2.42199e-01,3.32896e-01,1.76158e-01,-9.08131e-03,-2.31560e-02,1.00553e-01,-1.72736e-01,-1.89745e-01,-1.12698e-01,3.46001e-02,3.20915e-01,1.75842e-03,-1.43152e-01,2.06296e-01,-2.27177e-01,1.40287e-01,2.11973e-01,-2.98523e-01,-1.30627e-01,4.94464e-03,4.96887e-02,4.60289e-02,3.71920e-02,2.46457e-01,4.88619e-02,-2.00947e-01,9.22400e-02,4.35307e-02,1.34419e-01,1.95491e-01,1.89749e-01,-8.10540e-02,4.93276e-02,-2.36958e-01,3.26938e-02,-1.60149e-01,3.15534e-01,9.38433e-02,
3.45909e-01,8.16362e-02,6.71084e-02,-7.15730e-03,-1.71479e-01,5.93507e-02,2.49480e-02,7.30559e-02,-1.24950e-01,-5.50389e-02,-3.43832e-02,7.65744e-02,-3.53077e-01,1.82571e-01,1.35111e-01,1.61157e-01,-1.75172e-01,3.19701e-01,7.24296e-02,-6.52702e-02,-8.22988e-02,-2.83929e-02,-2.57632e-01,2.31227e-01,-3.51003e-02,1.24078e-01,1.14713e-01,-3.09394e-02,3.10666e-02,-2.47435e-01,-2.41276e-02,-1.30006e-01,-3.60556e-01,1.45205e-01,7.69223e-02,-9.60697e-03,-1.70599e-01,4.24949e-02,-8.88718e-02,1.54659e-01,1.54141e-01,3.06798e-01,-2.75124e-01,-2.01815e-01,2.53027e-03,1.37248e-01,7.87424e-02,-6.58144e-02,1.00068e-01,-9.39324e-03,-7.53084e-02,2.32795e-01,-2.54167e-02,2.10520e-02,1.99049e-02,-8.55627e-02,1.06002e-01,-6.47052e-02,1.26887e-01,-9.20288e-02,4.97809e-02,1.18187e-01,-2.36287e-02,-4.73208e-02,
-1.41592e-01,-1.14866e-01,2.04018e-01,-5.50223e-02,5.10433e-02,-2.81940e-01,2.74612e-02,3.46283e-01,-3.95980e-02,-2.90081e-02,3.23384e-02,-2.53004e-01,1.71097e-01,-4.94197e-02,-1.18280e-01,-1.29748e-01,-1.35217e-01,-8.64666e-02,-4.59934e-02,1.20437e-01,-1.23842e-01,4.52836e-02,-1.00623e-02,1.36213e-01,8.14366e-02,3.41290e-02,1.42298e-01,2.15414e-01,-4.40835e-02,9.58427e-02,7.24983e-02,-1.28418e-01,1.36899e-01,-1.02687e-01,-1.63666e-01,2.17288e-01,3.55866e-01,2.20366e-01,-2.15772e-01,2.70178e-01,-3.00649e-01,-2.05637e-02,1.68157e-01,-1.14761e-01,-3.98695e-02,-1.52319e-01,-1.77574e-02,-1.25893e-01,7.94875e-02,1.07055e-01,-1.16009e-01,-1.27077e-01,2.01008e-02,1.40093e-02,1.48607e-01,1.52964e-01,2.08887e-01,-1.67883e-01,-7.99602e-02,-1.66790e-01,9.74265e-02,-2.61970e-01,1.13099e-01,5.23503e-02,
-3.19591e-01,-2.71940e-01,1.92611e-01,-7.18557e-02,-7.84361e-02,-2.91406e-01,1.30809e-01,2.31493e-01,-3.90338e-02,9.25634e-02,1.23268e-01,-2.73230e-01,1.70149e-01,9.13257e-02,-1.42488e-01,-5.35288e-02,-3.52421e-02,-2.74191e-02,-1.28029e-01,2.84698e-02,8.40172e-02,2.96142e-02,-2.32521e-02,8.22794e-02,3.37607e-02,-1.21851e-02,3.51474e-02,3.95022e-01,-3.79711e-02,-4.79454e-02,2.02041e-01,5.85069e-02,-1.65724e-01,-2.13103e-01,-1.08134e-01,9.60471e-02,2.83148e-01,1.29302e-01,-8.06810e-03,2.56250e-01,-3.83325e-01,3.16899e-02,1.45184e-01,-1.92684e-01,-1.87967e-02,-3.30072e-02,2.49331e-01,-1.48123e-01,-4.38357e-02,1.06120e-01,-3.43862e-03,2.48862e-02,5.28147e-02,-9.53371e-02,1.01579e-01,8.32107e-02,6.71253e-02,-1.25527e-01,2.03350e-02,-2.02185e-01,7.19855e-02,-2.60425e-01,3.09429e-01,7.09445e-02,
-3.57901e-02,7.34289e-02,-1.58986e-02,3.68258e-02,-1.12220e-01,-3.98421e-02,-1.52740e-01,1.48594e-01,9.00178e-02,8.54319e-02,-2.06146e-01,1.47980e-02,-3.57721e-02,7.28547e-02,-1.50600e-01,1.64509e-01,-2.25202e-01,-1.23516e-01,-7.53582e-02,6.81566e-02,-1.77053e-01,2.80588e-01,1.57797e-01,-2.33363e-02,1.62827e-01,2.49761e-01,-1.95695e-01,6.42770e-02,-1.02552e-01,1.64302e-01,1.08584e-01,-1.70323e-01,2.63901e-01,1.17980e-02,8.23518e-03,2.40781e-01,1.59954e-01,8.71691e-02,-2.28975e-01,6.57062e-03,8.69765e-02,-2.25487e-01,3.54219e-02,8.78415e-02,-1.08843e-01,8.19773e-02,-1.70498e-01,-1.00835e-01,2.77518e-01,2.30427e-01,-1.67747e-01,-1.69923e-01,-1.44749e-01,-1.75379e-01,2.05821e-01,-1.63014e-01,-1.63582e-01,-1.46132e-01,-5.54115e-02,1.05395e-01,1.58239e-01,-1.20807e-01,-6.10356e-03,1.14463e-01,
-8.59864e-02,-8.73736e-03,-1.24095e-01,4.91497e-02,9.54533e-02,-1.05970e-01,-8.25515e-02,3.36163e-02,3.47155e-02,-1.12762e-01,-1.20823e-01,-2.50205e-04,7.68562e-02,5.13429e-02,6.16286e-02,4.33622e-04,-9.11257e-02,-8.37347e-02,-6.83579e-02,-4.21927e-02,1.07886e-01,-6.82428e-02,1.69894e-02,-1.25638e-01,-1.28203e-01,-1.85263e-02,-1.08576e-01,5.16111e-02,2.27326e-02,-1.32635e-01,-9.89141e-02,7.72070e-02,-5.23901e-02,-9.20192e-02,-6.20393e-02,9.52562e-02,1.27403e-02,-1.27968e-01,-6.70865e-02,-1.34544e-01,-6.66286e-03,2.63510e-02,9.47750e-02,-2.73547e-02,9.73775e-02,-8.58932e-02,-1.15204e-01,1.21170e-01,5.55593e-02,1.96917e-02,-1.26639e-01,-8.89203e-02,9.67792e-02,2.57804e-02,1.02993e-01,1.13091e-01,-1.22254e-01,7.69876e-02,-4.79659e-02,4.07755e-02,-3.74041e-02,6.99669e-04,-8.55650e-02,7.96158e-02,
2.04350e-01,
2.04665e-01,
2.15386e-01,
-2.69024e-02,
8.09813e-02,
5.64570e-02,
-9.78432e-02,
8.89983e-03,
-5.11286e-02,
-8.43179e-02,
-1.26361e-01,
1.26862e-01,
5.19486e-02,
4.43688e-02,
4.87274e-02,
1.41586e-01,
1.18160e-01,
-1.02639e-01,
-6.49367e-02,
-1.02610e-01,
1.54319e-01,
6.41200e-02,
-1.04048e-01,
-8.08583e-02,
7.32718e-02,
1.62969e-01,
2.12580e-01,
-2.36309e-02,
2.57733e-01,
2.33080e-01,
-2.58300e-02,
-1.19336e-02,
2.16089e-01,2.17368e-01,3.11240e-01,-2.94547e-02,3.96621e-01,-1.11086e-01,-1.48589e-02,3.24338e-01,2.78781e-01,-2.55629e-01,-1.76600e-01,-5.22573e-02,-1.82064e-01,3.49801e-02,3.66707e-01,-2.30561e-01,4.31692e-02,-3.49145e-01,-1.68198e-01,-3.25801e-01,2.41879e-01,-2.62820e-01,-2.58052e-01,-2.08278e-01,3.24790e-01,3.51581e-01,3.13705e-01,-8.66640e-03,5.03363e-01,3.05408e-01,3.81207e-01,-8.79796e-02,
-3.13172e-01,-1.54243e-01,-2.23917e-01,1.52267e-01,1.94609e-01,1.26294e-01,-2.80594e-02,-1.08156e-01,-3.71802e-01,2.65674e-01,-1.81849e-01,1.76387e-01,-9.33210e-02,1.50637e-01,-1.56484e-01,-1.55606e-01,-2.43529e-01,2.91787e-01,7.51901e-02,-1.39219e-01,-1.44036e-01,-1.43875e-01,1.39951e-01,2.52555e-01,2.25119e-01,-2.98781e-02,-8.78656e-02,1.98418e-01,-1.09510e-01,9.07786e-03,1.38561e-01,-5.26654e-02,
3.77403e-01,7.16466e-02,2.48936e-01,3.35917e-03,3.06864e-01,1.02748e-01,1.56958e-01,3.35618e-01,1.49997e-01,-6.94649e-02,3.03268e-02,-1.09416e-01,-3.16902e-01,-1.08069e-01,3.65374e-01,4.28955e-02,-5.26305e-02,-3.57587e-02,-2.76186e-01,-1.94177e-01,1.12616e-01,-2.27175e-01,-1.39625e-02,-2.09835e-01,2.89337e-01,2.96029e-01,3.64798e-01,-1.95440e-01,4.06133e-01,4.19529e-01,3.65537e-01,-3.87985e-02,
3.83884e-01,2.18571e-01,2.92861e-02,-6.31709e-02,4.18998e-01,-1.32519e-01,3.87028e-02,2.81841e-01,1.22117e-01,-6.83169e-02,-1.11229e-01,-4.84493e-02,-1.85931e-01,8.98428e-03,2.91407e-01,-9.34660e-02,1.68635e-01,-2.21852e-01,-8.92365e-02,-3.93355e-01,9.60692e-02,-5.47955e-02,-1.01085e-01,2.46268e-02,3.17243e-01,5.06583e-01,2.56800e-01,-2.78110e-01,3.58194e-01,4.39524e-01,2.71684e-01,1.50080e-01,
-3.86730e-01,2.86217e-01,9.89924e-02,3.12392e-01,-3.52402e-02,2.25770e-01,3.52275e-02,-3.62149e-01,-2.47141e-01,2.18740e-01,2.73271e-01,1.98480e-01,1.60467e-01,1.85108e-01,-3.45570e-01,3.16213e-01,1.10391e-01,1.16751e-01,2.34751e-01,3.65301e-01,1.99631e-01,1.82691e-01,4.71318e-02,3.39587e-02,-3.47380e-01,-2.91837e-01,-2.59594e-01,1.45831e-01,-3.64637e-01,-4.00087e-01,-3.68622e-01,-4.29452e-02,
-1.12614e-01,5.42644e-02,-1.78635e-01,-9.00393e-02,-3.92972e-02,-5.58322e-02,1.51319e-01,-9.28382e-02,1.16332e-01,-1.47110e-01,1.21376e-02,-1.06044e-01,7.70251e-02,1.30608e-01,1.15310e-01,1.25832e-01,-1.52644e-01,-1.30294e-02,-3.89410e-02,7.53277e-02,1.04352e-01,-4.06778e-02,6.94524e-02,6.44623e-04,9.48615e-02,6.21986e-02,-1.77538e-01,-1.62854e-01,6.41165e-02,-7.49852e-02,-1.20643e-02,-3.04332e-03,
-3.42366e-01,1.57924e-01,2.16071e-01,1.08428e-01,-9.69441e-02,1.40044e-01,-8.37634e-02,-3.48339e-01,-2.66121e-01,2.98275e-01,2.93048e-01,2.74308e-01,3.91429e-01,1.64250e-01,-2.55451e-01,1.44463e-01,7.32374e-02,3.60772e-01,1.81728e-01,1.40586e-01,8.71795e-02,2.57135e-01,3.37369e-01,2.80079e-01,-3.43473e-01,-2.44785e-01,-1.12081e-01,2.31567e-01,-5.04921e-01,-2.87552e-01,-2.82997e-01,9.62451e-02,
3.64427e-01,9.96549e-02,2.60817e-02,-2.25996e-01,3.35783e-01,-1.78787e-01,-7.25508e-02,2.92788e-01,3.33803e-01,-1.83137e-01,-1.48533e-01,-5.67408e-02,-6.91561e-02,-7.30119e-02,4.24605e-01,4.07486e-02,6.17836e-02,-2.48146e-01,4.99785e-02,-3.68145e-01,2.94743e-01,-1.77225e-01,-8.71110e-02,6.51772e-02,3.46849e-01,2.45558e-01,1.42443e-01,-5.47694e-02,2.40842e-01,1.96242e-01,3.13601e-01,4.41628e-03,
-2.40074e-01,3.40121e-01,4.39561e-03,6.10547e-03,-2.49700e-01,2.56385e-01,7.75350e-02,-3.39052e-01,-2.98690e-01,1.53740e-01,3.71790e-01,3.37989e-01,2.98322e-01,7.20262e-02,-2.02707e-01,2.30780e-01,-7.40355e-03,1.61835e-01,2.58762e-01,4.56978e-01,1.98575e-01,3.11972e-01,2.89803e-02,3.16040e-01,-5.90264e-02,-1.72981e-01,-2.22383e-01,3.00028e-01,-4.80933e-01,-4.52528e-01,-3.64415e-01,1.44257e-01,
-8.29104e-02,-1.83230e-01,-2.39762e-01,1.27471e-01,-8.47112e-02,-1.74278e-01,-1.35996e-01,-2.82177e-01,-4.10032e-01,1.17981e-01,-2.57911e-01,-1.32736e-02,-9.71926e-02,2.74289e-01,-2.67114e-02,-1.48676e-01,-5.10208e-02,3.03125e-01,-9.58589e-02,-6.16069e-03,-1.66942e-01,-1.17122e-01,2.75454e-01,1.32634e-01,1.61633e-01,-2.63950e-01,-4.67349e-02,3.28114e-01,-9.42617e-04,3.25788e-02,2.45860e-01,-1.63088e-02,
-2.32155e-01,3.99606e-02,-5.02571e-02,6.38669e-02,7.62770e-02,9.64578e-02,1.44498e-01,-6.01166e-02,-4.82529e-02,1.44162e-01,-7.53135e-02,-1.39230e-01,1.54588e-01,5.76288e-02,1.25857e-01,5.48015e-02,-1.84096e-01,5.64210e-02,-1.71345e-02,-1.34742e-02,4.71840e-02,-4.48326e-02,-1.22096e-01,-1.97270e-01,-5.96652e-02,-8.38763e-02,5.18330e-02,-1.43204e-01,-2.44505e-02,7.76657e-02,-1.26716e-01,1.65963e-01,
-1.02028e-01,-1.39209e-01,-1.15446e-01,4.02304e-02,9.70893e-02,4.20258e-02,-1.35665e-01,8.51044e-02,6.37944e-02,-4.66240e-02,-7.87707e-02,1.02479e-02,4.07984e-02,1.48451e-01,-1.52139e-01,1.08044e-01,-1.21650e-01,-2.24989e-02,-1.60346e-01,2.44242e-02,-1.14832e-01,-4.27852e-02,-1.76279e-01,9.51587e-02,-1.55324e-02,4.55998e-02,5.94379e-02,3.66678e-02,1.30799e-01,-1.50006e-02,-1.37464e-01,4.70224e-02,
-2.84689e-01,1.83197e-01,2.14773e-01,-2.51285e-02,-2.04186e-01,1.95637e-01,1.03842e-02,-3.95375e-01,-2.26040e-01,3.20052e-02,4.12614e-02,2.81667e-01,3.50817e-01,6.89333e-02,-9.55840e-02,2.61034e-01,6.06699e-02,1.38274e-01,3.80797e-01,4.17916e-01,2.69677e-03,1.02191e-01,2.81047e-01,1.79442e-01,-2.23854e-01,-4.23879e-01,-2.11054e-01,3.46326e-01,-1.13147e-01,-1.38020e-01,-2.23192e-01,-1.21263e-02,
3.25496e-01,9.85889e-02,1.50951e-01,-1.40060e-01,2.70549e-01,-1.75379e-01,1.11585e-01,2.72570e-01,8.22011e-02,-2.50449e-01,-1.55731e-01,-2.61159e-02,-1.12649e-01,-7.66490e-02,3.72065e-01,-1.88756e-01,1.80000e-01,-1.58265e-01,-2.87398e-01,-3.07858e-01,3.58695e-01,-1.61599e-01,-2.41713e-01,-4.37285e-02,2.42153e-01,5.04191e-01,3.91202e-01,-5.13969e-02,5.03433e-01,4.43639e-01,2.64557e-01,-9.76653e-02,
-1.65380e-02,7.70215e-03,-9.19861e-02,1.50575e-01,-1.75305e-01,-1.88508e-01,1.03250e-01,-7.86326e-02,2.90567e-02,-1.53218e-01,7.41630e-02,5.70343e-02,-1.95854e-01,-1.72957e-01,6.97228e-03,1.50430e-01,6.25857e-02,9.88965e-02,-2.58656e-03,4.90549e-02,4.51838e-02,-4.89507e-02,-5.46071e-02,-1.67470e-01,4.71650e-02,-1.49527e-01,-3.41092e-02,-1.14448e-01,9.65396e-02,-1.49250e-01,-6.18351e-02,2.58291e-02,
-7.16775e-02,-7.79415e-02,-1.57212e-01,-1.39328e-01,-9.19055e-02,-1.46622e-01,6.18591e-02,4.68960e-03,-1.26437e-02,-4.53994e-02,-1.59353e-01,-5.88910e-02,1.65738e-01,9.71534e-02,-1.56892e-01,1.39394e-01,-9.10671e-02,4.78111e-02,-6.12870e-02,1.42081e-01,1.71080e-01,2.02062e-02,1.02524e-01,1.99810e-02,-6.35293e-02,-5.15253e-02,-6.60559e-03,-9.02318e-02,4.64174e-02,-2.41497e-03,-1.71186e-01,1.34567e-02,
2.40391e-01,
-6.06702e-02,
1.24482e-01,
2.30420e-01,
2.47720e-01,
-6.88830e-02,
2.04197e-01,
2.16068e-01,
-6.47582e-02,
1.43695e-01,
-1.81059e-01,
-1.68137e-01,
-6.64359e-02,
2.17139e-01,
-1.67609e-01,
-1.67507e-01,
-5.30021e-01,3.74162e-01,-4.79012e-01,-3.64751e-01,4.04127e-01,6.24964e-02,3.23608e-01,-5.45303e-01,3.15417e-01,4.45002e-01,8.25110e-02,-2.02813e-01,5.10180e-01,-3.58966e-01,-1.10623e-01,1.12962e-01,
-4.23976e-02,
