// Neural Network File Format by Kyle Julian, Stanford 2016
// Network written to file by adapted writeNNet() method for ReLUNet
4,11,1,64,
11,64,32,16,1,
0,
-1.0,-1.0,-1.0,-1.0,-1.0,-1.0,-1.0,-1.0,-1.0,-1.0,-1.0,
1.0,1.0,1.0,1.0,1.0,1.0,1.0,1.0,1.0,1.0,1.0,
0.0,0.0,0.0,0.0,0.0,0.0,0.0,0.0,0.0,0.0,0.0,0.0,
1.0,1.0,1.0,1.0,1.0,1.0,1.0,1.0,1.0,1.0,1.0,1.0,
2.16572e-01,1.65807e-01,3.10916e-01,4.24083e-01,3.27995e-01,-3.14508e-01,-9.95703e-02,2.28744e-01,-1.41127e-01,-1.76698e-01,-2.69713e-01,
1.79646e-01,-2.18863e-01,1.58019e-02,-3.12480e-01,4.20283e-02,2.22465e-01,-3.53083e-01,2.49563e-01,7.26536e-02,2.58642e-01,1.94505e-01,
-1.93941e-01,2.60039e-01,7.61814e-02,-3.84199e-01,4.09287e-02,1.25727e-01,1.95424e-02,6.93317e-02,-1.37367e-01,9.37847e-02,-2.24439e-02,
-1.28977e-01,-1.45140e-01,1.03679e-01,-3.07283e-01,4.83623e-02,2.22498e-01,-3.63455e-01,2.64113e-01,7.49774e-02,-8.64752e-02,3.71838e-02,
3.30923e-01,-2.05583e-01,-2.08697e-02,-3.09490e-01,-4.26206e-01,-1.57032e-01,-1.17442e-01,1.25598e-01,-1.19370e-01,9.87354e-02,-1.19676e-01,
-1.52527e-01,6.77184e-03,1.29836e-01,3.03266e-01,2.09353e-01,2.87521e-01,4.05314e-01,-1.84045e-01,2.07136e-01,1.21967e-02,1.99766e-01,
3.09555e-01,2.45392e-01,2.75027e-02,2.48937e-01,3.36883e-02,-1.73402e-01,-2.30515e-01,-2.70631e-01,2.91309e-01,-6.92758e-02,-1.07701e-02,
1.30435e-01,8.82078e-02,-4.63811e-01,1.63323e-02,-2.00102e-01,4.05128e-02,-2.12321e-01,1.61238e-01,2.39103e-01,1.72070e-01,-1.87608e-01,
-2.16874e-01,-4.22310e-02,-3.51388e-02,-3.88246e-01,-1.49267e-01,-8.12705e-02,-3.50083e-02,-4.90948e-02,2.39257e-02,2.24329e-01,-2.95631e-01,
-4.77674e-02,6.68311e-02,-5.54215e-01,-3.72463e-01,4.23212e-02,-1.97811e-01,-2.06631e-01,-1.77767e-01,-2.36796e-02,1.58447e-02,2.49394e-01,
-4.54842e-01,4.94682e-02,-3.48833e-01,-8.43763e-02,3.12126e-01,1.76765e-01,-3.64840e-01,2.20680e-01,1.36690e-01,1.30527e-01,-2.76151e-01,
-6.64902e-02,4.96316e-02,-1.30246e-01,-3.23102e-01,2.51151e-01,-1.49575e-01,1.67549e-01,6.91296e-02,2.47236e-01,-1.46710e-01,-1.08086e-01,
-1.28147e-01,1.81183e-01,2.75881e-02,-3.99224e-01,2.22413e-01,-3.05199e-03,2.89692e-01,-4.87393e-02,-8.26786e-02,2.31251e-01,1.58834e-02,
-2.48718e-01,-2.36802e-01,2.29510e-01,2.19682e-01,-4.98608e-02,1.85553e-01,-2.86498e-01,-3.28554e-01,8.81666e-02,-2.50891e-01,-2.66975e-01,
-4.22266e-01,7.95618e-02,-2.29355e-01,3.41373e-01,2.55040e-01,1.99110e-01,2.14936e-01,-1.05589e-02,4.45901e-02,1.44551e-01,1.03984e-01,
-4.10076e-01,7.15981e-02,-4.33624e-02,-2.68485e-01,1.40236e-03,3.27108e-01,-3.81156e-01,1.27021e-01,-2.72574e-01,2.36846e-01,-1.66733e-01,
2.42065e-01,3.29391e-01,-8.46683e-03,-2.09276e-01,4.40888e-01,8.79113e-02,-2.32645e-01,-1.41077e-02,5.99527e-02,2.37663e-01,7.63556e-02,
-6.66290e-02,-1.34670e-01,8.46567e-02,-1.95047e-01,-4.47947e-01,-3.19325e-01,-3.07509e-01,-2.12082e-01,-1.83337e-01,1.10645e-01,4.44134e-02,
3.98219e-01,3.47712e-01,3.06786e-01,2.00661e-01,-3.92253e-01,-3.28687e-01,1.53881e-01,1.21761e-01,1.74176e-01,2.39449e-01,-2.67300e-01,
4.10200e-01,1.10894e-01,-3.88577e-01,-3.52095e-02,9.80331e-02,2.34800e-01,-7.21870e-02,-1.57249e-02,-3.92971e-02,-3.00501e-01,-3.81996e-02,
1.99479e-01,3.75144e-01,1.61535e-01,2.58669e-01,-2.42137e-01,-1.59019e-01,8.42179e-02,1.13113e-01,1.45921e-01,-1.53267e-02,2.82256e-01,
-1.86421e-01,2.34351e-01,-9.28640e-02,6.08809e-02,3.31678e-01,-2.17114e-01,1.37160e-01,-2.59729e-01,9.07980e-02,-1.10188e-01,4.23585e-02,
2.81032e-01,-1.45352e-01,-2.90297e-02,-3.77715e-01,-2.70525e-01,2.79296e-01,-1.56714e-01,2.65291e-01,-2.44204e-01,1.04447e-01,2.96300e-01,
9.54590e-02,-2.22213e-01,-2.75535e-01,-4.02343e-01,1.79567e-01,6.28673e-03,1.25948e-01,2.98384e-01,-8.17598e-02,-2.78978e-01,7.42909e-03,
1.06524e-01,3.59338e-01,2.24386e-01,-1.20088e-01,-2.53719e-01,1.48544e-01,2.63258e-01,-1.65993e-01,2.31787e-02,-1.90419e-01,2.74732e-01,
-1.61259e-01,-4.86873e-02,4.77822e-01,3.19026e-01,1.70876e-02,3.43341e-02,4.09070e-01,2.34664e-01,-1.70883e-01,-1.22437e-01,2.64900e-01,
-2.34335e-03,3.83545e-02,-5.31153e-01,-3.12136e-01,1.63561e-01,-7.70631e-02,1.00493e-01,1.02902e-01,-7.96179e-02,-1.74730e-01,1.54456e-01,
1.64351e-02,-1.83773e-02,-4.03926e-01,1.24631e-01,1.33911e-01,-2.32477e-01,-3.52450e-01,2.31832e-01,-2.23722e-01,2.87909e-01,-6.68845e-02,
3.51604e-01,-7.61661e-02,-1.57989e-01,-3.52401e-01,-3.00129e-01,1.86999e-01,2.18217e-02,-1.56914e-02,2.51576e-01,-4.84684e-02,-8.86136e-02,
2.92323e-01,2.28491e-01,-5.25652e-01,3.78270e-01,-3.25399e-01,2.31240e-01,-1.44696e-01,-2.05366e-01,-2.76971e-01,4.70558e-02,-4.85086e-04,
-3.92333e-01,7.69283e-02,-1.14720e-01,2.88590e-01,1.69864e-01,-1.02811e-01,-1.08809e-01,-2.39144e-01,1.43743e-01,-3.54638e-02,-5.87599e-02,
4.36218e-03,1.70508e-02,-3.94289e-01,-1.13413e-01,3.70057e-01,-1.58450e-01,2.52875e-02,-1.03333e-01,-8.97733e-02,-6.03054e-03,1.49618e-01,
-2.59740e-01,-1.25082e-01,5.18730e-02,8.23810e-03,3.18987e-01,3.70600e-01,-6.41742e-02,1.83060e-03,1.82648e-01,-3.08884e-02,1.16688e-01,
-2.76023e-01,-2.26475e-01,4.42919e-01,-2.18171e-01,-1.66424e-02,-1.52589e-01,1.60966e-01,-2.62017e-01,2.29528e-01,-2.64661e-01,2.43459e-01,
4.98968e-01,3.97749e-01,3.72516e-01,1.22122e-02,-3.52380e-01,-2.28433e-01,2.80077e-02,9.26997e-02,1.09704e-01,-2.22190e-01,1.67109e-01,
2.94927e-02,2.89337e-01,-3.48818e-01,6.72694e-02,-4.39580e-02,-1.20806e-01,1.94858e-01,-3.73787e-01,-1.27631e-01,-4.62660e-02,2.52954e-01,
-1.85177e-02,2.51911e-01,1.54284e-01,2.12008e-01,-1.91734e-01,1.02442e-01,3.13616e-01,-3.12319e-01,1.75712e-01,1.90974e-01,2.44249e-01,
-2.10201e-01,3.07901e-01,-8.94162e-02,5.22808e-02,4.51998e-02,-2.23836e-01,9.95864e-02,-2.31729e-01,1.34426e-01,-9.99340e-02,2.38497e-01,
2.70049e-01,1.26957e-01,2.86812e-01,2.27388e-01,-1.29722e-02,-3.91984e-03,-2.75956e-01,-2.99096e-01,2.90719e-02,-2.81951e-01,-2.80675e-01,
-6.36342e-01,-3.76401e-01,4.36976e-02,-3.55855e-02,-2.36463e-01,1.24901e-01,-1.70641e-01,-3.14748e-02,-3.06036e-02,1.92315e-01,-9.74543e-02,
-7.01725e-02,2.49944e-01,6.92565e-02,3.53696e-01,3.37504e-01,1.38123e-01,-3.48574e-01,7.19107e-02,-2.67306e-01,2.24961e-01,-2.46002e-01,
5.69841e-01,3.91625e-01,1.14864e-01,1.18538e-01,6.12474e-02,1.27925e-01,3.51476e-01,-1.71893e-01,6.42765e-02,-1.86216e-01,-9.27453e-02,
2.46572e-01,-1.16391e-01,2.29518e-02,-4.10564e-01,-2.89252e-01,2.08051e-01,-5.85771e-03,3.96945e-02,1.24779e-01,2.99194e-01,3.26154e-02,
-1.68712e-01,-3.73053e-01,5.23601e-01,-2.97916e-02,-2.19361e-01,-2.26009e-01,1.80069e-01,1.95085e-01,-2.67612e-01,2.58345e-01,-4.30172e-02,
-2.63480e-01,-2.81831e-01,1.59484e-01,6.76581e-02,2.57046e-01,-3.71016e-02,-1.34070e-02,5.95497e-02,6.53547e-03,-2.45583e-01,-1.46102e-01,
-2.66130e-01,1.38141e-01,-4.23969e-02,-4.25402e-01,-1.79989e-01,2.16121e-01,1.85484e-01,1.91112e-02,2.20708e-01,-1.33216e-01,1.34603e-01,
5.20901e-01,4.79899e-02,-6.96631e-02,-2.45365e-01,-8.82631e-02,-5.22898e-02,-1.15513e-01,7.51145e-02,-7.38595e-02,4.62349e-03,-6.19026e-02,
4.39197e-01,2.35342e-01,-3.22268e-02,-4.04833e-02,1.61618e-02,1.26594e-01,2.98812e-02,2.57395e-01,6.96447e-02,-2.94134e-01,8.99937e-02,
3.46883e-01,-2.94411e-01,2.40143e-01,-1.00737e-01,5.12555e-02,-2.41244e-01,-1.80743e-02,1.62553e-01,-1.03914e-01,-7.99375e-02,-1.10565e-01,
-2.32695e-01,-4.23181e-02,1.03852e-01,-1.19568e-01,-2.89511e-01,-4.05986e-01,-5.05851e-01,1.08668e-01,1.39179e-02,-3.44064e-02,-9.19522e-02,
-1.10639e-01,1.78804e-01,-6.08327e-02,3.32915e-01,-2.63945e-01,5.95393e-02,3.74855e-01,-3.57355e-01,2.85211e-02,3.80875e-02,2.36778e-01,
-8.64544e-02,-3.51388e-01,4.26650e-02,-1.89093e-02,-1.01580e-01,-1.36146e-01,-3.38096e-01,-3.32316e-01,-2.72823e-01,-2.81214e-01,1.01093e-01,
-4.68836e-01,-3.33005e-02,-3.71002e-01,-3.37720e-01,-1.59336e-02,1.21984e-01,-1.83421e-01,-1.19102e-01,8.68622e-02,1.00549e-01,-5.07365e-02,
-1.18732e-01,-4.16169e-01,2.85693e-01,1.74347e-01,-1.77073e-01,2.21970e-01,2.43385e-01,-3.22961e-01,1.34856e-01,3.90777e-02,-7.26091e-03,
1.71802e-01,6.27881e-02,1.78670e-01,-8.35346e-02,1.95913e-01,1.49637e-01,1.94076e-01,2.76776e-01,-2.18405e-01,-2.29080e-01,-2.93403e-01,
-2.08651e-01,-3.28512e-01,-3.34463e-01,2.13813e-01,2.07906e-01,3.52480e-01,-2.70106e-01,2.44391e-01,2.01756e-01,2.09287e-01,1.72349e-01,
-1.24047e-01,1.60219e-01,1.71670e-01,-2.47677e-01,1.10156e-01,1.98215e-01,-3.36058e-01,1.72817e-01,1.58707e-01,-2.02392e-01,3.67951e-02,
-2.46999e-01,-2.71419e-01,2.21747e-01,2.62802e-01,-3.60721e-02,-2.40171e-01,2.26095e-01,-2.64312e-01,-2.13664e-02,1.08295e-02,-1.75712e-01,
2.53095e-01,-3.33163e-01,1.46665e-01,1.80751e-01,-3.16071e-02,1.83134e-01,-1.34346e-01,-5.77423e-02,-1.97404e-01,2.26735e-01,-1.92376e-01,
2.30852e-01,-1.61154e-02,-1.34308e-01,-2.77007e-01,-1.92068e-01,-1.37739e-02,2.75306e-01,-8.51177e-02,7.84045e-02,-1.44574e-01,2.31553e-01,
5.43571e-02,-2.82892e-01,-1.62743e-01,1.57342e-01,3.43327e-01,-1.47979e-02,2.26083e-01,-1.51428e-01,1.10287e-01,5.36873e-02,6.02754e-02,
4.11046e-01,4.22870e-01,2.94432e-01,-2.30084e-01,-5.96439e-02,3.10697e-02,-6.80173e-04,5.52209e-02,-2.85076e-02,5.16899e-02,-1.64646e-01,
-2.03856e-01,1.96774e-01,-1.01951e-01,-4.25634e-01,-1.45236e-01,5.44546e-02,-6.67225e-02,1.28176e-01,1.37154e-01,1.64167e-01,-6.96697e-02,
-3.32013e-01,-2.35929e-01,-1.86972e-01,7.52128e-02,1.04870e-01,1.36666e-01,-4.02153e-01,-3.37194e-01,1.43263e-02,-7.42423e-03,4.43830e-02,
-1.80060e-01,
3.65849e-01,
-2.54680e-01,
-5.13719e-02,
-2.01052e-01,
-2.95951e-01,
3.93413e-01,
2.61665e-01,
4.63909e-01,
-6.14401e-02,
1.38798e-02,
4.64902e-01,
8.75241e-02,
-1.07211e-01,
-1.06569e-01,
-2.11483e-01,
-5.38207e-02,
2.02097e-01,
-9.59639e-02,
2.94560e-01,
3.17087e-01,
1.84162e-01,
3.45127e-01,
-2.28674e-01,
-3.62571e-02,
-2.05447e-01,
2.14657e-01,
2.61221e-01,
-5.68050e-02,
1.76089e-01,
-2.89362e-02,
-2.60492e-02,
-2.78994e-01,
1.93456e-01,
-1.80132e-01,
3.75227e-01,
-2.13649e-01,
3.56114e-01,
3.79822e-01,
-1.30086e-01,
-3.41373e-02,
-8.61553e-02,
2.03166e-01,
-6.55946e-02,
3.92808e-01,
-5.68914e-02,
-2.47379e-02,
4.26138e-01,
4.35449e-01,
1.37181e-02,
-1.78649e-01,
1.64718e-01,
2.50821e-01,
-9.25502e-02,
1.40585e-01,
-8.64481e-04,
2.03335e-01,
-8.24490e-02,
3.09791e-01,
1.67192e-01,
1.71007e-01,
-1.68906e-01,
-3.34384e-01,
4.64818e-01,
-5.95841e-02,8.69440e-02,1.49478e-01,1.78539e-01,7.51951e-02,5.75227e-02,-2.26511e-01,1.17807e-01,1.32814e-01,1.92322e-02,1.98044e-01,-5.91133e-02,2.30052e-01,3.36713e-02,4.94755e-02,7.04381e-02,1.10497e-01,2.05798e-01,-7.61730e-02,-1.35667e-01,-2.33932e-01,-1.16639e-01,-3.94977e-02,-5.45017e-02,-1.13065e-01,-2.70368e-01,1.05439e-02,1.13894e-01,8.41413e-02,5.35371e-03,4.41506e-02,-4.25983e-02,2.55020e-01,-5.28281e-02,-1.01798e-03,-6.25265e-02,-2.83883e-02,-2.36119e-01,-5.95726e-02,2.09726e-01,1.79364e-01,1.22465e-02,-8.34555e-02,-1.09285e-01,1.74422e-01,-5.45125e-04,1.45447e-01,-1.22823e-01,-2.74467e-01,1.90112e-01,-1.50835e-01,3.94046e-02,1.74652e-01,-1.42620e-01,-6.55005e-02,7.08311e-02,7.32843e-02,-2.69062e-01,-4.74329e-02,-6.97554e-02,-2.10689e-02,2.56934e-02,2.93653e-01,1.92711e-01,
1.92873e-01,8.82477e-02,-1.26055e-02,-7.39897e-02,-2.48658e-01,1.07427e-01,1.59390e-01,2.47307e-01,1.04339e-01,2.31758e-01,-1.39098e-01,-1.60859e-02,-6.87170e-02,-3.91605e-02,-1.63570e-01,-1.01077e-01,7.23988e-02,7.41127e-02,-9.50952e-02,8.27446e-02,7.76363e-02,1.47333e-01,-3.68997e-02,1.55856e-02,-1.47656e-01,1.80019e-01,4.88664e-02,2.05137e-01,-1.10629e-01,1.12519e-01,-5.43559e-02,1.97070e-01,1.03633e-02,5.58700e-02,-6.33000e-02,1.42411e-01,-1.05276e-01,2.06221e-01,1.50474e-01,-1.83700e-01,-6.68906e-02,-2.86707e-01,1.39902e-01,1.83788e-01,2.22911e-01,3.69404e-02,-1.21774e-02,1.54096e-01,9.99779e-02,1.30356e-01,-9.97059e-02,1.71874e-01,-5.31791e-02,1.27331e-01,9.81575e-02,-6.72065e-02,4.26222e-02,-2.43756e-02,2.22495e-01,-1.27329e-01,8.48788e-02,-1.34322e-01,-8.55401e-02,3.42993e-02,
2.25402e-01,1.48732e-01,-1.32821e-02,-6.13639e-02,-3.24943e-01,4.61675e-02,1.62133e-01,5.71080e-02,1.50559e-01,1.74409e-01,-5.41940e-02,-9.80507e-03,1.54949e-01,-1.54213e-03,-2.41877e-01,-8.55480e-02,4.50584e-02,1.46093e-01,-7.43460e-02,1.05080e-01,8.54809e-03,-2.89210e-02,8.22774e-02,2.34292e-02,-1.56036e-01,3.71195e-01,5.41452e-02,9.15713e-02,-1.29373e-01,2.08969e-01,-2.26758e-02,1.86931e-01,-1.76248e-01,4.87795e-02,-2.33414e-01,-7.55157e-02,1.68198e-02,1.82198e-01,1.05069e-01,-3.31943e-01,-8.58872e-02,-4.11950e-01,7.29298e-02,2.31006e-01,1.40451e-02,1.06865e-01,-1.30195e-01,-1.18125e-02,1.01147e-01,7.67421e-03,-1.11081e-01,1.61375e-01,9.62396e-03,2.45309e-01,1.22585e-01,1.24554e-02,1.21963e-01,4.95343e-02,1.51605e-01,-1.29511e-01,3.24011e-02,-9.96955e-02,-1.73873e-01,1.18083e-01,
-1.38793e-01,-8.66795e-02,-5.79996e-02,-3.57898e-02,-1.34152e-01,-2.10595e-02,-1.92347e-01,4.62882e-02,2.20195e-03,-1.55875e-01,3.84165e-02,-1.60288e-01,4.51550e-03,1.09112e-01,2.18943e-01,1.54800e-01,-2.96347e-01,-1.76736e-01,-1.11667e-01,-9.42520e-02,-1.48085e-01,-1.38182e-01,-2.39583e-01,-1.45793e-01,4.56364e-02,-8.24104e-02,-2.28178e-01,8.85066e-02,-1.84438e-01,-9.55228e-02,8.31357e-02,-1.11935e-01,1.63171e-01,-3.23556e-01,-1.05434e-01,-5.29678e-03,1.00227e-02,-1.99281e-01,5.82111e-02,2.49478e-01,1.54852e-01,-8.86323e-02,-3.97783e-02,8.14862e-03,1.55356e-02,-1.42119e-01,-8.65904e-03,-2.91372e-01,-8.60144e-02,7.06919e-02,-1.15801e-01,4.22280e-02,1.31175e-01,-2.01397e-01,-8.60566e-02,1.86177e-01,3.52962e-02,-3.45626e-01,1.03867e-01,-8.59308e-02,1.59651e-02,1.14784e-02,-1.50771e-01,6.23640e-02,
4.02861e-03,1.16541e-01,6.68156e-02,1.00449e-01,2.57679e-01,3.66323e-02,3.53159e-02,1.20741e-01,9.10731e-02,-1.33604e-01,7.37449e-02,1.22295e-01,2.54998e-01,9.33713e-02,1.34919e-01,2.70473e-01,2.72051e-02,1.61003e-01,3.40131e-01,-6.45942e-02,2.58086e-01,1.56889e-01,1.70733e-01,1.63103e-01,1.25244e-01,-3.00344e-01,-9.98544e-02,-6.59552e-02,1.96051e-01,2.20353e-01,1.26172e-01,-3.34273e-02,2.87738e-03,1.79542e-01,2.69581e-01,2.18894e-01,1.89313e-01,3.71358e-02,1.11429e-01,2.32166e-01,-2.84402e-03,2.37299e-01,5.20992e-03,-9.93091e-03,2.02955e-01,1.54268e-01,2.73536e-01,7.13492e-02,1.25439e-01,1.92970e-01,2.16836e-01,6.76099e-02,1.01654e-01,-1.52769e-01,-7.07234e-03,-1.32379e-02,2.11226e-01,1.09901e-01,1.50317e-01,1.04387e-01,-8.58313e-03,1.74800e-01,2.92197e-01,3.62513e-02,
9.76142e-02,6.94865e-02,1.72220e-01,3.33022e-02,-3.06285e-02,5.24679e-02,2.54411e-01,1.66528e-01,2.22302e-01,5.18575e-02,3.52697e-02,1.65863e-01,2.21275e-01,2.05264e-01,2.36853e-01,2.67865e-02,-2.45675e-03,1.83788e-01,9.66793e-02,1.66039e-01,1.61526e-01,1.46434e-01,5.69027e-02,1.96906e-01,1.18255e-01,-7.50424e-02,2.22892e-01,1.49096e-01,8.70753e-02,2.03527e-01,2.61784e-02,1.38697e-01,4.81832e-02,2.63432e-01,2.51039e-02,1.55111e-01,-2.38905e-02,4.78418e-04,1.50949e-01,1.68497e-01,8.21104e-02,1.16348e-01,1.61727e-01,1.54532e-01,2.11137e-01,1.38058e-01,1.29130e-01,1.57006e-01,1.08839e-01,1.24256e-01,-5.48239e-02,1.17482e-01,1.68400e-01,1.31239e-01,1.97071e-01,6.13791e-02,5.26939e-02,1.02776e-01,1.34429e-01,1.04947e-01,1.67470e-01,1.07925e-01,1.83872e-01,5.79379e-02,
1.84978e-01,1.81423e-01,1.55188e-01,4.52948e-02,2.34023e-01,1.55507e-01,3.18912e-01,1.36509e-02,2.37093e-01,-8.76772e-02,2.11961e-01,1.25635e-01,2.12518e-01,1.04695e-01,1.60531e-01,1.07164e-01,6.51847e-02,2.49367e-01,3.31261e-01,1.66313e-01,1.49088e-01,1.91810e-01,1.62799e-01,5.43344e-02,3.06051e-01,-7.85559e-03,6.92546e-02,7.29122e-02,1.47375e-01,2.33406e-01,2.02389e-01,9.71455e-02,7.60341e-02,1.11788e-01,3.40965e-01,1.90378e-01,2.38727e-01,8.37367e-02,2.58419e-01,8.21819e-02,1.78602e-01,1.57536e-01,9.45431e-02,1.12267e-01,2.05881e-01,3.06865e-02,1.72282e-01,3.96469e-02,2.08044e-01,2.35716e-01,1.95480e-01,2.29267e-01,1.12047e-01,-2.71361e-02,-2.98320e-02,-3.04325e-02,5.68824e-02,1.28527e-01,2.12115e-01,2.58058e-01,1.05086e-01,2.76460e-02,2.07862e-01,1.38736e-01,
2.97242e-02,3.77889e-02,1.91144e-01,1.08394e-01,2.02083e-01,-1.06289e-01,7.50597e-02,1.41597e-01,-4.38070e-03,1.22644e-02,1.68265e-01,8.48130e-02,1.02333e-01,1.86768e-02,6.58691e-02,1.97882e-01,1.52376e-01,-2.32992e-03,2.12780e-01,1.41835e-02,6.26164e-02,-1.00913e-01,-1.14533e-02,1.76230e-01,1.39487e-01,-2.66658e-01,1.08116e-01,2.82251e-03,2.58084e-02,-1.82494e-01,8.09988e-02,-4.21847e-02,5.90069e-02,1.71368e-01,4.91307e-02,-7.12372e-02,7.13519e-02,-1.09026e-01,1.43069e-01,2.80513e-01,1.52994e-01,3.51879e-01,8.07229e-02,1.05118e-02,3.59611e-02,1.72602e-01,1.80160e-01,3.38489e-02,4.27873e-02,3.92767e-02,-2.60598e-01,5.53468e-02,1.79229e-01,-5.67696e-02,-5.05878e-02,4.52054e-02,1.67492e-01,5.82523e-02,5.70284e-02,6.26042e-02,-1.08430e-01,2.86092e-01,1.65118e-01,4.14122e-02,
-6.20515e-03,2.17828e-01,-7.00785e-02,5.68300e-02,-2.71731e-01,3.95654e-02,-6.43546e-02,7.73325e-02,7.76899e-02,1.14811e-01,-4.36807e-02,-3.23033e-02,-2.37103e-01,1.57668e-02,-1.94210e-01,8.26578e-02,-1.60417e-01,-8.16256e-02,-7.17095e-02,-6.12208e-03,1.93481e-02,-2.43882e-01,1.83781e-01,-1.13126e-01,5.82696e-02,1.05671e-01,-1.09846e-01,1.20847e-01,-4.08394e-02,-2.33171e-03,-1.33437e-01,-1.51552e-02,9.94699e-03,1.11783e-02,-1.04975e-01,-1.62036e-01,1.35907e-01,5.52616e-02,-3.09936e-02,-2.32177e-01,-5.51738e-02,-2.57741e-01,1.81641e-01,1.42012e-01,1.85448e-02,3.45525e-02,-2.87793e-02,8.66972e-02,1.07265e-01,-2.68257e-01,-7.91085e-02,-6.81376e-02,-1.07333e-01,1.58251e-01,1.61177e-01,1.24018e-01,9.42317e-02,-1.65440e-02,-2.71713e-02,-6.65743e-02,6.90046e-02,-6.18374e-02,-2.73173e-01,-7.31004e-02,
-2.26856e-01,-5.79820e-02,1.57559e-02,-5.51136e-02,-8.87686e-02,-4.19896e-02,4.47258e-02,-3.57180e-02,-2.13322e-02,-2.84802e-01,-2.08012e-01,4.33106e-02,1.27760e-01,-2.64282e-01,3.33796e-02,-8.70329e-03,-7.36336e-02,-1.84500e-01,1.06828e-01,-1.47627e-01,1.53306e-01,1.76552e-01,-1.36233e-01,-1.82380e-02,2.87015e-01,-1.29565e-02,-1.64480e-01,-2.79996e-01,-7.64897e-03,1.14696e-01,1.65892e-01,-1.68015e-02,-1.62212e-01,-4.25627e-02,6.53791e-02,1.26068e-01,1.59182e-01,1.52525e-01,1.20285e-01,2.75421e-02,-8.00426e-02,1.42449e-01,-1.57569e-01,-2.60947e-01,-1.10533e-01,-7.25139e-02,-2.10434e-01,-4.53445e-02,-1.31920e-01,-3.25303e-01,2.46440e-01,-3.30025e-01,-2.06838e-01,-2.23606e-01,-1.13510e-01,-9.23704e-02,-1.13064e-03,1.91105e-01,-1.83511e-01,3.71170e-02,-2.34767e-02,1.86973e-01,-1.14150e-01,-1.84026e-01,
2.83243e-01,-2.47205e-02,7.33332e-02,-9.69660e-02,-1.51053e-01,8.33466e-02,1.17592e-01,-3.31603e-02,1.15124e-01,2.56608e-01,-1.83658e-01,1.86070e-01,2.47271e-03,2.11441e-01,2.44865e-02,-3.46555e-01,-1.86465e-02,7.49962e-02,-1.15748e-01,7.63594e-02,-4.77705e-02,-2.82527e-02,-1.12609e-01,-1.61614e-01,-2.11708e-01,1.59279e-01,1.89748e-01,6.67700e-02,-2.51152e-01,2.07402e-01,9.40587e-02,1.44158e-01,-1.01128e-01,3.70523e-02,-2.23954e-01,6.04763e-03,-9.29453e-02,5.44402e-02,-3.03753e-02,-2.57365e-01,1.97325e-02,-9.91571e-02,7.01157e-02,3.53530e-01,1.20839e-01,-1.84628e-02,-4.61837e-02,1.52116e-01,1.65797e-02,2.04547e-01,-2.05875e-01,1.34075e-01,1.56202e-01,2.56757e-01,2.44114e-01,-1.76802e-01,3.75634e-04,4.95970e-02,4.25416e-02,7.24226e-02,2.42096e-01,-1.51308e-01,-1.01218e-01,2.49424e-02,
5.00006e-02,-1.66257e-01,1.23122e-02,-2.29896e-01,-2.07457e-01,1.36805e-01,1.41320e-01,9.07211e-02,1.28121e-01,5.64708e-02,-1.74055e-01,3.74068e-03,1.71034e-01,1.74170e-01,-1.28120e-01,-1.81774e-01,-5.23354e-02,1.92403e-01,-1.85840e-01,-3.70783e-02,4.55614e-02,-6.64617e-02,-1.25551e-01,5.31798e-02,-1.58500e-01,2.70715e-01,-4.87783e-03,3.87457e-03,-1.72389e-01,2.15861e-02,5.62060e-02,2.47284e-02,-3.72041e-02,1.71687e-01,-6.82433e-02,3.96940e-02,-1.70206e-01,1.27248e-01,5.33333e-03,-7.09733e-02,2.64113e-02,-9.55391e-02,4.23507e-02,9.63640e-02,1.83328e-01,1.89894e-01,-1.47521e-01,-1.70701e-01,1.56314e-02,2.00441e-01,-1.45175e-01,1.96683e-01,1.42311e-01,2.85544e-01,1.86572e-01,-1.23805e-01,-1.27255e-01,1.94474e-01,-1.19157e-02,4.50772e-02,1.83534e-01,-1.34292e-01,-6.79800e-02,1.06457e-01,
1.39219e-01,-8.24483e-02,1.60812e-02,-1.76696e-01,-8.26585e-02,1.79222e-01,4.81821e-02,8.17758e-02,1.67857e-01,2.84715e-01,-8.98063e-02,2.97518e-02,1.00427e-01,5.44808e-02,-2.46865e-02,-2.79449e-01,1.47565e-01,9.31625e-02,-2.50081e-01,1.91454e-01,-4.36532e-02,1.44675e-01,-1.66764e-01,-8.40546e-02,-1.17057e-01,1.68490e-01,4.43271e-02,-1.96210e-02,-2.38118e-01,1.99440e-01,6.68353e-02,1.59194e-01,-1.23243e-01,1.95272e-01,-8.10387e-02,-2.35720e-02,-1.77112e-01,2.16711e-01,1.58255e-01,-3.28993e-02,-4.63127e-02,1.68753e-02,-1.54377e-01,1.10058e-01,2.35038e-01,1.22400e-01,-5.87527e-02,6.24883e-02,1.87142e-02,1.09090e-01,1.47362e-02,6.82327e-02,1.29631e-01,3.01223e-01,1.45064e-01,-1.76837e-01,3.76870e-02,1.26365e-01,9.35240e-02,-1.59396e-01,7.93105e-02,-1.89087e-01,-1.80012e-02,9.53754e-02,
-2.10513e-01,4.77908e-02,-4.84924e-02,-2.93946e-02,2.13366e-01,7.04684e-02,1.99247e-01,-2.57641e-01,7.38230e-03,-3.12279e-01,-2.66526e-02,-2.08870e-02,-1.18379e-01,-2.80073e-01,5.85834e-02,-1.87047e-01,1.64857e-01,1.01087e-01,3.11600e-01,4.96990e-02,2.38937e-01,-3.99061e-03,4.94728e-02,2.75434e-03,2.34711e-01,-2.50205e-01,-9.34287e-02,-3.49419e-01,1.35757e-01,7.56987e-03,1.91150e-02,-2.25271e-01,2.94095e-02,3.22140e-02,1.77800e-01,1.45289e-01,1.06567e-01,-1.64478e-02,8.30122e-02,-9.45318e-02,-2.39942e-03,2.60267e-01,1.68902e-01,-1.91522e-01,-3.30202e-01,-2.31711e-01,2.67332e-01,1.69707e-01,9.00224e-02,-1.32928e-01,1.73342e-01,-1.03791e-01,-4.18062e-01,-3.04961e-01,1.11066e-02,-2.57471e-02,-8.93333e-03,1.89980e-01,5.81976e-02,1.62508e-01,4.83887e-02,2.13689e-01,-2.18951e-01,-3.40639e-01,
-2.58089e-01,1.66822e-01,2.56191e-01,9.91613e-02,3.18297e-01,-8.18019e-02,5.11900e-02,5.73132e-02,-1.01466e-01,-2.24129e-01,1.13627e-01,-7.87327e-02,1.73855e-01,7.33066e-02,7.98661e-03,9.37902e-02,6.91652e-02,-3.59155e-02,1.53358e-01,-8.89720e-02,9.36874e-02,7.93417e-02,1.52928e-01,9.13403e-02,2.52989e-01,-2.14533e-01,-2.40807e-02,-8.45913e-02,2.66308e-02,-2.86218e-02,1.54170e-01,-5.64895e-02,3.27366e-02,-5.58445e-02,1.85697e-01,4.53087e-02,2.58130e-01,4.42676e-02,8.30332e-02,2.86128e-01,1.34493e-01,2.25891e-01,1.34727e-01,-1.05458e-01,7.70330e-02,1.21108e-01,1.44109e-01,-4.44298e-02,-1.61543e-01,-6.62987e-02,2.32532e-01,8.85961e-02,-2.01778e-03,-2.46033e-01,-1.11931e-01,-9.96770e-02,4.33547e-02,1.14187e-01,-9.41146e-02,-1.87409e-02,-8.45378e-02,2.98216e-01,2.86018e-01,6.36276e-02,
-6.08050e-02,-5.25393e-02,7.80109e-02,8.25050e-02,3.72136e-01,4.26490e-02,1.33954e-01,1.66566e-02,6.71540e-02,-2.34975e-01,1.98870e-01,1.14607e-01,5.95800e-02,-5.50421e-02,-4.08326e-02,2.57936e-01,2.16130e-01,-5.01992e-02,1.06847e-01,7.06965e-02,1.33152e-01,-5.05911e-02,1.72632e-01,2.96653e-01,9.55442e-02,-2.37806e-01,-9.65887e-02,-2.19213e-01,1.68121e-01,5.25440e-02,1.02966e-01,-1.11797e-01,-8.87122e-02,1.16724e-01,2.39538e-01,6.30289e-02,7.80250e-02,9.47380e-02,4.98826e-03,1.79807e-01,-1.75882e-01,2.71718e-01,1.83435e-01,-9.96920e-02,-1.78010e-01,1.04976e-01,2.86762e-01,1.29173e-02,3.51534e-02,-8.89482e-02,1.84056e-01,-9.33738e-02,-5.81511e-02,-1.56895e-01,1.28025e-01,-1.64789e-01,-7.31468e-02,7.37436e-02,8.74829e-02,2.27282e-01,-7.79752e-02,1.24671e-01,1.65438e-01,-1.01981e-01,
-1.62609e-01,1.37256e-01,5.08973e-02,4.63778e-02,2.23285e-01,-1.43358e-01,-6.05755e-02,1.58939e-01,8.66108e-02,7.53973e-02,2.62347e-01,6.38620e-02,1.34501e-01,5.10799e-02,1.32503e-01,5.87915e-02,4.56033e-02,2.94145e-02,3.01485e-01,2.04268e-02,1.17053e-01,-1.63793e-02,-7.68391e-04,2.17938e-01,1.54653e-01,-2.63579e-01,2.89937e-02,-5.87755e-02,2.32318e-01,1.17158e-01,5.27527e-02,4.98398e-02,1.22957e-01,8.37278e-02,2.81262e-01,1.28331e-01,1.21482e-01,-7.04146e-02,-4.84653e-02,1.81325e-01,1.76686e-01,2.42620e-01,-1.71221e-02,-9.15217e-02,1.98537e-01,1.35935e-02,1.31432e-01,1.51410e-01,1.15710e-01,1.68701e-01,2.34206e-01,1.98871e-02,2.12121e-01,-1.09139e-01,-7.16030e-02,9.13467e-02,2.04908e-01,1.00683e-01,1.81516e-02,2.45541e-02,8.53596e-02,2.25794e-01,2.60431e-01,1.10235e-01,
2.84771e-01,1.48202e-01,-8.63860e-02,2.65713e-02,-1.57734e-01,2.93969e-01,5.00965e-02,4.52157e-02,2.87458e-02,2.46931e-01,-1.46294e-01,7.84994e-02,6.82380e-02,-1.42667e-01,1.21332e-01,-4.35413e-02,1.41709e-01,-8.52309e-02,-1.03890e-01,1.03273e-01,-1.12324e-01,-3.45095e-02,1.75174e-01,-4.16256e-02,1.33534e-02,3.21866e-01,-4.09439e-02,1.40915e-01,2.42684e-02,-3.77484e-02,-1.77558e-01,2.09465e-01,8.24711e-02,2.03441e-01,-8.92324e-02,7.03390e-02,-1.48048e-01,1.85177e-01,1.43971e-01,-1.35725e-01,9.65579e-02,-2.74328e-01,-7.11610e-02,2.20130e-01,1.63367e-01,8.75255e-02,-7.21001e-02,1.44467e-01,1.86053e-02,-1.73230e-01,-1.95178e-01,-5.76650e-02,-5.73673e-04,2.36609e-01,4.62859e-02,1.40635e-02,5.62481e-02,2.48491e-01,2.81134e-02,-1.51115e-01,2.26096e-01,-2.61578e-01,-1.80546e-01,3.24773e-02,
7.60037e-02,-2.62572e-02,-1.31323e-01,-6.61065e-02,-1.94831e-01,2.27958e-01,-9.08967e-02,1.12140e-01,6.28278e-02,1.41038e-01,-1.43739e-01,1.79645e-01,2.98497e-03,-2.76218e-02,-3.41152e-02,-9.21376e-02,-3.21550e-02,5.38121e-02,-2.07440e-01,5.86529e-03,-6.38050e-02,1.97019e-01,1.42393e-01,1.01676e-01,-9.11036e-02,2.62901e-01,7.53239e-02,-6.37461e-04,-1.45623e-03,1.39468e-02,-1.19234e-01,2.64230e-01,9.79732e-02,1.94649e-01,-2.97385e-01,2.70451e-02,6.82821e-04,1.13777e-01,-8.12599e-02,-1.52742e-01,-7.43232e-03,-1.25860e-01,4.00872e-02,2.02662e-01,3.05164e-01,-5.21439e-02,-4.72483e-02,2.87661e-03,2.24731e-01,-2.02576e-01,-3.82795e-02,1.68459e-01,2.58734e-02,3.19295e-01,1.80734e-01,3.35962e-04,-9.13821e-03,1.52417e-01,1.31689e-01,-1.04652e-01,2.59374e-01,-1.61568e-01,-2.95318e-01,-7.71577e-02,
4.54473e-02,8.66901e-02,-1.08381e-01,7.26682e-02,-1.82953e-01,1.26809e-01,4.49014e-02,2.08895e-01,2.32707e-01,1.31537e-01,-1.23802e-01,1.67185e-01,-6.02029e-02,-6.51264e-02,-5.35404e-02,-1.91301e-01,-6.89429e-02,4.11678e-02,-2.70758e-01,2.00024e-01,9.82073e-04,1.33428e-01,1.07794e-01,8.75767e-03,-2.24422e-01,3.69496e-01,2.33505e-01,1.42417e-01,-2.06688e-01,1.22696e-01,1.92542e-02,2.00321e-01,-2.72930e-02,2.99793e-02,-1.25713e-01,1.32914e-01,-1.67389e-01,3.90046e-02,3.99939e-02,-2.48896e-01,-3.18623e-02,-2.57065e-01,-1.04659e-01,1.65596e-01,2.61252e-02,-3.52620e-02,-1.31679e-01,1.23647e-01,8.17743e-02,2.98246e-02,-1.76196e-01,1.54649e-01,-5.79848e-02,2.29467e-01,1.53758e-01,-6.61358e-02,-8.30981e-02,1.32924e-01,1.57186e-01,-3.61583e-02,1.81390e-01,-3.19578e-01,-3.18339e-01,-7.14771e-02,
1.02595e-01,6.06348e-04,-2.14835e-01,-5.42230e-02,-2.18893e-01,4.01961e-02,1.77345e-01,1.53502e-01,1.89363e-01,9.71221e-02,6.47912e-03,1.85312e-01,-1.09430e-02,-8.30864e-02,-2.15100e-01,-2.70210e-01,1.68780e-01,3.46714e-02,-1.39102e-01,2.67798e-01,1.28837e-02,-8.74970e-03,6.45198e-03,1.44666e-01,-1.74614e-01,3.39436e-01,1.99665e-01,1.02737e-01,-1.64946e-01,1.27235e-01,-5.29451e-02,2.04693e-01,7.74524e-02,1.10892e-01,-2.41047e-01,1.70702e-01,-7.35162e-02,2.25733e-02,1.73212e-02,-1.40867e-01,4.46188e-02,-2.34902e-01,5.76738e-02,3.61098e-01,1.17990e-01,-1.45125e-01,-1.47000e-01,1.47411e-01,7.87508e-03,-7.65727e-02,-5.97780e-02,1.99149e-01,-5.61396e-02,3.50275e-01,2.42321e-02,-7.67430e-03,-1.27791e-01,1.17567e-01,2.61206e-02,1.03861e-01,5.91491e-02,-3.01424e-01,-2.41557e-01,6.94675e-02,
-9.44789e-02,1.11871e-02,2.49920e-02,4.17260e-02,-1.30823e-01,-2.64572e-02,-4.90798e-02,-5.54909e-02,-1.09755e-01,-8.59969e-02,1.17805e-01,-7.39878e-02,-2.27306e-02,2.01773e-01,1.93142e-01,5.93690e-02,-2.97197e-01,-2.84622e-01,-6.18680e-02,-1.96483e-01,-1.27076e-01,-8.99555e-02,-9.32523e-02,-1.14044e-01,-1.17790e-02,-1.33369e-01,-1.41662e-01,1.12175e-01,-1.41900e-01,8.16590e-02,9.23662e-02,-6.66099e-02,1.02939e-01,-1.66234e-01,-1.22145e-01,-1.95641e-01,4.09498e-02,-2.02908e-01,-9.04933e-02,3.55882e-02,1.15487e-01,-8.15855e-02,-1.35044e-01,-6.74604e-04,1.77701e-01,-1.91138e-03,8.18435e-03,-1.05058e-01,-2.39914e-01,8.84629e-02,2.29478e-02,4.83891e-02,5.18624e-02,-2.15990e-01,-1.42827e-01,1.01756e-01,-2.73872e-02,-1.31227e-01,-4.07833e-02,-6.86707e-02,5.47022e-02,1.07307e-03,-1.59952e-01,8.33906e-02,
-1.96165e-01,5.95134e-02,1.61232e-01,-4.47240e-02,1.55474e-01,-1.52206e-01,8.63838e-02,-1.41652e-01,8.16175e-02,-3.26524e-01,3.46851e-03,-1.07912e-02,5.41998e-02,1.31772e-01,1.97420e-01,1.62702e-01,-1.22644e-01,-3.20226e-02,1.63878e-01,-1.47194e-02,1.55074e-01,-4.05887e-02,4.82311e-03,1.13580e-01,1.19191e-01,-1.25171e-01,-9.77544e-02,1.07547e-02,1.24114e-01,-9.52081e-02,9.60020e-02,-7.15700e-02,2.14131e-01,-1.45703e-02,1.19547e-01,-2.50450e-02,1.35231e-01,9.34542e-02,1.02564e-01,2.93923e-01,9.54987e-02,3.77766e-01,1.78079e-01,-3.70627e-02,6.52749e-03,7.09876e-02,1.67963e-01,-5.04839e-02,1.87468e-02,4.49665e-02,2.35957e-01,-1.06300e-01,-4.80897e-02,-3.07328e-01,-3.32658e-04,1.65080e-01,1.47223e-01,1.60715e-01,-5.72078e-02,1.97779e-01,1.32593e-02,3.24277e-01,3.21511e-01,-5.41607e-02,
-1.25133e-01,1.82169e-01,2.20837e-01,1.63957e-01,1.65607e-01,-1.74178e-01,-1.23812e-01,-8.05499e-02,1.60206e-01,-1.17297e-01,1.74396e-01,1.73331e-01,9.15044e-02,8.92997e-02,1.17744e-01,1.80864e-01,-5.66147e-02,1.88598e-01,1.71374e-01,6.29828e-02,-8.05367e-02,4.85492e-02,1.66471e-01,-3.92563e-02,1.75063e-01,-1.58231e-01,-7.61482e-02,-6.56082e-02,1.83040e-01,-2.15421e-01,4.96795e-02,-2.07472e-01,1.69014e-01,6.60556e-02,2.67714e-01,-7.78096e-02,-4.18729e-02,4.32484e-03,1.06168e-02,6.58118e-02,-2.64385e-02,2.91595e-01,7.22008e-02,-1.19714e-01,1.09337e-01,-1.86185e-02,2.35506e-01,6.59000e-02,4.78576e-02,9.06528e-02,-4.02076e-03,1.19466e-01,7.01876e-02,-2.77707e-01,3.63367e-02,1.58195e-01,-2.65378e-03,-9.17449e-02,2.73811e-02,1.85247e-02,-2.79757e-02,2.99647e-01,1.38603e-01,9.40952e-02,
-9.50038e-02,-9.58012e-02,5.20518e-02,-1.26819e-01,-1.35765e-01,-3.56099e-02,-1.06520e-01,-1.16509e-02,3.20412e-02,-1.15437e-01,-1.13223e-01,-4.18170e-03,-7.15101e-02,8.63025e-02,-7.38181e-02,-4.76673e-02,-1.33029e-01,-1.35649e-01,-1.04175e-01,1.07976e-01,-1.66962e-02,-1.67643e-02,8.68910e-02,-9.95521e-02,4.27688e-02,6.27842e-02,-6.03680e-04,-6.27086e-02,-9.25120e-02,2.84369e-02,7.40723e-02,-3.11319e-03,-2.52342e-02,-4.59611e-02,-7.30698e-02,6.96668e-02,-7.14338e-02,-8.11497e-02,-7.80257e-02,7.53670e-02,1.07084e-01,-9.39671e-02,7.55175e-02,4.11909e-02,-8.99162e-02,-8.37618e-02,6.53519e-03,-1.06318e-01,2.88373e-02,-1.81076e-02,-9.90274e-02,-2.07726e-02,-5.58177e-02,5.64049e-02,-5.29450e-02,-1.10499e-01,-2.05064e-02,9.09134e-02,3.11248e-02,8.23183e-03,9.15980e-02,3.76276e-02,-6.45480e-02,-1.37169e-01,
2.27794e-01,9.09356e-03,-1.20492e-01,4.94093e-02,-1.42501e-01,1.97419e-01,-1.02467e-03,7.00933e-02,1.94689e-01,9.38081e-02,-4.78330e-03,1.21728e-01,-3.06903e-02,2.91563e-02,-1.21389e-02,5.40757e-02,1.62764e-01,4.31366e-02,-1.27114e-01,1.84543e-01,-7.44688e-04,5.55955e-02,-1.00207e-01,6.92595e-02,-1.09205e-01,2.60576e-01,2.52996e-01,1.24469e-01,5.85606e-02,2.00009e-01,4.04226e-02,2.09607e-01,3.79492e-02,1.81170e-01,-1.15825e-01,1.29661e-01,-5.06798e-02,1.41645e-01,-1.46776e-02,-1.87014e-02,7.15406e-02,-2.15816e-01,6.22803e-02,2.83842e-01,1.63368e-01,1.32663e-01,-3.78297e-02,1.74323e-01,1.57713e-01,-1.58754e-03,7.52811e-02,9.66087e-02,1.01564e-01,2.68321e-01,1.86439e-01,2.95987e-02,-2.73622e-02,1.38745e-01,1.38265e-01,5.64022e-02,8.60973e-02,-2.46844e-01,-4.43030e-02,9.26717e-03,
-3.19457e-03,2.24081e-02,1.53465e-02,1.83824e-01,1.78553e-01,1.23136e-01,1.79797e-01,1.08592e-01,-4.19486e-03,2.64286e-02,1.92335e-01,1.75838e-01,8.29471e-02,1.53796e-01,2.45310e-01,9.94837e-02,7.42485e-02,1.07635e-01,2.45145e-01,-1.05429e-01,3.03747e-02,1.33995e-01,6.14296e-02,1.41681e-01,1.16250e-01,-2.20175e-01,1.31214e-01,2.74190e-02,6.69731e-02,1.89324e-01,1.66918e-01,5.93329e-02,1.93256e-01,1.46107e-01,2.12661e-01,2.46833e-01,2.76912e-01,1.89584e-01,-4.54730e-02,2.67689e-01,4.68560e-02,3.58619e-01,3.87996e-02,-2.07754e-01,3.24981e-02,-5.13105e-02,2.03640e-01,8.82616e-02,6.69342e-02,-2.45705e-02,2.35312e-01,-6.00335e-02,2.85383e-02,-9.70518e-02,-1.66836e-01,2.01931e-01,-6.99865e-02,1.88970e-01,1.05768e-02,1.67746e-01,1.83225e-01,1.32969e-01,9.40548e-02,2.25426e-01,
-1.01122e-01,6.17506e-02,2.52590e-01,9.77090e-02,5.99800e-02,-1.22554e-01,-6.36598e-02,8.19180e-02,1.46402e-01,-5.32811e-02,2.15471e-02,-3.60737e-02,1.72956e-01,1.46982e-01,2.13667e-01,2.78616e-01,1.88355e-02,3.47895e-02,-8.36151e-02,-1.15269e-01,-2.84345e-01,-1.91567e-01,1.15885e-03,1.49796e-01,4.20612e-02,-1.59084e-01,1.72424e-01,7.51052e-02,1.28633e-01,4.59005e-02,1.27521e-01,-4.31031e-02,8.71579e-03,-1.27231e-01,-1.06974e-02,-6.14385e-02,-1.97454e-01,-1.96719e-01,-4.97571e-02,2.40792e-01,6.42421e-02,1.41385e-01,1.16636e-01,-1.02714e-01,-5.46141e-03,1.14989e-01,-2.69940e-02,-1.60689e-01,-2.98339e-01,2.78312e-01,-1.15274e-01,-4.35090e-03,2.44955e-01,-1.84433e-02,-1.40079e-01,-1.36769e-02,2.53653e-02,-1.50880e-01,-3.46198e-02,1.09531e-01,-5.68328e-02,-7.25734e-02,1.02767e-01,1.97106e-01,
2.41575e-01,-1.16545e-01,-2.35960e-01,-8.10074e-02,-2.30580e-01,-1.25666e-02,9.58589e-03,1.07499e-01,1.41058e-01,1.56104e-01,-6.38512e-02,1.96268e-01,6.92588e-03,1.42848e-02,-6.73804e-02,-3.42184e-02,2.11867e-01,-1.25125e-02,-2.60838e-01,1.18571e-01,-3.29378e-03,1.45622e-01,8.45471e-02,7.50881e-02,-2.32822e-02,3.22981e-01,5.26547e-02,2.00073e-01,-1.74223e-01,-3.61608e-02,-7.38446e-02,1.25930e-01,-1.40349e-01,1.02307e-01,-5.45705e-02,1.53017e-01,-2.07194e-01,4.49751e-02,2.78919e-02,-3.06076e-01,-3.28885e-02,-1.56246e-01,2.03590e-02,2.79035e-01,1.08657e-01,-7.96198e-02,-5.13766e-02,1.58542e-02,9.65995e-02,7.62709e-03,-3.03493e-02,1.29867e-01,1.14023e-01,1.37229e-01,2.11364e-01,-9.40115e-02,-6.69773e-02,1.46150e-01,5.42172e-02,3.14399e-02,7.70145e-02,-3.17411e-01,-1.56077e-01,1.07856e-01,
1.61467e-01,4.73970e-02,-1.64113e-01,-7.10855e-02,-1.71221e-01,2.25068e-01,9.56809e-02,1.92931e-01,-4.43708e-03,2.27724e-01,-3.13683e-02,2.11588e-01,1.46877e-01,-5.44464e-02,-8.44863e-02,-1.18395e-01,9.76033e-02,-5.08434e-02,-2.57439e-01,1.84186e-01,1.34234e-01,6.91183e-02,-5.25627e-02,-4.75904e-02,-2.00249e-01,1.05633e-01,1.15514e-01,1.79224e-01,-2.22533e-01,1.62287e-02,-1.60596e-01,2.15432e-01,2.55501e-02,7.53477e-02,-2.50538e-01,4.86132e-02,-4.99840e-02,2.73627e-02,7.29950e-02,-1.39078e-01,-8.39468e-02,-1.45734e-01,5.58171e-02,2.18423e-01,1.37040e-01,7.95803e-03,-2.13329e-01,5.45909e-02,1.18506e-01,7.80138e-02,4.19293e-02,4.57205e-02,-8.44646e-02,2.35808e-01,3.68222e-03,-2.46209e-03,-1.20179e-01,7.59467e-03,7.80163e-02,4.58493e-02,1.89097e-01,-2.25963e-01,-1.84785e-01,1.17273e-01,
2.34643e-01,4.25358e-02,7.95988e-03,-6.89535e-02,-2.52786e-01,1.93706e-01,4.42347e-02,-1.04053e-02,1.33897e-01,2.25298e-01,-1.67821e-01,1.76321e-01,5.71852e-02,-7.35915e-03,-1.08745e-01,-2.56811e-01,1.26647e-01,1.35123e-02,-1.37008e-01,2.54776e-01,-4.02091e-02,1.83366e-01,-9.88473e-02,-1.41072e-02,-9.86290e-02,3.08167e-01,2.26087e-01,1.78587e-01,-5.81605e-02,9.19554e-02,-1.26846e-01,2.64877e-01,-6.01236e-02,4.73137e-02,-2.21777e-01,2.47690e-02,-1.70012e-01,5.00553e-02,1.66929e-01,-8.00769e-02,6.76990e-02,-1.94817e-01,-7.59509e-02,1.19291e-01,5.10110e-02,-9.33580e-02,-7.37761e-02,-2.88925e-03,2.27192e-01,1.10641e-01,-6.93748e-02,7.82492e-02,1.41962e-01,2.03421e-01,9.01729e-02,-1.57483e-01,5.41443e-02,1.90543e-01,1.30529e-01,-1.15241e-01,1.40927e-01,-2.79569e-01,-1.82338e-01,1.25907e-01,
2.64571e-01,-2.65453e-03,-1.42860e-01,-2.26745e-03,-3.56076e-01,3.76551e-02,9.68622e-02,2.51060e-02,1.46377e-02,2.05191e-01,-1.96793e-02,5.70166e-02,-5.45951e-02,-3.74419e-02,-2.33436e-02,-1.13890e-02,3.06081e-02,5.81532e-02,-9.56239e-02,2.45907e-01,8.85920e-02,1.34003e-01,8.94831e-02,1.34246e-01,2.09370e-02,3.40892e-01,6.50445e-03,4.21248e-03,-2.14941e-01,1.81323e-01,-6.90389e-02,2.13644e-01,-1.02261e-01,-1.88081e-02,-1.16516e-01,-4.95712e-02,-5.20206e-02,1.91913e-02,-1.85335e-02,-1.41677e-01,1.20230e-01,-1.91391e-01,9.23025e-02,3.11651e-01,1.59528e-01,1.03567e-02,-2.70002e-01,1.22722e-01,6.67464e-02,1.16085e-01,-8.70898e-02,6.89447e-02,3.00089e-02,1.60842e-01,5.07055e-02,2.29087e-02,4.83481e-02,1.72980e-01,6.80843e-02,-1.23243e-01,2.03586e-01,-2.73587e-01,-2.74521e-01,9.63248e-02,
4.11836e-02,
2.56061e-01,
2.13332e-02,
7.25641e-02,
5.00378e-02,
6.62074e-02,
2.52903e-01,
-7.53825e-02,
9.84460e-02,
-3.98809e-02,
2.10189e-01,
3.83902e-02,
7.41649e-02,
2.01057e-02,
-7.68680e-02,
-1.56461e-01,
1.78792e-01,
3.22285e-02,
3.94618e-02,
1.75012e-01,
3.17271e-03,
-6.40833e-02,
4.60402e-02,
-1.16049e-01,
9.93360e-04,
1.52212e-01,
1.51595e-01,
-1.04231e-01,
6.31829e-02,
2.31109e-01,
1.39842e-01,
1.92864e-01,
-9.09709e-02,1.15617e-01,-4.03357e-03,-2.27606e-01,-4.88038e-03,2.79761e-02,4.89692e-02,-4.85607e-03,1.54449e-01,-1.74029e-01,3.08612e-01,6.81268e-02,3.17439e-01,-1.44437e-01,-1.78576e-01,-2.39970e-01,-7.31302e-02,1.47672e-01,3.90843e-01,3.22866e-01,1.81627e-01,-1.82228e-01,7.29109e-02,5.84459e-02,1.00066e-02,2.67215e-02,4.29161e-02,-7.54006e-02,2.72325e-01,1.21324e-01,3.26589e-01,1.85392e-01,
-4.21312e-02,3.37895e-01,1.62597e-01,-2.12856e-01,3.47161e-02,-5.48267e-04,-6.10170e-02,-8.31612e-03,8.68959e-02,6.18008e-02,4.26755e-01,3.66191e-01,2.31461e-01,-9.10437e-02,-8.50768e-02,-2.08516e-01,6.48170e-02,2.27266e-01,4.28201e-01,2.37168e-01,4.39988e-01,-2.08368e-01,-2.09529e-01,1.36242e-01,8.45970e-02,-3.77142e-02,-3.13203e-02,2.53895e-02,3.23144e-01,1.76179e-01,4.88000e-01,2.14513e-01,
2.78668e-01,4.49000e-02,-1.35466e-01,5.67181e-02,2.14993e-01,-1.47030e-02,2.38402e-01,2.78297e-01,-9.95836e-02,3.95850e-01,-3.65043e-01,-2.47913e-01,-3.22007e-02,3.34199e-01,1.31240e-01,3.27194e-01,3.14182e-01,-1.41685e-01,-3.30064e-01,-2.90692e-01,-9.72059e-02,1.00357e-01,2.57053e-01,2.88008e-01,1.35883e-01,-1.67754e-01,3.05096e-01,3.09285e-01,-2.73930e-01,-1.03008e-01,-2.69817e-01,-1.30686e-02,
-1.25349e-01,2.64311e-01,3.28701e-01,-6.25181e-02,-8.26890e-03,2.65943e-01,1.12943e-01,7.72263e-02,1.55924e-01,-1.43937e-01,2.89189e-01,3.32598e-01,2.87267e-01,-2.16462e-01,-1.19413e-01,-2.73339e-01,-2.10198e-02,1.05392e-01,2.37475e-01,1.83643e-01,1.24773e-01,-1.42905e-01,-2.56723e-01,-2.23525e-01,-5.29580e-02,2.61896e-01,-2.74509e-02,-2.58480e-01,1.66303e-01,2.81854e-01,2.07820e-01,1.07164e-01,
2.09433e-01,-3.70947e-02,-1.65949e-01,2.84330e-01,3.36115e-01,1.96394e-02,6.89097e-02,2.15625e-01,-2.65609e-01,3.45470e-01,-2.15644e-01,-3.47964e-02,-2.69264e-01,1.68953e-01,2.22852e-01,6.85307e-02,1.49804e-01,-1.35356e-02,-3.71613e-01,-1.93553e-01,-3.37868e-01,2.30378e-01,3.16390e-01,2.43226e-01,6.57578e-02,1.78728e-01,2.05978e-01,3.39442e-01,-2.59519e-01,-1.90268e-01,-1.82852e-01,-1.19240e-01,
1.19555e-01,-4.27561e-02,1.26997e-02,1.50806e-01,1.54286e-02,-7.56455e-02,-4.08482e-02,2.84242e-02,-5.09009e-02,1.18154e-01,9.40911e-03,8.52617e-02,1.54475e-01,-1.18264e-01,2.91901e-02,7.22860e-02,-2.60613e-02,-2.68898e-02,-1.88875e-01,-1.37536e-01,7.13426e-03,-1.85679e-01,-1.06410e-02,3.75015e-02,-1.31942e-01,-1.58762e-01,-9.18155e-02,1.01499e-01,8.07415e-02,1.20848e-01,-1.07729e-01,3.15113e-02,
-6.95094e-02,-1.47698e-01,-1.62255e-01,1.62347e-01,1.10939e-01,-8.36394e-02,7.60937e-02,-1.94447e-01,-2.98522e-02,2.45340e-02,1.45287e-01,-1.45987e-01,-5.40244e-02,1.01580e-01,1.14018e-01,1.38102e-01,-1.01619e-01,1.15042e-01,4.97892e-02,-8.48778e-02,1.09881e-01,1.16024e-01,-2.42624e-02,-3.92176e-02,1.05647e-01,-5.28218e-02,-1.92974e-01,-6.09770e-02,6.67253e-02,9.87331e-03,-5.74874e-02,-1.52044e-01,
-2.80650e-01,1.97997e-01,1.47050e-01,-1.72722e-01,-1.78058e-01,-2.11025e-02,1.03872e-01,-1.83754e-01,2.19986e-01,-2.32549e-01,8.11023e-02,3.82460e-01,1.97503e-01,-3.37311e-01,-6.65673e-02,1.86423e-02,-8.31181e-02,2.80924e-01,3.94235e-01,3.03929e-01,2.44862e-01,-1.04234e-01,1.11178e-01,5.86427e-02,3.86272e-02,1.88206e-01,1.00530e-01,-6.91911e-02,1.19055e-01,1.62301e-01,3.13162e-01,2.86085e-01,
2.71033e-01,-3.64982e-02,-1.54974e-01,2.72652e-01,2.04393e-01,2.25390e-01,1.60781e-01,2.11272e-01,-2.63123e-01,1.91680e-01,-2.53221e-01,-2.64690e-02,-4.77783e-02,2.50419e-01,1.33141e-01,2.11130e-01,9.15322e-02,-5.43847e-02,-3.41463e-01,-2.90552e-01,-3.42533e-01,3.88196e-02,6.01001e-02,3.17794e-01,1.14994e-02,4.77946e-02,1.64698e-01,2.08163e-01,-3.15946e-01,1.00631e-02,-3.31412e-01,-8.38629e-02,
2.09304e-02,1.93031e-01,2.50103e-01,-3.12439e-01,7.13607e-02,8.20739e-02,2.40581e-02,1.44115e-01,2.85598e-01,-2.37207e-01,2.86335e-01,3.10480e-01,2.22539e-01,-1.82225e-01,-1.21648e-01,-2.59805e-01,-2.06580e-02,3.47029e-01,8.07702e-02,2.07627e-01,3.11051e-01,-3.47496e-01,-2.00408e-01,-2.59984e-01,-9.96651e-02,9.73935e-02,1.42255e-01,-2.54144e-01,2.20966e-01,2.94963e-02,2.61927e-01,2.24142e-01,
-6.37728e-02,2.79846e-01,1.68311e-01,-3.74708e-01,-1.56978e-02,1.43317e-01,1.89809e-01,1.29958e-01,1.60310e-01,-1.32366e-01,3.34270e-01,3.02311e-01,3.37774e-01,-3.41457e-01,-1.03188e-01,-1.40528e-01,-9.48034e-02,1.70514e-01,1.97981e-01,1.49769e-01,2.91985e-01,-2.20031e-01,-1.58279e-01,-2.31811e-01,-2.18283e-02,5.83518e-02,-4.49424e-02,-9.51974e-02,6.27779e-02,1.98145e-01,1.30603e-01,3.47179e-01,
-1.28782e-01,1.82810e-01,3.55802e-02,-3.27719e-01,-5.99689e-02,2.17447e-01,6.75268e-02,-1.62081e-01,1.04558e-01,-2.84630e-01,7.41753e-02,2.43550e-01,1.61049e-01,-2.32434e-01,-2.81313e-01,-1.65380e-01,4.60201e-02,1.07197e-01,8.33324e-02,1.92175e-01,3.08112e-01,-2.97351e-01,-1.25253e-01,-7.83873e-02,9.62082e-02,2.94292e-01,1.20515e-01,-1.48519e-01,2.20000e-01,3.03217e-01,3.53830e-01,2.70319e-01,
-1.66288e-01,3.27928e-01,2.99383e-01,-2.26399e-01,1.14694e-01,-9.60782e-03,9.70517e-02,-1.29575e-01,2.99693e-01,-1.86692e-01,2.54980e-01,2.20198e-01,3.03749e-01,-2.45859e-01,-1.17558e-01,-1.47614e-01,8.73855e-02,2.98573e-01,3.69034e-01,2.39768e-01,2.21462e-01,-1.16801e-01,-3.93107e-02,-1.27145e-01,3.55244e-02,8.57828e-03,-1.23961e-01,-2.60691e-02,1.73280e-01,3.12176e-01,2.38935e-01,2.50372e-01,
2.07407e-01,-2.46156e-01,-6.78807e-02,1.98622e-01,3.61344e-01,1.94987e-01,3.55798e-01,3.06689e-02,-3.87436e-01,1.67324e-01,-1.97405e-01,-2.40468e-01,-3.05344e-01,5.17892e-01,2.61245e-01,1.42659e-01,6.84114e-02,-1.96793e-01,-1.79665e-01,-3.02015e-01,-2.50522e-01,2.23706e-01,3.43218e-01,2.89398e-01,-3.15263e-02,8.55633e-03,2.86796e-01,2.02807e-01,-3.40290e-01,-2.32769e-02,-2.89825e-01,-6.05247e-03,
2.83864e-02,4.18326e-02,-1.35638e-01,9.10944e-02,1.12582e-01,2.93444e-01,2.70197e-01,3.62416e-02,-1.15552e-01,-5.48084e-03,-1.37162e-01,-3.13250e-01,-3.30370e-01,4.64422e-01,3.51383e-01,2.94400e-01,3.33362e-01,-1.58289e-01,-1.55651e-01,-9.24748e-02,-1.88715e-01,1.26490e-01,3.49257e-01,2.62467e-01,8.14843e-02,-1.25570e-02,-1.51114e-02,1.33626e-01,-2.02209e-01,-2.35702e-01,-1.12539e-01,-2.68480e-01,
-1.66157e-01,2.62589e-01,2.86711e-01,-1.75257e-01,4.36704e-02,-3.00269e-02,1.05038e-01,-9.79556e-02,2.40498e-01,-2.50079e-01,2.60090e-01,1.54926e-01,4.17251e-01,-2.85825e-01,-3.25983e-02,-6.98218e-02,8.78011e-02,2.97291e-01,4.22004e-01,3.76627e-01,4.19005e-01,-3.45855e-01,-2.26025e-01,-1.11289e-01,1.18286e-01,1.00159e-02,-4.00314e-02,8.43019e-02,1.51246e-01,3.16192e-01,1.51738e-01,1.51353e-01,
1.19082e-01,
-3.93572e-02,
9.99391e-02,
-4.16786e-02,
1.94216e-01,
-1.26312e-01,
-1.19355e-01,
2.04112e-01,
-8.55381e-02,
1.21935e-01,
6.00867e-02,
4.49575e-02,
3.07538e-02,
-3.83920e-02,
-4.42985e-02,
1.87621e-01,
-4.53216e-01,-6.79020e-01,4.35901e-01,-4.58204e-01,3.80028e-01,-4.34470e-02,-1.85823e-01,-3.24964e-01,4.76699e-01,-4.49293e-01,-4.28462e-01,-4.47218e-01,-5.51725e-01,2.94795e-01,4.45473e-01,-3.65699e-01,
3.50217e-02,
