// Neural Network File Format by Kyle Julian, Stanford 2016
// Network written to file by adapted writeNNet() method for ReLUNet
4,11,1,16,
11,16,8,4,1,
0,
-1.0,-1.0,-1.0,-1.0,-1.0,-1.0,-1.0,-1.0,-1.0,-1.0,-1.0,
1.0,1.0,1.0,1.0,1.0,1.0,1.0,1.0,1.0,1.0,1.0,
0.0,0.0,0.0,0.0,0.0,0.0,0.0,0.0,0.0,0.0,0.0,0.0,
1.0,1.0,1.0,1.0,1.0,1.0,1.0,1.0,1.0,1.0,1.0,1.0,
-7.83433e-02,-1.99018e-02,-3.38458e-01,1.19816e-01,-1.89638e-03,-1.21827e-01,2.32857e-01,-1.71841e-01,-7.18325e-02,6.00574e-02,2.89957e-01,
-9.71066e-01,-5.15553e-01,-2.07155e-01,4.18399e-01,-4.77286e-01,1.80677e-01,7.17507e-02,-6.79299e-02,1.87408e-01,1.58659e-01,-2.56938e-01,
-1.67863e-01,-4.17007e-01,-4.86344e-01,-4.63081e-01,2.53091e-01,4.05110e-01,-6.86114e-01,5.09683e-01,2.69103e-01,2.13468e-01,4.63418e-02,
-3.47317e-01,-7.49238e-01,9.43294e-01,1.50986e-01,-2.95654e-01,-8.69730e-02,2.28009e-01,-2.42305e-01,2.38553e-01,2.21276e-01,-2.43636e-02,
2.03241e-01,3.73967e-01,1.18522e-01,-6.87370e-01,2.07233e-01,4.42020e-01,5.15583e-01,1.09685e-02,1.12321e-01,2.73523e-01,-2.52572e-01,
2.14003e-01,1.62954e-01,5.48501e-01,5.94169e-01,3.06153e-01,6.53676e-02,1.75429e-01,-6.67844e-02,8.01202e-02,-1.13074e-01,-1.25217e-01,
-3.11503e-01,-3.10720e-01,-1.06253e-01,3.06896e-02,-3.06505e-01,4.85590e-01,-1.29117e-01,2.74489e-01,-1.30505e-01,-1.60460e-01,2.26212e-01,
1.05150e-01,4.51136e-01,-7.93209e-01,-1.19368e-01,-2.30449e-01,5.18816e-02,-5.97001e-01,2.37983e-01,4.33377e-02,-1.70575e-01,5.76161e-02,
1.93988e-01,4.72187e-01,2.60441e-01,4.46718e-01,-5.19552e-01,-4.89105e-01,6.14096e-01,-1.25832e-01,-1.71424e-02,-5.68936e-02,-7.01950e-02,
1.22480e-01,-3.87313e-01,4.90391e-01,2.68423e-01,-1.40710e-01,3.60773e-01,4.58849e-01,1.81806e-01,1.97854e-01,-5.75644e-02,1.95022e-01,
1.07554e+00,4.90129e-01,5.59629e-01,-3.58492e-01,-7.32346e-03,-9.40046e-02,2.69916e-01,-4.67003e-02,2.55257e-01,-4.26021e-03,-2.91645e-01,
-2.19564e-01,-1.79327e-01,-3.23816e-01,-1.38064e-01,4.76961e-01,-4.03643e-01,2.61626e-01,-3.26711e-01,-1.45659e-01,2.82490e-01,5.47422e-02,
7.16934e-01,3.85365e-01,3.20783e-01,3.72447e-01,-4.85545e-01,-4.74976e-01,-1.05089e-01,-4.67855e-01,2.12250e-01,-1.15586e-02,1.85759e-02,
-1.61379e-01,1.80853e-01,3.97078e-02,2.01254e-01,2.25901e-01,-3.25647e-01,2.48566e-01,-1.78921e-01,-7.71215e-02,1.62932e-01,1.47177e-01,
1.73223e-01,-5.48176e-01,-2.07670e-01,-2.16651e-01,5.85037e-01,-3.20224e-01,4.56895e-02,-3.06727e-01,-1.30013e-01,-1.38700e-01,2.03903e-01,
-4.57718e-01,1.16321e-02,-4.17913e-01,-2.84582e-01,2.18259e-01,1.49750e-01,-6.09413e-01,3.34645e-01,-2.92968e-01,2.57796e-01,7.65309e-02,
6.68763e-01,
-1.80887e-01,
2.52139e-01,
1.67530e-01,
-1.24534e-03,
-4.27559e-01,
1.42756e-01,
6.02776e-01,
-2.49978e-01,
-7.80384e-02,
5.75984e-03,
3.93791e-01,
6.49453e-01,
3.00429e-01,
2.77362e-01,
2.05459e-02,
-3.44335e-01,8.28325e-01,4.44973e-01,5.54353e-03,5.13571e-01,-3.78623e-01,3.13658e-01,9.68699e-02,-3.47147e-01,-3.83787e-01,5.99895e-01,-6.97455e-01,-3.99624e-01,-4.26329e-01,-5.38079e-01,3.96408e-01,
5.53860e-01,6.75193e-01,4.15686e-01,8.51620e-01,3.29429e-01,3.06722e-01,3.25555e-01,8.53529e-01,4.37195e-01,7.84473e-02,5.40233e-01,2.69589e-01,2.62627e-01,3.60470e-01,1.90618e-01,3.36942e-01,
1.27919e-01,-6.08900e-02,-5.41596e-02,-2.98333e-01,-3.22639e-02,3.79688e-02,1.84047e-01,-1.53434e-01,-2.48121e-01,1.22969e-01,-2.24403e-01,1.53571e-01,9.92120e-02,-1.65307e-02,-4.25419e-02,-5.07440e-02,
2.06474e-01,-2.40439e-01,-5.24150e-01,5.69071e-01,2.83234e-01,9.61624e-01,-2.05472e-02,6.27280e-01,-7.30803e-01,2.18242e-01,-5.44064e-01,2.37505e-01,5.25764e-02,4.11803e-01,4.46632e-01,-6.49360e-02,
2.50372e-01,-4.22847e-01,-7.79731e-02,7.14059e-01,1.42291e-01,8.05192e-01,1.59761e-01,2.45468e-01,-5.59642e-01,5.49624e-01,-4.41546e-01,5.10251e-01,-1.62702e-01,3.19328e-01,4.32515e-01,-4.40834e-01,
1.45744e-01,1.03270e+00,2.42341e-01,-9.18137e-02,2.16147e-01,-7.37187e-01,4.15840e-01,8.81987e-02,5.96067e-01,-2.46555e-01,1.01484e+00,-3.61089e-01,7.00041e-01,2.49839e-01,-5.00115e-01,1.88966e-01,
1.66123e-01,-8.25232e-01,1.22689e-01,4.40736e-01,-3.18210e-02,7.29075e-01,-1.40634e-01,7.32969e-01,-4.76661e-01,-8.43459e-03,-6.05137e-01,1.69159e-01,2.81832e-01,-8.40038e-02,3.26222e-01,-3.64002e-02,
-3.58868e-01,-2.22889e-02,7.92284e-02,8.95284e-02,-2.46048e-02,1.31107e-01,1.35967e-01,6.75847e-02,-4.28534e-01,3.76539e-01,-6.82001e-03,-6.61750e-02,-5.29789e-02,-2.54155e-01,-1.90290e-01,-9.79482e-02,
1.54927e-01,
6.77510e-01,
-2.26635e-01,
3.67071e-01,
3.60699e-01,
3.15065e-01,
3.67540e-01,
-2.13569e-01,
-7.55311e-02,2.88281e-01,1.91232e-03,9.83031e-01,8.06204e-01,-3.84227e-01,1.17597e+00,-1.41752e-01,
-2.73766e-01,-3.41832e-01,-2.94030e-01,-3.24629e-01,-2.61100e-03,-3.30438e-01,2.67435e-01,-8.20875e-02,
-2.10779e-01,3.55784e-01,-2.34948e-01,1.11914e+00,7.85703e-01,-4.80335e-01,1.10125e+00,-2.27315e-01,
7.48337e-01,5.00627e-01,2.10201e-01,-1.00799e+00,-8.14961e-01,6.88502e-01,-9.55883e-01,-6.03669e-01,
-1.74970e-02,
6.28853e-02,
1.01979e-01,
3.10274e-01,
-1.00818e+00,1.71356e-01,-9.47798e-01,1.14090e+00,
-3.28459e-03,
