// Neural Network File Format by Kyle Julian, Stanford 2016
// Network written to file by adapted writeNNet() method for ReLUNet
8,11,1,64,
11,64,32,16,32,16,32,16,1,
0,
-1.0,-1.0,-1.0,-1.0,-1.0,-1.0,-1.0,-1.0,-1.0,-1.0,-1.0,
1.0,1.0,1.0,1.0,1.0,1.0,1.0,1.0,1.0,1.0,1.0,
0.0,0.0,0.0,0.0,0.0,0.0,0.0,0.0,0.0,0.0,0.0,0.0,
1.0,1.0,1.0,1.0,1.0,1.0,1.0,1.0,1.0,1.0,1.0,1.0,
-1.47312e-01,-3.43805e-01,-1.43478e-01,-7.44847e-02,1.53655e-01,2.16346e-01,-2.90698e-01,2.59911e-01,1.55452e-01,-1.27162e-01,3.65325e-02,
-2.79939e-01,7.88799e-02,3.46434e-01,5.16832e-02,2.41415e-01,2.17885e-01,1.58758e-01,2.90432e-01,-3.69061e-02,2.31561e-01,2.67129e-01,
1.61680e-02,2.64123e-01,-8.08321e-02,2.39417e-02,1.99200e-01,-1.20484e-01,-3.99644e-01,-2.34295e-01,2.50203e-02,-8.98002e-02,1.38844e-01,
2.06945e-01,-2.33301e-01,-1.37456e-01,-3.17492e-01,4.27516e-02,2.57391e-01,-2.39352e-01,1.56569e-01,1.70623e-01,1.18006e-01,-2.91393e-02,
1.12869e-02,-1.81861e-01,2.20884e-01,-1.82350e-01,1.52172e-01,2.34380e-01,-1.96611e-01,7.58924e-02,1.56097e-01,3.96821e-03,-9.95334e-02,
-7.69203e-03,3.36581e-01,-3.46973e-01,1.53211e-01,9.01087e-02,-2.57032e-01,-2.26876e-01,-2.74954e-01,6.63856e-03,-7.81557e-02,2.42254e-01,
-2.55537e-01,4.12062e-01,2.27485e-01,-3.44370e-01,3.08558e-01,2.15476e-01,8.62474e-02,-2.17416e-01,1.43266e-01,3.01026e-01,1.50581e-01,
4.71064e-02,-4.84744e-02,-2.61059e-01,-9.08021e-03,1.74172e-01,-2.60612e-01,-3.58601e-01,-6.01891e-02,2.30355e-01,1.72089e-02,2.10765e-01,
-1.65789e-01,-1.53577e-01,1.72833e-01,1.63162e-01,-6.06575e-02,-2.28328e-01,1.67005e-01,-2.86865e-01,2.23304e-01,-2.96710e-01,-1.47172e-01,
5.04098e-01,-2.03392e-01,2.70284e-01,-1.09028e-01,1.90089e-01,1.78107e-01,-1.08260e-01,3.72715e-02,-2.71487e-01,1.25932e-01,2.24792e-02,
-3.18565e-01,3.79312e-01,-1.11201e-01,7.23374e-02,-1.38144e-02,-2.03269e-01,1.31081e-01,-1.17932e-01,2.18687e-01,8.74399e-02,2.88351e-01,
-2.59440e-01,-7.73448e-02,2.07283e-01,7.15599e-03,4.50701e-01,-1.74177e-01,2.45063e-01,-2.68331e-01,-1.44228e-01,2.80623e-01,9.91513e-02,
-6.84058e-02,8.59818e-02,1.40413e-01,3.35652e-02,-2.56306e-01,-1.69214e-01,2.87700e-01,-3.10169e-01,-2.33934e-01,-1.76608e-01,2.33534e-01,
-2.13197e-01,2.04059e-01,3.59932e-02,9.97839e-02,-2.53565e-01,-3.33062e-02,1.17261e-01,-1.19654e-01,9.53121e-03,-1.32151e-01,2.29577e-01,
2.51232e-02,1.53851e-01,8.11620e-02,3.60776e-03,2.40133e-01,-2.40070e-01,3.45741e-01,-3.24448e-01,-1.60782e-01,-9.30199e-02,-8.19872e-02,
-2.14282e-01,-3.57808e-02,-3.30608e-01,2.37533e-01,-2.50788e-01,9.72045e-02,-2.11383e-01,1.63973e-01,-1.05994e-02,2.08267e-01,2.21087e-01,
-2.20227e-01,2.42564e-02,-6.38456e-03,2.72072e-01,3.06118e-02,8.18864e-02,2.99693e-02,-1.91268e-01,6.53699e-02,2.20194e-03,7.10263e-02,
-3.22157e-01,5.51016e-02,-3.63561e-01,1.25069e-01,-8.91860e-03,-1.98801e-01,-3.56464e-01,-1.72767e-01,9.03799e-02,-6.25399e-02,8.92519e-02,
2.48558e-02,1.98663e-01,-8.33638e-02,9.15929e-02,-8.93958e-02,-1.93739e-01,8.89204e-02,-1.62148e-01,1.35921e-02,1.46261e-01,-1.01660e-01,
1.56370e-01,-1.87340e-01,-2.90456e-03,-2.33682e-01,9.12058e-02,7.85077e-02,1.82079e-01,-3.14333e-01,7.62718e-02,-1.90420e-01,-8.34918e-02,
4.11839e-01,3.92315e-01,3.17216e-01,-1.39099e-02,-3.25560e-01,-1.75568e-01,-1.06783e-02,1.83444e-01,2.98482e-01,-2.09880e-01,-1.25803e-01,
-7.09133e-02,-3.73226e-01,-2.93768e-01,-1.45662e-01,1.48650e-01,-1.57522e-01,-3.13269e-01,3.77384e-01,2.29122e-01,2.44861e-03,-2.17638e-01,
2.69014e-01,6.81410e-02,-1.49576e-01,2.33714e-01,-3.98104e-01,3.30622e-02,-1.91236e-01,-1.56176e-01,-2.53190e-01,2.47061e-01,2.64235e-02,
-1.41793e-01,-1.89745e-01,1.19700e-01,1.43083e-02,1.42904e-01,-3.09498e-01,3.44238e-01,2.31425e-01,-2.34220e-01,4.46586e-02,2.78564e-01,
1.57490e-01,3.84116e-01,1.91645e-01,-1.48874e-01,-2.33953e-01,8.91340e-02,-1.66802e-01,-3.08889e-01,-2.31497e-01,9.13073e-02,2.86624e-01,
2.10331e-01,-1.34378e-01,7.22808e-02,-4.12483e-03,2.55632e-01,1.89508e-01,-1.17953e-01,-1.89972e-01,-1.57947e-01,2.20077e-01,-2.37300e-01,
-1.17475e-01,-4.83285e-02,3.93328e-01,1.00558e-01,1.23984e-01,-2.31923e-01,1.18237e-01,1.65133e-01,-1.74898e-02,1.93334e-01,-1.59641e-01,
-1.99129e-01,-2.52052e-01,3.17522e-01,1.64391e-01,1.86112e-01,-1.10075e-02,2.68812e-01,-2.91009e-01,5.12833e-02,3.88361e-02,3.00199e-01,
-3.93145e-01,-7.42620e-02,-2.50040e-01,-1.00560e-01,-2.44994e-01,2.71507e-01,-1.90387e-01,-1.01050e-01,6.05635e-02,1.28574e-01,6.00827e-02,
-1.29222e-01,2.60341e-01,-2.30847e-01,2.36569e-01,2.24460e-01,2.54370e-01,2.08934e-01,2.07279e-01,1.22739e-02,-1.67761e-01,1.43940e-02,
-3.76375e-01,3.42248e-02,-3.40979e-01,-2.58844e-01,1.08487e-01,2.31958e-01,1.42202e-02,-4.26033e-03,2.65059e-01,2.33588e-01,7.57226e-02,
2.90795e-02,-2.64206e-02,-9.77513e-02,-2.64026e-01,-1.26897e-01,-3.25183e-01,6.60660e-02,-3.41514e-01,-1.16654e-01,2.23966e-01,-2.90195e-01,
3.96434e-01,2.96461e-01,-1.34053e-03,1.08726e-01,-1.72067e-01,-3.49901e-02,2.25650e-01,1.51572e-01,2.76063e-01,-9.54917e-02,-2.78598e-01,
2.43788e-02,-1.90154e-01,1.03471e-01,2.35416e-01,3.65193e-01,-2.52196e-01,-2.02341e-02,1.90138e-01,2.37023e-01,-4.33819e-02,-1.20332e-01,
2.12925e-01,4.42064e-02,1.75651e-01,-4.17006e-02,-1.72257e-01,-4.31702e-01,-2.52117e-01,-3.57282e-01,1.13809e-01,8.99188e-02,1.07458e-02,
3.53934e-01,4.98901e-02,-3.65907e-01,-2.17788e-01,2.53727e-01,-1.73749e-01,2.20561e-01,-1.22701e-01,-2.29727e-01,-3.43445e-02,1.88858e-01,
3.90714e-01,8.94939e-02,2.96503e-01,1.98815e-02,-3.01777e-01,2.17632e-01,2.00394e-01,1.71549e-01,-2.47565e-01,1.89029e-01,-1.13758e-01,
-1.99566e-01,-2.42115e-01,-2.83003e-01,7.67817e-02,-1.11924e-02,-1.02388e-01,5.47362e-02,-1.66357e-02,1.90014e-01,-2.60784e-01,1.51117e-01,
1.17499e-01,7.97887e-02,-3.28138e-01,2.86782e-01,1.20440e-01,2.53970e-01,1.86248e-01,-7.42207e-02,-2.15149e-01,2.45615e-01,6.89016e-02,
2.32421e-01,1.52763e-01,5.42582e-03,-2.47988e-02,-3.47528e-01,2.05919e-02,-1.85506e-01,-3.28524e-01,1.39939e-01,-6.35746e-02,-3.75543e-02,
-4.83377e-01,-2.53334e-01,-1.73870e-01,-6.50302e-02,-1.82062e-01,1.42975e-01,-6.83377e-02,-3.53318e-02,1.56049e-01,-1.83100e-01,2.62709e-01,
-1.49021e-01,-9.93918e-03,-1.16662e-01,-2.23167e-01,1.85175e-01,-3.80497e-01,-1.60396e-01,-1.72364e-01,2.17054e-02,2.87645e-01,-7.49483e-02,
4.50236e-01,3.27403e-01,6.79475e-02,-3.44534e-01,1.95243e-01,3.59053e-02,2.55510e-01,-1.31948e-01,-1.96026e-01,-5.37631e-02,2.00855e-01,
8.57564e-02,-3.02842e-03,-2.66382e-01,2.19778e-01,3.85184e-02,3.18411e-01,7.88020e-02,-2.42987e-01,3.01210e-01,7.84432e-02,1.98198e-01,
4.41600e-01,2.07483e-01,2.94264e-01,-7.15781e-02,-6.05665e-02,3.76608e-02,2.71452e-01,-8.56820e-02,-2.41609e-01,1.67022e-01,2.28960e-01,
1.96589e-01,-3.13476e-01,6.94727e-02,-1.16174e-01,2.53314e-01,-2.11181e-01,-2.00326e-01,-4.06256e-02,-9.19882e-02,2.58381e-01,2.25771e-01,
-3.22294e-01,1.89249e-02,-2.63583e-01,1.68470e-01,1.99969e-01,8.55065e-02,-2.23833e-01,2.77850e-01,2.61222e-01,-7.16825e-02,2.41133e-01,
1.72025e-01,-7.90321e-02,-2.06338e-01,1.31976e-01,3.01636e-01,1.93219e-01,-1.29043e-01,-2.28691e-01,8.94073e-02,2.72809e-01,1.93373e-01,
1.25959e-01,1.12844e-01,2.52532e-01,-2.73300e-01,2.41840e-01,3.31188e-01,2.62720e-01,4.88197e-02,-2.28217e-01,-1.21186e-01,-8.72419e-02,
2.83825e-01,1.78803e-01,-3.78754e-01,2.86142e-02,-1.89057e-02,5.11678e-04,-2.55127e-01,6.75730e-02,-1.21037e-01,4.53697e-02,-1.01180e-02,
3.08472e-01,2.85605e-01,-2.10309e-01,-1.03437e-01,2.63509e-02,9.15599e-02,-2.25825e-01,3.21504e-01,-6.73592e-02,-2.31006e-01,2.41227e-02,
2.39183e-01,2.75941e-01,-3.82059e-01,-9.12795e-02,1.89194e-01,1.11186e-01,3.12212e-01,3.20715e-01,8.44744e-02,-5.41426e-02,9.01708e-03,
-2.73249e-01,6.16975e-02,-3.24831e-02,3.44324e-01,-2.87066e-02,2.35727e-01,-2.02305e-01,-9.32756e-02,1.36529e-01,-2.18807e-01,-2.14188e-01,
-2.62128e-01,2.69526e-01,3.75676e-01,1.28141e-01,5.79138e-02,-2.20090e-01,2.00678e-01,8.75146e-02,2.70561e-01,9.01381e-02,1.16326e-01,
3.04355e-01,-3.66762e-02,-2.46724e-01,2.38428e-01,2.36000e-01,-5.37125e-02,3.23897e-01,-2.48028e-01,-1.43714e-02,-1.50356e-01,1.43503e-01,
8.07142e-02,2.10816e-01,1.40930e-01,2.21804e-01,1.87935e-01,1.61087e-02,4.03902e-01,-3.30148e-01,2.61266e-01,3.03905e-03,-1.56288e-01,
4.12097e-02,2.61053e-02,-2.82475e-01,1.53670e-01,1.25838e-02,-2.00942e-01,-2.53098e-01,-2.52889e-01,-2.22565e-01,-2.98821e-01,1.27755e-01,
-2.33904e-01,-7.59193e-02,-1.34767e-01,1.06967e-01,-1.54501e-01,-3.25631e-02,-1.29248e-01,1.28760e-01,-1.06657e-01,2.63550e-01,-2.18772e-01,
-3.50653e-01,2.81530e-01,-3.19353e-03,1.92195e-01,-3.47112e-01,1.22796e-01,-2.16468e-01,-1.12882e-01,2.78221e-01,8.40749e-02,-1.47104e-01,
1.64272e-01,-3.04065e-01,-1.73217e-01,9.54786e-02,3.60446e-02,9.16653e-02,-2.61606e-01,-6.79781e-02,-2.33579e-01,2.35512e-01,2.12528e-01,
5.51742e-02,8.87808e-02,-2.93997e-01,-5.03940e-02,-2.61612e-02,-6.53963e-02,-3.80771e-01,-1.72011e-01,-2.24590e-01,-1.49253e-01,-1.12653e-01,
-2.41240e-01,2.83708e-01,7.42405e-02,2.10497e-01,-8.84404e-02,-2.87141e-01,3.07960e-01,2.88184e-02,-4.99136e-02,-2.56962e-01,2.22510e-01,
1.62439e-01,7.45196e-02,-4.15430e-01,-2.56032e-01,3.53020e-01,1.58602e-01,-6.58729e-02,-2.38809e-01,2.78201e-02,1.72805e-01,-2.50716e-02,
3.06061e-01,2.47895e-01,8.66795e-02,-3.02397e-01,-2.06567e-01,1.04470e-01,4.81828e-03,1.12150e-01,-9.35237e-02,1.12893e-01,-5.98126e-02,
-7.29921e-03,
2.72580e-01,
-1.81702e-01,
6.76503e-02,
2.65715e-02,
3.23432e-03,
-1.15169e-01,
2.47509e-01,
1.12998e-01,
2.36678e-01,
-2.65999e-01,
-8.94317e-02,
-2.23905e-01,
-2.06353e-01,
1.09243e-01,
6.45729e-02,
-6.86084e-02,
9.36595e-02,
-2.21269e-01,
-9.37803e-02,
-2.57699e-02,
2.65464e-01,
2.55573e-01,
-7.65804e-02,
1.12652e-01,
-2.71176e-01,
1.62168e-01,
-1.72404e-01,
2.45014e-02,
-8.39912e-02,
3.09094e-01,
-8.28451e-03,
-3.21436e-02,
2.87893e-01,
-1.06879e-01,
3.90091e-01,
1.11156e-01,
4.22946e-01,
3.86832e-02,
-4.10026e-02,
8.77705e-02,
5.10508e-02,
-1.07991e-01,
4.22728e-01,
-2.39164e-01,
-1.98894e-01,
2.91266e-01,
-1.24605e-01,
-2.46336e-01,
6.70021e-02,
-1.08843e-01,
2.62807e-02,
-2.42112e-01,
2.98670e-02,
2.80738e-01,
-1.16057e-02,
-2.35682e-01,
1.78078e-01,
-7.93595e-02,
-1.83888e-01,
-1.20815e-01,
-3.08048e-01,
-3.48923e-02,
2.26374e-01,
-1.60961e-01,1.09176e-01,-1.46138e-01,-1.19562e-01,-5.57257e-02,-4.58473e-02,3.39089e-02,1.16108e-01,1.14855e-01,4.38164e-02,-4.85826e-02,1.95134e-01,7.56784e-02,-1.01006e-01,1.19114e-01,4.75749e-02,-6.34624e-02,-1.81899e-01,-1.53893e-02,-3.08859e-02,-2.24548e-02,-1.29816e-01,-1.36700e-01,4.61988e-02,1.07837e-03,-3.84379e-02,2.39591e-01,1.96031e-01,-4.82072e-03,7.92253e-02,-3.37200e-02,-7.72280e-02,-1.28276e-02,2.04474e-01,-6.27703e-02,-4.11032e-02,9.01367e-03,-7.54848e-02,1.70477e-01,-2.14414e-01,-2.03008e-02,-8.97910e-05,-1.89106e-01,3.28790e-02,-1.95541e-02,1.92495e-01,1.04799e-01,7.47635e-02,9.57727e-02,-7.85559e-02,-2.64804e-02,3.79498e-02,-7.39731e-02,3.14063e-02,-6.88004e-02,1.05217e-01,-9.51351e-02,-1.09594e-01,-1.70945e-01,-9.27446e-06,7.61613e-02,-8.15689e-02,-2.23454e-01,2.61254e-02,
-1.25095e-01,1.43404e-01,1.12213e-01,-1.60659e-01,-8.97155e-02,6.73249e-02,1.38719e-02,3.67237e-04,9.51491e-02,-5.04235e-02,-1.05592e-02,1.95277e-01,-1.12451e-01,-2.11401e-01,1.11657e-01,3.15435e-02,-4.79830e-02,6.24899e-02,-2.92879e-02,1.41282e-01,-7.89235e-02,-6.91544e-02,-8.19945e-02,2.09695e-01,-9.19807e-02,-3.83381e-02,2.16196e-01,1.79446e-01,-1.16669e-01,6.95711e-02,1.26452e-01,4.93887e-02,-1.06877e-01,2.46678e-02,7.27729e-02,1.13720e-01,6.73113e-02,4.20210e-02,-6.44451e-03,-1.17331e-01,-1.00171e-02,1.82201e-01,-3.97758e-02,1.41120e-01,-2.01191e-01,-4.77136e-02,-1.24630e-01,-7.79623e-02,1.04121e-01,1.94397e-01,2.47705e-02,9.33499e-02,-5.75432e-02,1.48475e-01,3.97955e-02,1.07319e-01,2.33298e-02,8.03876e-03,1.81913e-02,6.12780e-02,4.25023e-02,-6.02445e-02,1.30928e-02,1.07722e-01,
3.24851e-02,7.13014e-02,9.11955e-02,-1.83285e-02,-7.39431e-03,-7.88983e-02,3.32198e-03,3.26881e-02,-4.54759e-02,-9.46373e-02,-1.93833e-02,3.11197e-02,1.23412e-01,-6.75701e-02,-1.02644e-01,-1.89459e-02,9.79711e-02,-5.52617e-02,1.20167e-01,-8.92210e-02,-3.51470e-02,-4.64299e-03,1.33274e-02,-3.89171e-04,3.77712e-02,-1.12281e-01,-1.28766e-02,-1.06242e-01,-7.25473e-02,-4.06223e-02,5.00705e-02,6.33575e-02,-1.20735e-01,9.01993e-02,-4.76413e-02,-6.70526e-02,9.31694e-02,-1.03982e-01,-1.12921e-01,-1.82756e-02,1.19355e-02,-9.77380e-02,-7.26501e-02,-1.27495e-01,-2.15892e-02,-3.80076e-02,-1.30591e-01,3.06468e-02,-8.03045e-02,1.20997e-01,-1.11384e-01,-9.46564e-02,3.69692e-02,8.57868e-02,-4.47541e-02,-7.35365e-02,9.89790e-03,-5.28564e-02,6.50396e-02,-9.24438e-02,-6.48377e-02,8.11860e-02,-5.66054e-02,-4.00269e-02,
-8.54846e-02,-1.34808e-01,3.69596e-02,-1.48970e-01,-2.00581e-02,-1.59928e-01,2.71222e-02,1.36793e-02,-7.93948e-03,-1.03876e-03,-6.89939e-04,-1.16825e-01,3.49832e-02,1.13855e-01,-1.60612e-01,9.55178e-03,3.73122e-02,-5.23300e-02,-3.07374e-02,-1.33011e-01,-1.24342e-01,-1.07048e-01,4.97311e-02,-1.23016e-01,-1.41173e-01,-1.50341e-01,6.58469e-02,7.97650e-02,-7.78081e-02,-3.00615e-02,-6.75224e-02,3.31554e-02,4.16599e-02,-1.45513e-01,-6.13160e-02,-4.80007e-02,-1.56061e-01,4.67305e-02,-1.67533e-02,6.23255e-02,1.11887e-01,-1.47127e-02,3.50912e-02,-8.41387e-02,6.37115e-02,1.18710e-02,-1.02496e-01,2.01976e-02,-1.16634e-01,-1.77871e-01,1.95634e-02,-1.65327e-01,-8.64846e-02,-5.07921e-03,-1.20985e-01,-1.51425e-01,3.32539e-02,-1.19902e-01,4.82026e-02,-1.62027e-02,-7.73822e-02,7.15128e-02,-3.00195e-02,-3.26369e-02,
3.55755e-02,1.12414e-01,-5.42040e-02,6.08438e-02,1.83233e-02,-2.37178e-01,1.03215e-01,1.49676e-01,-2.06953e-01,-1.24608e-01,-2.40243e-01,-1.90191e-01,-1.25272e-01,-5.71577e-02,-2.31666e-01,2.03014e-01,1.53671e-01,2.14731e-01,-1.76136e-01,-1.43999e-01,-1.76706e-01,1.62125e-01,9.43216e-03,-1.83931e-02,-1.14835e-01,-8.13151e-02,-1.21674e-01,2.48147e-02,5.01637e-02,1.31608e-01,2.17835e-01,4.60879e-02,-1.39096e-01,9.31541e-02,-1.05805e-01,-4.85479e-02,-1.01283e-01,9.75873e-02,-1.23961e-01,5.47257e-02,1.83941e-01,7.41426e-02,1.67115e-01,-7.05936e-02,1.12644e-01,-8.18705e-03,9.05135e-02,-2.71806e-02,2.95087e-02,-5.96486e-03,-8.62886e-02,3.64501e-02,2.52912e-02,-2.44798e-01,-4.75495e-02,-1.88033e-01,-1.27984e-01,7.40787e-03,1.01599e-01,8.71683e-02,8.67663e-02,-6.93644e-02,-3.18331e-02,1.18862e-01,
-5.59551e-02,-4.05260e-02,1.96437e-01,1.53708e-01,1.44375e-02,-1.87781e-02,-9.92675e-03,2.04713e-01,1.39544e-01,2.10629e-02,-1.03412e-01,2.34445e-01,-1.84309e-02,1.89146e-02,2.69395e-02,7.00783e-02,-1.25169e-01,1.44917e-01,-5.66980e-02,1.04976e-01,-1.87478e-01,9.44451e-02,-4.99454e-02,7.20772e-02,-1.09587e-01,2.98945e-02,1.27740e-01,2.73173e-01,-2.29769e-03,9.58863e-03,1.72071e-01,8.83992e-02,6.79806e-02,4.18731e-02,-9.07991e-03,4.47651e-02,1.02794e-01,1.08103e-01,1.52691e-02,5.59833e-02,6.50704e-02,1.16790e-01,6.80404e-02,1.17946e-01,-1.58839e-01,-5.64536e-03,-1.04734e-02,1.43213e-01,-6.19233e-03,2.34709e-01,4.25828e-03,5.09618e-02,-1.54938e-01,-1.86046e-02,1.11317e-01,3.91366e-02,8.07790e-02,1.43330e-01,-1.53191e-01,1.37135e-02,1.66222e-01,-2.09410e-01,2.18701e-01,3.00016e-02,
-1.23070e-01,3.71127e-02,-1.60137e-01,9.67253e-02,-1.20461e-01,-2.12820e-01,1.22456e-01,-1.83952e-01,3.58027e-02,1.19087e-01,-1.02627e-01,-6.95976e-02,-1.14249e-01,-8.29451e-03,-1.34427e-01,1.19088e-03,-1.45278e-01,-7.65447e-02,-1.49275e-01,-1.19873e-01,1.91874e-02,7.12277e-02,3.05613e-02,-2.00979e-03,-1.03126e-01,-7.53644e-02,-1.56390e-01,6.80737e-02,-1.48642e-01,5.52945e-02,1.07495e-02,-1.08526e-01,1.74087e-01,-1.11685e-01,-1.37415e-01,2.05238e-01,6.93039e-02,-1.92839e-01,9.16058e-02,-7.60316e-02,-1.62182e-01,3.47025e-02,2.10254e-01,-9.19966e-02,-1.40825e-02,-4.71366e-03,-1.03131e-01,-1.28862e-01,7.52850e-02,1.11960e-01,1.79513e-01,-2.90774e-02,-8.63981e-02,-1.90215e-01,1.78284e-03,8.07614e-02,-1.38693e-01,-1.35223e-01,-7.40376e-02,-1.80703e-03,-1.38745e-01,-5.25201e-02,3.05244e-02,-4.99136e-02,
-8.48030e-03,5.57375e-02,-7.68452e-02,-6.79999e-02,1.40054e-01,9.30039e-02,6.85821e-02,-3.21199e-02,1.49333e-01,3.35562e-02,-1.62396e-01,1.21145e-01,-1.58635e-01,-1.87546e-01,-1.14759e-01,-8.53012e-02,-2.07852e-02,-9.45031e-02,-1.89518e-01,-1.16879e-01,-1.50232e-01,1.07017e-01,8.66504e-02,2.19380e-01,-7.67370e-02,1.65181e-01,9.77539e-02,2.71179e-01,-6.75639e-02,1.67253e-01,-1.08871e-01,2.18252e-02,-1.74755e-02,9.30066e-02,6.61381e-02,-2.30955e-02,5.18517e-02,1.23471e-01,3.81067e-02,-6.68521e-02,-1.16345e-01,2.04737e-01,-1.82998e-01,9.11001e-02,-2.16619e-01,1.80657e-01,3.00592e-02,6.98247e-02,-7.39582e-02,-4.25199e-02,8.03915e-02,9.86718e-02,-1.35177e-01,8.32151e-02,9.59649e-02,3.30819e-03,-6.02213e-03,-4.73423e-02,-1.57723e-01,8.69213e-02,-1.23175e-03,-1.10367e-01,-3.57350e-02,6.51682e-02,
-1.98359e-02,-1.31098e-01,4.59762e-04,6.88934e-02,-3.38789e-02,-7.14584e-02,1.05100e-01,-1.21553e-01,3.00495e-02,1.35201e-01,3.18656e-03,-6.21535e-03,3.28130e-03,9.43561e-02,-1.82515e-02,-1.82338e-01,-9.68401e-02,-2.70805e-02,-1.59711e-03,9.32264e-02,1.87157e-01,-8.22001e-02,5.65657e-02,6.54950e-04,1.59585e-01,-1.24995e-01,-1.70297e-02,-1.36774e-01,-1.82799e-02,1.12213e-01,-1.46944e-03,1.08689e-01,1.08876e-01,-1.29649e-01,8.65059e-02,1.60710e-01,2.47678e-02,-1.52845e-01,6.84398e-02,8.40820e-02,-1.86189e-01,-1.01923e-01,8.84946e-02,-4.88988e-02,2.38578e-02,1.55940e-01,-1.93157e-02,-1.73435e-01,-3.76877e-02,9.78551e-02,1.32788e-01,-7.14629e-02,4.92650e-02,7.89040e-02,1.13096e-01,8.45923e-02,-1.40555e-01,-1.89601e-01,5.36075e-02,-7.74066e-02,-1.04826e-01,-3.27669e-02,1.12361e-01,9.77331e-02,
-1.88998e-01,5.23516e-03,2.65249e-02,-3.85800e-03,-1.51212e-01,1.82170e-01,-2.64193e-03,9.46244e-02,-1.11207e-01,-1.40608e-01,1.14124e-01,1.50039e-02,-2.88542e-02,-7.56517e-02,-3.38707e-02,1.05870e-01,8.86926e-02,-4.20242e-02,-3.37546e-02,8.70501e-02,-1.35742e-01,-6.26692e-02,5.13250e-02,-1.96681e-03,1.06161e-01,-2.23792e-02,-9.29508e-02,1.70551e-01,5.34558e-02,1.32674e-01,6.85322e-03,1.63272e-02,-9.23376e-02,6.28830e-02,9.34774e-02,1.44446e-01,1.20319e-02,1.08258e-01,1.49782e-01,-5.67355e-02,5.44528e-02,2.08172e-01,-7.41424e-02,6.11933e-02,-4.28734e-02,-8.20715e-02,1.61738e-02,1.46525e-02,-1.45865e-01,1.35820e-01,4.52446e-02,1.78484e-01,3.78372e-02,-2.66732e-02,-4.82336e-02,7.12034e-02,-5.56617e-02,1.32998e-02,1.31460e-01,-1.60695e-01,2.52096e-01,-1.45711e-01,1.20135e-01,-5.99425e-03,
2.07973e-01,1.19980e-01,8.71744e-02,8.98896e-02,1.11159e-01,-2.44385e-02,-7.58748e-03,6.29655e-02,-2.05889e-01,-1.46994e-01,-9.66380e-02,-1.10595e-01,-1.62267e-01,-1.79695e-01,-1.42656e-01,9.85025e-03,1.85583e-01,2.03641e-02,-1.19431e-01,-3.15386e-02,-3.75795e-02,1.07571e-03,4.42169e-02,1.93556e-01,-1.73054e-01,-1.10638e-01,-1.89760e-02,-2.04930e-02,1.98542e-01,1.15945e-01,-2.66728e-02,9.57783e-02,-1.93108e-01,3.59987e-02,-1.67392e-01,-7.28252e-02,-1.54704e-01,1.72284e-01,6.95356e-03,1.10906e-01,1.55333e-01,-1.08979e-01,-1.72803e-01,1.83559e-02,-1.26881e-01,-2.05967e-01,-5.76644e-02,-3.45175e-02,-5.22915e-02,-8.99264e-02,-8.95096e-02,-2.10010e-01,7.09718e-02,-1.75620e-01,-1.11696e-01,1.01618e-03,-7.90184e-02,1.60447e-01,1.00115e-01,1.34095e-01,4.08452e-03,-1.39747e-01,-1.05121e-01,-1.76207e-02,
-4.87711e-02,-9.23098e-02,1.08669e-01,-1.45857e-01,-1.07967e-01,8.03419e-02,-1.10803e-02,1.62475e-01,-3.01112e-02,-5.41225e-02,1.00074e-01,9.50772e-02,-9.72232e-02,-1.15529e-01,8.01508e-02,-7.94324e-02,-1.16015e-01,1.39883e-01,5.48274e-02,2.69077e-02,-1.10597e-01,7.24595e-02,6.64771e-02,1.49081e-02,-1.80248e-02,-7.69600e-02,-1.01686e-01,4.39545e-02,1.18649e-01,6.70666e-02,1.07267e-01,-4.24598e-02,9.12249e-02,1.37218e-01,-2.85986e-02,5.20279e-02,4.17431e-02,-1.08738e-01,1.69241e-01,6.24245e-04,-3.45603e-02,2.15941e-01,-6.65635e-02,9.11281e-02,-1.23918e-01,1.99641e-01,3.90250e-02,8.98970e-03,-1.96577e-01,1.92725e-01,1.36754e-01,1.90498e-01,-1.09378e-01,-1.28488e-01,-1.13383e-01,2.59761e-03,1.30371e-01,1.99194e-02,-1.43381e-02,5.61271e-02,1.71372e-01,-1.42553e-01,1.41788e-01,-3.14439e-02,
1.32544e-01,1.16138e-01,1.88307e-01,3.21095e-02,3.35104e-02,8.04213e-02,5.02333e-02,2.07823e-01,1.13152e-01,-3.67146e-02,-6.49507e-02,1.27832e-01,-9.98915e-03,-1.45453e-01,1.08143e-01,2.68883e-01,1.99315e-01,1.20579e-01,-1.67151e-01,3.67989e-02,-3.27369e-02,1.12153e-01,7.61034e-02,1.51335e-01,-1.03863e-01,2.23002e-02,2.16646e-01,2.95319e-01,5.72953e-02,3.94702e-02,1.30977e-01,4.97302e-02,4.88629e-02,2.02876e-01,5.12138e-04,-5.40494e-02,1.06340e-01,1.87408e-01,1.02940e-01,5.24824e-03,1.66030e-01,1.13525e-01,6.12976e-02,6.28296e-02,-1.49881e-01,-1.24748e-01,2.64690e-01,3.21294e-02,6.00201e-02,4.64299e-02,1.48024e-02,-2.79710e-02,-5.19417e-03,1.41874e-01,-6.78725e-02,-9.54080e-02,-1.92110e-02,1.45121e-01,1.50222e-01,4.53209e-02,2.20240e-01,5.02824e-02,3.07262e-02,1.24733e-01,
4.35843e-02,-1.23661e-01,2.00654e-01,6.00818e-03,7.02497e-03,1.08544e-01,9.93449e-03,1.32910e-01,-1.34666e-01,8.33649e-02,7.11048e-02,-7.60637e-02,6.14418e-02,5.50446e-03,-1.28083e-01,9.89587e-02,1.85813e-03,-7.93266e-02,-6.35566e-03,-2.82280e-04,3.74299e-02,-1.23626e-02,1.27849e-01,1.37503e-01,-2.00727e-02,2.66897e-01,-1.88549e-01,8.40560e-02,-4.61250e-02,5.82323e-02,-1.40562e-01,3.77198e-02,7.16301e-02,3.46094e-02,3.54452e-02,3.70599e-02,-1.29120e-01,-1.83370e-02,-7.87255e-02,1.11460e-01,-3.12975e-02,4.69407e-02,-9.09852e-02,4.57639e-02,-2.10415e-01,2.22797e-01,-2.04839e-02,-1.85718e-02,4.06281e-02,-1.26474e-02,1.63416e-01,-8.06681e-02,-2.88189e-02,4.62748e-02,-1.81470e-01,-1.06240e-01,2.62724e-02,-1.66563e-02,-2.03619e-02,-5.54373e-02,1.25124e-01,9.50579e-02,6.09103e-02,-2.89154e-02,
7.06209e-02,1.53552e-01,5.71715e-02,1.55081e-01,-3.49322e-02,-2.48419e-01,1.66802e-01,1.59986e-01,-1.70135e-01,-1.41031e-01,-2.17535e-01,-4.03643e-02,-3.15462e-02,-7.87505e-02,-2.24263e-01,1.02353e-01,-9.37746e-02,5.21673e-02,-1.54866e-01,-7.49583e-02,-7.99237e-03,3.14052e-03,-7.77662e-02,6.22044e-03,-2.12479e-02,7.63301e-04,6.89814e-02,-1.91533e-01,2.58919e-01,-4.41370e-03,2.12981e-01,6.58879e-02,-1.34337e-02,9.05245e-03,-2.06286e-01,-6.95738e-02,-1.17287e-01,7.31234e-02,-2.24799e-02,6.74940e-02,2.12738e-01,-7.72488e-02,5.67575e-02,-5.14975e-02,-1.13274e-01,-2.53990e-01,1.81645e-01,1.40738e-01,-6.66905e-02,9.66901e-03,-1.17530e-01,-1.90599e-01,1.98691e-01,-2.70094e-01,-3.40669e-02,-2.03526e-01,-2.28079e-02,2.25111e-01,-4.06583e-02,3.37371e-02,3.65601e-02,-3.79918e-02,4.73047e-02,-9.87059e-02,
-1.68167e-01,1.13089e-01,1.96534e-02,-1.37289e-02,6.33480e-02,-2.96363e-04,-9.53409e-02,1.44516e-01,-4.09897e-02,4.86100e-02,-2.72004e-02,1.05412e-01,1.67954e-02,-3.46387e-02,1.56413e-01,-1.56578e-02,-8.17747e-02,-4.28997e-02,-9.07260e-03,2.10998e-01,6.54774e-02,-6.60223e-03,-3.69161e-02,1.86565e-01,3.12726e-02,4.94496e-02,1.09967e-01,1.13484e-01,-5.68169e-02,2.69296e-03,4.86981e-02,1.92032e-01,3.52660e-02,9.44089e-02,1.07165e-01,1.50954e-01,1.28906e-01,7.91186e-02,8.14552e-02,6.06650e-02,-7.45354e-02,1.18354e-01,8.95469e-02,1.14382e-01,-1.14912e-01,1.33503e-01,1.00756e-01,6.74021e-03,5.26878e-02,7.09848e-02,2.93668e-02,1.70937e-01,-1.32933e-01,-7.57772e-02,9.60838e-02,-5.24720e-02,9.37138e-02,8.19083e-03,-5.81478e-02,-6.30217e-02,4.90443e-02,-2.46066e-02,-1.07772e-02,1.88899e-02,
7.53551e-02,-8.38690e-03,-1.48345e-01,1.42873e-02,9.01199e-02,1.34384e-01,1.19997e-01,-9.31359e-02,-1.24526e-02,7.15459e-02,1.53836e-01,-1.06812e-02,5.32454e-02,1.88710e-01,8.39550e-02,7.39415e-02,1.35600e-01,4.27464e-02,1.69318e-01,1.00503e-01,4.75847e-02,7.88125e-02,-1.62135e-02,-1.36908e-01,-3.12542e-02,-3.80936e-03,-6.09466e-02,-1.50477e-01,-6.29157e-02,7.87074e-02,-6.71284e-02,5.38195e-02,1.10627e-01,-1.59809e-01,1.68258e-01,8.69307e-02,-5.62810e-02,-1.34980e-02,-1.61583e-01,-6.05382e-02,1.48262e-01,5.53028e-03,6.64756e-02,-1.84056e-02,1.63673e-01,8.53651e-02,-1.03928e-02,-1.08286e-01,-3.92715e-02,-1.41871e-01,-9.72662e-02,4.24459e-02,1.34075e-01,-1.05695e-01,-5.26881e-02,2.03467e-01,7.88538e-02,3.50692e-02,1.22612e-01,2.61734e-02,-1.81667e-01,9.84943e-02,-1.07633e-01,1.35666e-01,
7.10944e-02,1.39367e-01,1.53764e-01,-5.68248e-02,1.39651e-01,1.25568e-01,-1.79699e-03,1.63372e-02,7.44675e-02,1.04481e-01,-5.59396e-02,1.93109e-01,-1.73720e-01,-8.09320e-03,1.13885e-01,5.17862e-02,-1.50987e-01,4.39018e-05,-1.35835e-01,1.23342e-01,-1.42238e-01,-9.47435e-02,5.43250e-02,2.11942e-01,-6.22634e-02,1.12408e-01,1.28966e-01,4.92486e-02,-1.50074e-01,-1.70980e-02,9.43923e-02,7.10951e-02,7.14856e-02,1.12918e-01,4.79082e-02,6.54012e-02,3.91394e-02,1.45097e-01,3.34509e-02,-1.87987e-02,-2.69918e-02,1.74585e-01,-1.20168e-01,8.22279e-02,-5.57840e-02,6.80245e-02,1.61848e-02,-5.00980e-02,6.24746e-03,1.63364e-01,1.69564e-01,1.50316e-02,-1.25621e-01,1.10602e-03,-4.26577e-02,-3.61174e-02,-3.84167e-02,3.77303e-02,-3.05087e-02,1.07067e-01,1.57288e-01,-1.29485e-01,1.19172e-01,2.07981e-03,
-1.12913e-01,-1.09403e-02,8.79073e-02,3.69391e-02,-2.96958e-02,2.97807e-02,6.54100e-02,4.09319e-02,-8.88555e-03,1.96788e-01,6.90695e-02,2.01698e-01,-7.69843e-02,2.34633e-02,-2.32559e-02,-6.59102e-02,-1.69252e-02,1.05659e-01,-1.02070e-01,2.12320e-02,-1.27433e-01,-1.82248e-02,1.07808e-01,1.07346e-01,-1.13988e-02,9.32430e-02,2.11090e-01,5.82867e-02,4.54258e-02,6.22980e-02,-4.53173e-02,4.35723e-04,-9.20512e-02,1.67474e-01,5.64611e-02,-9.72917e-02,1.08072e-02,-1.32487e-02,-1.33200e-01,1.60335e-02,-1.26997e-01,-1.28927e-02,-3.32582e-03,-1.32779e-01,-6.38533e-02,4.05899e-02,2.73700e-04,-4.62572e-02,2.22314e-01,-2.16659e-02,-1.02526e-01,2.55493e-02,-7.38339e-02,6.33344e-02,-8.32167e-02,-6.97422e-02,1.08148e-01,5.69523e-02,1.30864e-01,9.53480e-02,2.01392e-01,2.42422e-02,-2.08061e-01,-1.02554e-01,
2.03799e-01,-1.74303e-02,9.25282e-03,3.98511e-02,-2.76807e-02,1.59256e-01,5.68233e-02,1.01880e-01,1.13216e-02,1.44881e-02,1.32820e-01,8.66735e-02,2.31305e-01,1.78885e-01,1.72685e-01,2.14108e-01,2.20558e-02,1.96595e-01,7.89715e-02,1.62708e-01,2.20257e-01,1.62998e-01,5.46425e-02,1.13702e-01,1.81556e-01,-1.77351e-01,3.14776e-02,6.33348e-02,2.72797e-02,1.14998e-01,7.33754e-02,1.18401e-01,-3.55204e-02,1.10803e-01,8.23666e-02,2.37484e-01,1.32602e-01,1.13930e-01,1.52661e-01,1.38257e-01,2.33174e-01,3.10576e-02,1.98230e-01,7.39307e-02,1.29904e-01,-2.72496e-02,1.10702e-01,4.03878e-02,-8.11302e-02,7.88904e-02,8.26911e-02,1.05021e-01,1.69324e-01,-9.89255e-03,2.31762e-01,2.08643e-01,1.30754e-01,1.76052e-02,1.41468e-01,1.19185e-01,9.27017e-02,9.20436e-02,5.10786e-02,4.86296e-02,
7.84635e-02,5.21076e-02,8.59963e-02,8.79201e-02,1.10411e-01,6.72531e-02,1.57179e-03,-7.34450e-03,-1.70605e-01,-1.01149e-02,-5.48519e-02,-4.82757e-03,-7.37380e-02,6.18835e-02,-1.22480e-01,2.66281e-03,1.67633e-01,1.68588e-01,1.10806e-01,1.90495e-02,-2.38377e-02,-4.11871e-02,-7.80941e-02,-3.48374e-02,1.40413e-01,-9.21010e-02,1.11129e-02,-5.81822e-02,-1.04393e-01,9.24492e-02,-9.60755e-02,-1.30621e-01,2.94748e-03,5.74610e-02,-7.75664e-02,-1.75774e-01,-7.96668e-04,-6.54603e-02,-7.14804e-02,-1.13206e-01,-7.77852e-02,-1.26746e-01,-7.43711e-02,1.13342e-01,-7.39287e-04,4.03599e-02,6.35176e-02,8.19730e-02,-5.62110e-02,-8.25131e-02,-1.56999e-01,-1.88530e-01,1.13635e-01,-1.46368e-01,-7.30085e-02,2.81646e-02,-1.20602e-01,8.47975e-02,5.55859e-02,9.26872e-02,3.58218e-03,-1.38591e-01,-1.31340e-02,-2.01718e-02,
1.85187e-03,-5.18384e-03,1.22835e-01,8.71157e-02,4.13896e-02,1.83977e-02,-8.13207e-02,7.09918e-02,6.50051e-02,8.77030e-02,-1.68319e-01,7.72891e-02,3.30859e-02,-1.43652e-01,1.28264e-01,4.69765e-02,-1.75032e-01,-1.37945e-01,-1.31470e-01,-5.10944e-02,-2.15464e-01,6.06666e-02,-1.27626e-01,2.02577e-01,-1.46584e-01,1.66466e-01,-1.72697e-02,1.30463e-01,-1.46704e-01,-4.95808e-02,2.63006e-02,-1.54039e-02,-8.63435e-02,1.76084e-01,3.99725e-02,1.61040e-01,-3.54237e-02,4.02755e-02,-3.89656e-03,-5.55542e-04,-1.51841e-01,2.24021e-01,-1.23817e-01,9.99407e-03,-2.21016e-01,1.04384e-01,-1.07650e-01,1.16271e-01,6.81903e-03,1.92919e-01,-2.39004e-02,1.41720e-01,-2.00949e-01,2.30225e-03,1.11698e-01,1.09725e-01,6.35200e-02,4.80810e-02,-2.50667e-01,4.82976e-02,1.83019e-01,-9.11578e-02,1.59191e-01,-1.57860e-01,
2.18445e-01,1.89920e-01,6.52893e-02,6.93551e-02,1.53251e-01,3.99822e-02,7.43908e-02,1.73862e-01,1.34859e-02,1.18975e-01,1.45405e-01,1.43867e-01,6.18777e-02,9.10755e-02,1.18872e-01,2.10432e-01,-3.20561e-02,2.48008e-02,2.10257e-01,1.23773e-01,2.08753e-01,1.99002e-01,1.43308e-01,1.80072e-01,2.05368e-01,1.64808e-01,6.99818e-02,7.56540e-02,2.41911e-01,5.24355e-02,1.08011e-01,1.65820e-01,1.40504e-01,3.50288e-02,4.34198e-02,2.02796e-01,-1.12033e-02,1.77823e-01,9.85665e-02,3.29857e-03,1.68129e-01,1.31964e-01,2.22169e-01,1.40236e-01,2.48466e-01,-4.48349e-02,3.16847e-02,1.16135e-01,2.12659e-01,4.84557e-02,1.21765e-01,2.00046e-01,-6.86773e-03,-7.26887e-02,1.60019e-01,1.88483e-01,5.09341e-03,1.02152e-01,1.11495e-01,6.09987e-02,1.33107e-01,1.06786e-01,2.14543e-01,6.86056e-02,
-7.69203e-02,-1.77393e-01,1.45645e-01,8.40672e-02,-2.66348e-02,7.70536e-02,2.03915e-02,1.29468e-01,-2.70970e-02,-6.61163e-02,-9.71323e-02,6.19327e-02,5.98016e-02,-3.17402e-02,-4.53046e-02,1.24731e-01,-7.46816e-02,7.41240e-02,-5.03168e-02,-5.96878e-02,1.10509e-02,-3.32959e-02,2.39761e-02,7.10581e-02,1.31055e-01,5.44496e-02,-1.62068e-01,2.04130e-01,-2.74418e-02,4.17490e-02,1.67175e-02,1.38129e-01,-9.32372e-02,3.88733e-02,1.32395e-02,1.72997e-01,-2.15656e-01,2.65311e-02,6.52924e-02,-1.14863e-01,-8.20371e-02,1.00880e-01,4.50706e-02,2.76489e-02,-1.87027e-01,7.39402e-03,-3.32095e-02,1.40694e-01,-1.97537e-01,2.07475e-01,5.95310e-02,1.38714e-01,-5.78188e-02,-1.41885e-01,-2.29168e-02,-9.15506e-02,1.23193e-01,9.29535e-02,1.24990e-01,1.43482e-01,1.12983e-01,-4.47472e-02,1.73554e-01,-5.57735e-02,
6.02418e-02,7.07569e-02,-7.99625e-02,3.48673e-03,-1.09397e-01,-6.35214e-02,-4.65452e-02,4.69491e-02,3.53630e-02,1.03952e-01,1.81842e-01,-1.62216e-01,1.17419e-01,3.76391e-02,5.91660e-02,-7.19046e-02,1.35698e-01,-2.51183e-02,-1.03408e-02,5.70991e-02,2.32147e-01,2.32260e-02,7.60668e-02,-1.47652e-01,1.68176e-01,-7.29252e-02,1.72219e-03,-1.46008e-01,2.77154e-02,-1.56816e-02,4.29925e-02,3.31087e-02,1.82479e-02,-1.10262e-01,1.34255e-01,9.85818e-02,6.10374e-03,1.20289e-01,-3.50138e-02,-9.89229e-03,-4.25803e-03,-1.51186e-01,8.68346e-02,6.08503e-02,9.45456e-02,-6.35873e-02,5.88670e-02,-5.97413e-02,-4.50240e-02,5.35180e-02,7.88256e-02,6.19588e-02,4.94318e-02,-3.17232e-02,1.11220e-01,1.26651e-01,-1.46986e-01,8.24379e-02,-2.06691e-03,7.77488e-03,-9.25282e-02,1.77048e-01,-8.72258e-02,1.47560e-01,
3.86764e-02,-5.17854e-02,-1.35566e-01,1.45480e-01,-7.32877e-03,7.22025e-02,1.61374e-01,-1.49385e-01,1.25219e-01,3.49440e-02,9.27240e-02,-1.91406e-01,6.98510e-02,7.02276e-02,1.86240e-01,8.37637e-02,1.38772e-01,-3.28306e-02,1.04174e-01,-6.94578e-04,1.14643e-01,6.46116e-02,8.93093e-02,-1.12079e-01,1.08980e-01,3.55737e-02,-2.22634e-02,-2.26253e-01,1.04534e-01,1.28516e-01,1.98505e-01,1.74453e-01,1.62211e-01,3.60412e-02,9.78630e-02,1.70064e-01,1.81351e-01,-5.24944e-02,7.58987e-02,1.77466e-01,3.75733e-02,-9.81183e-02,2.82576e-01,-6.10701e-03,8.65687e-02,2.34229e-02,1.46932e-01,2.81130e-03,8.47963e-02,-7.49449e-02,8.31626e-02,4.72291e-02,1.25149e-01,-3.79518e-02,6.34053e-02,1.10287e-01,-1.27485e-01,1.60829e-01,1.67107e-01,-6.45609e-02,-1.99982e-01,2.15945e-01,7.51750e-02,5.88761e-02,
-1.15564e-01,5.35747e-03,-4.59746e-02,1.51331e-01,1.13521e-01,-3.61305e-02,1.08710e-01,-1.65970e-01,5.86727e-02,4.99920e-02,-3.02277e-02,-5.88480e-02,1.40830e-01,8.36683e-02,1.19882e-02,-1.26918e-01,4.38385e-02,-1.52080e-01,-1.69111e-02,1.47752e-02,1.73385e-01,-1.09511e-01,7.06589e-02,-1.01136e-01,6.23643e-02,-9.69425e-02,-5.28579e-02,1.41918e-02,-1.12042e-01,8.26325e-02,-9.39233e-02,5.18703e-02,9.75078e-02,-1.36365e-01,2.27431e-01,2.03971e-01,9.03822e-02,-1.89670e-01,3.39924e-03,2.19458e-01,-2.73591e-02,7.45318e-02,1.72679e-01,-2.16059e-03,1.29182e-01,4.43414e-02,-6.37786e-02,-1.37921e-01,3.88708e-02,-5.27386e-02,8.76569e-02,1.12710e-01,-5.10977e-02,-8.55169e-02,-7.00764e-02,3.28028e-02,-8.72628e-02,-9.86750e-02,5.21878e-03,-1.06156e-01,-1.60335e-01,-4.17861e-02,1.81750e-02,1.94956e-01,
-1.00412e-02,2.25483e-02,-9.19188e-02,6.23791e-02,1.28618e-02,-1.26849e-01,-5.62433e-02,-9.97288e-02,1.10972e-01,-1.00245e-01,-8.60504e-02,5.38787e-02,1.10199e-01,-1.70588e-02,-1.01215e-01,-1.02018e-01,2.72147e-02,-1.16954e-01,-2.69445e-02,6.64402e-02,7.06118e-02,-3.31097e-03,7.98722e-02,-7.86394e-02,-6.95841e-02,5.27846e-02,6.32870e-02,-2.95720e-02,-5.76228e-02,3.58158e-02,3.54941e-02,-6.23520e-02,1.78093e-03,-1.24138e-01,5.82109e-02,-8.71739e-02,-2.59517e-02,-1.31571e-01,-3.99818e-02,-5.59615e-02,-1.26088e-01,-5.56199e-02,-8.49047e-02,1.15431e-01,-8.41056e-02,-9.09346e-02,7.63354e-02,4.26901e-02,-7.89731e-02,5.35794e-02,6.27397e-02,-1.91661e-02,-9.38337e-02,-5.37554e-02,8.66977e-02,4.62085e-02,-6.78391e-02,-1.20822e-01,9.27292e-02,7.01912e-02,3.15164e-02,1.74173e-02,7.10889e-02,-1.17943e-01,
-2.98568e-02,-4.61446e-03,-3.20158e-02,3.25780e-02,-8.94351e-02,9.19345e-02,1.22850e-01,8.19429e-02,1.13457e-01,6.25869e-02,3.42086e-02,1.24789e-01,1.86785e-01,1.13268e-01,1.26504e-01,-1.36373e-01,1.37435e-01,2.53658e-02,4.05939e-02,-4.42709e-02,-6.32772e-02,-1.79076e-02,1.45579e-02,9.64467e-02,-5.39657e-02,9.29411e-02,1.63865e-01,1.46684e-01,-4.63064e-02,9.22178e-02,-8.59693e-02,-2.00668e-02,7.08314e-02,-3.46779e-02,7.10622e-02,-2.23053e-02,-4.34135e-02,-5.51922e-02,1.07112e-01,1.29423e-01,9.64500e-02,1.68204e-01,1.56232e-01,1.16985e-03,1.15159e-01,7.89264e-02,1.04265e-02,8.68058e-02,4.91408e-02,9.93899e-02,6.59790e-02,1.62019e-01,1.41276e-02,2.02910e-01,1.52327e-01,1.74483e-01,8.43577e-02,-1.51845e-01,-4.18419e-02,6.15927e-02,-2.48179e-02,1.36692e-01,6.41480e-02,-1.50214e-02,
1.80116e-01,1.04201e-01,-7.32538e-02,-8.28706e-02,9.48857e-02,-1.67236e-01,7.48910e-04,1.03628e-01,-1.27691e-01,-1.07478e-01,-6.76408e-02,-4.32838e-02,-1.41461e-01,-8.97740e-03,-1.60966e-01,1.42446e-01,2.57916e-02,1.63492e-01,8.10726e-02,5.64992e-03,-3.56461e-02,-3.61447e-02,5.25202e-03,1.40097e-02,1.25498e-02,-1.24460e-01,-3.54934e-02,4.51193e-02,5.65621e-02,-5.01997e-02,8.68106e-02,-6.90406e-02,-1.61531e-01,-3.47188e-02,-1.36195e-01,2.60129e-02,-1.44161e-01,1.31068e-01,-6.07290e-02,-6.60627e-02,9.05069e-02,-1.54203e-01,-7.00484e-02,-6.50376e-02,6.05660e-02,-1.75489e-01,1.61532e-01,-5.93605e-02,-7.78913e-02,-1.76756e-02,-6.93324e-02,-1.63321e-01,-4.30918e-03,1.87709e-02,-8.63095e-02,1.59171e-02,-4.49316e-02,2.65812e-02,2.73092e-03,5.84635e-02,6.85963e-02,-1.89111e-01,-2.71290e-02,-1.22232e-01,
1.84198e-01,5.76817e-02,-7.23049e-02,5.56610e-02,-2.92602e-02,-1.31576e-01,1.36083e-01,1.28327e-01,-2.06528e-01,-1.49722e-01,-1.41624e-01,-2.12218e-01,-1.79421e-01,4.74528e-03,1.78885e-02,1.39956e-02,-4.05349e-02,6.65868e-02,1.41836e-02,8.80891e-02,1.49710e-03,1.92254e-01,-1.38778e-01,1.09871e-02,3.22002e-02,-6.61727e-02,-4.18098e-02,-1.37990e-01,2.29622e-01,7.05628e-02,1.33238e-01,7.72934e-02,-5.62150e-02,-2.26146e-02,4.13293e-02,-1.04818e-01,-1.78925e-01,-1.32993e-02,-4.87749e-02,1.46235e-01,1.99079e-01,-1.15302e-01,2.12448e-01,-2.37627e-02,-5.63058e-04,-2.11133e-01,3.88908e-02,1.11679e-01,6.12464e-02,-1.29305e-01,7.18848e-02,5.93411e-02,-1.61198e-02,-1.02467e-03,-7.21028e-02,-1.43981e-01,-1.51529e-02,6.10193e-02,5.85891e-02,-5.01693e-02,1.55471e-01,-1.63519e-01,-6.43181e-02,-6.25877e-02,
2.10564e-01,-4.38345e-02,-1.43239e-01,-8.39988e-03,-6.12789e-02,-8.69233e-02,1.05818e-01,-2.17181e-02,-8.92018e-03,9.58042e-03,1.28092e-01,-3.51372e-02,1.71586e-01,1.21241e-01,1.18657e-01,1.66514e-01,-3.81605e-02,1.53434e-04,1.35582e-01,-1.88016e-01,-6.88871e-02,1.59810e-01,-9.54724e-02,-3.69848e-02,-1.57604e-01,-1.83880e-01,-1.28345e-01,-1.30108e-01,2.09581e-01,3.97924e-02,-3.62377e-02,4.38698e-02,6.29632e-02,-1.23960e-01,-1.34414e-01,-8.33484e-02,-6.75180e-02,1.52749e-01,5.41143e-02,-1.88094e-02,1.41973e-01,-1.32857e-01,1.42474e-01,9.32456e-02,1.90698e-01,-1.50574e-01,-6.11070e-03,-1.32097e-02,1.55140e-01,2.16471e-02,2.07320e-02,-6.91602e-02,2.03469e-01,7.42893e-02,3.51281e-02,5.53838e-02,-4.58017e-02,1.11441e-01,1.00766e-01,1.30304e-01,-9.74637e-03,1.94338e-01,-5.47816e-02,-9.84120e-03,
1.44859e-01,
1.64583e-01,
-4.46184e-02,
6.17796e-02,
-2.33055e-02,
1.01328e-01,
-6.38349e-02,
1.87008e-01,
2.22743e-02,
-6.30717e-03,
1.44781e-02,
-1.88305e-03,
2.22293e-01,
8.90260e-02,
5.82605e-02,
1.60988e-01,
5.75886e-02,
1.60605e-01,
7.62315e-02,
1.84254e-02,
-1.46928e-02,
1.83582e-01,
2.00220e-01,
3.32614e-02,
4.06269e-02,
1.00370e-01,
-3.44842e-02,
-1.27268e-01,
-5.14729e-02,
8.07105e-02,
-1.28536e-01,
4.06940e-02,
-9.49432e-02,2.91782e-02,7.88623e-02,-2.10555e-01,3.04081e-01,8.85045e-02,-1.01211e-01,-4.20909e-02,2.99087e-02,-2.60933e-01,1.21500e-01,-6.60160e-02,1.93238e-01,-4.84325e-02,3.12096e-01,-8.17466e-02,4.71162e-03,-1.74949e-02,-3.78756e-03,1.46593e-01,1.80730e-01,-1.36354e-01,2.83249e-01,-4.27615e-02,6.21214e-02,7.81747e-02,-1.10240e-01,-1.76183e-02,5.58865e-02,2.01094e-01,1.32079e-01,2.67459e-01,
1.43281e-02,-1.38827e-02,9.01467e-02,-1.99093e-01,3.08372e-01,-9.74489e-02,1.66527e-01,-2.28521e-01,1.19254e-01,-4.30524e-02,1.67079e-01,-3.59236e-02,1.32049e-01,-1.92525e-01,1.20984e-01,3.32643e-02,2.03402e-01,-1.26087e-01,-1.46773e-01,2.67779e-01,-1.49716e-01,-2.45498e-01,2.36575e-01,-2.52967e-01,1.09868e-01,2.45424e-01,1.05158e-01,6.06570e-02,7.61084e-02,1.91310e-01,3.31360e-01,2.86828e-01,
4.35865e-02,1.41278e-01,-3.79474e-02,-1.02837e-01,2.12942e-01,3.05701e-01,-1.72588e-02,9.56084e-02,-4.92994e-02,8.69485e-02,1.32898e-01,6.06730e-02,-1.11994e-02,2.48197e-02,-3.71441e-02,1.80853e-01,-1.13441e-01,2.97919e-01,7.21983e-02,1.91718e-01,-1.24561e-02,2.16221e-01,2.97424e-01,1.32749e-01,1.72072e-01,2.80866e-01,-6.61873e-03,-7.89359e-02,5.01641e-02,-8.69281e-02,3.73798e-02,1.42317e-01,
1.82384e-01,1.84344e-01,-9.76698e-02,6.34217e-02,1.47120e-01,3.65558e-02,-1.85361e-01,1.73689e-01,7.85199e-02,-3.70964e-02,-2.20250e-01,-8.87420e-02,1.96889e-01,3.11648e-03,5.39897e-02,3.52793e-02,-1.02581e-01,-1.94018e-02,2.76057e-01,1.91825e-02,-7.63369e-02,1.54876e-01,-4.48447e-02,2.35950e-01,-3.40663e-02,-1.50353e-01,-6.07122e-02,1.46438e-01,2.09048e-01,-1.70488e-01,-1.19205e-01,-2.06253e-01,
-1.93470e-01,1.60685e-01,4.71270e-02,8.88815e-02,9.23690e-02,1.66917e-01,3.15332e-01,-2.24429e-01,1.22336e-01,3.27536e-03,9.65900e-02,5.60172e-02,-7.67791e-02,3.33499e-02,-1.36298e-01,4.66898e-03,2.12967e-01,-7.73593e-02,1.69456e-01,-1.19782e-01,1.48347e-01,-1.09281e-01,1.55872e-01,-1.21147e-01,1.87941e-01,1.84169e-01,1.68970e-01,8.00819e-02,1.56301e-01,1.81382e-01,5.41649e-02,-1.91741e-02,
4.56126e-02,2.87094e-01,-1.30720e-01,-1.10892e-01,5.33322e-02,2.00963e-01,-1.07764e-02,1.43616e-01,-9.94942e-02,6.41112e-02,-3.64636e-02,2.90640e-01,-2.98169e-02,3.34215e-02,-1.36494e-01,2.19483e-02,-8.31963e-02,-9.16053e-03,2.75328e-01,2.24125e-01,-7.28180e-02,2.41400e-01,1.73080e-01,2.88132e-01,-1.08744e-01,5.85231e-02,-8.73342e-02,-1.45177e-01,-5.32872e-02,-8.70661e-03,6.79886e-02,-8.31942e-02,
-1.73374e-01,-7.29649e-02,-3.83423e-02,2.71237e-02,2.97594e-01,1.18800e-01,7.42671e-02,-1.45705e-01,5.32362e-02,-1.88936e-02,2.96850e-02,-4.11319e-02,1.82417e-01,-1.71949e-01,1.13281e-01,2.34765e-01,1.40557e-01,1.38630e-01,-2.32390e-01,2.05325e-01,5.30517e-02,-1.67136e-01,2.34659e-01,-5.89199e-02,1.50252e-01,2.35042e-01,2.64082e-01,5.85869e-02,-7.53316e-03,1.47772e-01,4.27471e-02,2.66623e-01,
-2.31669e-02,8.44708e-02,6.08470e-02,-1.42110e-01,7.30944e-03,8.37990e-03,2.98515e-01,-1.70302e-01,1.53640e-01,-2.02555e-01,1.97185e-02,3.32614e-02,-1.98637e-01,-1.14399e-01,-1.28827e-01,8.61591e-02,3.63028e-02,-9.99702e-02,5.84295e-02,-1.09455e-01,-2.48346e-01,-1.69247e-01,1.94262e-01,-1.05257e-01,-1.07890e-02,1.71626e-01,2.91772e-01,-1.19001e-01,1.50183e-01,1.92630e-01,-4.09100e-02,-7.96979e-02,
2.13176e-01,1.96399e-01,1.56443e-02,-7.39656e-02,-1.72479e-01,1.46128e-01,-2.19463e-01,2.08796e-01,-2.05928e-01,1.05742e-01,-9.46939e-02,2.27545e-01,1.87937e-01,2.83403e-01,9.65594e-03,6.41781e-02,-1.49681e-01,2.75299e-01,1.67384e-01,3.56501e-02,8.36125e-02,2.34394e-01,1.31677e-01,7.95522e-02,-5.37329e-02,1.02839e-01,-1.33167e-01,7.62696e-02,-1.30470e-01,-2.36270e-01,-1.28422e-01,-9.91007e-02,
2.04118e-01,2.84405e-02,-8.59217e-02,-9.56927e-03,2.07349e-02,2.59063e-01,-7.60844e-02,1.50328e-01,3.10494e-02,3.37521e-01,-2.31013e-01,1.94022e-01,2.83121e-02,-3.16178e-02,-4.26754e-02,1.88590e-01,-8.69254e-02,2.57823e-01,5.53988e-02,1.09823e-01,9.06264e-02,2.69510e-01,1.04679e-01,2.26111e-01,-1.21032e-01,-2.12949e-01,-2.71973e-01,-1.67164e-01,1.41448e-01,-7.69559e-02,-8.47399e-02,-2.01842e-01,
1.79265e-01,1.47687e-01,7.40614e-02,2.52484e-05,-5.20202e-02,1.96458e-01,-1.76685e-01,2.73729e-01,-1.93305e-03,6.48419e-02,-7.09096e-02,5.70346e-02,9.47627e-02,2.39447e-01,-1.29282e-01,7.11426e-02,-1.71459e-02,5.03881e-02,2.22229e-01,-7.58085e-02,-6.80541e-02,2.94691e-01,7.68541e-02,2.66405e-01,3.66122e-02,-1.11160e-01,-1.56012e-02,5.72801e-03,-1.42765e-01,4.72269e-02,-2.18427e-01,1.27070e-02,
2.20920e-01,1.60770e-01,5.26551e-02,4.50645e-02,5.26794e-02,-2.03098e-02,-2.41611e-01,2.12318e-01,-2.48211e-01,3.39656e-01,-2.15414e-01,2.95252e-01,1.85136e-01,-4.86402e-02,-1.64151e-01,1.93402e-01,-2.19309e-01,1.71507e-01,2.86140e-01,-1.00772e-01,-9.04432e-02,8.73756e-02,8.62994e-02,2.57286e-01,-2.43099e-02,1.24474e-01,-9.69068e-02,2.63106e-02,-3.28626e-02,-1.31239e-01,1.48651e-02,-9.72912e-02,
-1.24947e-01,-8.80542e-02,1.65608e-01,4.63511e-02,-9.37096e-02,9.49585e-02,-6.64269e-02,-4.44535e-02,4.63213e-02,-7.59675e-02,-1.35414e-02,9.26105e-02,-3.33688e-03,9.01780e-02,-1.20710e-01,5.65665e-02,-9.60081e-02,-5.98597e-02,1.21298e-01,-3.01575e-02,-1.57752e-01,5.08041e-02,-1.88807e-01,1.59681e-01,-1.08987e-01,5.50947e-02,-2.54570e-02,-1.20796e-02,-1.84281e-01,-3.74786e-02,1.63198e-01,5.70903e-02,
1.64594e-01,2.03120e-01,-4.58002e-03,1.75738e-02,-1.09840e-01,3.03084e-01,2.62615e-02,2.73020e-01,-1.58113e-01,1.06806e-01,7.80715e-02,-2.52098e-02,5.10419e-02,-5.00243e-02,-9.35913e-02,1.27155e-01,-1.97822e-01,2.08154e-01,9.87402e-02,1.19142e-01,-9.32481e-02,1.13611e-02,-7.56332e-02,2.26439e-01,-1.06908e-01,-1.69906e-01,-7.02772e-02,-7.74678e-02,1.94349e-01,6.77166e-02,5.58188e-02,-2.26415e-01,
-2.62908e-01,5.15108e-02,-6.64255e-02,7.92428e-02,-9.79600e-02,-7.50774e-02,1.40687e-01,-8.84055e-03,2.85905e-01,-2.49764e-01,-2.43843e-01,-1.98693e-01,-1.71703e-01,-4.72233e-02,-2.52661e-01,2.34305e-01,-4.54939e-02,1.11373e-01,-5.65260e-02,9.93771e-02,2.88307e-02,-1.98055e-01,4.16573e-02,-9.96320e-02,2.26369e-01,4.75819e-02,1.94829e-01,2.18242e-02,2.44346e-01,-3.83685e-03,6.03950e-03,-3.55518e-02,
2.30577e-01,1.10706e-01,-1.54178e-01,-1.69808e-02,-1.64435e-01,1.09727e-02,-1.50095e-01,1.24539e-01,-2.40808e-01,4.49078e-02,8.28937e-02,2.51593e-01,-6.93534e-02,2.35412e-01,8.95802e-02,8.68886e-03,3.23981e-02,1.90331e-01,1.63499e-01,-1.27469e-01,1.46328e-01,4.43138e-02,1.84037e-01,2.45624e-01,1.19736e-01,-5.78231e-02,-1.17229e-01,1.17607e-01,-5.25993e-02,-2.50409e-01,-2.02973e-01,-4.83864e-02,
1.31515e-02,
1.86575e-01,
2.92554e-01,
1.45267e-01,
-2.90766e-02,
-3.11774e-02,
5.94547e-02,
8.99617e-02,
1.97322e-01,
-8.19649e-02,
7.66064e-02,
8.79558e-03,
-1.61283e-01,
2.09250e-01,
-1.95280e-03,
6.45378e-02,
-2.21349e-01,3.16851e-02,-2.14546e-01,1.79758e-01,-1.71722e-01,2.91875e-03,9.70670e-02,-6.27645e-02,-1.41508e-01,1.04354e-01,-8.26725e-03,2.22504e-01,2.16058e-01,3.21670e-02,1.48880e-01,-1.51239e-01,
3.05812e-01,3.50316e-01,1.05748e-01,-1.59386e-01,2.68291e-01,6.90017e-02,2.41214e-02,-7.30597e-02,8.74659e-02,-1.98447e-01,-2.58744e-03,-3.02678e-01,1.89356e-01,-3.00676e-02,5.27223e-02,-3.79795e-01,
1.88482e-01,8.97950e-02,9.10902e-02,3.23942e-01,1.28082e-01,3.67268e-01,1.27726e-01,-1.73770e-01,1.45374e-01,9.23538e-02,1.33017e-01,2.81575e-01,-2.29107e-01,3.30406e-01,-4.96830e-02,4.03886e-01,
2.29530e-02,6.29489e-02,-1.91624e-01,-1.36386e-01,7.93546e-03,1.91482e-01,-2.04162e-01,1.51990e-04,-1.23289e-02,-6.65060e-02,-9.80276e-02,3.49246e-03,9.40772e-02,7.39601e-02,1.08107e-01,-1.07120e-01,
-9.65666e-02,-1.37850e-01,2.04824e-02,1.90575e-01,2.20513e-01,-3.39106e-02,-1.14111e-01,-7.83361e-02,4.01269e-01,2.65030e-01,-7.59861e-02,1.20221e-01,-2.04611e-01,2.20404e-01,-2.32478e-01,4.71268e-02,
2.14881e-01,1.98735e-01,1.32054e-01,5.25774e-02,1.78327e-01,2.67722e-01,2.95767e-01,-1.07489e-01,2.03277e-01,-2.44187e-02,2.04271e-01,3.31411e-01,-9.12391e-02,2.94447e-01,-1.18987e-01,1.84970e-01,
-4.73224e-02,-1.04002e-01,-3.99027e-02,1.83299e-01,8.75251e-02,4.33926e-02,2.19023e-01,2.22137e-01,1.78830e-01,2.69493e-01,1.69370e-01,1.74091e-01,-1.95159e-01,2.63903e-01,-3.02899e-01,1.65566e-01,
1.00369e-01,-1.28002e-01,4.85852e-02,3.98283e-01,9.99791e-03,3.04204e-01,2.49657e-03,8.02106e-02,3.17623e-01,1.81651e-01,2.98370e-01,2.21562e-01,-1.33545e-01,9.95411e-02,-5.26332e-02,-2.18317e-03,
-4.93679e-02,-2.84665e-02,-2.42255e-01,1.78278e-01,-2.18895e-01,9.50230e-02,-1.58806e-01,-2.24663e-01,-1.16767e-01,9.18584e-02,1.20362e-01,7.50121e-04,1.30657e-01,-3.39516e-02,7.61940e-02,-2.35023e-01,
-1.67343e-01,-6.21050e-03,3.02299e-01,2.60511e-01,2.48939e-02,1.31568e-01,-1.97580e-01,-1.94827e-01,3.39498e-02,3.46970e-01,2.51974e-02,3.21969e-02,-1.11970e-01,3.08192e-02,-1.44648e-01,7.07106e-02,
-1.58759e-01,-4.98339e-02,2.00964e-01,1.67658e-01,-1.22227e-02,2.31871e-03,-9.84614e-02,1.70920e-01,-4.65958e-03,-1.99597e-02,3.10642e-01,7.06827e-02,8.71566e-02,2.04961e-01,-1.25207e-01,1.36874e-01,
3.33720e-01,3.15130e-01,2.47843e-01,-2.08614e-01,1.81264e-01,4.86366e-02,7.78261e-03,1.88286e-01,-1.53269e-01,-3.35927e-01,-2.82499e-01,1.64296e-02,2.03537e-01,-8.22158e-02,1.29055e-01,-2.45253e-01,
-1.46373e-01,2.28158e-02,-2.32982e-01,1.40494e-01,-4.88849e-02,-4.45831e-02,-2.01498e-01,-1.34247e-01,-2.43866e-01,-9.06882e-02,8.86249e-02,9.16297e-02,-1.30869e-02,1.54781e-01,1.54287e-01,-7.79048e-02,
3.81591e-01,7.13167e-02,2.47757e-01,-2.97669e-01,1.70281e-01,1.91266e-01,3.03140e-01,-4.22560e-02,-1.53863e-01,-2.55403e-01,-3.51239e-02,-1.26423e-01,4.58544e-02,-1.73659e-01,-1.99202e-02,-3.13697e-01,
-1.80967e-01,3.19448e-01,-8.11989e-02,4.57208e-02,1.74809e-01,1.57284e-01,2.35721e-01,-1.65740e-02,7.96847e-02,-1.28148e-01,-2.38437e-01,1.73314e-01,2.06057e-01,-1.13488e-01,2.52750e-01,-5.46075e-02,
-5.37317e-02,-1.06949e-01,2.84485e-01,9.32175e-02,-1.83899e-01,3.25354e-01,-6.04547e-02,-2.77457e-01,2.56758e-02,2.43777e-01,3.35128e-01,3.91550e-01,-2.32384e-01,3.64479e-01,-5.16881e-02,1.28517e-02,
2.86457e-01,2.21514e-01,2.98175e-02,-2.00504e-01,1.83786e-01,-3.23733e-02,1.91412e-01,2.92206e-01,5.54815e-02,1.58174e-01,-2.19240e-01,-1.16158e-01,-1.40419e-01,-2.15790e-01,2.77840e-01,-3.40119e-01,
6.99945e-02,-1.65936e-02,-3.79720e-02,8.61147e-02,1.12611e-01,-4.46992e-02,-5.25419e-02,9.18065e-02,2.02112e-01,-2.17538e-01,1.33437e-01,-3.86265e-02,1.12821e-01,-2.31898e-01,-1.03231e-01,-8.72711e-02,
-1.22922e-01,-2.23253e-01,-2.15162e-01,1.96481e-01,1.76839e-01,-2.43877e-01,-1.45329e-01,1.52927e-01,-8.62148e-02,-1.25415e-01,-1.73181e-01,1.34385e-01,-2.38625e-01,2.07458e-01,-1.45276e-01,2.08419e-02,
-1.39029e-01,-3.73841e-02,5.01616e-03,9.61784e-02,2.26191e-03,-2.24976e-01,3.67580e-02,-5.16753e-02,1.68947e-02,-7.96352e-02,1.48050e-01,1.20148e-01,1.89656e-01,-5.21865e-02,-1.48401e-01,-2.28978e-01,
1.58945e-01,1.00508e-01,2.84468e-01,-3.30457e-01,-2.50777e-02,-1.61413e-01,2.41556e-04,1.66633e-01,-1.21147e-01,-2.76108e-01,8.51566e-02,-2.22310e-01,5.08771e-02,1.06966e-01,3.94789e-01,-2.63725e-01,
-2.24934e-01,2.47274e-01,-1.46072e-01,4.22830e-02,-8.70521e-02,-1.28573e-01,-1.46565e-01,-2.37262e-01,-1.32879e-01,-1.33288e-01,2.09197e-01,8.49959e-02,-2.18121e-01,-2.42825e-01,-1.75360e-01,-1.79922e-01,
3.43926e-02,-1.45584e-01,1.03333e-01,3.65546e-02,-2.22919e-02,3.10078e-01,1.02073e-01,-6.02503e-02,3.75017e-01,3.15611e-01,3.66421e-01,1.40171e-01,1.65903e-01,3.88921e-01,-1.86474e-01,3.05682e-01,
1.23972e-01,3.91516e-01,-9.51911e-02,1.15995e-01,1.10433e-01,2.37905e-02,2.93526e-01,1.89708e-01,-2.87952e-01,-4.75981e-02,-7.40456e-03,-2.19726e-01,2.61255e-02,8.00941e-02,2.53486e-01,-2.41250e-01,
-1.02876e-01,-1.72400e-01,2.01092e-01,1.63939e-01,-2.09065e-01,2.12542e-01,-1.47843e-01,-2.60545e-01,3.81306e-01,2.32960e-01,2.03863e-01,2.98345e-01,1.22306e-01,4.82849e-02,-1.68748e-01,6.86481e-02,
2.25100e-01,9.49163e-02,2.77359e-01,-1.77833e-01,-2.06601e-02,5.72047e-02,-8.43455e-02,-3.99997e-02,1.94200e-01,-1.64955e-01,3.40535e-02,2.26909e-01,2.24225e-01,-2.11231e-01,1.56830e-01,-1.18033e-02,
2.96361e-03,3.49915e-01,2.68679e-01,1.12246e-01,3.35820e-02,2.70049e-01,4.71704e-02,3.07268e-01,8.67116e-02,3.99888e-02,-1.17074e-01,1.87864e-01,-1.81150e-01,4.06847e-02,2.90243e-01,8.00164e-03,
4.02062e-02,-7.36261e-02,9.59341e-02,3.24518e-02,-1.33460e-01,2.36026e-02,3.14360e-01,2.95840e-01,2.77431e-01,1.04851e-01,2.10880e-01,8.13660e-02,1.04100e-01,2.92667e-01,-1.40395e-01,3.59011e-01,
6.48950e-02,1.38563e-01,-7.26706e-02,3.61153e-01,-2.46870e-01,-6.23300e-02,3.39918e-02,-2.92778e-01,3.44039e-01,9.19230e-02,2.75630e-01,-2.63371e-02,-2.28611e-01,-6.40879e-02,-1.27958e-01,1.08153e-01,
-3.29118e-02,1.70100e-01,2.51240e-01,4.00756e-01,-1.50858e-01,7.31420e-02,-1.34821e-01,1.41843e-01,-1.26562e-02,4.14095e-01,1.42874e-01,3.83804e-01,-2.34996e-01,3.35150e-01,-2.36386e-01,1.10770e-02,
1.56317e-01,-2.45571e-01,-1.16700e-01,2.41979e-01,1.05087e-01,1.39809e-01,2.11449e-01,-1.00268e-01,-1.14493e-01,1.98762e-01,-1.93465e-01,-1.38998e-01,1.86090e-01,-1.27306e-01,-1.86862e-01,-1.60713e-01,
1.27693e-01,-5.87110e-02,1.77228e-03,6.14058e-03,1.84140e-01,-3.67181e-02,1.86148e-01,3.84558e-01,-3.89438e-02,-8.26291e-02,-1.83663e-01,-2.16171e-01,8.02495e-02,-3.99900e-03,8.29223e-02,-3.46459e-01,
-1.96709e-01,
1.05985e-01,
2.99044e-01,
1.31385e-01,
3.61174e-01,
-1.06435e-01,
-6.08676e-02,
4.25164e-02,
1.89351e-01,
7.25716e-02,
-5.40592e-02,
1.65853e-01,
-1.40877e-01,
1.99160e-01,
-1.93898e-01,
2.46136e-02,
3.10307e-02,
-9.74185e-02,
-2.48255e-02,
-6.20354e-02,
1.41808e-01,
-1.79152e-01,
-8.61030e-02,
1.55227e-01,
3.13156e-01,
1.84655e-01,
1.37252e-01,
3.71613e-01,
3.16691e-01,
2.42892e-01,
-2.22504e-01,
3.34325e-01,
-5.40124e-02,1.50787e-01,1.59956e-02,-1.13705e-01,-1.06112e-01,-4.85932e-02,-1.72385e-01,1.40536e-01,-1.72940e-01,-6.23100e-02,-4.84895e-02,-6.07435e-02,-6.59139e-02,-3.52605e-02,-1.23708e-02,5.81547e-02,5.39658e-02,-6.59504e-02,1.45816e-01,-3.88521e-02,-5.30108e-02,-1.16374e-01,-1.53124e-01,-7.81988e-02,-1.79702e-02,-5.32638e-02,-5.80147e-02,3.08420e-02,4.03869e-02,-4.72825e-02,-1.10106e-01,-1.21078e-01,
-3.06275e-02,3.06878e-01,1.13425e-01,-1.36824e-01,-5.20551e-02,1.77476e-02,-1.68652e-03,-3.38699e-02,-1.62207e-01,-2.13006e-01,-6.78081e-02,2.60031e-01,1.74286e-01,2.31960e-01,1.44550e-02,-1.16925e-01,3.00015e-01,-1.11570e-01,1.25028e-01,2.74983e-03,3.28608e-02,1.41651e-01,-4.72185e-02,3.05105e-01,-1.79906e-01,2.28569e-01,2.12895e-01,5.87211e-02,-9.12792e-02,-4.78144e-02,1.58552e-01,1.23845e-01,
5.92513e-02,5.89619e-02,2.65921e-01,-5.84482e-02,3.21656e-02,2.55474e-02,2.89201e-01,2.00452e-01,2.71249e-02,5.13483e-02,3.28984e-01,-2.20202e-01,1.87199e-02,-1.40351e-01,-1.75573e-01,2.48881e-01,-1.30777e-01,1.74656e-01,-5.28268e-02,2.80630e-02,-7.83340e-02,1.68784e-01,3.24633e-01,-2.10518e-01,2.89568e-01,2.14134e-01,-7.97358e-02,1.89154e-01,2.69383e-03,2.81408e-02,-1.31168e-01,-4.22282e-02,
9.11034e-02,-1.22558e-01,1.46377e-01,1.54163e-01,3.91053e-02,1.53511e-01,1.89830e-01,1.58646e-01,-1.62402e-01,9.09207e-02,2.87158e-01,-7.45410e-02,9.11493e-02,7.51416e-02,1.21482e-01,1.49316e-01,-2.31761e-01,-1.57709e-01,-1.70313e-01,1.04059e-01,8.73608e-02,-2.51336e-02,2.09459e-01,-1.34005e-01,1.42956e-01,-7.16135e-02,2.53940e-04,1.50563e-01,1.42918e-02,-1.03825e-01,1.15840e-01,-1.57874e-01,
9.96858e-02,-1.37876e-01,-2.17258e-02,2.55793e-02,1.98242e-02,-4.16503e-02,4.74761e-02,-1.57036e-01,-1.72665e-01,9.35247e-02,6.97686e-02,-5.51592e-02,1.01326e-01,-7.42924e-02,-1.00920e-01,-4.35740e-02,-1.70224e-01,1.35890e-01,-1.04208e-01,5.33237e-02,1.03955e-01,-2.00693e-02,-1.03215e-01,-2.57481e-02,1.17099e-02,5.58901e-03,-1.03775e-01,6.50655e-02,9.07834e-02,-4.58460e-02,1.47155e-01,-7.02358e-02,
6.98254e-02,2.03445e-01,1.29708e-01,9.29094e-02,-9.13900e-03,1.97405e-01,-6.74393e-02,4.89244e-03,1.77984e-02,-8.53748e-02,1.20604e-01,2.43527e-01,8.64368e-02,3.04042e-01,1.24017e-01,9.59949e-02,1.50568e-01,-1.85213e-02,4.44386e-02,9.06887e-02,1.53206e-01,-7.95746e-02,2.37865e-02,5.27362e-02,-2.25180e-01,1.12381e-01,5.12087e-02,1.29322e-01,-7.31628e-02,1.91598e-01,1.71707e-01,3.03801e-02,
6.38043e-02,1.07754e-01,9.44756e-02,1.39067e-01,-2.28951e-01,-5.51888e-02,-5.72137e-02,3.99755e-02,-1.61379e-01,9.31411e-02,-1.31775e-01,-1.49169e-01,1.71828e-03,-1.72666e-01,1.29669e-01,4.48609e-02,-1.68236e-02,1.55259e-01,-3.23484e-02,-6.26588e-02,-1.35678e-01,-1.96600e-02,1.04091e-01,1.02747e-01,-1.63947e-01,7.08566e-02,-1.18389e-01,-1.02924e-01,-8.54560e-02,-7.83513e-02,8.40298e-02,2.90848e-02,
9.68347e-02,2.27426e-01,1.62890e-01,-1.50429e-01,2.19385e-01,2.11542e-01,1.26396e-01,3.39541e-01,1.49664e-01,2.34095e-01,2.58099e-01,2.66741e-01,-3.40687e-02,1.52453e-02,1.84454e-01,3.00903e-01,3.21583e-02,-6.89274e-02,9.24379e-02,-8.52184e-02,-2.30980e-02,-4.06430e-02,5.98739e-02,2.27623e-01,2.02772e-02,2.99756e-01,1.70453e-01,2.47668e-01,5.33349e-02,5.54469e-02,1.54012e-01,2.38769e-01,
6.05190e-02,-7.35718e-02,1.91911e-01,5.22107e-02,2.50155e-01,1.28976e-01,2.49663e-02,3.18474e-01,4.96830e-02,1.88470e-01,3.23894e-01,-1.78737e-01,1.25815e-01,-1.31146e-01,-1.32775e-01,1.35715e-01,-2.13074e-01,1.33350e-01,-8.52609e-02,-1.48667e-01,-1.54059e-01,-7.82229e-02,2.81737e-01,-1.72198e-02,2.93056e-01,-1.46696e-02,-3.16136e-02,1.11318e-01,1.32912e-01,1.02183e-01,-8.05566e-02,-1.58897e-01,
-1.54134e-01,-7.31142e-03,2.09854e-01,3.57647e-02,2.25372e-01,2.43567e-01,2.74103e-01,4.06796e-02,-7.45013e-02,-9.08791e-03,3.49070e-01,-8.06743e-03,1.21770e-01,2.64488e-01,-2.54982e-02,3.96257e-03,3.13989e-01,1.26148e-02,6.75883e-02,-1.63799e-01,2.80673e-01,-9.21084e-02,8.09680e-03,9.73759e-02,2.67676e-01,2.46934e-01,4.62333e-02,1.53412e-01,2.01945e-01,2.24671e-01,8.20380e-02,2.18713e-01,
1.70571e-02,-1.64094e-01,1.94827e-01,1.24480e-01,2.31988e-01,1.84665e-02,1.31973e-01,1.94768e-01,-8.53937e-02,3.08591e-01,2.83496e-01,-2.40955e-01,3.38508e-02,4.02103e-02,-2.71947e-02,2.49906e-01,-1.91500e-01,4.90476e-02,-1.17789e-02,1.32050e-01,-1.34400e-01,-1.39644e-01,3.13843e-01,-1.79469e-01,3.29941e-01,5.16627e-02,1.53558e-01,2.16360e-01,1.66006e-01,2.76390e-01,1.08473e-01,8.99026e-03,
-4.53386e-02,3.09553e-01,1.67623e-01,-1.07058e-02,-1.55434e-01,1.77689e-01,3.08472e-02,-6.63424e-02,-1.28178e-01,-1.07294e-01,-1.84756e-01,1.45949e-02,-7.68187e-02,1.40190e-01,1.35888e-01,-1.86068e-01,3.24832e-01,-2.85141e-02,-1.81380e-01,-4.67006e-02,6.72860e-02,-8.87184e-02,-1.32556e-01,2.71506e-01,-2.27288e-01,1.22140e-01,1.65198e-01,3.30838e-02,7.06013e-02,5.78645e-03,-1.27629e-01,1.45303e-01,
6.35045e-02,3.06549e-01,-5.96883e-02,1.07625e-01,-2.63629e-01,8.98674e-02,-2.31990e-01,-3.10801e-02,8.03516e-02,-1.04630e-01,-1.54015e-01,2.06282e-01,1.18458e-01,-2.70617e-02,1.16370e-01,-2.49226e-01,2.84974e-01,1.69225e-02,-3.90947e-02,-3.87786e-04,1.96665e-01,-1.59389e-01,-1.25966e-01,2.34832e-01,2.00066e-02,7.04752e-02,1.32406e-01,1.82053e-01,1.56177e-01,-3.74122e-02,-5.90952e-02,2.61612e-01,
1.24317e-01,-9.14507e-02,1.10429e-01,3.10253e-02,2.58567e-01,7.97853e-02,5.20475e-02,2.73671e-01,-3.10611e-02,2.84778e-01,2.97422e-01,1.81967e-02,1.68294e-01,-2.03752e-01,-5.41576e-02,-2.50142e-03,-1.86875e-05,6.20010e-02,-1.07887e-01,8.65924e-02,-8.64252e-02,-2.67740e-02,2.05746e-01,-1.42088e-02,2.13557e-01,-1.17005e-01,1.03880e-04,5.70137e-02,1.99482e-01,-6.29800e-03,1.36888e-02,7.70988e-02,
-1.41564e-01,2.14578e-01,5.45666e-02,-1.31451e-01,-1.90589e-01,2.45669e-01,4.94801e-02,-1.01546e-02,1.71907e-02,-1.71275e-01,-5.98132e-02,1.97779e-01,7.74920e-02,1.41248e-01,1.81151e-01,-4.99576e-03,9.38220e-02,-3.91624e-02,-9.46299e-02,-1.39054e-01,2.04180e-01,-8.35469e-02,-4.70649e-02,1.13162e-01,-1.24626e-01,2.27734e-01,1.05651e-01,1.02902e-01,3.08368e-02,-1.24752e-01,2.91381e-02,1.36188e-01,
-8.96142e-02,1.06390e-01,2.49439e-01,-2.69068e-03,-1.76029e-01,2.84419e-01,-2.03735e-02,-1.37393e-02,-3.35300e-02,-2.64345e-02,2.04978e-01,2.74981e-01,-1.61609e-01,2.64771e-01,2.57182e-01,1.48320e-01,3.31772e-01,-2.83622e-02,-1.23002e-01,2.30156e-02,2.93658e-01,3.58149e-02,-8.35158e-02,1.80822e-01,1.05913e-01,-2.48163e-03,1.41320e-01,2.52262e-01,1.94654e-02,1.14036e-01,-3.42137e-02,8.27585e-02,
-1.97573e-02,
1.73025e-01,
2.38209e-01,
-9.87232e-02,
-1.04203e-01,
1.74811e-01,
9.86581e-02,
2.37147e-01,
2.10052e-01,
5.19710e-02,
-4.33604e-02,
9.23935e-02,
1.68666e-01,
-1.22824e-01,
2.55710e-02,
8.48923e-02,
1.32049e-01,-3.15536e-01,3.38019e-01,1.42243e-01,-2.29380e-01,-1.37399e-01,-3.32426e-03,3.33590e-01,2.40093e-01,2.71425e-01,4.18223e-01,-1.39018e-01,6.06629e-02,3.78153e-01,-6.83619e-02,-5.81581e-02,
1.99397e-01,6.22111e-02,2.86315e-02,8.53443e-02,-4.81653e-03,-2.23714e-02,9.83296e-02,-1.78917e-01,-1.81051e-01,1.73684e-01,2.16268e-02,-1.64684e-01,-9.47348e-02,1.20705e-03,2.47074e-01,-1.36346e-01,
2.36994e-01,3.72424e-01,-5.67219e-04,7.40729e-02,-1.33593e-01,-8.53169e-02,5.54570e-02,1.86346e-02,-1.70341e-01,2.79259e-01,-1.36766e-01,2.76596e-01,1.41258e-01,-2.95332e-01,7.52204e-02,-1.01294e-01,
7.36267e-02,1.66216e-01,-2.18112e-01,-7.60351e-02,-8.92583e-03,-1.42173e-01,1.00691e-01,1.37684e-01,-5.43850e-02,-1.54739e-01,6.35604e-02,2.64543e-01,2.05081e-01,-1.66329e-01,-1.66653e-02,1.46878e-01,
1.48581e-01,2.25506e-01,-6.78925e-02,-2.31422e-01,5.48141e-02,-5.07587e-02,-1.74954e-01,4.21918e-02,-2.55678e-01,2.50634e-01,-3.17373e-01,1.79990e-01,2.91228e-03,-1.69703e-01,2.13952e-02,2.47330e-01,
-1.19672e-02,3.09934e-01,7.94455e-02,4.42910e-02,1.63652e-01,-1.27150e-01,-2.06220e-01,2.47188e-01,2.89360e-01,9.76562e-02,1.51157e-01,1.44837e-01,3.03880e-01,-5.96564e-02,1.71013e-01,2.08594e-01,
-7.46831e-02,3.05709e-01,1.17566e-01,-7.77137e-02,-2.04023e-01,3.14992e-01,-1.01636e-01,2.97726e-01,-9.22760e-02,3.59925e-01,-1.13732e-01,-5.86323e-03,2.58798e-01,9.19798e-02,1.69299e-01,4.03163e-01,
2.00272e-01,-1.83131e-02,-1.83750e-01,-9.55218e-02,-2.25664e-01,2.44362e-01,4.55770e-02,3.20803e-01,-1.26588e-01,2.48587e-01,-4.18558e-02,2.55478e-01,1.75991e-01,-9.38198e-03,2.13377e-01,2.36223e-01,
-1.69726e-01,1.35010e-01,-3.00168e-01,-1.22272e-03,4.73806e-02,2.30899e-01,2.15500e-01,8.84100e-02,-1.93283e-01,9.61566e-02,-7.82063e-02,3.66288e-01,-6.39754e-02,1.08333e-01,1.53121e-01,-1.09192e-01,
4.60310e-02,1.07155e-01,-2.40935e-01,3.58694e-02,-1.62686e-01,3.51204e-01,-5.18921e-02,2.53673e-01,-3.50440e-01,-2.83260e-02,-1.15363e-01,3.74371e-01,2.91270e-01,-3.08239e-01,3.60125e-01,1.71910e-01,
6.96126e-02,2.08610e-01,-1.05572e-01,-6.61337e-02,-9.08084e-02,4.23110e-02,1.31812e-01,1.20423e-01,-3.35816e-01,1.76306e-01,2.90015e-02,2.31696e-01,3.45021e-01,-1.44670e-01,-1.17154e-01,1.63655e-02,
-7.80696e-02,2.64228e-01,5.88542e-02,-2.52740e-01,-1.76094e-01,1.39694e-01,2.16284e-02,1.86182e-04,-2.86917e-01,1.80248e-01,-1.79334e-01,-3.04154e-02,3.17178e-01,-1.91771e-01,3.00156e-01,1.35527e-01,
-5.40676e-02,1.38408e-01,9.99304e-02,-1.40269e-01,-1.06447e-01,1.12226e-01,-5.92610e-02,-1.74662e-01,-2.83348e-02,1.66162e-01,-6.50909e-02,6.59521e-02,-1.74302e-01,-4.07145e-02,-4.42103e-02,-1.98801e-01,
-1.47307e-01,1.43502e-01,7.49974e-02,-2.06891e-01,2.53963e-02,3.05824e-01,1.50660e-02,-2.27884e-02,-3.36459e-01,2.57513e-01,-4.35279e-03,1.08359e-01,1.73605e-01,-2.31189e-02,3.09372e-01,1.91178e-01,
1.03553e-01,9.24926e-02,1.45178e-01,-3.24746e-02,-1.92027e-01,-1.19090e-01,-5.14709e-02,1.60261e-01,2.00056e-01,1.35489e-01,2.52054e-01,4.91708e-02,-1.93426e-01,2.44439e-01,-1.57088e-01,-8.70659e-02,
2.12795e-01,2.29744e-01,-4.31276e-02,-6.49704e-02,1.56653e-01,1.43117e-01,2.15355e-01,4.14542e-02,-2.69871e-01,1.07243e-01,-8.78355e-02,1.27924e-01,1.95563e-01,-2.18879e-01,5.52290e-02,2.17470e-01,
-1.64749e-01,-3.56771e-04,3.59876e-02,1.83960e-01,-1.09326e-01,3.36978e-01,-2.49212e-02,3.40524e-01,1.74266e-01,3.79562e-02,2.92484e-01,-1.06243e-01,-1.05642e-01,-3.06029e-02,2.39842e-01,1.22979e-01,
1.23515e-02,2.89239e-01,-2.24788e-02,2.95848e-01,-2.35261e-01,1.84770e-01,1.57979e-01,-4.42501e-02,-1.08183e-02,1.43420e-02,2.67785e-01,2.53678e-01,5.03775e-02,1.09853e-01,2.89217e-01,8.04548e-02,
9.09858e-02,-1.71215e-01,2.24784e-01,3.11677e-01,1.22644e-01,-5.75894e-03,9.10243e-02,2.34923e-01,-8.10297e-02,1.39727e-01,-3.27164e-02,-2.04858e-01,-7.71440e-02,1.48543e-01,1.06857e-01,1.23738e-01,
1.79881e-01,-2.10881e-01,-1.39822e-01,1.24219e-01,-7.29576e-02,-1.95921e-01,1.85436e-01,3.26397e-02,-9.07958e-04,1.89652e-01,-2.13054e-01,-1.09793e-01,-2.00714e-01,-2.17975e-01,-4.14732e-02,1.64153e-01,
1.36363e-01,7.83481e-03,1.28491e-01,-8.89420e-02,1.17804e-01,8.51888e-02,1.03011e-01,-5.60717e-02,-2.69582e-01,-1.60341e-01,-6.99479e-02,-4.50968e-02,-1.93606e-01,3.01028e-02,4.40367e-02,-1.42159e-01,
1.80820e-01,6.96567e-02,-1.19362e-01,-6.17923e-02,-1.01748e-01,3.48811e-04,-5.32100e-03,1.52517e-01,1.33963e-01,-2.19794e-01,-2.30246e-01,1.80196e-01,-1.44890e-01,8.39401e-02,1.84456e-01,-2.22363e-01,
1.90730e-01,-2.13082e-01,-1.16015e-01,4.85443e-02,2.00773e-01,1.79577e-01,-1.57242e-01,-8.27203e-02,1.51211e-01,-1.11961e-01,-6.96490e-02,-1.68897e-01,5.12533e-02,6.85179e-02,-1.80392e-01,-7.77690e-02,
-4.34482e-03,-1.32327e-01,1.59494e-01,-1.48260e-01,-1.45276e-01,-1.34983e-01,1.88391e-01,3.96890e-02,1.59147e-01,-1.71370e-01,-6.85467e-02,-4.66785e-02,1.17913e-01,-3.22816e-02,-2.03344e-01,-4.31356e-02,
2.08771e-02,-8.13108e-02,3.48394e-01,2.87174e-01,1.10821e-01,-5.04148e-02,1.20057e-01,-7.67532e-02,4.16338e-02,2.22203e-01,1.37861e-01,-1.80014e-01,-4.43592e-03,1.03937e-01,2.06308e-01,1.13558e-02,
-1.00180e-01,-2.95047e-01,4.00847e-01,5.66828e-01,-1.67006e-01,7.11061e-04,1.26667e-01,4.53875e-01,2.81537e-01,4.06630e-01,2.08702e-01,-2.80674e-01,-3.86070e-01,1.67524e-01,-2.25653e-01,2.47961e-02,
-2.20799e-01,1.64345e-02,-1.39020e-01,-1.65595e-01,6.63905e-02,2.26102e-01,-1.20597e-01,2.54329e-01,3.68323e-02,-1.45615e-01,-3.10651e-01,-2.77583e-02,2.46506e-01,1.07667e-01,2.95578e-01,2.09076e-02,
2.15151e-01,-2.28306e-01,1.38385e-01,-1.57208e-01,-1.49076e-01,8.95012e-02,1.82855e-01,-1.47833e-01,5.27361e-02,1.35368e-02,-1.50658e-01,-2.28867e-01,2.49396e-02,-1.05005e-01,-2.66457e-01,-9.49253e-03,
1.59531e-01,-6.45445e-02,2.48506e-01,2.56497e-01,1.92276e-01,1.79459e-01,2.23061e-01,2.83475e-01,3.97098e-01,-8.87859e-02,1.90766e-01,-2.49559e-01,-1.92559e-01,8.52826e-02,-3.16594e-01,2.07269e-01,
1.25106e-01,-5.75126e-02,2.56867e-01,8.10324e-02,4.23841e-02,1.77927e-01,8.02576e-02,2.48397e-01,-6.02697e-02,1.76072e-01,7.11374e-02,-1.98915e-01,-1.42222e-01,1.30312e-01,-6.19460e-02,-5.67839e-02,
-1.90817e-01,-5.45132e-02,2.87833e-01,2.27800e-01,-6.41829e-02,1.22405e-01,-1.94472e-01,-1.77942e-01,-1.01768e-01,2.23324e-02,1.14242e-01,1.29625e-01,-9.20816e-02,1.02591e-01,-1.81693e-01,1.66528e-01,
1.21650e-01,5.33068e-02,1.54573e-01,-6.26969e-02,2.47058e-01,-2.27749e-01,1.58799e-01,-2.11641e-01,-2.22149e-02,1.69556e-01,6.03750e-03,-1.10432e-02,5.68894e-03,-7.79793e-02,2.26522e-01,-8.16017e-02,
1.04986e-01,
7.17369e-02,
1.10369e-01,
1.58322e-01,
2.98721e-01,
1.60790e-01,
1.81379e-01,
1.21325e-01,
1.56153e-01,
2.53331e-01,
1.19632e-01,
-1.66497e-01,
-2.13809e-01,
-1.93764e-01,
1.33420e-01,
2.08866e-01,
-1.29121e-01,
-1.01088e-01,
7.69516e-02,
-1.35836e-01,
1.95081e-01,
-1.35234e-01,
-7.39684e-02,
-1.91940e-01,
-8.22932e-02,
7.33808e-02,
2.27147e-01,
1.81998e-01,
-9.64497e-02,
-1.86790e-01,
-1.24792e-01,
-1.12743e-01,
-1.67395e-01,1.72809e-02,2.68850e-02,-1.37389e-01,2.03120e-02,2.75291e-02,-1.69953e-01,1.49300e-02,6.45572e-02,-4.49558e-02,-5.51349e-02,-7.66190e-02,-1.31300e-01,-1.16905e-01,1.71058e-01,-7.01215e-02,1.57429e-01,8.14770e-02,8.32693e-03,-6.39254e-03,-1.62809e-01,-1.69659e-02,-1.73447e-01,-9.21266e-02,-1.62162e-01,6.93186e-02,-1.65483e-01,-1.27509e-01,-3.61249e-02,1.51540e-01,-9.00947e-02,-1.25547e-01,
3.02316e-01,1.63253e-01,-1.83932e-01,-6.84345e-02,9.13941e-02,2.39415e-01,1.86489e-01,-1.95100e-02,-2.03968e-01,-9.40014e-02,8.45288e-02,-1.21618e-01,-1.45049e-02,-1.65683e-01,2.92308e-01,-1.75512e-01,1.74410e-01,-3.14942e-02,9.56805e-02,-3.50685e-02,1.19704e-01,4.07680e-02,-9.10374e-02,1.65093e-01,-2.69432e-02,3.77360e-01,-1.48152e-01,2.07233e-01,1.22094e-01,7.20977e-02,1.45271e-01,-5.10200e-02,
3.19951e-01,-8.04517e-02,-1.48305e-01,-2.12470e-01,-2.30918e-01,-1.63530e-02,1.20775e-01,2.63335e-02,-7.57736e-02,2.73979e-03,-2.14640e-01,-1.53024e-01,-1.57700e-01,-6.73384e-02,2.21536e-01,2.56152e-02,2.63730e-01,9.55456e-02,2.18297e-01,8.22765e-02,-9.94725e-02,-7.58942e-02,-1.22694e-01,1.40905e-01,2.33820e-01,3.78372e-01,-5.04676e-02,-1.10176e-01,1.28976e-01,2.08542e-01,1.28872e-01,5.97043e-02,
8.02188e-02,1.48185e-01,1.67694e-01,1.70042e-01,-1.92307e-02,-1.77782e-01,-4.73189e-02,-1.39905e-02,8.16884e-02,3.48271e-02,-1.28937e-01,-6.44690e-02,-1.06690e-01,1.52242e-01,-2.39859e-02,6.43088e-02,-1.51715e-01,-7.01123e-02,1.15169e-01,-1.59027e-01,-6.73523e-03,1.29017e-01,-1.74666e-01,1.01381e-01,-4.30523e-02,7.90939e-02,-1.22023e-01,6.10841e-02,2.96777e-02,5.69199e-03,8.13293e-02,-1.75614e-01,
7.27511e-02,4.58788e-02,9.91464e-02,1.24802e-01,-1.34663e-01,-1.73148e-01,-9.24658e-02,-1.60944e-01,-4.97111e-02,-1.46358e-01,1.57337e-01,2.06788e-02,6.05340e-02,1.31298e-02,1.15064e-01,-6.15560e-03,-8.80824e-02,-1.76392e-01,8.27275e-02,-7.08062e-02,-2.49731e-02,-1.18366e-01,9.76437e-04,2.91616e-02,-1.49846e-01,5.08316e-02,-1.18345e-01,-2.03527e-01,-1.30782e-02,-1.47073e-02,7.31391e-02,-1.36517e-02,
-1.10525e-01,5.17556e-02,4.56707e-02,9.62918e-02,-6.30694e-03,1.51031e-01,1.92277e-01,2.54769e-01,1.08361e-01,2.28876e-01,1.52354e-01,1.68747e-01,4.22007e-02,1.46445e-01,-7.96924e-02,3.03373e-01,1.60799e-02,1.23731e-01,-2.00910e-02,1.48590e-01,-7.84904e-03,9.31977e-04,1.09193e-01,1.03667e-01,-7.27700e-02,-9.54933e-02,-1.17465e-02,3.34485e-03,-2.53498e-01,9.65536e-02,-1.66938e-01,1.37386e-01,
-1.60051e-01,-1.73038e-01,6.75241e-02,-1.74447e-01,7.56252e-02,-8.85913e-02,-1.04223e-01,-1.05372e-01,1.15023e-01,1.20132e-01,-2.26115e-02,5.10960e-02,-1.45979e-01,5.59889e-02,1.40181e-01,6.46286e-02,-1.03969e-01,-1.80321e-01,3.19009e-02,-9.98267e-02,4.54489e-02,1.94942e-02,1.45750e-01,-3.18542e-03,1.40903e-02,8.76216e-03,4.05514e-02,-1.58653e-01,1.49454e-01,1.73960e-01,-5.39992e-02,-7.93345e-02,
-1.06343e-01,1.38706e-01,2.07692e-01,1.98935e-01,1.88357e-01,-6.95330e-02,1.54116e-01,-6.59525e-02,9.14335e-02,6.53114e-02,1.82557e-02,-6.64467e-02,1.13449e-01,4.73539e-02,-2.26981e-02,6.83917e-02,1.97271e-01,-9.29625e-02,1.04959e-01,1.47503e-01,-1.44727e-01,1.76004e-01,-2.50091e-02,3.91352e-02,-1.40300e-01,-3.88462e-02,1.99805e-01,1.21358e-01,4.63366e-02,-1.55770e-01,1.12360e-01,1.32109e-01,
2.25448e-01,4.37538e-02,-1.66188e-01,-1.65566e-01,1.44121e-02,5.33438e-02,-5.15218e-02,-3.25148e-02,-1.51301e-01,-1.12964e-01,-4.35086e-02,-9.73049e-03,-6.34080e-02,4.39248e-02,2.70251e-01,1.31362e-01,1.26501e-03,1.76358e-01,2.88316e-01,3.00245e-02,-1.70323e-01,-9.26684e-02,-6.19565e-02,1.38406e-02,2.40658e-01,2.81316e-01,-3.42806e-03,-2.57454e-02,3.23848e-02,2.09628e-01,2.67062e-02,-5.74002e-02,
2.42114e-01,-3.91930e-02,-9.92301e-02,-2.84688e-01,2.04524e-02,9.19249e-02,1.84382e-01,-2.83836e-02,-2.06173e-01,1.32555e-01,-1.43936e-01,-2.11766e-01,-6.84241e-02,-2.57928e-02,8.10053e-02,-1.01752e-01,9.93136e-03,1.31402e-01,3.97387e-02,6.24314e-02,-1.32715e-01,-1.17170e-01,-8.35978e-02,-3.93669e-02,2.00222e-01,2.47637e-01,-1.92840e-01,8.29721e-02,-7.16696e-02,2.71279e-01,1.60725e-01,1.01249e-01,
-2.11345e-02,2.52471e-02,-4.18172e-02,8.15233e-02,-5.37930e-02,2.77124e-02,-1.34706e-01,4.85524e-02,-1.71528e-02,-6.56991e-02,-3.36801e-02,1.75027e-01,1.45231e-01,3.84499e-02,9.42160e-02,-7.90225e-02,-1.70325e-01,6.87202e-02,-3.51164e-02,-2.82626e-03,-7.90885e-03,-8.52125e-03,-1.41663e-01,1.33977e-01,-1.13459e-01,1.16056e-01,-8.85949e-02,-9.89185e-02,5.14017e-02,8.04797e-02,-1.58457e-01,1.89794e-02,
2.91006e-01,-1.56353e-01,-1.64064e-01,-3.74522e-01,-3.24042e-01,2.29171e-01,7.69063e-02,3.47478e-02,-3.81103e-02,1.44064e-02,-2.63660e-01,-1.10945e-01,-1.69350e-01,1.22619e-01,4.70773e-01,-2.74303e-01,1.48599e-01,3.89248e-01,4.72880e-01,-1.33852e-01,1.92636e-02,1.25544e-01,1.36712e-01,-1.36308e-01,5.68499e-01,5.70605e-01,-2.93145e-01,-8.12768e-02,3.29447e-01,2.89776e-01,5.39569e-01,-1.60444e-02,
-2.41065e-01,1.28704e-01,2.10347e-01,2.47833e-02,3.23541e-01,1.78117e-01,2.68964e-01,2.08075e-01,4.44672e-02,3.03563e-01,7.26844e-02,2.65399e-01,1.48334e-01,2.83565e-01,-7.60287e-02,2.69631e-01,-3.92884e-02,1.36506e-01,-8.79941e-02,1.54244e-02,1.64912e-01,1.26693e-01,5.50575e-02,1.66436e-01,-3.38744e-02,-3.30482e-02,1.76179e-01,-1.12099e-01,-2.14335e-01,-1.14707e-01,-1.91491e-01,-1.58651e-01,
-1.92374e-01,-1.41388e-01,2.34650e-01,7.57739e-02,2.40247e-01,1.31795e-02,2.82338e-01,1.58092e-01,1.78957e-01,2.56213e-01,2.22069e-01,4.43488e-02,1.33520e-01,1.31867e-01,-2.35106e-01,1.60042e-01,7.18352e-02,8.99498e-02,5.19196e-02,-8.06166e-02,1.32860e-01,-8.28899e-02,-5.95865e-02,-1.07336e-01,-1.21357e-01,-4.97211e-02,1.41053e-01,-1.33149e-01,-2.76084e-01,-1.58772e-01,-1.39241e-01,4.60203e-02,
7.91290e-02,-8.15289e-02,-7.42807e-02,-5.82311e-02,3.20761e-02,5.12775e-02,-4.73924e-03,-3.37819e-02,-8.93093e-02,-1.31673e-01,-9.47038e-02,-1.54829e-01,-4.08903e-02,-1.93627e-02,2.04765e-01,1.12200e-01,2.50894e-01,-2.33521e-02,-5.15884e-02,-9.35585e-02,1.71582e-01,-8.75060e-02,-1.60072e-01,9.67351e-02,-3.03632e-02,4.41388e-01,9.24415e-02,1.21375e-02,1.75457e-01,1.77210e-01,1.74422e-01,-3.55715e-02,
-1.84261e-01,9.76639e-03,1.50475e-01,1.57900e-01,-7.00847e-03,-1.91379e-02,-3.37279e-03,-1.00048e-01,-8.69573e-02,-1.67982e-01,4.46554e-03,-1.46740e-01,-1.03763e-01,1.50995e-01,3.48708e-03,-1.61645e-01,6.87458e-02,-4.27132e-03,1.22970e-01,1.04147e-01,-1.53149e-01,-1.19150e-02,-7.94482e-02,-1.64357e-01,1.44167e-01,-2.45840e-02,1.22238e-01,-6.43059e-02,6.51682e-02,6.66056e-02,-1.23412e-01,6.95442e-02,
-5.58642e-02,
-5.40698e-02,
1.56936e-01,
-7.15210e-02,
6.15429e-02,
-1.57443e-02,
-2.12995e-02,
-9.47346e-02,
5.26371e-03,
-8.09964e-02,
-5.78360e-02,
1.40107e-01,
1.17049e-02,
2.12257e-01,
2.34474e-01,
-1.67702e-01,
1.47838e-02,-2.42598e-01,-3.91454e-01,1.04347e-01,1.93306e-01,1.91821e-01,-2.29532e-01,2.83416e-01,-1.15379e-01,-1.08478e-01,4.87342e-02,-4.96133e-01,2.13198e-01,3.58106e-01,-2.32873e-01,1.47671e-01,
-3.44742e-03,
