// Neural Network File Format by Kyle Julian, Stanford 2016
// Network written to file by adapted writeNNet() method for ReLUNet
18,11,1,256,
11,256,128,64,32,16,8,4,2,4,8,16,32,64,128,64,32,16,1,
0,
-1.0,-1.0,-1.0,-1.0,-1.0,-1.0,-1.0,-1.0,-1.0,-1.0,-1.0,
1.0,1.0,1.0,1.0,1.0,1.0,1.0,1.0,1.0,1.0,1.0,
0.0,0.0,0.0,0.0,0.0,0.0,0.0,0.0,0.0,0.0,0.0,0.0,
1.0,1.0,1.0,1.0,1.0,1.0,1.0,1.0,1.0,1.0,1.0,1.0,
-3.95092e-02,-1.11739e-01,-4.80380e-02,-2.98462e-01,9.29150e-02,2.05709e-01,-8.60518e-02,-1.25939e-01,1.80923e-01,-4.64953e-02,-2.27246e-01,
-8.65395e-02,-1.79480e-01,-2.27994e-01,-3.00753e-01,1.47094e-01,-1.84587e-01,2.32809e-01,-1.45854e-01,1.28693e-01,1.29806e-01,-2.79450e-02,
3.25270e-02,1.11554e-01,-1.68644e-01,2.67382e-01,2.49119e-01,2.54723e-01,1.45387e-01,2.27665e-01,-1.78646e-01,1.53585e-01,-1.75672e-01,
8.23506e-02,1.97548e-01,-8.51227e-02,-7.37887e-02,-1.98209e-01,1.42981e-01,-2.98576e-02,-1.63318e-01,2.94649e-01,2.13898e-01,9.16402e-02,
2.48077e-01,-4.17350e-02,-1.03649e-01,-2.41877e-01,4.91778e-02,1.47957e-01,2.55876e-01,-1.44356e-01,-2.98718e-01,3.34025e-02,-8.13029e-02,
2.84617e-01,3.06494e-01,6.24241e-02,-1.91899e-02,4.69847e-02,-1.85943e-01,-3.91561e-01,-9.28171e-02,-2.89935e-01,-6.16173e-02,-2.08561e-01,
-2.03511e-01,-3.45884e-01,1.17465e-01,-1.52373e-01,2.61934e-01,1.12367e-01,1.02361e-02,2.61464e-02,-2.54015e-01,-1.14003e-01,2.48512e-01,
4.17682e-02,-1.54715e-01,-1.59440e-01,-1.99497e-01,7.77153e-02,2.37981e-01,3.00398e-02,-8.23387e-02,3.33364e-02,-2.84332e-02,-1.76632e-01,
3.54579e-01,-2.22023e-01,-3.60745e-02,-1.24540e-01,-3.01522e-01,3.40519e-02,-7.38760e-02,-2.35245e-03,-7.87524e-02,-1.08466e-02,1.72128e-01,
2.71838e-01,3.44623e-01,-1.77025e-01,2.69303e-02,1.56271e-02,-2.13243e-01,-1.99073e-01,8.41125e-02,-9.59844e-02,-1.67605e-01,-1.14037e-01,
-3.49677e-01,-2.68885e-02,-1.97059e-01,-4.35540e-02,-1.45191e-01,-6.71555e-02,-6.70067e-02,2.87369e-01,-1.72512e-01,4.07094e-02,-2.88999e-01,
-1.81732e-01,-3.22462e-01,2.65231e-01,2.34066e-01,-2.15262e-01,-2.55260e-01,1.27566e-01,-2.19497e-01,-2.76417e-01,-1.09355e-01,3.98575e-02,
-4.41071e-02,2.02663e-01,3.08852e-01,2.28839e-01,1.54807e-01,-2.23842e-01,5.59852e-02,-1.20060e-01,1.01460e-01,-2.70662e-01,-4.26547e-02,
3.90420e-01,3.63134e-01,2.64506e-01,-1.60998e-01,-2.50522e-01,1.73277e-01,9.74082e-02,-2.92680e-01,2.00511e-02,-2.92347e-01,7.63300e-02,
2.45113e-01,-5.13285e-02,1.86881e-01,-1.41827e-01,1.98905e-01,2.81211e-01,1.10367e-01,-1.10756e-01,1.87894e-01,1.78928e-01,7.29354e-02,
3.23675e-01,-1.73071e-01,1.85399e-01,3.13993e-02,2.94996e-01,1.91489e-01,-5.46096e-02,1.02750e-01,-1.60701e-01,-1.55520e-01,1.32634e-01,
-3.32472e-02,-1.41209e-01,-6.10615e-02,-1.69841e-01,1.26088e-01,1.88122e-01,3.26921e-01,-8.71355e-02,8.35716e-02,1.80715e-01,-3.28515e-02,
1.56258e-01,-1.12385e-01,2.62295e-01,-1.39163e-02,1.94136e-01,1.44199e-01,1.89896e-01,6.41383e-02,-4.34063e-02,5.26735e-02,-1.29298e-01,
2.52023e-01,5.69925e-02,1.02667e-01,2.14219e-01,-2.11501e-01,1.90039e-01,-1.20240e-02,-2.62757e-01,1.02111e-01,2.24548e-01,2.15923e-01,
1.54501e-01,-3.98933e-01,1.07923e-01,1.85173e-01,3.24665e-01,-2.52675e-01,6.45072e-02,-2.59382e-01,1.06815e-01,2.97665e-01,1.17634e-01,
1.99505e-01,7.03231e-02,-5.39723e-02,-2.55889e-01,-1.76231e-02,2.48637e-01,-2.07353e-01,-2.34924e-02,-3.09392e-02,1.85447e-01,-2.86821e-01,
1.41211e-01,2.35785e-01,2.84882e-01,1.49543e-01,-2.29708e-01,-1.40773e-01,2.99172e-01,2.19441e-01,-4.05708e-02,-2.54496e-01,2.28600e-01,
-8.55745e-02,2.21134e-01,-4.69382e-02,-1.23114e-01,-6.38799e-03,-1.52230e-02,1.44713e-01,2.09753e-01,4.00190e-02,8.21005e-02,2.07351e-02,
8.94300e-02,-1.40084e-01,-3.06524e-01,2.44636e-01,1.67654e-01,3.31872e-01,4.18368e-02,-1.29277e-01,-4.40287e-02,1.91387e-01,2.91102e-01,
-7.52615e-02,1.32818e-01,2.60345e-01,-1.61097e-01,2.80904e-01,1.83459e-01,-2.00807e-01,-1.56730e-01,2.49574e-01,-2.07697e-01,-1.21028e-01,
3.94011e-01,-1.70546e-01,7.87200e-02,-1.12746e-01,8.32080e-03,2.06164e-01,2.46833e-01,-1.67400e-01,-1.15349e-01,1.33957e-01,-5.21730e-02,
8.75743e-02,-9.32308e-03,2.32428e-01,-1.95172e-03,-2.28607e-02,1.02172e-01,1.81522e-01,-2.85482e-01,2.09574e-01,-2.17842e-01,-1.94931e-01,
2.05764e-01,1.44220e-01,5.22001e-02,1.43113e-01,-2.26899e-02,-2.52563e-01,2.29743e-01,2.02662e-01,1.13161e-01,-8.05302e-03,-2.07311e-01,
-2.18116e-01,7.17566e-02,2.38178e-01,2.61781e-01,2.28936e-01,2.26895e-02,9.38549e-02,3.00498e-01,6.24418e-02,2.95883e-01,1.92613e-01,
-8.24151e-02,-1.90818e-01,3.50438e-01,-2.48174e-02,-2.43386e-01,1.75595e-01,2.09345e-01,2.15685e-01,5.40967e-03,2.22403e-01,2.64378e-02,
2.35736e-01,1.84655e-01,-2.47495e-01,1.29552e-01,-5.90788e-02,2.19063e-01,2.11754e-01,2.74606e-01,-9.24878e-02,-1.55903e-01,1.35791e-01,
2.60037e-01,3.17133e-01,2.20966e-01,-2.11738e-01,-1.36619e-01,9.86025e-03,4.33216e-02,7.95247e-02,2.58628e-01,1.08201e-01,1.60935e-01,
1.42819e-01,-2.88158e-01,-1.13141e-01,-7.34425e-02,-2.70738e-01,-1.52806e-01,1.00931e-01,6.40577e-02,-2.37521e-01,2.69847e-02,-1.48021e-01,
7.93867e-02,-1.86782e-01,3.13427e-01,2.94365e-01,2.17121e-01,-1.44633e-01,-2.82360e-01,-2.13664e-01,-2.37264e-01,-2.08847e-01,2.74615e-01,
-7.34366e-02,9.55597e-02,-1.82498e-01,1.35258e-01,-1.61443e-01,1.41930e-01,2.62880e-01,-4.51723e-02,6.01226e-02,2.62534e-01,-1.78464e-02,
2.44728e-02,1.90334e-01,-1.64173e-01,4.66816e-02,1.53292e-01,2.43262e-01,1.42012e-01,-6.33389e-02,1.03604e-01,2.11978e-01,8.56007e-02,
-4.58011e-02,-1.83605e-01,3.13582e-01,1.03272e-02,2.39232e-01,3.26087e-02,-1.09024e-01,6.35463e-04,-5.30844e-02,-3.00648e-01,2.97586e-02,
2.85951e-02,1.49872e-01,2.90561e-02,1.35618e-01,7.40473e-02,1.01070e-01,-3.22209e-01,-1.22219e-01,-7.65731e-02,-7.99671e-02,-1.67794e-01,
-1.81233e-01,1.93031e-01,4.63217e-02,1.14517e-01,-8.53127e-03,5.81439e-02,-6.02192e-02,2.43986e-02,8.42352e-02,-2.48935e-02,-8.96923e-02,
-2.83267e-01,-5.08743e-02,-7.73717e-02,-1.14244e-01,3.38383e-01,2.30686e-01,-2.40419e-01,-2.38175e-01,9.44844e-02,6.93969e-02,-7.94408e-02,
2.17912e-01,-8.41861e-02,-3.23251e-02,-6.56526e-02,-1.06338e-01,-1.61139e-01,-2.33310e-01,2.80754e-01,1.26027e-01,1.82248e-01,6.38394e-02,
-7.60556e-02,1.91152e-01,3.28006e-01,1.98670e-01,2.12475e-01,-1.72091e-01,2.52043e-02,-9.74784e-02,-2.33908e-01,-9.85027e-02,-2.51119e-01,
-8.07652e-02,-7.76930e-02,-2.89148e-01,-3.35605e-01,-1.60599e-01,1.28031e-01,1.64804e-01,1.33533e-01,-2.81272e-01,2.24489e-02,6.99472e-02,
-2.76335e-01,-2.70408e-01,-8.03842e-02,-5.87789e-02,-1.19894e-01,-1.91099e-01,-2.54878e-01,-2.96977e-01,-7.70926e-03,2.94022e-01,-8.01994e-02,
3.82419e-01,-2.81908e-01,1.64721e-01,-1.88108e-01,2.31553e-01,5.54330e-02,-8.85309e-02,8.41427e-02,2.51809e-01,-2.37709e-01,2.74791e-01,
2.92407e-01,-1.45373e-01,1.15812e-01,-3.08457e-01,-1.98589e-01,6.34474e-02,-1.84826e-01,-1.11567e-01,-1.91773e-01,2.80593e-01,9.99581e-03,
1.94928e-01,-2.57480e-01,-7.05423e-02,-2.63925e-02,1.92691e-02,6.47568e-02,-8.48807e-02,1.76191e-01,-2.73934e-02,-1.84837e-01,1.48123e-01,
-2.92234e-02,-6.34898e-02,-1.80521e-01,2.38903e-01,6.55077e-02,-1.47915e-01,1.75551e-01,-9.75858e-02,9.97353e-02,-1.12428e-01,1.83760e-01,
-7.77278e-02,-2.93309e-01,-1.10249e-01,-2.79593e-01,-2.12696e-02,2.12718e-01,-2.04981e-02,-7.05047e-02,-1.31929e-02,2.28042e-01,1.84000e-01,
2.87599e-01,2.50151e-01,-2.87770e-01,2.83282e-01,-2.13283e-01,-1.69312e-01,-3.23634e-01,2.93472e-01,8.69885e-02,-1.25529e-01,2.54590e-01,
-1.57445e-01,-3.26790e-02,4.91477e-02,4.45198e-02,-6.19657e-02,6.24117e-02,8.05008e-02,1.08949e-01,-1.28771e-01,-1.07680e-02,2.69821e-01,
3.35513e-01,2.59009e-01,-1.75100e-01,-2.71050e-01,-1.64593e-01,-2.10434e-01,1.32846e-01,1.66174e-01,-1.60052e-01,-1.86794e-01,1.72979e-01,
-2.00615e-01,-1.42311e-01,-1.15495e-01,-2.04165e-01,-2.27771e-01,-1.31272e-02,1.28936e-01,1.72400e-01,-1.69016e-01,-2.88717e-01,-2.20659e-01,
-3.68325e-01,-3.04447e-01,-1.09223e-01,-2.17955e-01,1.14562e-01,-1.37376e-03,-2.91934e-01,2.96817e-02,-1.49079e-01,2.89154e-01,1.35400e-02,
1.09502e-01,2.92338e-01,-2.63284e-01,5.22196e-02,-1.69885e-01,-6.82852e-02,1.92961e-01,-2.44980e-02,-1.96984e-01,2.51829e-01,3.48618e-02,
3.03322e-01,1.49447e-01,-1.40528e-01,-1.57759e-01,-1.11109e-01,-2.77657e-01,1.00766e-01,-2.71844e-01,1.27056e-01,-2.97963e-01,2.70203e-01,
4.33991e-02,-1.29327e-01,-2.19697e-01,-1.62666e-01,6.20085e-02,-1.32533e-01,2.47081e-01,2.28516e-01,-5.22592e-02,-2.63863e-01,-1.53428e-01,
3.51416e-01,1.23021e-01,2.88934e-01,2.65851e-01,-2.97441e-01,-2.44120e-01,9.39510e-02,-1.04841e-02,-2.67151e-01,-1.97378e-01,3.80753e-02,
-6.50631e-02,1.09394e-01,8.87573e-02,7.78556e-02,-6.68510e-02,2.28408e-01,2.11900e-01,2.27269e-01,-2.23564e-01,2.70517e-01,-2.41555e-01,
-3.50881e-01,-3.16924e-01,1.49882e-01,-1.49380e-01,1.39998e-01,-2.80187e-02,-1.58826e-01,1.50673e-01,-2.75391e-01,1.46686e-02,-2.70581e-01,
1.33928e-01,-8.47941e-02,1.27486e-01,-8.58981e-02,3.56606e-01,8.78567e-02,-2.23903e-01,-5.44477e-02,-1.01507e-01,2.96617e-01,6.10646e-02,
-1.60172e-01,-1.04280e-01,-1.61423e-01,-9.39258e-02,-1.42250e-01,-2.46967e-01,-2.18073e-01,-2.99438e-01,1.97525e-01,-1.02123e-01,2.10408e-01,
3.28624e-01,2.63067e-01,2.50579e-01,1.33137e-01,-1.12413e-01,9.47711e-02,4.65907e-02,-1.81631e-02,-4.56975e-02,1.38208e-01,-1.15226e-01,
2.32941e-01,-8.60097e-02,-2.78576e-01,-1.79560e-01,2.00912e-01,1.57134e-01,-2.56961e-01,-2.74736e-01,1.69804e-01,9.46036e-02,-2.92152e-01,
-7.24253e-02,-1.54948e-01,4.33210e-02,-1.46370e-01,2.90102e-01,-2.64714e-01,5.24745e-02,-2.30012e-01,2.20791e-01,-2.92455e-01,5.43577e-02,
-2.14945e-01,2.53835e-01,-9.30885e-02,1.60622e-02,-2.04811e-01,-1.22851e-01,1.49073e-01,1.08380e-02,-1.49287e-01,1.63550e-01,2.72625e-01,
-2.20806e-01,3.37848e-02,-7.50599e-02,2.71265e-01,3.54363e-01,-2.14318e-01,3.29395e-01,1.47839e-01,9.25808e-02,7.28499e-03,1.89023e-01,
3.53711e-01,-1.37864e-01,2.51314e-01,-9.94054e-02,-2.45940e-01,7.52475e-02,9.45117e-02,-2.65355e-01,1.90712e-01,-4.80935e-02,-5.55287e-02,
3.85392e-01,-6.76007e-03,2.02486e-02,1.01964e-01,-2.56751e-01,2.29104e-01,1.33203e-01,-2.37712e-01,1.50628e-01,-1.11654e-01,-2.18384e-02,
1.97740e-01,2.28245e-01,2.27660e-01,1.18848e-01,-5.38996e-02,1.53107e-01,2.07288e-02,-1.56022e-01,-2.66475e-01,2.29778e-01,2.70255e-01,
-2.03612e-01,1.34625e-01,3.92907e-03,-9.88795e-02,-2.83181e-02,2.00630e-01,-3.06877e-01,-2.65189e-01,5.37280e-02,-9.90404e-02,-1.60785e-02,
-1.17112e-01,3.00416e-01,-1.46082e-01,-1.55809e-02,-2.01258e-01,2.36052e-01,2.84145e-01,-2.17464e-01,1.46173e-01,2.09453e-01,-2.78628e-01,
1.19470e-01,-7.77153e-02,-3.01564e-02,1.19714e-01,-5.57083e-02,2.73484e-01,2.05226e-01,5.49063e-02,-1.06241e-01,1.82327e-02,-4.97256e-03,
4.22849e-02,5.89793e-02,-3.07540e-01,2.41595e-01,4.49714e-02,-2.06581e-01,1.41768e-01,-2.24181e-01,1.50216e-01,-1.86068e-01,2.69856e-01,
-5.70496e-02,1.27483e-01,-2.68182e-01,-2.23421e-01,1.42165e-01,1.45318e-01,2.43692e-01,4.69997e-02,-2.22943e-01,-7.81301e-02,-1.00539e-01,
9.93995e-02,-3.21644e-01,1.38171e-01,1.51509e-01,-2.38556e-01,1.44665e-01,2.15113e-01,-1.73052e-01,-2.36838e-01,-2.78749e-01,-6.73744e-02,
2.31028e-02,-2.27399e-01,2.72301e-01,3.32840e-01,-3.02730e-01,2.25103e-01,1.61068e-01,9.57180e-02,-1.40197e-01,-2.85255e-01,-2.57011e-01,
2.94185e-01,1.05060e-01,6.17287e-02,2.38791e-01,-2.39854e-01,-2.40298e-01,1.62291e-01,3.77713e-02,4.24620e-02,-8.87880e-02,-2.52692e-01,
6.50750e-02,-2.46773e-01,-2.67434e-01,-4.51126e-03,2.46267e-01,-1.82141e-01,1.64126e-01,-3.57234e-01,-2.52437e-01,-1.82561e-02,1.86596e-01,
1.73462e-01,-2.34875e-03,-2.07187e-01,-4.32435e-02,2.22461e-01,3.21493e-02,1.76261e-01,-2.49294e-01,1.41343e-01,4.61062e-03,-1.85473e-01,
2.69031e-02,7.18425e-02,2.77679e-02,-2.30435e-01,2.02705e-01,1.84693e-01,2.73494e-01,1.60820e-01,8.52667e-02,2.87265e-01,-5.60245e-02,
-4.57577e-02,1.00886e-01,1.71856e-01,3.10843e-02,-2.70189e-01,2.10556e-01,1.40351e-01,-2.11008e-01,-1.10634e-01,2.33235e-01,9.32294e-02,
2.61201e-04,7.47009e-03,-1.96426e-01,-1.43522e-01,1.59062e-01,6.57598e-02,1.41200e-01,-2.87168e-01,-9.25507e-02,2.88415e-01,1.80987e-01,
3.41136e-01,-9.95468e-02,1.01397e-02,2.43158e-01,3.24950e-01,-1.09397e-01,1.58304e-02,-1.99523e-01,-2.63238e-01,-8.64037e-02,-2.75172e-01,
-2.72269e-01,-2.71209e-01,3.01145e-01,1.79635e-01,7.08856e-02,5.50283e-02,-9.15862e-02,-2.67321e-01,2.46487e-01,-5.04598e-02,1.46717e-01,
-2.20451e-01,2.36428e-01,-5.60738e-02,-2.43582e-02,-2.81717e-01,3.20693e-01,3.24935e-02,-1.78043e-01,-1.30107e-01,7.20581e-03,1.67402e-01,
-1.09072e-01,-3.62190e-01,2.08351e-01,9.46546e-02,1.61927e-01,-9.17547e-02,2.35253e-01,1.85448e-01,2.09649e-01,-2.18778e-01,7.40928e-03,
3.37180e-01,3.53545e-02,2.48394e-01,1.65298e-01,-1.74647e-01,2.25907e-01,-2.74897e-01,5.07957e-02,-2.62999e-01,2.46099e-02,-2.93462e-01,
2.70004e-01,-6.56359e-02,-1.89665e-02,-9.11171e-02,-2.56797e-01,-1.50006e-01,2.44815e-01,1.58638e-01,6.86743e-02,1.15847e-01,2.66704e-01,
3.73056e-01,8.41909e-02,1.24767e-01,-8.64644e-02,1.12115e-01,-2.30204e-01,8.70936e-03,4.13496e-02,1.88190e-02,2.09122e-01,2.59942e-01,
2.12437e-01,-1.87427e-01,2.55249e-02,2.16887e-01,7.14859e-02,8.31334e-02,1.61769e-01,-5.07256e-02,-1.94887e-01,-2.13974e-01,-2.95586e-01,
1.86188e-01,-3.71017e-02,2.33574e-02,1.96347e-01,3.21449e-01,-1.33940e-01,-2.31662e-02,-1.12841e-01,-1.20677e-01,-9.58803e-02,2.98406e-01,
5.46199e-03,-6.63600e-02,2.52947e-01,4.47410e-02,6.28525e-02,-2.97827e-01,-2.46319e-01,-6.52953e-03,2.15848e-01,9.71056e-02,2.51000e-01,
-2.65592e-01,-2.46979e-01,-1.61199e-01,1.86350e-01,1.16227e-01,4.52134e-02,-2.11947e-01,-1.44732e-01,7.28400e-02,2.68977e-01,-2.98316e-01,
-6.10343e-02,-2.13736e-01,-2.93088e-01,-9.65799e-02,1.01871e-01,-1.58148e-01,9.27069e-02,4.39097e-02,-1.74042e-01,-9.02571e-02,1.70763e-01,
1.49731e-02,-2.93413e-01,-2.12963e-01,4.10706e-02,5.93852e-03,-8.12522e-02,2.77155e-01,-1.21419e-01,1.79029e-01,-2.98084e-01,1.95456e-01,
1.68881e-02,1.77104e-01,1.34797e-01,6.62765e-02,-1.67495e-01,-6.77044e-02,3.78429e-02,1.57548e-03,-8.96524e-02,2.19211e-01,-2.88696e-01,
-2.02417e-01,-2.27167e-01,-2.12553e-01,-1.49507e-02,1.68792e-01,9.94391e-02,-1.48827e-01,-1.99965e-02,2.48650e-03,2.66772e-01,-1.13747e-01,
2.45260e-01,-1.86318e-01,-2.10160e-01,-8.63552e-02,3.65411e-01,-1.26794e-01,1.92244e-01,2.81566e-01,2.78988e-02,-1.65836e-01,3.00142e-01,
-2.59621e-01,2.23032e-02,-2.18406e-02,-1.26791e-01,2.42547e-01,2.70324e-02,-2.41385e-02,-2.66422e-01,-2.15549e-01,8.52436e-02,-2.19529e-01,
1.90400e-01,-3.48261e-01,-1.91942e-01,-1.41714e-01,-1.77586e-01,-4.01498e-03,-2.11487e-01,6.39560e-02,-2.93688e-01,-2.17260e-01,-1.12479e-01,
-2.08128e-01,1.84948e-01,2.35496e-01,7.51640e-02,-8.57497e-02,-1.86534e-01,-1.74214e-01,2.78257e-01,-2.80802e-01,-1.63244e-01,1.43083e-01,
4.21639e-02,-1.15234e-01,5.86427e-02,9.73802e-02,-2.60276e-01,1.90264e-01,3.85229e-02,1.91042e-01,-7.26450e-02,-1.25405e-01,9.37153e-02,
-2.50815e-01,1.84667e-01,5.36323e-02,2.19771e-02,2.01018e-01,-1.19309e-01,2.34562e-01,5.17478e-02,-9.21424e-02,1.21009e-03,1.16438e-01,
1.19548e-01,-2.83164e-01,-3.01037e-01,-2.58292e-01,-1.00405e-01,3.81142e-02,-5.45289e-02,3.09931e-01,7.43491e-03,-8.33301e-02,-7.19119e-02,
-1.87523e-01,3.39446e-01,2.38979e-01,-2.19622e-02,1.30794e-01,-1.09560e-01,-1.22682e-01,1.48694e-01,-2.63085e-01,2.29967e-03,2.30978e-01,
-3.21794e-01,-6.76887e-02,1.57558e-01,2.70694e-02,-2.03753e-01,1.87748e-01,-3.00121e-01,-3.06824e-01,-2.32965e-01,-2.89119e-01,1.17997e-02,
-2.70288e-01,2.69410e-01,9.59121e-02,-1.83881e-01,-2.84569e-01,-2.93860e-01,-1.54433e-01,2.92149e-01,2.89300e-01,-1.71643e-01,3.86239e-03,
-1.22482e-01,-9.93161e-02,-2.07080e-01,-3.70970e-02,-2.87389e-02,-3.10088e-02,-1.33726e-01,2.38071e-02,3.29409e-02,3.98224e-02,-1.47953e-01,
1.72524e-01,4.36837e-02,6.64568e-02,6.76360e-02,-1.48329e-01,-1.78228e-01,3.13582e-01,-3.20267e-01,-1.10875e-01,1.98303e-01,-2.62235e-02,
1.03602e-01,2.15655e-01,-2.31980e-01,3.02106e-01,-1.40691e-01,-8.94067e-02,2.28001e-02,2.00983e-01,2.18129e-01,2.67427e-01,2.00521e-01,
-1.66244e-01,4.50751e-02,-1.69824e-01,2.45776e-01,-8.71824e-02,-1.16223e-01,1.89267e-02,-3.02850e-01,-8.14974e-02,-1.33965e-01,-5.24585e-02,
4.13095e-02,4.73877e-02,6.29215e-02,2.14558e-02,-1.83232e-01,6.40215e-02,1.89575e-01,-2.91299e-01,-2.29045e-01,7.46078e-02,9.64406e-02,
-1.13090e-01,1.72229e-01,5.09991e-02,1.27438e-01,9.93435e-02,-1.13917e-01,2.02576e-01,3.27149e-02,-3.54794e-02,-1.53922e-01,-2.02230e-01,
-1.93827e-01,-1.16232e-02,2.09147e-01,8.28540e-02,-2.42794e-01,-7.59904e-02,2.86172e-01,6.33468e-02,-8.02051e-02,9.15324e-02,-8.64249e-02,
-2.01276e-01,-2.52055e-01,2.25910e-01,-1.94225e-01,-1.57898e-01,2.37386e-01,2.85950e-01,-1.50147e-03,-9.72943e-02,2.96282e-01,-1.47108e-01,
1.11975e-01,1.16977e-01,-3.64609e-01,-6.23825e-02,-2.30777e-01,-2.72163e-02,4.10595e-02,2.20071e-01,-3.93914e-02,3.17017e-02,2.64366e-01,
-2.56992e-01,-7.43367e-02,3.25803e-01,-1.72458e-01,-2.66022e-01,-2.61632e-01,-1.11210e-01,-1.93526e-01,-1.52986e-01,2.46731e-01,-2.62739e-01,
1.07794e-01,-2.24498e-01,-2.25495e-01,6.02785e-02,-1.41391e-01,1.43637e-01,-2.54051e-02,-3.02520e-01,2.06645e-01,1.65127e-01,1.41212e-01,
-5.07145e-02,-1.44388e-01,-3.29528e-01,2.46417e-01,2.13396e-01,9.02359e-02,1.11241e-01,6.69099e-02,-1.62964e-01,-1.28698e-01,1.36066e-03,
-3.63103e-01,-3.61391e-02,-9.08354e-02,-4.55795e-03,-1.57799e-01,1.13371e-01,-1.43157e-01,-4.10632e-02,-1.69405e-01,-2.87935e-01,1.37860e-01,
-9.07919e-03,-7.89236e-02,-6.32100e-02,1.84842e-01,3.40352e-01,-2.09458e-01,9.30305e-02,1.57256e-01,-2.31253e-01,9.82191e-02,1.35124e-01,
5.38681e-02,-1.18868e-01,-1.79282e-01,1.77735e-01,-2.30307e-01,-2.18097e-01,-3.45623e-01,2.36387e-01,9.54269e-02,2.98544e-01,3.09040e-02,
-2.94305e-01,-3.63390e-02,2.37985e-01,2.15752e-02,2.37547e-01,-1.75858e-01,1.98803e-01,-1.73574e-01,8.14393e-02,-1.55628e-02,-2.03001e-01,
2.30877e-01,2.86214e-01,-1.49513e-01,2.08542e-01,1.99482e-01,1.25457e-01,-1.41216e-01,2.89176e-01,7.64112e-02,-1.15796e-01,-3.91899e-02,
-7.58020e-02,-2.05229e-01,8.82888e-02,-1.99673e-01,-2.90824e-01,-2.08504e-01,3.21583e-01,1.40424e-01,-2.88102e-01,1.78815e-01,1.57205e-01,
1.84028e-01,3.20931e-01,-5.84076e-02,-1.28808e-01,-1.15878e-01,-2.28535e-01,-2.02673e-01,1.17244e-01,-8.67278e-02,9.58191e-02,1.17634e-01,
-3.10931e-01,3.05168e-01,-2.49611e-02,2.85518e-01,-5.11944e-03,-8.50379e-02,1.99080e-01,2.46700e-01,1.31684e-01,2.28868e-01,4.44462e-02,
-1.03088e-01,1.66243e-01,2.21026e-01,-4.62135e-03,-1.41142e-01,-9.74517e-02,-9.46582e-02,1.20264e-01,2.84020e-01,2.39370e-02,-9.59766e-02,
-2.82256e-01,2.34896e-01,-3.23680e-02,-2.26489e-02,-5.96358e-02,-1.07031e-01,2.30322e-01,-1.81533e-02,-1.16897e-01,-1.24467e-01,-1.28682e-01,
2.65049e-01,-1.51661e-01,2.76439e-01,2.42272e-01,6.26574e-02,-1.72750e-01,6.18641e-02,-1.04809e-01,-8.35655e-02,2.59989e-01,1.18736e-01,
-1.78599e-01,2.79673e-02,3.81287e-02,1.18736e-01,-2.27214e-01,-3.97522e-02,-2.79497e-01,1.23574e-01,-1.84408e-01,5.64283e-02,4.43001e-02,
3.08458e-01,-8.88258e-02,-7.08280e-02,9.85362e-02,3.64901e-01,-1.61214e-01,-2.14919e-01,-1.05854e-01,2.08649e-01,-2.23242e-02,-7.86650e-02,
-3.32250e-01,-2.42543e-01,8.89564e-02,-1.85911e-01,3.51451e-02,1.86321e-01,-2.25970e-02,1.46093e-01,-1.80242e-01,-2.68108e-01,2.09989e-01,
-1.50677e-02,-1.25971e-01,-6.97940e-02,5.41833e-02,-9.45704e-02,-1.45797e-01,-1.10149e-03,6.69286e-02,2.06560e-02,2.79334e-01,-1.83145e-01,
-1.76388e-01,-8.38198e-02,1.11286e-01,-1.82211e-01,-2.74809e-01,-1.31369e-01,-3.07838e-01,-1.79893e-01,-2.40990e-01,-2.99897e-01,2.58180e-01,
-2.57522e-01,-3.41395e-01,1.20907e-01,1.78379e-01,-2.46839e-01,5.28070e-02,3.19643e-01,-1.99011e-01,-3.57437e-02,6.70397e-02,-1.82256e-01,
-2.36928e-01,-3.30189e-01,-9.02418e-02,-7.13431e-03,2.29397e-01,1.24350e-01,-2.38618e-01,-1.68351e-01,2.17067e-01,-9.82037e-02,1.40814e-01,
1.85722e-02,9.77649e-02,2.32667e-01,-5.07954e-04,-3.24172e-01,1.79812e-01,-2.42520e-01,4.76660e-02,2.08221e-01,1.97579e-01,1.32613e-01,
-9.64879e-02,6.03766e-02,-1.24021e-01,-1.10132e-01,3.15622e-01,1.11012e-01,-7.73441e-02,-7.63777e-02,8.28363e-02,2.87987e-01,2.63324e-01,
4.59586e-02,-6.38940e-02,-1.53909e-01,1.19990e-01,-6.77810e-02,-2.73509e-01,2.79712e-01,3.08432e-01,-8.09006e-02,1.93610e-01,-2.30909e-01,
8.68543e-03,1.07100e-01,-2.22999e-01,2.02887e-01,-2.10758e-01,1.65600e-01,7.35707e-02,8.32620e-03,1.71283e-01,-2.45493e-01,2.14186e-01,
-1.69097e-01,4.70267e-02,-3.08863e-01,-3.01795e-02,-2.59309e-01,9.48580e-02,-1.71847e-01,2.64499e-01,-5.19298e-02,4.22407e-02,-7.65311e-02,
-1.70037e-01,5.15398e-02,2.19186e-01,-5.45281e-02,2.45372e-01,-2.18136e-01,2.83768e-01,-1.36196e-01,-2.30345e-01,1.38749e-01,-1.35255e-01,
-1.47721e-03,2.47602e-01,-8.48257e-02,8.57866e-03,4.18317e-02,-3.13619e-01,-9.38234e-02,1.44166e-01,1.93211e-01,1.84904e-01,-2.00886e-01,
-2.75094e-01,1.73626e-01,1.96194e-01,-2.41558e-02,-1.50279e-01,9.72427e-03,2.44128e-02,-2.24673e-01,1.48301e-01,-2.23892e-01,2.48473e-01,
-2.82707e-01,-3.64183e-01,3.78179e-02,-1.37703e-01,2.17919e-01,1.16121e-01,1.01264e-02,-1.39566e-02,1.17495e-01,-1.73254e-01,1.52963e-02,
-1.34251e-01,1.99824e-01,-1.42959e-01,-1.21851e-01,6.76601e-02,7.92322e-02,2.30359e-01,2.60925e-01,-8.36785e-02,-2.01146e-02,2.69484e-01,
2.69533e-01,-1.78534e-01,6.74532e-02,-2.40996e-02,7.17229e-02,-2.63851e-01,-2.41338e-01,-1.98457e-01,1.31425e-01,1.22348e-01,-1.42432e-01,
6.29283e-02,1.80885e-01,-3.41634e-01,-2.44275e-01,-1.04137e-01,-5.75223e-02,-1.31750e-01,-1.97148e-01,4.91892e-02,-2.00329e-01,-1.05412e-01,
-2.44355e-02,-2.93471e-01,-1.57324e-01,-2.44024e-01,2.48207e-01,-2.83600e-02,-3.46990e-02,7.67659e-04,-2.20042e-02,-2.03292e-01,2.11120e-01,
2.27238e-01,1.64629e-01,1.07494e-01,-1.09280e-01,3.31797e-01,2.69830e-01,2.79251e-01,3.14080e-01,1.66002e-01,2.16617e-02,-4.10843e-02,
-6.04311e-02,-2.26218e-01,3.52904e-01,7.47464e-02,3.01791e-01,2.53568e-01,2.36757e-01,6.84153e-02,-1.99070e-01,2.86445e-01,-2.46231e-01,
1.08234e-01,1.89769e-01,-1.86719e-01,3.56680e-02,2.73030e-01,-2.19044e-01,1.93323e-01,-2.13412e-01,-5.05991e-02,2.67239e-01,-1.90462e-01,
3.46174e-02,-1.58252e-01,3.55969e-01,-1.43784e-01,2.64978e-02,-1.83547e-01,-6.08613e-02,1.58329e-01,-1.08936e-01,1.30705e-01,-2.86324e-01,
-2.33741e-02,3.24514e-01,-3.60374e-01,-1.31833e-01,2.20031e-01,-3.32815e-01,-1.92988e-01,5.09487e-02,1.21295e-01,2.81442e-02,-5.37975e-02,
1.67404e-01,3.13525e-01,-3.79108e-02,7.81389e-02,6.68477e-02,7.11597e-02,-3.06980e-01,-2.63186e-03,-8.75061e-02,1.69050e-01,-5.83984e-02,
-8.39887e-02,1.66489e-01,1.97468e-01,2.37660e-01,-1.74842e-02,8.30155e-02,-9.56227e-02,1.46264e-01,-1.18054e-01,2.42306e-01,-2.01900e-01,
-2.48109e-01,6.00183e-02,-1.63236e-01,8.84837e-02,1.27803e-01,2.23908e-02,2.23394e-01,5.18370e-02,-5.28958e-02,-1.19007e-01,7.72895e-02,
-3.13121e-01,9.25614e-02,-1.10952e-01,-1.69716e-01,2.86885e-01,2.46465e-01,-6.37223e-02,-1.57108e-01,-1.79918e-01,2.21944e-01,2.34811e-01,
2.64190e-01,2.41361e-01,2.29025e-01,-2.60714e-01,1.00707e-01,-3.84824e-02,-1.54302e-01,1.78546e-01,-7.17054e-02,-7.42081e-02,-5.80960e-02,
-2.63770e-02,5.61236e-02,2.60987e-01,1.80211e-01,3.04663e-02,-2.00723e-01,1.14072e-01,2.22732e-01,7.43322e-03,-2.25126e-01,-1.05557e-01,
-1.01832e-02,-8.86315e-02,2.60700e-01,2.44865e-01,1.83883e-01,2.32456e-01,2.18553e-01,-1.17180e-01,5.18769e-02,-2.29609e-01,-1.71430e-01,
-2.40060e-01,1.98378e-02,-2.37446e-01,-1.61834e-02,1.09603e-01,2.85320e-01,-2.88037e-01,1.22817e-01,2.01197e-01,-2.27660e-01,-1.39595e-01,
1.05755e-01,-1.19422e-01,2.21823e-01,-1.71019e-01,2.12435e-01,1.26636e-01,2.96746e-01,5.31096e-02,-1.92165e-02,-2.91983e-01,-5.16365e-02,
2.97499e-01,-1.83546e-01,-3.59955e-01,3.22128e-01,5.70030e-02,2.80435e-01,5.64904e-02,1.16392e-01,1.68978e-01,-6.78779e-02,-1.95619e-01,
1.64106e-01,2.25735e-01,-6.03976e-02,-2.02832e-01,-2.25015e-01,7.10048e-02,2.07955e-01,-1.46993e-01,-1.42721e-01,-1.30142e-01,-3.81592e-02,
9.86048e-02,-1.58442e-01,-3.01445e-01,-2.68176e-01,-2.24460e-01,2.13019e-01,-1.11402e-01,1.29559e-01,-1.39572e-01,1.87785e-01,1.17902e-01,
1.41938e-01,3.77877e-02,-2.47715e-01,-2.28666e-01,3.05546e-01,2.23186e-02,1.71958e-01,-2.07994e-01,4.31356e-02,-1.04771e-01,1.89687e-01,
-4.28914e-04,-2.01060e-01,-1.27790e-01,2.86885e-02,2.56040e-01,2.72762e-01,2.46515e-01,-1.66792e-01,6.31752e-02,-1.94739e-01,-1.68256e-01,
1.63131e-01,-8.16664e-02,5.62148e-02,1.77216e-01,-2.68254e-01,-2.75448e-01,3.51312e-01,-3.56395e-03,-2.02906e-01,3.47667e-02,-2.72160e-02,
-3.89994e-01,-3.35600e-02,-5.13633e-03,2.99149e-02,-2.47405e-01,2.60004e-01,-1.68024e-01,-3.45107e-02,-1.55114e-01,1.09879e-01,-1.08104e-01,
9.56111e-02,-1.28511e-01,3.51196e-01,3.65497e-01,1.77142e-01,3.08104e-02,4.89554e-03,-1.58030e-03,8.11650e-02,-2.71526e-01,1.36605e-01,
-1.07521e-01,2.45037e-01,-1.11032e-01,-6.63906e-02,1.79508e-02,-1.13365e-01,-1.44032e-01,1.24562e-01,5.66357e-03,1.56597e-01,-4.79073e-02,
1.79901e-01,1.88777e-01,1.52628e-01,1.70053e-01,1.55736e-01,-1.28006e-01,2.20585e-01,-5.27223e-02,-2.27439e-01,2.44581e-01,2.50777e-01,
2.47634e-01,-5.21892e-02,2.41556e-01,-2.31283e-01,1.80820e-01,5.20286e-02,-2.34331e-01,1.95576e-01,2.60598e-01,-3.01097e-01,-1.90850e-01,
3.61870e-03,-1.42592e-01,-2.21465e-01,-2.74944e-02,1.47226e-01,3.42134e-01,-2.48374e-01,1.04268e-01,1.17159e-01,2.81677e-01,-5.22644e-02,
1.91775e-01,1.70864e-01,-1.46394e-01,2.64682e-01,-2.84103e-01,-2.40757e-02,2.69008e-01,6.68661e-02,2.15312e-01,-2.06379e-01,1.60052e-01,
2.26989e-01,-2.67794e-01,1.98204e-01,2.32270e-01,-1.08548e-01,3.60124e-01,1.33871e-01,1.70555e-01,-9.67980e-02,-2.52635e-02,-2.19903e-01,
-2.42895e-01,-1.78825e-01,2.17931e-02,-9.73604e-04,-1.24937e-01,-3.05893e-04,-1.82400e-01,1.97063e-01,2.13877e-01,-5.53056e-02,-2.70375e-01,
-5.84443e-03,2.51544e-01,-2.84812e-01,9.34792e-02,-1.82385e-01,2.30058e-01,-3.05728e-01,4.72111e-02,1.48416e-01,2.95189e-01,2.61999e-01,
-1.27131e-01,-2.36957e-01,-2.57310e-01,1.55371e-01,1.07920e-02,-1.74024e-01,8.54786e-02,-2.77988e-01,-7.43451e-03,1.87158e-01,-1.70795e-01,
-6.13404e-02,-1.57191e-01,2.24551e-01,3.11775e-01,2.70106e-01,-2.51165e-01,8.89943e-02,2.58139e-01,2.77166e-01,4.75251e-02,1.89522e-01,
1.79539e-01,5.58065e-02,1.23671e-01,2.93252e-01,-2.43425e-01,-6.09539e-03,-2.46257e-01,-3.15136e-02,2.11199e-01,2.29172e-02,-1.53085e-01,
1.73379e-01,5.80450e-02,-2.79646e-01,3.45100e-02,2.38361e-01,-2.01525e-01,-8.77811e-03,-2.17318e-01,2.67779e-01,-2.23642e-01,1.48244e-01,
-1.42098e-01,1.28301e-01,-7.76682e-03,1.89129e-01,7.54308e-02,-8.89555e-02,-6.79184e-02,2.19005e-01,-2.80115e-02,2.71663e-01,1.04102e-01,
-2.37596e-01,-1.22537e-01,1.45668e-01,2.37802e-01,1.62093e-01,2.69525e-01,-2.30527e-01,-1.97074e-01,2.83325e-01,8.91044e-03,1.58139e-01,
-2.86789e-01,-1.67853e-01,-2.88023e-01,-1.76335e-01,-1.02301e-01,-2.24098e-01,-6.17867e-02,3.26081e-01,-2.96338e-01,-1.72752e-01,-1.18606e-01,
-2.15547e-01,-2.92663e-01,1.05449e-01,-8.43233e-02,1.90370e-01,-2.07533e-01,-2.03062e-01,-1.81818e-01,-2.16337e-01,-2.82233e-01,-5.67773e-02,
1.95051e-01,1.84879e-01,-3.06089e-01,9.37975e-03,2.31532e-01,-1.74200e-01,-2.99908e-01,-2.64934e-01,2.78501e-01,1.37873e-01,7.94425e-02,
2.99823e-01,2.65367e-01,-1.03373e-01,1.84806e-01,-1.41336e-01,-1.56747e-01,2.38479e-01,1.02111e-01,-4.27154e-02,1.19025e-01,1.44228e-01,
-3.10588e-01,-7.19085e-03,-3.13508e-01,1.82700e-01,-2.32879e-01,2.52854e-01,1.22314e-01,2.43784e-01,8.60675e-02,-1.71680e-01,-1.43504e-02,
-1.08881e-01,-2.77026e-01,-3.45330e-01,2.15899e-02,-2.55390e-01,1.88644e-01,3.99953e-02,1.60549e-01,1.55453e-01,1.95127e-01,-2.58028e-01,
1.45460e-01,2.68924e-01,-1.23797e-02,-5.37649e-02,-1.28489e-01,-6.24102e-02,-2.43012e-01,-2.10875e-01,6.57759e-02,8.28501e-02,-1.03268e-01,
-3.36464e-01,-5.58056e-02,-2.22802e-01,-9.49643e-02,-2.43044e-01,9.45164e-02,-2.50683e-01,-6.40133e-02,-3.30213e-02,-7.65212e-02,-1.84575e-01,
1.61452e-01,-4.25183e-02,-4.60871e-02,-1.35067e-03,-1.39403e-01,-1.97341e-01,-1.56466e-01,-4.04754e-02,1.13319e-01,-2.69390e-01,-1.64235e-01,
1.52378e-01,3.25396e-01,1.22879e-02,-7.57420e-02,-1.81843e-01,2.13379e-01,-2.20201e-01,-1.17955e-01,1.34768e-01,-2.05826e-01,2.81778e-01,
2.18220e-01,5.36561e-02,-1.40579e-01,-5.16331e-02,1.39741e-01,-1.36826e-01,-3.84275e-02,-1.88690e-01,5.40472e-02,2.02801e-01,-2.19531e-01,
-2.63065e-01,9.31108e-02,-1.54922e-01,-1.69985e-01,-1.85995e-01,-1.95698e-01,-1.48745e-01,2.67435e-01,9.08433e-02,-2.73754e-01,-1.62625e-01,
-2.51078e-01,-2.55926e-01,-2.12974e-01,1.90628e-01,-1.77955e-01,2.28928e-01,-3.31057e-01,-3.29131e-02,1.74481e-01,1.00288e-01,-1.96146e-02,
3.37978e-01,1.75272e-01,-8.02440e-02,-2.38096e-01,8.12814e-04,1.88243e-01,1.78673e-01,-2.11708e-01,-1.63073e-01,2.71838e-01,-3.95699e-02,
-2.86057e-01,1.18616e-01,3.28081e-01,2.08008e-02,-1.82226e-01,1.38295e-01,-1.93944e-01,2.13357e-01,2.22512e-01,1.82569e-01,2.10411e-01,
1.76598e-01,-1.25108e-01,-9.30007e-03,-1.80954e-01,2.08100e-01,8.59466e-03,-3.79870e-02,-1.01656e-01,2.33391e-01,1.36682e-01,1.15890e-01,
-2.79668e-01,-6.12913e-03,5.33329e-02,2.55743e-01,-1.34713e-01,-1.32952e-02,-2.84934e-01,-2.93904e-01,6.48505e-02,-9.16098e-02,2.22228e-01,
-1.68329e-01,2.53106e-01,-1.79975e-01,-1.39451e-01,3.37104e-02,-5.48808e-03,-2.28999e-01,-1.26053e-01,1.39877e-01,-1.75669e-01,-2.31349e-01,
1.32863e-01,2.54426e-01,-1.85182e-01,-2.31607e-01,1.93429e-01,3.14159e-02,-8.62470e-02,1.08501e-01,-2.59029e-01,1.96306e-01,-2.38409e-01,
-1.94842e-01,-1.61356e-01,-2.44232e-01,-2.36009e-01,1.79868e-01,1.63118e-01,-1.65073e-01,-4.32584e-02,-2.73478e-02,1.60237e-01,-2.96692e-01,
-1.38734e-01,-1.46857e-01,-2.37563e-02,2.73927e-01,-1.73089e-01,-1.56921e-01,1.99120e-01,-2.32663e-01,3.27120e-02,-1.61723e-01,-8.61090e-02,
3.85998e-01,3.14670e-01,2.99036e-01,-2.72906e-01,-8.85177e-02,-1.91204e-01,2.34768e-01,-2.11564e-01,6.38044e-02,-1.34136e-01,2.47302e-01,
1.04727e-01,-3.16197e-01,-1.35328e-02,-3.09114e-01,-2.76768e-01,2.53016e-02,9.92103e-03,1.11779e-01,-2.96461e-01,-2.50500e-01,-1.77145e-01,
1.47394e-01,2.95995e-01,-6.62410e-02,1.85084e-01,-2.26529e-01,-2.14038e-01,-1.45192e-01,2.22049e-01,1.01446e-01,2.93134e-01,6.64253e-02,
-2.19266e-02,2.17960e-01,7.25147e-02,-1.49795e-01,-2.23223e-01,2.07976e-01,2.00055e-01,-1.42390e-01,-5.75569e-02,2.34510e-01,-1.51865e-01,
3.46971e-01,7.71700e-02,1.47743e-01,-1.31667e-01,-3.41340e-02,1.78354e-01,-2.47468e-01,-7.11383e-02,1.40765e-01,-2.67340e-01,2.95796e-01,
1.52487e-01,-7.12713e-02,-3.72618e-02,2.21559e-01,5.74112e-02,-1.26809e-01,-2.76487e-01,2.55032e-02,-7.98702e-02,-4.03665e-03,-1.46710e-01,
-3.73958e-01,-2.71172e-01,1.39415e-01,1.13692e-01,1.12089e-01,4.63188e-02,-3.43868e-01,9.34626e-02,9.67724e-02,-1.37339e-01,1.32391e-01,
3.53876e-01,4.69060e-02,-1.19183e-01,2.80634e-01,-2.73887e-01,2.03840e-01,-2.56166e-01,7.63588e-02,-5.06323e-02,-2.22009e-01,2.38572e-01,
2.24024e-02,-5.69553e-02,5.59207e-02,1.71462e-01,1.15412e-01,-6.16035e-02,-2.52873e-01,-2.83500e-01,1.83439e-01,-1.99836e-01,-4.96332e-02,
-2.25084e-01,1.58670e-01,3.54673e-01,1.14843e-01,-4.57046e-02,5.74304e-02,3.46947e-01,3.53330e-02,2.78243e-01,6.97190e-02,3.08145e-02,
-2.87011e-01,-2.06058e-01,-1.94651e-01,-1.41073e-01,-1.94817e-01,-1.85939e-01,4.21983e-02,3.02737e-01,2.57012e-02,1.92548e-01,-9.03124e-02,
3.88652e-01,1.20167e-01,1.29472e-02,1.39534e-01,-2.79037e-01,-2.94622e-01,1.53030e-01,-1.89766e-01,8.49616e-02,1.61912e-01,-2.64851e-01,
2.41405e-01,-2.62171e-01,1.26111e-01,2.84104e-01,1.83268e-01,1.25876e-01,-2.59284e-01,1.39522e-01,1.89096e-01,2.81772e-01,3.11217e-02,
-3.37811e-01,1.40413e-01,-1.41176e-01,-7.71201e-02,-2.59314e-01,1.70942e-01,-1.93435e-01,2.07470e-01,-5.23166e-02,2.67785e-01,8.86740e-02,
1.63770e-01,-1.24723e-01,1.91843e-01,-3.34989e-02,2.20070e-01,-2.07584e-01,-2.78201e-01,2.01416e-01,-9.73044e-02,-2.65847e-01,1.03881e-02,
-3.00550e-01,-2.49631e-01,7.43529e-02,1.51761e-01,-2.31338e-01,-1.88614e-01,1.33177e-01,-2.10336e-01,1.93029e-02,-1.78495e-01,2.09292e-01,
-2.87223e-01,-3.32824e-01,-2.55638e-01,-7.01042e-02,-2.16665e-01,8.17701e-02,-1.35508e-01,2.35093e-01,2.90187e-01,1.29006e-01,-1.05382e-01,
3.03967e-02,-2.01734e-01,8.77663e-02,2.44143e-01,-1.27207e-01,-2.29600e-01,-2.24259e-01,-9.14525e-02,1.61623e-01,2.41209e-01,-2.52895e-01,
-1.48248e-01,1.56655e-01,1.79305e-01,-3.34351e-02,-2.62041e-01,3.37735e-01,8.82072e-03,-1.02733e-01,-7.74270e-02,1.47462e-01,-1.96637e-01,
2.82051e-01,-2.19618e-01,-2.31313e-01,3.01733e-01,-1.25324e-02,1.37503e-01,1.37055e-01,1.17854e-01,-1.44069e-01,1.81557e-01,1.94085e-01,
-3.06595e-01,-1.56760e-01,-6.63167e-02,1.62356e-01,8.93642e-02,1.23940e-02,-2.27108e-01,-2.21710e-02,2.03793e-01,2.60416e-01,-2.49354e-01,
-3.82721e-01,-2.73586e-01,3.86520e-02,-4.07881e-02,-2.64522e-01,-1.84841e-01,-2.21084e-01,2.27694e-01,3.27122e-02,1.96034e-01,-2.18146e-01,
-1.89180e-01,9.43125e-02,-1.53184e-01,-2.28288e-01,1.10298e-01,2.76247e-01,-5.85436e-02,1.58072e-01,2.18839e-01,-1.27919e-01,-1.89103e-01,
-1.61952e-01,1.58907e-01,1.64764e-01,-2.85230e-01,1.88846e-01,4.05835e-02,3.03383e-01,2.45428e-01,2.55655e-01,1.74280e-01,1.32863e-01,
-3.25259e-01,-2.73774e-01,-1.21823e-01,-9.36927e-02,1.66385e-01,-5.08930e-02,3.61282e-03,8.07929e-02,-2.42184e-01,-6.07794e-02,7.87812e-02,
-2.14055e-01,-6.59825e-02,3.03867e-01,3.58295e-02,2.22625e-01,-1.69472e-01,2.63464e-01,1.89336e-01,2.90359e-02,-1.97847e-01,-2.19112e-01,
1.37630e-01,-2.05057e-01,-2.36034e-01,2.64835e-01,9.21388e-02,-2.36616e-01,-1.00634e-01,1.82103e-01,2.32124e-01,-3.71657e-02,2.82211e-01,
8.75762e-03,-1.56929e-01,-2.96025e-01,2.36354e-03,3.75303e-01,-2.38431e-01,3.18245e-01,-1.57138e-01,2.84944e-01,-1.49082e-01,1.13992e-01,
-1.44954e-01,-2.33058e-01,4.00532e-01,1.90710e-01,6.10333e-02,-1.93877e-01,2.67816e-01,-1.56828e-01,-6.97504e-02,-2.18769e-01,1.06170e-01,
-2.43301e-01,-1.50404e-01,-2.64262e-01,1.82923e-01,-1.41937e-01,2.40082e-01,-8.73446e-03,5.67121e-02,-4.53844e-03,2.49281e-01,-3.00394e-01,
1.57359e-01,1.85372e-01,1.42238e-01,1.75344e-01,2.59575e-01,-6.68069e-02,2.28743e-01,-2.54733e-01,-2.37647e-01,1.57917e-01,2.26274e-01,
1.38097e-02,1.32773e-01,-3.11096e-01,2.14303e-01,5.31380e-02,-4.45556e-02,-3.16222e-02,-1.46059e-03,-1.24395e-01,-2.58283e-02,-2.33698e-01,
-1.30421e-02,-3.79161e-01,3.42652e-01,6.43516e-02,-3.75455e-02,2.25792e-01,2.78039e-01,-8.23139e-02,-8.32926e-02,1.33026e-01,-2.36109e-01,
2.57284e-01,-6.25239e-02,-9.77890e-02,-3.33928e-01,5.50627e-03,2.41922e-01,8.10774e-02,3.17670e-01,2.52000e-03,-1.09723e-01,6.97153e-03,
-2.40025e-01,2.10881e-01,-2.14806e-01,2.95727e-01,1.57552e-01,1.77440e-01,-2.01680e-01,5.22384e-02,9.80322e-02,-2.38355e-01,-2.14011e-01,
-1.79904e-01,-8.35070e-02,5.85568e-03,-3.00276e-01,8.09963e-02,3.08641e-01,-2.53088e-01,1.27275e-01,-1.75039e-01,1.67764e-01,-1.77331e-01,
1.16984e-01,2.00193e-02,-3.57631e-01,-7.97818e-02,2.37150e-01,-3.50598e-01,-1.53562e-01,2.39350e-01,-4.29169e-02,4.54512e-02,-2.22459e-01,
-2.24215e-03,3.83865e-02,-1.98183e-02,-1.82065e-01,4.08442e-02,2.14860e-01,-1.24614e-01,-1.17270e-01,-1.04395e-01,-5.71594e-02,-2.11856e-01,
-9.84843e-03,2.38782e-01,-2.08886e-01,-1.66725e-02,-1.04452e-01,-2.32807e-01,-2.79451e-01,9.35773e-02,2.36584e-01,-2.91264e-01,2.74119e-02,
1.18608e-01,-3.00689e-01,2.08617e-01,9.19737e-02,5.86362e-02,-3.18365e-01,-5.56084e-02,1.08431e-01,-7.18087e-02,5.56890e-02,-6.02526e-03,
-1.08668e-01,3.54877e-02,-5.00541e-02,-5.57185e-02,-4.49938e-02,1.26045e-01,3.11783e-01,2.44839e-01,1.03877e-01,2.36605e-01,-2.23711e-01,
6.14096e-02,-1.82652e-01,2.05483e-01,-1.58235e-02,1.84720e-01,1.19776e-01,-3.02390e-01,-4.55960e-04,5.56487e-02,-1.54244e-01,-3.50122e-02,
-1.25240e-01,-2.81039e-01,3.17740e-01,2.50425e-01,-1.03548e-01,5.19392e-04,4.98136e-02,-2.81450e-01,-1.22847e-01,-1.52607e-01,-1.03244e-01,
2.74556e-01,-1.95240e-01,-3.92327e-01,2.33855e-01,2.65238e-01,-9.11660e-02,-6.15805e-03,3.70865e-02,1.45761e-01,1.01559e-01,-5.05165e-02,
3.49141e-01,-2.54050e-01,2.43582e-01,-3.24433e-01,-7.75606e-02,2.69085e-01,1.85209e-01,2.22012e-01,2.53679e-01,-2.16389e-01,-6.56056e-02,
4.16050e-01,3.30730e-01,-5.52012e-03,-2.06041e-01,1.12709e-01,-2.77809e-01,-9.91769e-02,6.11749e-02,1.60829e-01,-1.66023e-01,-6.17329e-02,
-1.43617e-01,-6.32081e-02,8.21827e-02,-2.16878e-02,-2.70794e-01,1.53032e-01,-2.73942e-01,2.65279e-01,-1.30585e-01,1.64114e-01,-1.93553e-03,
-2.61466e-01,-3.59878e-01,-6.74018e-02,-9.69883e-02,-2.61128e-02,1.84492e-01,1.38721e-01,-3.20041e-03,-1.86961e-01,7.58247e-02,-1.61148e-01,
-1.41155e-01,
1.01241e-01,
-6.93153e-02,
9.55889e-02,
-1.73209e-02,
5.99856e-02,
-2.60727e-01,
-1.40217e-01,
-1.49965e-01,
1.96286e-01,
5.79768e-02,
6.84054e-02,
7.92772e-02,
1.41178e-01,
4.58190e-02,
-2.77538e-01,
1.66460e-02,
-2.99812e-01,
-2.76120e-01,
1.82565e-01,
-1.96245e-01,
2.40550e-01,
-1.87040e-01,
-5.12885e-02,
-1.73117e-01,
-2.60872e-01,
-3.00990e-01,
-7.66167e-02,
5.88050e-02,
-2.47929e-01,
1.67749e-01,
-1.99755e-01,
-7.04805e-02,
1.53547e-01,
6.72153e-04,
-1.92275e-01,
4.02595e-02,
7.97972e-02,
1.01266e-01,
2.11019e-01,
2.06438e-01,
5.58127e-02,
-3.05596e-01,
-3.04820e-02,
9.37843e-03,
-1.40017e-01,
2.66691e-01,
3.28825e-01,
-1.54257e-01,
2.05041e-02,
-5.20742e-02,
1.66431e-01,
-2.67858e-01,
7.82280e-02,
2.41891e-01,
-2.31481e-01,
1.50878e-01,
1.64970e-01,
-2.02282e-02,
-1.97043e-01,
7.55627e-03,
-2.99932e-01,
5.27383e-02,
-2.77711e-01,
2.82013e-01,
-1.41059e-01,
-2.14604e-01,
-6.68494e-02,
-1.95876e-01,
9.63064e-02,
2.16562e-01,
-2.29066e-01,
7.31228e-02,
3.67912e-01,
-4.20871e-02,
2.88913e-01,
-1.33634e-03,
-1.52090e-01,
-1.62074e-01,
-2.61537e-01,
8.53709e-02,
2.48049e-01,
-1.03658e-01,
1.20092e-01,
1.00445e-01,
7.00528e-02,
2.01502e-01,
8.73431e-02,
1.70820e-01,
1.10571e-01,
5.24751e-02,
-6.74096e-02,
1.00614e-01,
-4.75845e-02,
2.22638e-01,
-1.99727e-01,
2.62509e-01,
-6.62920e-02,
3.36748e-01,
-2.77553e-01,
1.88503e-01,
-7.90464e-02,
6.18569e-02,
-9.01698e-02,
-1.70480e-01,
-1.67115e-01,
-1.47929e-01,
-2.88427e-01,
-3.05154e-01,
1.59931e-01,
2.54616e-01,
5.10557e-02,
-4.89613e-02,
-1.68789e-01,
-2.01874e-01,
1.48439e-01,
1.60337e-01,
1.81640e-01,
-2.19931e-01,
-4.31619e-02,
4.09598e-02,
4.65260e-02,
6.79525e-02,
-2.03080e-02,
2.36731e-01,
-2.09919e-01,
2.55435e-01,
1.46774e-01,
1.13303e-01,
-2.09624e-01,
2.74889e-01,
1.91199e-01,
3.22732e-02,
-9.85386e-02,
1.63939e-01,
-7.34129e-02,
-2.77347e-02,
1.98204e-01,
7.93156e-02,
6.40292e-02,
2.23356e-02,
-7.78965e-02,
1.15012e-01,
1.54314e-01,
1.51272e-01,
6.11153e-02,
-2.11653e-01,
-6.69697e-02,
2.71221e-01,
-2.50400e-01,
1.41724e-02,
2.21118e-01,
2.83761e-01,
-2.07359e-01,
-3.66406e-02,
-2.09371e-01,
-4.44197e-03,
-2.67440e-01,
-1.30080e-01,
-6.38557e-02,
-2.19507e-01,
-2.17303e-01,
-1.42867e-02,
-2.15300e-01,
-1.37193e-02,
-2.51633e-01,
-7.65455e-02,
-5.10358e-02,
-1.08046e-01,
-2.91882e-01,
-6.93049e-02,
-2.04808e-01,
-1.17087e-01,
2.67237e-02,
2.93487e-02,
1.34580e-01,
-2.67300e-01,
2.31483e-01,
-2.71956e-01,
-2.04414e-01,
-2.38843e-01,
2.81239e-01,
8.72940e-02,
-1.91497e-01,
9.51022e-02,
1.47262e-01,
-1.53778e-01,
-2.20738e-01,
-2.64731e-02,
2.35477e-01,
1.29660e-01,
8.36226e-02,
1.70832e-01,
2.34651e-01,
-2.47810e-02,
-7.31106e-03,
-1.65697e-01,
-2.16839e-01,
-1.92793e-01,
1.13920e-01,
-6.05636e-02,
6.23503e-02,
-1.35912e-01,
1.04348e-01,
-1.24130e-01,
2.26701e-01,
1.03430e-01,
8.35076e-02,
9.26049e-02,
-2.80056e-01,
2.01776e-01,
-8.15585e-02,
5.36589e-02,
-1.98015e-01,
3.28688e-02,
-2.52585e-01,
-1.86137e-01,
1.98803e-01,
-1.61831e-01,
1.79724e-01,
-1.07032e-02,
-5.15182e-02,
-2.90243e-01,
-4.54524e-02,
1.41831e-02,
2.49896e-01,
-1.08618e-01,
-1.42685e-01,
-2.12187e-01,
3.04401e-01,
1.97301e-01,
2.85964e-01,
-2.13392e-02,
1.84970e-01,
-1.55860e-01,
-2.46203e-01,
3.27645e-01,
2.35197e-01,
3.97124e-02,
5.45002e-02,
2.68951e-01,
-2.95108e-01,
-3.81417e-01,
-2.14047e-01,
2.48276e-01,
-1.35248e-01,
1.14967e-01,
7.26767e-02,
-5.78524e-02,
-2.93785e-01,
-2.33017e-01,
2.98284e-02,
7.46039e-02,
2.07009e-01,
-1.50832e-01,
-2.85915e-01,
-2.61597e-02,7.29754e-02,2.38547e-02,1.03409e-02,-8.55220e-03,-4.09492e-02,-7.83362e-02,-1.01734e-01,-6.73265e-02,1.09327e-02,-4.51929e-02,1.04402e-02,5.74288e-02,-9.12253e-02,-4.55028e-02,6.53195e-02,8.62962e-03,-4.23837e-02,8.79428e-04,8.14792e-02,-5.88539e-02,-3.22063e-02,2.10964e-02,5.27687e-02,-1.89862e-02,-1.40592e-01,-5.54008e-02,-1.12693e-01,1.78219e-02,7.40020e-02,1.82792e-02,-6.22864e-02,-1.13313e-02,8.62005e-02,7.67083e-02,5.63193e-02,4.73358e-02,-4.76956e-03,1.04546e-02,-5.28834e-02,1.74505e-02,-2.90032e-02,-2.93732e-02,5.05563e-02,1.72182e-02,-1.19066e-01,-3.77230e-02,1.04426e-01,-4.45685e-02,9.27872e-02,4.71479e-02,4.58569e-03,-1.06423e-02,-1.33346e-01,-5.07873e-02,-2.02955e-02,5.29731e-02,-4.93878e-02,6.54387e-02,-2.79245e-02,-4.43070e-02,7.31842e-02,3.13424e-02,3.89312e-02,9.97399e-02,5.01541e-02,4.32028e-02,-4.10117e-02,-8.09387e-02,-1.38245e-04,5.32061e-02,-6.66928e-02,3.65240e-02,9.43765e-02,5.15335e-02,-1.49792e-02,-1.57549e-02,-9.68994e-02,8.40566e-02,7.31379e-02,1.19036e-02,-2.72032e-02,5.27524e-02,9.06040e-02,8.28989e-02,3.61161e-02,3.59551e-02,-1.76293e-02,-3.36736e-02,-5.58583e-02,-3.56793e-03,2.40086e-02,4.82909e-02,3.89448e-02,2.41655e-02,6.65929e-02,3.83041e-03,-1.12116e-01,5.40373e-02,-3.95659e-02,-3.65401e-02,6.79569e-02,4.94549e-02,-2.55421e-02,-3.11396e-02,-8.63012e-02,-2.07862e-03,2.96681e-02,-4.24930e-02,2.81375e-02,1.80910e-02,6.91847e-02,-6.94214e-02,-5.95918e-02,-1.32625e-04,4.03893e-02,1.95561e-03,3.37127e-02,-1.16100e-02,-1.19244e-03,-6.27172e-02,9.13246e-02,7.47544e-02,6.24764e-03,7.70495e-02,1.64733e-02,-2.54810e-03,1.37517e-03,1.89769e-02,3.27233e-02,-4.22723e-02,3.49138e-02,5.38368e-02,-2.74400e-02,2.61824e-02,2.39900e-02,7.77421e-03,-3.28916e-02,4.07531e-02,1.90534e-02,-5.89626e-02,2.11160e-02,3.81527e-02,5.18437e-03,4.82757e-02,5.12349e-02,-9.32974e-02,3.82360e-02,8.23188e-02,8.09558e-03,-1.04669e-01,3.38205e-02,3.81620e-02,4.13680e-02,6.66341e-02,1.89019e-01,-1.99622e-02,-5.82250e-02,2.05655e-02,-9.87197e-02,-7.13623e-02,1.23996e-01,1.13005e-01,-1.08428e-01,4.10617e-02,9.30734e-02,4.57352e-03,-1.03588e-01,3.57834e-03,4.73789e-03,-8.19904e-02,-2.37888e-02,8.11035e-02,5.91767e-02,-2.58129e-02,-6.75036e-02,2.97230e-02,-2.97956e-02,6.21960e-02,-3.16435e-02,1.06663e-01,3.65711e-02,3.47645e-02,4.27216e-02,7.67124e-02,3.16151e-02,-5.03195e-02,-4.80393e-02,1.97261e-02,1.87980e-02,-5.16119e-02,-3.69238e-02,-1.45063e-02,-3.27406e-02,2.52231e-02,-1.45979e-02,3.52603e-02,3.39038e-02,-2.22411e-02,4.94520e-02,-7.70020e-02,1.91380e-02,-1.39705e-02,2.53836e-02,8.26460e-02,5.28739e-02,-3.48178e-02,1.03721e-03,-4.22290e-02,-6.63118e-02,1.16243e-02,-5.40510e-02,-5.43430e-02,-1.05039e-02,-2.78967e-02,1.26783e-02,4.27379e-02,5.41778e-02,-1.65621e-02,-5.89014e-02,8.54726e-02,3.52750e-02,1.07094e-01,8.77045e-02,-1.55840e-02,6.01871e-02,9.82613e-02,9.24784e-02,-6.84547e-03,-1.25699e-02,-1.59003e-02,4.19707e-02,-6.86422e-02,4.51090e-02,1.01496e-02,8.98700e-02,6.21222e-02,2.91855e-02,-4.29590e-03,1.78948e-02,9.72215e-02,-6.28339e-02,2.77546e-02,-6.77147e-02,3.14936e-02,-8.29064e-02,7.78747e-02,9.30476e-02,-3.05638e-02,3.13329e-02,1.20086e-02,5.41795e-02,-7.83156e-03,-8.42368e-02,-6.41718e-03,-1.31139e-01,
1.20613e-02,-2.30274e-02,-8.67376e-02,3.64736e-02,-7.93019e-02,-3.07298e-02,2.97936e-03,5.49634e-02,1.32749e-02,-4.33208e-02,8.39757e-02,4.66705e-02,-2.69338e-02,-6.55154e-02,-8.82422e-02,-3.80812e-02,-1.11510e-01,-4.27126e-02,-9.47769e-02,2.72596e-02,2.88809e-02,-4.73462e-02,2.48682e-02,-9.09104e-02,-2.18374e-03,-8.37224e-03,-5.38072e-02,9.24959e-03,-1.07969e-01,2.36824e-02,-2.09651e-02,-2.61962e-02,5.64746e-03,-2.39360e-02,-2.87176e-04,-5.04607e-02,-2.12688e-02,-5.28221e-02,-9.48504e-02,7.61738e-03,-8.43294e-03,-4.13223e-02,9.33074e-02,6.05209e-03,-1.37290e-02,3.37498e-02,2.49536e-02,-1.31687e-02,6.25097e-02,6.15355e-02,1.57422e-02,-2.31916e-02,-1.20764e-02,5.29020e-02,5.83617e-02,-2.20592e-02,1.68917e-02,-1.01071e-01,-3.04609e-02,9.65349e-03,-7.35501e-02,1.39368e-02,-5.50199e-02,4.84347e-02,-2.01542e-02,5.21193e-02,2.25035e-02,-1.64376e-02,-6.27227e-02,-3.17061e-02,3.30380e-02,2.34085e-02,-1.02689e-02,-4.06665e-02,-7.29954e-02,3.87509e-03,2.92564e-04,-1.99157e-02,-5.74811e-03,-6.19642e-02,-7.52956e-02,-4.83202e-02,-3.79553e-02,-2.50511e-03,-2.03768e-02,2.08137e-02,-7.43483e-02,1.67000e-02,4.20659e-02,-6.61327e-02,-7.75821e-02,2.50448e-02,-7.06275e-02,1.12451e-02,-1.25274e-02,4.41057e-02,-5.52963e-02,4.25121e-02,-5.65126e-02,-1.86963e-02,7.20134e-02,-2.90903e-02,-2.55784e-02,3.50188e-02,8.76223e-02,-7.63228e-02,-4.58654e-02,1.12125e-03,9.44811e-02,-4.88639e-02,5.36297e-02,7.11110e-03,-7.86963e-02,-3.79613e-02,4.48321e-02,2.00614e-03,-2.81659e-02,5.26447e-02,2.58258e-02,-9.04777e-02,1.76046e-02,-6.76265e-02,-2.12818e-02,-2.28396e-02,-6.81536e-02,1.61257e-02,-3.78739e-03,-1.08277e-01,-3.50081e-02,-1.68036e-02,2.21982e-03,5.61176e-02,1.61637e-02,8.96293e-02,2.66873e-02,6.42157e-02,2.15424e-02,2.25611e-02,-2.29916e-02,-2.76658e-02,1.15285e-02,8.05817e-02,-1.46465e-02,-1.32290e-02,-3.38934e-03,-1.06049e-01,-3.57084e-02,-8.55837e-02,3.64886e-02,2.68107e-02,6.34639e-02,-1.74639e-02,-7.26967e-02,5.62356e-03,2.22182e-02,2.90737e-02,-2.25334e-02,2.36973e-02,6.50268e-03,-1.46717e-02,-3.11449e-02,3.81215e-02,-6.52569e-02,9.14144e-03,-8.35409e-03,-1.07349e-01,-8.70011e-02,4.25125e-02,-6.77829e-02,-4.73362e-02,-3.80064e-02,6.32938e-02,-1.02863e-02,-3.89812e-02,-5.40236e-02,3.23281e-03,8.24030e-02,-1.36602e-02,-6.86754e-02,8.18697e-02,7.03350e-02,5.72656e-02,2.80789e-02,-1.46708e-02,-9.90921e-02,-1.82076e-02,-6.86143e-02,-2.18634e-02,8.91340e-03,5.37548e-02,-7.98408e-02,3.07620e-02,4.56213e-02,3.90507e-02,6.22716e-02,2.24747e-02,-3.78854e-02,4.23196e-02,4.89352e-02,-2.83192e-02,-1.42489e-02,-1.14739e-03,6.41884e-03,-3.44583e-02,1.11768e-02,-4.08552e-02,5.74860e-02,-1.14659e-02,-1.03013e-01,2.89505e-02,6.28778e-02,-4.20114e-02,-1.87993e-02,-2.33648e-02,-2.46942e-02,-2.52273e-02,-1.02766e-01,-5.33772e-02,1.16959e-02,2.33478e-03,-1.14824e-01,-2.27055e-02,-2.05827e-02,5.99809e-03,4.72134e-02,9.34950e-04,2.71007e-02,5.52679e-02,-5.38208e-02,-8.59130e-03,8.76792e-02,8.48840e-03,-1.28472e-02,-6.51165e-02,9.42658e-03,-3.22575e-02,3.21298e-03,1.71558e-02,3.46331e-02,3.30811e-02,-9.72026e-02,1.81607e-02,-5.18586e-02,4.53234e-02,-1.06717e-02,8.53770e-02,-3.52799e-02,2.39550e-02,-6.28053e-02,9.42578e-03,-7.64752e-02,2.71297e-03,-2.05000e-02,-4.75212e-02,6.62712e-03,6.04130e-02,
-7.83030e-03,-3.09224e-03,1.19173e-01,2.46546e-02,1.01047e-02,1.51523e-01,7.37431e-02,-6.05569e-02,-5.31959e-04,9.01625e-03,6.33675e-02,-3.01597e-02,-1.96547e-02,-2.79389e-02,1.48944e-03,-4.24193e-02,4.56809e-02,8.84009e-02,-3.52202e-02,2.21980e-01,-1.11411e-02,3.70805e-02,5.22038e-02,7.33119e-02,2.05353e-02,7.34565e-02,2.79875e-01,-5.17723e-03,1.17177e-01,8.09407e-02,-5.33277e-03,-5.98045e-02,1.72289e-03,1.16956e-01,-1.05648e-02,-5.80194e-03,-2.69696e-02,3.86322e-02,3.18200e-02,-5.13852e-03,-4.75913e-02,9.37938e-02,3.67096e-02,3.70600e-02,1.89136e-02,6.13239e-02,-8.75765e-03,1.04393e-01,-5.18958e-02,-3.18494e-02,4.24063e-02,2.87618e-02,-4.34722e-02,-1.23629e-02,-1.32745e-02,1.00738e-01,-1.89193e-02,-5.12918e-02,1.00567e-01,-5.15646e-03,-1.40774e-02,8.13594e-02,-1.55183e-02,1.62648e-01,9.36840e-02,-2.35331e-02,-7.95184e-04,1.99985e-02,-3.65728e-02,6.80197e-02,4.83933e-02,2.15782e-02,7.53562e-02,8.94987e-02,-2.84236e-03,3.22877e-02,-4.64951e-02,-3.57012e-02,3.61945e-01,3.39636e-01,1.01376e-01,2.69191e-02,1.40624e-02,6.57456e-02,1.13584e-01,-1.06444e-02,1.14195e-01,3.47436e-02,-6.92958e-02,-3.43964e-02,3.23969e-02,3.40596e-01,1.89269e-01,6.76795e-02,-2.42927e-02,1.94335e-01,5.04459e-02,8.24817e-03,1.13203e-01,7.85537e-02,-4.31418e-02,4.25904e-02,-4.84037e-02,-2.66522e-02,-5.97856e-02,5.18644e-02,6.78276e-02,-7.18090e-02,1.37985e-02,-2.95174e-02,7.43626e-04,-5.15739e-02,6.24697e-02,-3.76968e-02,3.47831e-02,-8.32118e-03,5.04958e-02,2.88150e-02,1.71446e-01,4.73909e-02,5.09856e-02,1.10378e-01,-1.55037e-02,7.33647e-02,7.84049e-02,-2.96654e-02,-5.28929e-02,4.43677e-02,7.09822e-03,8.87593e-02,8.01638e-02,3.47639e-02,2.21593e-01,-2.15230e-02,-3.31824e-02,2.50642e-01,-1.95435e-02,4.06254e-02,6.53460e-02,6.41274e-02,-3.26942e-02,1.54534e-02,2.42010e-02,5.46652e-02,-4.00391e-02,6.05663e-02,2.99384e-02,7.14763e-03,2.18933e-01,6.22061e-02,-5.07278e-02,7.14455e-02,8.32329e-02,2.70657e-02,5.94287e-02,2.49937e-01,5.76987e-02,1.39572e-02,9.29151e-03,7.40863e-03,-4.84969e-02,2.87580e-01,6.31741e-02,6.25211e-02,5.20528e-02,2.51558e-02,-2.10435e-02,4.44133e-02,5.61661e-02,-5.94210e-03,6.08829e-02,-5.56431e-02,3.19941e-02,-3.62030e-02,1.82321e-02,-2.23010e-02,-4.58512e-02,1.41449e-02,1.37856e-02,-6.08777e-02,-2.96614e-02,1.95983e-02,8.07173e-02,8.22733e-03,1.08541e-01,6.77621e-02,6.33049e-02,-9.29034e-03,1.49141e-01,1.31086e-02,3.99164e-02,4.99685e-02,-5.36172e-03,-2.45725e-02,2.41896e-02,-2.13903e-02,5.12153e-02,1.23746e-01,4.95495e-02,-5.62995e-02,5.38475e-02,9.37455e-04,2.22082e-01,3.41850e-02,2.69489e-02,7.75256e-02,1.95278e-02,5.60435e-02,2.56522e-02,-3.99357e-02,4.77158e-02,2.88514e-02,4.00036e-02,5.32431e-02,1.53878e-02,-2.27912e-02,1.25492e-01,8.24426e-03,-1.09085e-03,-2.60531e-02,4.62308e-02,4.77144e-02,1.30947e-01,-1.48846e-02,2.31171e-02,7.28367e-02,-1.74163e-02,-4.15194e-03,9.37424e-03,1.54532e-03,4.97707e-02,9.40403e-02,1.55567e-02,9.75511e-02,7.65437e-02,2.28375e-01,2.12316e-03,1.12271e-02,-5.87594e-02,5.50751e-02,3.14361e-02,7.40400e-03,1.25268e-02,-2.59716e-02,6.78468e-02,5.82087e-02,-1.68153e-02,2.18970e-01,8.49989e-03,6.57410e-02,1.47403e-01,4.16473e-02,1.38852e-02,9.61206e-02,-2.77913e-02,-3.34069e-02,
-8.43138e-04,-3.73865e-04,3.17389e-02,2.82369e-02,1.85498e-02,-2.22404e-02,-3.25929e-02,-6.50577e-03,4.03789e-02,-1.77462e-02,3.65207e-02,1.47551e-02,2.50185e-02,-3.54057e-02,-2.49456e-03,-5.45935e-02,5.72812e-02,-5.36941e-02,-4.71693e-02,-1.69677e-02,-4.78692e-03,-5.50383e-02,-1.24190e-02,3.12030e-02,-2.66601e-02,-2.78452e-02,4.52121e-03,-3.15406e-02,-2.69677e-02,-2.34512e-02,3.85993e-02,-3.25528e-02,-6.53256e-03,2.50679e-02,-5.04034e-02,5.05997e-02,5.97346e-05,3.78831e-03,-2.57768e-02,-5.36427e-02,-1.36079e-02,-2.76579e-02,3.93900e-02,-3.25678e-02,-2.64238e-02,4.37601e-02,4.94138e-02,1.93426e-02,4.14029e-02,2.90034e-02,-5.01636e-02,-4.44549e-02,4.37792e-02,4.03122e-02,-1.02305e-02,2.71814e-02,2.94708e-02,-3.69018e-02,-4.36359e-02,4.83980e-02,2.58947e-02,3.98472e-02,-1.82584e-02,-1.69625e-02,-1.33175e-02,1.57598e-02,2.24432e-02,-2.51775e-02,4.79483e-02,8.13654e-03,2.00455e-02,-2.34358e-02,3.32517e-02,-5.55977e-02,4.87491e-02,-3.43188e-02,-4.67620e-02,4.35276e-02,5.98273e-05,-4.60127e-04,4.92650e-03,-7.00401e-03,3.41541e-02,1.13169e-02,-3.36715e-02,-2.86286e-02,1.16384e-02,4.33323e-02,-5.29441e-02,-3.18506e-02,3.03375e-02,2.22007e-02,4.10640e-02,-3.32702e-02,-1.96870e-02,4.84386e-02,-6.02595e-02,-5.17312e-02,-6.10079e-02,2.05151e-02,-7.42552e-03,-5.88128e-02,3.69302e-03,-2.74058e-02,-3.21692e-02,4.80967e-02,4.30255e-02,4.50942e-02,-4.53776e-02,8.11308e-03,-9.39402e-03,3.60421e-02,-1.94802e-02,5.00693e-02,-4.58156e-02,3.07571e-02,8.91887e-03,-2.04462e-02,4.53169e-02,-7.09300e-02,7.60482e-03,3.00662e-02,-3.49103e-02,-4.78664e-02,1.43598e-02,-3.42398e-02,-5.49760e-02,-5.76477e-03,-2.47667e-02,-5.23841e-02,-5.69340e-02,4.84950e-02,2.92597e-02,4.25022e-02,4.91615e-02,2.11585e-02,-2.83742e-02,-2.09141e-03,7.53703e-03,2.80605e-02,3.71238e-02,2.21331e-02,-6.83500e-02,7.63602e-03,-2.31289e-02,-1.74800e-02,1.84054e-02,-1.74856e-02,1.33309e-03,-3.21641e-02,3.50339e-02,-3.25323e-02,4.52128e-02,-2.57376e-02,2.54895e-02,3.99710e-02,-1.55112e-02,2.51936e-02,1.03332e-02,-2.58310e-02,-1.86628e-02,-8.66000e-03,5.36849e-02,1.92085e-02,-4.47910e-02,1.31112e-02,-1.99748e-02,5.05278e-02,-4.57573e-02,-2.60270e-02,-2.03983e-02,3.54948e-03,-5.69357e-02,-9.50228e-03,1.56837e-03,2.32538e-02,1.00927e-04,4.94922e-02,-6.20849e-02,-5.15667e-02,3.41707e-02,-5.61881e-04,3.08785e-02,5.20538e-03,-8.42871e-03,-6.05388e-02,-5.68670e-02,-5.60605e-02,-3.44544e-02,-6.75728e-02,-6.29316e-03,2.12366e-02,-5.92525e-02,5.31587e-02,-4.33255e-02,-2.72777e-02,3.77538e-02,5.40069e-02,2.81969e-02,-4.70553e-02,-5.92993e-02,-6.05639e-02,-2.51815e-02,-1.94998e-02,9.24390e-03,-4.97112e-02,4.94365e-02,-4.90561e-02,9.30253e-03,-5.87036e-02,-5.68184e-02,1.62528e-02,2.41684e-02,-6.17691e-02,-4.50758e-02,2.81734e-02,-4.05763e-02,-2.97501e-02,-5.08288e-02,-4.23321e-02,4.33681e-02,-1.08934e-02,1.29406e-02,-3.57536e-02,-1.86896e-03,4.66719e-02,-7.75993e-03,1.72869e-02,-1.69716e-02,-6.43787e-02,-1.98785e-02,4.66660e-02,-3.08190e-02,-1.63170e-02,2.79320e-02,1.40465e-04,-3.83470e-03,2.14529e-02,-1.12040e-02,-5.25922e-02,-2.65564e-02,9.44724e-04,4.69770e-02,1.29883e-02,4.69923e-02,3.82070e-02,-9.88804e-03,-2.78281e-02,-4.76499e-02,-2.36935e-02,-3.26165e-02,-2.04027e-02,-4.05156e-02,-4.81278e-02,-2.73845e-03,-2.51889e-03,
4.02905e-02,4.37822e-02,-3.05400e-02,3.69653e-02,-1.81062e-02,-1.45919e-01,1.00364e-01,7.89620e-02,-5.19961e-03,-5.48151e-02,1.17771e-01,-9.25702e-02,-8.89992e-02,-8.70374e-02,-1.19778e-01,-5.46932e-02,2.96840e-04,-4.10405e-02,3.53963e-02,-6.22746e-02,-3.18447e-02,-1.56357e-01,-4.61749e-02,3.30547e-02,4.25965e-03,-7.64296e-02,-2.94904e-03,1.69002e-02,4.25561e-02,-4.72167e-03,-1.28517e-01,-1.28903e-02,3.18881e-02,2.61597e-02,-4.47577e-02,-6.17190e-02,-7.47366e-03,6.67939e-02,1.00383e-02,1.16529e-01,1.91186e-02,-9.78292e-02,-1.56778e-03,2.73197e-02,-1.29364e-01,7.62160e-03,-1.72038e-02,-2.30914e-02,1.00591e-01,-6.75801e-02,4.72647e-02,-5.31629e-02,5.16114e-02,1.41702e-01,-1.21338e-01,4.91870e-02,7.19396e-02,-2.59777e-01,-4.23440e-02,5.68083e-02,4.05257e-02,-8.64490e-02,-1.24452e-01,5.17308e-02,-1.38232e-01,-9.85048e-02,-9.32721e-02,-8.63797e-02,-1.20381e-01,-1.44492e-01,6.26030e-02,-2.86117e-02,-3.64384e-02,-9.59436e-02,-3.80166e-02,-1.43902e-03,7.51840e-03,-5.01594e-02,-1.79420e-02,-5.24015e-03,-1.50363e-02,-2.81621e-02,2.53440e-02,-3.32161e-02,5.24765e-02,-7.37813e-03,-1.43968e-02,-1.34155e-02,-8.72717e-02,-1.21409e-01,-1.20655e-01,-6.85031e-02,-1.08606e-02,4.39736e-02,-2.31854e-02,-2.58020e-02,-3.96289e-02,8.17705e-02,-2.71541e-02,-6.08407e-02,-5.04773e-02,6.52818e-02,-7.84232e-02,-6.66472e-02,3.99040e-02,3.64260e-02,1.03355e-01,1.59480e-02,7.04565e-02,-1.88084e-01,-7.42575e-02,-1.56752e-01,-8.12542e-02,-5.24752e-02,-6.46586e-02,-1.53941e-02,1.48390e-02,4.11391e-02,5.16121e-02,5.39887e-02,5.13379e-02,4.47312e-02,5.28233e-02,-5.93198e-02,-7.27042e-02,1.12169e-01,-4.68428e-02,-2.26560e-02,1.91032e-02,-1.11329e-01,-3.15317e-02,4.42337e-02,-6.13130e-02,9.40362e-02,4.86882e-02,8.87718e-02,-1.18666e-02,6.49740e-02,1.41240e-02,9.71747e-02,-1.15465e-01,-7.99092e-02,5.05497e-02,-1.16373e-01,-7.90608e-02,-3.94914e-02,7.45891e-02,-2.76147e-02,-6.22027e-02,-2.53111e-02,7.40494e-02,5.08357e-03,-5.83093e-04,-8.73102e-02,-3.02666e-02,-5.55791e-02,-1.19324e-02,3.04816e-02,1.95050e-02,9.54776e-02,-3.93008e-02,-1.87455e-02,-9.17213e-02,1.23812e-01,-3.37231e-02,-8.95629e-02,-5.01311e-02,4.57112e-02,3.68954e-02,2.93777e-02,-6.28805e-02,9.72750e-02,-4.60545e-02,-1.17375e-02,-2.40314e-02,-8.79425e-02,7.66752e-03,-1.15165e-01,-8.52927e-02,1.00775e-01,5.26341e-02,1.85381e-02,4.87346e-02,-1.09795e-01,-9.49911e-02,-5.73629e-02,1.04444e-02,7.97998e-02,1.07386e-01,-3.23646e-02,-1.52798e-01,5.74608e-02,3.64203e-02,-8.87427e-02,9.53266e-02,-1.11325e-01,-5.43812e-02,4.26872e-02,1.14279e-01,9.73551e-02,-8.35962e-02,3.35465e-02,-4.29907e-03,-1.50498e-03,5.15109e-02,3.20532e-02,3.19197e-02,-2.66918e-01,-6.81221e-02,9.32208e-03,1.54889e-03,-1.24520e-02,-8.88889e-02,-2.13918e-02,8.15577e-02,-9.90126e-02,3.25472e-02,-9.22928e-02,4.93606e-02,-1.58531e-01,-4.07972e-04,4.47292e-02,2.12707e-02,-1.07312e-02,1.32288e-01,5.34804e-03,9.17622e-04,-2.59549e-02,2.03166e-02,1.12052e-01,8.69705e-02,-1.06036e-03,9.93840e-02,6.28469e-02,9.15406e-02,-5.75479e-02,-1.07363e-01,6.22907e-02,-1.12893e-01,2.87774e-02,-6.07781e-02,2.54880e-02,-2.85099e-02,6.59765e-02,-4.98642e-03,-3.78702e-02,1.59564e-02,2.18225e-02,2.48265e-02,2.40909e-02,-7.93873e-02,-8.98954e-02,-9.08974e-02,-5.04321e-02,7.94713e-02,2.76989e-02,
-2.90391e-02,5.44496e-03,-6.03470e-02,-5.43371e-02,-2.76086e-02,3.07413e-02,1.40043e-02,-9.68005e-03,-7.23762e-03,5.52279e-02,2.98935e-02,1.10058e-02,-5.33597e-02,-4.11717e-03,-4.52165e-02,5.37528e-02,2.03340e-02,-3.50533e-02,2.31621e-02,-2.48649e-02,2.79563e-02,-4.05260e-02,3.96129e-02,2.97618e-02,-5.47703e-02,-6.15989e-02,8.44874e-03,-1.56769e-02,4.18291e-02,4.89200e-03,1.44055e-02,1.55434e-03,1.99050e-02,1.64102e-02,4.17386e-02,1.61580e-02,-7.16827e-02,-5.29242e-02,1.22456e-02,1.79636e-02,-3.04195e-02,-2.96445e-02,2.29378e-02,-5.03740e-03,-5.97428e-02,8.40953e-03,3.86210e-02,3.78863e-02,5.95173e-02,2.05203e-02,-2.85595e-02,-5.45437e-02,2.03253e-02,-3.69723e-02,1.52774e-02,-8.21505e-03,2.41976e-03,3.70884e-02,4.76741e-03,-4.72396e-02,-1.23018e-02,-5.32059e-02,-2.75719e-02,5.67821e-02,-5.83723e-02,-1.73527e-02,-1.33159e-02,-6.15694e-03,-5.88390e-02,4.58099e-02,-2.89912e-02,1.88577e-02,4.13521e-02,-4.24846e-02,-1.70648e-02,5.47138e-03,3.58187e-02,-5.82304e-02,1.05612e-02,4.83708e-02,-2.47804e-02,-6.02592e-02,2.83665e-02,-2.95534e-04,-3.84974e-02,-3.32456e-02,-3.97430e-02,-9.19611e-03,-6.78360e-02,-3.85149e-02,-1.25746e-02,4.61298e-02,5.25417e-02,1.00191e-02,-3.15922e-02,5.88569e-02,-4.32538e-02,-4.60645e-02,6.98284e-03,1.86755e-02,-6.56399e-03,3.70115e-02,-5.22119e-02,-4.01333e-02,1.38850e-02,5.52805e-03,1.48134e-02,-9.22103e-03,3.85178e-02,-4.49809e-02,-4.89011e-02,-6.09797e-02,-2.11225e-02,2.47101e-02,4.53410e-02,-1.06940e-02,2.34452e-02,-1.75825e-02,5.69603e-02,5.17284e-03,-4.84870e-02,2.86896e-02,1.72512e-02,-3.91471e-02,-6.78859e-02,3.18759e-02,-4.39612e-02,-4.84806e-02,3.15817e-02,2.03542e-02,-4.25185e-02,-4.23641e-02,-3.45998e-02,-3.21290e-02,-5.07880e-02,2.10323e-02,4.25998e-02,1.56066e-03,1.11193e-03,-3.86487e-02,1.76956e-02,-3.20984e-03,-2.96816e-02,-4.23113e-02,-4.11733e-02,-4.46504e-03,-4.20838e-02,-5.16533e-02,-4.02225e-02,7.13279e-03,3.22162e-02,-5.41828e-02,-8.99733e-03,4.68258e-02,-1.45456e-02,5.68035e-02,2.68633e-02,3.84953e-02,-3.85505e-02,-2.13616e-02,4.26279e-02,4.30538e-02,-6.02398e-02,1.07354e-02,3.99459e-03,3.60015e-02,-2.24124e-02,-3.63811e-02,3.34159e-02,-1.07525e-02,-1.23916e-02,-5.29503e-02,1.71277e-02,1.79747e-02,-2.06689e-02,3.69237e-02,-6.08706e-03,9.12135e-03,-4.11276e-02,2.05956e-02,-4.20447e-02,-6.78648e-02,-7.86792e-02,-5.89944e-02,-4.68058e-02,-1.73235e-03,1.83947e-02,4.51079e-02,-6.12870e-02,-2.53565e-02,4.57039e-02,3.89249e-02,-3.35029e-02,-6.40871e-02,1.30744e-02,4.34943e-02,4.19623e-02,-5.17855e-02,-1.02179e-02,-5.72146e-02,-2.23007e-02,-7.30230e-03,2.96303e-02,1.27444e-02,3.01413e-02,4.36661e-02,-2.35673e-02,7.91518e-03,-4.38031e-02,3.12202e-02,-6.14439e-02,-4.35680e-02,-2.34906e-02,2.50601e-02,-6.55275e-02,-5.99817e-02,-5.75971e-02,-5.83444e-02,2.18587e-02,2.51854e-02,1.51407e-02,3.48922e-02,2.20955e-02,-3.14256e-02,-6.08398e-02,1.40825e-02,5.39933e-03,-3.57224e-02,4.36371e-02,2.09222e-02,-6.20700e-02,-5.54325e-02,-1.53336e-03,-1.27808e-02,2.10640e-02,-1.08375e-02,3.77562e-02,-3.13630e-02,1.73398e-02,-3.07527e-02,-3.43379e-02,-5.87580e-02,-7.19507e-04,1.12408e-02,-4.46147e-02,3.85077e-02,1.90912e-02,-5.13997e-03,-2.77313e-02,3.28619e-02,3.90251e-02,-1.89340e-02,3.21371e-02,-1.04485e-02,3.62291e-02,9.06785e-03,
-2.81051e-03,8.46727e-02,-6.22771e-02,1.94650e-02,-5.01506e-02,-5.79372e-02,9.04109e-02,-3.32716e-02,-8.59850e-02,1.30345e-02,-2.68389e-02,-3.50574e-02,4.59095e-02,2.55635e-02,-6.15600e-02,-2.04951e-04,-1.53519e-02,6.20125e-02,2.52369e-02,-2.54091e-03,-2.92417e-03,-1.10619e-02,2.49932e-02,-4.60036e-02,-5.63552e-02,-1.36110e-02,-6.08444e-02,8.81731e-03,-3.45647e-02,3.77092e-02,-4.04927e-02,-2.29028e-02,4.17868e-02,-2.00319e-02,-1.37832e-02,-4.43670e-02,5.12947e-02,-2.70482e-02,4.66428e-02,-2.50829e-02,-8.52275e-03,4.23576e-02,-1.94032e-02,1.06737e-01,-8.35465e-02,-8.43830e-02,-1.53874e-02,5.65081e-02,1.28702e-01,6.70633e-02,1.83250e-02,-6.56240e-02,7.06558e-02,-1.53493e-03,-1.06379e-02,6.18255e-03,-5.24981e-02,-4.78472e-02,3.24250e-02,3.57264e-02,-8.54498e-02,5.43909e-02,-3.65717e-02,4.26769e-03,3.30195e-04,2.03971e-02,8.09078e-02,-6.15960e-02,-5.96373e-02,3.47396e-02,5.80056e-02,-5.08278e-02,2.55819e-02,3.86895e-02,-3.46964e-02,-4.10714e-02,2.85725e-02,-7.65431e-02,6.81089e-02,-1.68736e-02,5.35258e-03,-5.35840e-02,5.52291e-02,-6.55245e-02,-3.86734e-02,-4.15030e-02,4.85503e-02,-3.73705e-02,1.70499e-02,1.58914e-02,3.02144e-02,6.20692e-02,2.82618e-04,3.18264e-02,8.56208e-02,5.04508e-02,7.94697e-03,-9.76726e-03,3.97411e-02,-1.65998e-02,-2.65162e-02,-8.18280e-03,2.91228e-02,4.99867e-04,-4.82734e-02,-6.51196e-03,-2.64310e-02,6.90659e-02,-1.00890e-02,4.33421e-02,-5.78590e-02,9.36077e-02,-3.44235e-02,9.40355e-03,-5.26388e-02,3.08882e-02,7.45027e-02,4.08886e-02,4.58463e-02,2.16309e-02,2.05934e-02,1.10002e-02,8.54639e-02,1.10610e-01,-3.42159e-02,-1.91510e-02,3.30107e-02,-1.90232e-02,5.88130e-02,1.95051e-02,4.46658e-02,-3.22246e-02,2.43689e-02,-2.07818e-02,-1.62833e-02,-8.55445e-03,4.48531e-02,-1.35511e-02,3.50138e-02,2.63308e-02,-9.93834e-03,1.13603e-03,-2.87371e-02,1.75245e-02,2.58406e-02,6.09554e-02,8.10464e-02,-1.02417e-02,1.34787e-02,9.04082e-02,3.60352e-02,-4.68279e-02,2.82559e-02,7.14988e-02,3.94979e-02,6.87120e-02,-2.56584e-02,-9.30889e-04,-5.26337e-02,2.35483e-02,-5.91186e-02,5.80583e-02,6.51862e-02,5.69354e-03,4.28140e-02,-2.36349e-02,-4.21913e-02,-4.64427e-02,1.40779e-02,4.60329e-03,-1.35597e-02,1.01135e-01,-1.80516e-02,-5.33183e-02,-6.02143e-02,-6.41485e-02,-8.61581e-02,-6.18296e-03,-5.62798e-02,-4.11632e-02,9.69938e-03,9.59169e-02,3.21838e-02,2.22064e-02,8.12939e-02,-1.43908e-02,4.00294e-02,1.37740e-01,2.92551e-02,-6.97136e-03,-2.34858e-02,-6.73688e-02,3.19918e-02,3.32128e-02,9.21787e-03,-5.63502e-02,3.85302e-02,4.41036e-02,1.18713e-01,2.78144e-02,-3.86575e-02,1.02702e-02,5.43714e-03,8.29392e-03,6.19019e-02,5.24777e-02,9.61435e-03,-2.01109e-02,-1.19825e-02,1.83255e-02,-1.15958e-02,-6.43695e-03,-5.85416e-02,-4.86045e-02,6.72215e-02,-6.54469e-03,-3.07843e-02,4.70556e-02,1.46708e-01,-4.72319e-02,-2.51692e-02,-3.70254e-02,-4.68492e-02,7.57746e-02,1.33683e-03,-4.69985e-02,-4.06239e-02,5.41448e-03,-2.11427e-02,8.28036e-02,-2.40258e-03,3.67340e-02,7.31452e-02,-2.85679e-02,4.63681e-02,1.38064e-01,7.38752e-02,-2.23446e-02,4.16528e-02,1.86443e-02,-3.15592e-02,-1.55907e-04,-7.18477e-02,3.33123e-02,-4.53351e-02,5.83738e-02,6.00344e-02,-6.93918e-03,3.95171e-02,4.13033e-02,3.25473e-03,1.01817e-02,-4.47211e-02,-3.31466e-02,3.97209e-02,1.60291e-01,
-2.82846e-02,-1.73150e-02,-6.73851e-02,-8.59846e-03,-5.57420e-02,5.39455e-02,4.14060e-02,-6.00463e-03,1.18926e-01,3.81781e-02,5.57149e-02,2.93043e-02,-1.75561e-02,2.48142e-02,-5.89910e-02,3.08310e-03,-1.59253e-01,-1.36074e-01,2.78740e-02,-1.24024e-02,-2.65757e-03,1.05948e-01,-1.22807e-02,-1.96238e-03,-4.29234e-02,9.39510e-02,-1.69816e-02,1.01650e-01,-1.86413e-02,-2.03310e-02,-1.84287e-02,1.14551e-01,2.73087e-02,-6.06743e-03,-2.36618e-02,-8.40184e-02,-6.10719e-02,-5.78960e-02,5.93100e-02,-5.43472e-03,7.66817e-02,4.59868e-02,-1.62890e-02,-7.81467e-02,4.84056e-02,6.47653e-02,-2.42818e-02,-3.09256e-02,-1.94474e-03,1.17556e-03,-1.49898e-02,2.33639e-03,1.47732e-02,2.91791e-02,-1.23149e-02,1.14472e-01,-1.51796e-02,5.81752e-02,-2.05058e-02,1.02541e-01,5.12777e-02,-1.20145e-01,8.93693e-02,-7.36053e-02,-5.04615e-02,1.28745e-02,2.21531e-02,6.45207e-02,5.12559e-02,6.48462e-02,6.34854e-02,9.02992e-03,-1.04891e-01,1.24128e-02,-1.22134e-01,1.82312e-03,4.59600e-02,8.67046e-02,-8.68945e-02,-3.26504e-02,-1.42420e-01,-1.85633e-03,-4.16492e-02,4.88034e-02,-5.66659e-02,-3.44717e-02,-5.52943e-02,-7.37717e-03,3.57410e-02,-1.78291e-02,3.00545e-02,-6.97762e-02,-4.07166e-02,7.47242e-02,-3.77100e-02,-2.73772e-02,5.79891e-02,9.99034e-02,-8.43368e-02,-3.47111e-03,1.86883e-03,-3.61224e-02,-2.71702e-02,-1.64992e-03,4.42871e-02,9.71624e-02,7.63341e-02,1.70831e-02,9.20511e-02,9.02416e-02,1.76318e-02,3.63339e-02,2.17312e-02,7.96543e-02,9.22861e-02,-1.07007e-01,-3.69209e-02,3.48408e-02,5.34140e-02,-3.79524e-02,9.93413e-02,-6.03007e-02,-3.07667e-02,1.01972e-03,-6.74459e-02,-6.20362e-02,3.50556e-02,1.15743e-02,-3.57536e-02,2.05250e-02,2.81813e-02,6.12767e-02,2.73651e-02,9.11326e-02,7.39381e-02,-7.90642e-02,1.34034e-02,7.19973e-02,-4.54299e-02,-6.40833e-02,7.04849e-02,-5.71695e-02,4.52892e-02,-1.86473e-02,-5.47383e-02,-4.58027e-02,3.16305e-02,-2.35205e-02,-1.79625e-02,-9.18379e-02,9.98073e-03,-1.00619e-01,-5.86577e-02,6.51489e-02,1.04430e-04,-9.77291e-02,-1.53107e-01,-1.93071e-02,-2.55952e-02,-1.92099e-02,2.73094e-02,-9.00725e-02,-1.46675e-01,1.88608e-04,-4.90726e-02,-1.01191e-01,5.47178e-03,-1.15273e-02,-7.34853e-02,-4.02567e-03,1.19664e-01,4.53824e-02,-3.19703e-02,-4.92231e-02,5.01328e-02,-4.32193e-02,-5.94925e-03,5.36730e-04,-6.63863e-02,1.11969e-01,1.82112e-02,-2.36213e-02,-5.28579e-02,-1.07580e-02,-1.57377e-03,-5.88930e-02,6.85523e-02,5.43336e-02,-1.99370e-02,-2.92041e-03,8.04930e-02,9.58231e-02,8.64869e-02,8.02904e-02,8.65521e-02,4.37843e-02,-1.15127e-01,2.94886e-03,-8.38582e-04,9.12165e-02,-2.71785e-02,-2.41098e-02,8.55602e-02,4.66421e-02,-9.56192e-03,-9.43222e-02,6.51548e-02,1.10520e-02,5.82282e-02,6.72410e-03,2.83130e-02,-1.59048e-02,5.53100e-02,2.07417e-02,4.75356e-02,-5.37561e-02,-6.14860e-02,-3.08205e-02,-5.89611e-02,1.21155e-01,-4.19819e-02,3.96650e-02,-1.44436e-02,1.30224e-02,5.01987e-02,-4.54737e-02,-1.06158e-02,-7.04439e-02,4.36587e-02,4.32015e-02,5.00723e-02,-6.26440e-02,6.71619e-02,-8.83760e-02,-3.96446e-02,-1.34617e-01,6.64244e-02,8.37979e-02,7.21153e-02,-4.67746e-02,-1.44500e-02,-6.68868e-02,7.55869e-02,1.95104e-02,-7.17356e-02,5.52242e-02,5.59918e-02,-7.63528e-02,-5.04365e-02,1.63899e-02,-2.55460e-02,-2.28496e-02,2.00639e-02,7.84821e-02,1.42153e-02,-5.95652e-03,
-5.79712e-02,5.23152e-02,7.24211e-02,-7.59286e-02,-6.74338e-03,-6.38098e-02,-9.85901e-02,-9.08432e-03,-9.60247e-02,-9.08800e-02,-4.23483e-02,-8.08531e-03,-1.68197e-02,1.55584e-02,1.01954e-02,-7.09230e-02,6.74959e-02,4.29143e-02,-1.53871e-02,7.38331e-02,4.20479e-02,-4.46242e-02,-3.18019e-02,8.94642e-02,8.33775e-02,-1.14464e-01,7.23921e-02,-6.54251e-03,-2.41694e-02,1.17030e-02,2.38655e-02,-7.00448e-02,4.55209e-02,4.02059e-03,-4.82066e-02,8.93602e-02,4.17909e-02,-1.99063e-02,5.26673e-03,1.22285e-02,-2.01306e-03,2.19247e-02,5.17481e-03,3.44081e-02,-3.95671e-02,4.14906e-05,-6.93066e-02,6.40996e-02,1.76082e-02,1.71243e-02,-3.16846e-02,2.59102e-02,3.79186e-02,-8.64652e-02,8.44437e-03,-4.81170e-02,3.99953e-02,1.35100e-02,7.55618e-02,-5.53281e-02,-7.69649e-02,1.08522e-02,-8.86402e-02,-4.07484e-02,5.69475e-03,2.61575e-02,6.06198e-03,4.49021e-02,-2.44671e-02,3.67498e-02,-7.26858e-02,-2.78110e-02,8.40376e-02,1.16802e-02,9.05807e-03,6.43762e-02,5.66217e-02,-9.88515e-02,1.99595e-02,-2.27170e-02,1.83476e-02,-2.34866e-02,-2.28255e-02,4.67035e-02,7.64275e-02,-6.05664e-02,2.19226e-02,-6.32874e-02,-5.05154e-02,-2.64216e-02,-4.67214e-02,9.82796e-02,4.35152e-02,-3.70697e-02,5.00287e-02,-1.39723e-02,-2.62922e-02,1.65002e-02,-4.36968e-03,-3.60835e-02,-6.39385e-02,-6.16846e-02,6.67359e-02,-3.53420e-02,-2.48716e-02,-3.50202e-02,-2.11855e-02,-1.45035e-02,2.16812e-03,-2.24841e-02,-5.34512e-02,-1.78624e-02,4.59464e-02,-1.52552e-02,-4.24344e-03,7.17939e-02,-2.35548e-02,2.43385e-02,-4.19728e-02,-2.60066e-02,3.71171e-02,9.01504e-02,-3.02860e-02,1.50783e-02,3.12633e-02,-1.41224e-02,-4.96481e-02,5.66085e-02,2.88818e-02,-2.68757e-02,-2.94519e-02,-7.33666e-02,-6.52974e-02,-4.38666e-02,-3.67564e-02,7.66830e-02,3.45956e-02,-2.53576e-02,-1.65791e-02,4.10759e-02,2.54663e-02,2.18222e-02,7.00983e-02,5.83811e-02,2.92534e-03,2.99782e-02,-1.53898e-02,9.92837e-03,6.35668e-02,2.42000e-02,-5.06048e-02,2.94655e-02,3.45179e-02,-6.00613e-02,6.36301e-02,4.09630e-02,-8.13689e-02,1.95379e-02,1.80431e-02,-2.72352e-02,-8.07562e-02,1.26615e-01,1.41710e-01,4.03625e-02,6.25817e-02,6.47549e-02,-5.30535e-02,3.93246e-02,2.25825e-02,5.42833e-03,1.74090e-02,-3.36880e-02,-1.76825e-03,-4.96280e-03,-3.76500e-02,-1.72299e-02,-4.16731e-02,6.24570e-02,6.86706e-02,-5.49776e-02,7.67269e-02,7.96381e-03,8.19113e-02,-1.22292e-01,-2.99170e-02,-2.78325e-02,-3.45152e-02,-1.41914e-02,1.08555e-01,-6.52907e-02,3.99991e-02,2.93033e-02,1.32530e-02,-3.84105e-03,-7.83244e-02,-2.51256e-02,-6.56514e-02,1.02953e-02,-6.39758e-02,-2.41561e-02,3.28746e-02,-5.64544e-02,5.47161e-02,-5.10765e-03,4.84913e-02,-5.18817e-02,-3.58027e-02,2.74938e-02,-6.42676e-02,-8.32348e-02,-8.98350e-02,-1.84115e-02,-7.21988e-02,1.54604e-02,-6.87587e-02,4.26055e-02,1.95295e-02,5.36802e-02,-8.13900e-02,3.82722e-03,2.02836e-02,4.45488e-02,1.32458e-02,8.14998e-02,2.99045e-02,-3.81309e-02,-3.51259e-02,9.21904e-02,-9.50181e-03,3.31881e-02,3.01454e-02,7.55320e-02,1.87164e-03,5.16713e-02,2.33952e-02,1.19629e-01,6.79878e-02,7.09779e-03,5.06296e-02,-1.42686e-03,3.49211e-02,-6.05931e-02,6.69867e-02,-3.78611e-02,-2.87177e-02,-1.52632e-02,-9.85148e-02,7.43091e-03,-2.18690e-02,1.26405e-02,3.49165e-03,2.60463e-02,5.27252e-02,-5.18651e-02,-6.08211e-02,-7.82133e-02,
3.21072e-02,7.14932e-03,2.72035e-02,-8.83620e-03,-5.98431e-02,1.59000e-02,9.75557e-02,-2.14637e-02,8.18241e-02,-1.73998e-02,4.22555e-02,4.33753e-02,-2.56617e-04,1.93369e-03,-6.82195e-03,-6.29270e-02,-7.41581e-02,-6.40179e-02,5.66332e-02,-3.50134e-02,-5.01711e-02,-7.59389e-02,-8.01577e-02,-7.83332e-02,-4.13326e-02,8.27245e-03,-6.69280e-03,1.29937e-02,-3.57033e-02,3.04340e-02,1.27535e-02,3.64713e-03,1.36418e-02,6.53728e-02,-1.11258e-02,-1.88557e-02,8.41032e-02,-4.55713e-02,-5.25493e-03,5.30792e-03,6.13097e-03,3.76986e-02,1.83374e-02,7.54067e-02,-2.01298e-02,6.48228e-02,1.62086e-02,9.91240e-03,1.12798e-01,-5.84218e-02,1.24540e-02,-2.48529e-02,9.23014e-02,1.14548e-01,1.69545e-02,5.73665e-02,-2.52404e-02,-1.03888e-03,1.73229e-02,1.13973e-01,-3.54981e-02,3.32029e-02,2.96043e-02,1.41114e-02,-4.96030e-02,-4.69994e-02,5.09037e-02,2.33278e-02,2.65754e-02,-6.86878e-02,5.23646e-02,-6.97762e-04,-1.00320e-01,2.85436e-02,1.00820e-02,-3.68059e-02,2.37121e-02,1.32832e-02,7.54246e-02,-3.37173e-02,-8.44993e-02,-2.67093e-02,-2.90800e-02,-9.48694e-03,3.22192e-02,-8.67912e-02,-5.67612e-02,-4.90236e-02,2.77764e-03,1.69543e-02,-1.39602e-02,-2.55972e-02,7.56835e-02,2.70551e-02,-1.55196e-02,-3.37987e-03,1.81097e-02,1.00908e-01,2.96730e-02,3.24717e-02,4.32013e-02,2.48449e-02,5.49229e-03,-3.29522e-02,-5.03980e-02,-1.83601e-02,8.44072e-02,-5.69626e-02,2.25241e-02,1.18747e-02,-6.09600e-02,3.64256e-02,-2.87910e-02,-6.39706e-02,-5.80801e-02,2.26380e-02,-5.78702e-02,3.25665e-02,9.92509e-02,2.27916e-02,-3.78018e-02,-4.32257e-02,8.90857e-02,-1.22792e-02,3.22598e-02,2.11491e-02,-6.00335e-02,3.02523e-02,-7.16287e-02,1.42273e-02,1.75358e-02,-3.78084e-02,-2.51004e-02,4.99746e-02,-1.23234e-02,7.01061e-02,-2.97976e-02,8.58875e-02,5.88564e-03,-9.56849e-03,-6.70864e-02,-8.01325e-02,-6.03565e-02,1.77373e-02,-6.96714e-03,-7.19977e-02,5.84663e-02,-3.37982e-02,-2.09418e-02,1.70793e-02,-5.85943e-03,2.25645e-02,-2.30106e-02,4.68629e-02,2.34438e-02,-5.61572e-02,-1.54088e-02,-1.06585e-03,4.79192e-02,9.01487e-02,5.85458e-02,-8.96392e-03,4.19983e-02,-1.80424e-02,-7.09801e-02,-4.39097e-03,3.59595e-02,-7.79034e-03,-4.54178e-02,8.31991e-02,8.86067e-03,6.34103e-02,7.97214e-03,-7.22672e-02,-5.99849e-02,5.58464e-04,-6.90726e-02,-6.41397e-02,-6.02944e-03,-1.37076e-02,-7.81116e-02,2.28598e-02,-1.26397e-02,-1.84131e-03,4.50983e-02,3.87588e-03,2.01106e-02,2.07084e-02,8.07913e-02,-3.29963e-02,3.99297e-02,-2.12929e-02,-4.20884e-02,4.58929e-02,9.59094e-02,-2.10570e-02,-1.90413e-02,2.31257e-02,7.89360e-02,8.96134e-02,-2.77452e-02,1.93038e-02,2.20002e-04,5.26754e-02,-9.06947e-03,-3.74653e-03,2.82598e-02,-5.83761e-02,-3.02755e-02,5.86037e-02,1.81953e-02,-1.08049e-02,-7.35536e-04,-9.40029e-03,7.41649e-02,-3.02501e-02,3.61868e-02,-1.14025e-02,1.03114e-01,5.87766e-03,8.36658e-03,-4.69947e-02,-2.71453e-02,-3.23961e-02,-8.67573e-03,5.45398e-02,-5.48482e-02,-6.41183e-02,2.78849e-02,4.24521e-02,3.37675e-02,2.85654e-02,5.87077e-03,-6.37707e-02,6.02969e-02,-3.50714e-02,-4.71575e-02,-4.57029e-02,-8.89308e-03,-1.44110e-02,-7.46984e-02,-2.91644e-03,5.50356e-02,-4.50271e-02,8.12637e-02,-5.50625e-02,-4.58310e-02,-1.13659e-02,1.27060e-03,5.23981e-02,2.76238e-02,2.98084e-02,3.96780e-02,4.16158e-02,-2.06669e-02,1.38995e-01,
1.25131e-03,-1.43469e-02,1.23955e-02,1.15781e-02,3.24743e-02,-4.17182e-02,-1.64908e-02,1.16772e-02,4.87017e-02,-1.76104e-02,8.55388e-03,9.23796e-03,-4.91347e-02,-4.48967e-02,-1.36832e-02,-8.73829e-02,6.35108e-02,-7.19342e-02,-7.98000e-02,1.43984e-02,-6.51276e-02,-1.29348e-02,2.20795e-02,-6.09987e-02,-9.38484e-03,-7.46799e-02,3.23359e-02,-1.10632e-01,-8.10741e-02,-7.55604e-02,1.00228e-02,-6.82859e-02,-5.10107e-02,3.35860e-02,-4.88243e-02,5.05773e-02,-2.72265e-02,-4.38158e-02,-9.37117e-02,-4.91771e-02,1.67724e-02,-2.25056e-02,-7.32228e-02,9.56240e-02,-5.35036e-02,1.55498e-02,-4.66846e-02,-8.39527e-02,-1.89878e-02,-2.30571e-03,-2.11787e-02,-6.50114e-02,-1.65605e-02,8.77716e-03,2.54621e-02,-9.62744e-02,-1.55303e-02,-5.24170e-03,-1.09721e-02,-2.02145e-02,-5.42832e-02,3.60158e-02,-8.53192e-02,5.38346e-02,-3.75059e-02,-8.82429e-02,4.61037e-02,-8.53088e-02,-3.60266e-02,-7.97975e-02,5.03116e-02,-1.72442e-02,-7.30381e-02,2.02226e-02,8.23053e-02,-2.70992e-03,-3.91943e-02,-3.81957e-03,2.88872e-02,1.77942e-02,2.97408e-02,-3.41357e-02,-5.99624e-02,1.51975e-02,-3.43305e-02,-2.81520e-02,7.51150e-02,3.10915e-02,-8.90074e-02,-3.39575e-02,3.64844e-03,8.22479e-02,-5.92442e-02,-2.27882e-02,7.46548e-02,3.90403e-02,-4.79808e-02,2.32632e-02,6.24526e-02,-8.63591e-03,-3.08099e-02,6.81940e-03,-9.41402e-02,2.39549e-02,1.31569e-02,-8.64807e-02,5.98745e-02,-2.50159e-02,-5.58460e-02,-4.74454e-02,-5.66058e-02,3.66740e-02,-2.11544e-02,-2.55781e-03,-5.77772e-02,-3.46829e-02,-7.73807e-02,4.47318e-02,1.16254e-01,7.44019e-03,-4.44680e-03,-4.57482e-02,2.35076e-02,4.25458e-02,-6.05320e-03,-3.79799e-02,-6.00621e-02,1.11118e-02,-9.62490e-02,-9.63559e-02,-9.22506e-02,-3.48505e-02,-6.33203e-02,-7.18217e-03,-1.89710e-02,2.31718e-02,4.19121e-03,2.37738e-02,9.20197e-03,7.69610e-03,-1.32882e-02,4.46731e-02,-7.86336e-02,-5.92003e-02,2.27174e-03,-2.13040e-02,-3.65282e-02,2.78334e-02,3.47653e-02,-3.33358e-02,1.57225e-02,1.37227e-02,-7.95732e-02,-5.72044e-02,1.96879e-02,2.53448e-02,-1.07680e-02,3.76829e-02,-7.91365e-02,4.98858e-03,-4.26671e-02,2.85850e-02,-9.80022e-03,-5.85978e-02,-4.50341e-02,-1.01434e-02,-1.03070e-01,-5.95833e-02,5.14070e-02,5.58998e-02,-7.25189e-03,3.49569e-02,-2.78751e-02,-4.96191e-02,1.64290e-03,-3.15472e-02,-6.41993e-02,-4.48180e-02,-4.66364e-02,3.84689e-02,-6.03067e-02,9.30025e-03,3.74476e-02,-5.52393e-02,-1.79834e-02,-8.26788e-02,1.37569e-02,-6.62749e-02,2.20319e-02,-3.20664e-02,7.96502e-03,-8.55125e-02,-6.98239e-02,-6.55541e-02,5.12867e-02,-1.58156e-02,-2.89361e-02,-6.41738e-02,8.23886e-02,7.34270e-02,-8.61176e-02,1.12219e-02,-6.23459e-02,-3.26440e-02,-1.33403e-03,-6.78656e-02,-6.41108e-02,4.54749e-02,-2.35420e-03,1.22232e-02,2.03618e-02,-9.08687e-02,-1.00384e-02,-3.05874e-02,7.27982e-03,4.32647e-02,6.13974e-02,-1.02463e-01,-1.54904e-02,-8.00471e-02,-2.04792e-03,-4.00917e-02,1.56306e-02,-4.35721e-02,-3.99100e-03,-4.44685e-02,-1.22548e-03,3.38568e-02,-4.34811e-02,5.45017e-02,6.07288e-04,-6.14211e-02,8.73177e-03,2.90909e-03,-3.76188e-02,8.90597e-02,-7.59074e-02,-2.89276e-02,-2.98187e-02,9.92553e-03,2.11259e-02,-1.01850e-02,-5.83338e-02,1.11434e-02,-4.23022e-02,-2.53967e-02,-1.62834e-02,7.72058e-03,6.29787e-02,3.84306e-02,2.25088e-02,-1.93648e-03,-1.88113e-02,-8.25282e-02,-6.44177e-02,-4.52825e-02,
1.10109e-02,3.10841e-02,-7.56475e-02,3.19627e-02,2.25337e-02,5.58902e-02,-1.43926e-02,9.74915e-02,8.93215e-02,-1.72564e-02,6.39727e-02,-2.32063e-03,-6.54924e-03,1.13896e-03,-1.78888e-02,-4.49254e-03,-4.72546e-02,5.12554e-02,4.94539e-02,-6.23487e-02,4.08105e-02,-4.13779e-02,-6.83376e-02,-5.46007e-02,-4.74390e-02,6.98072e-02,5.83335e-02,5.43894e-02,-3.77754e-02,-7.70205e-02,-3.93468e-02,-1.09548e-02,4.65073e-02,-3.64989e-02,-9.60702e-04,1.84196e-02,1.07467e-02,-3.62258e-02,-2.18103e-02,8.67140e-02,-1.72331e-02,5.55905e-02,-3.03779e-02,-7.98944e-02,-3.77669e-02,8.54417e-02,5.06079e-02,-4.89631e-02,7.59988e-02,-3.48163e-02,2.00088e-02,6.21923e-02,9.63622e-02,7.02705e-02,3.27023e-02,5.77269e-02,-6.67752e-03,7.68463e-02,-7.43209e-02,1.01866e-01,2.25137e-02,-5.23120e-02,-1.06854e-02,8.86890e-04,-5.30439e-02,-6.43807e-02,2.66090e-02,-3.99619e-02,1.11637e-01,-3.67797e-02,-1.09635e-02,2.39026e-03,-6.06238e-02,3.28990e-02,-3.05330e-02,-5.94910e-02,-9.11873e-02,3.28546e-02,1.59424e-02,1.04378e-02,2.55712e-02,4.33625e-03,1.80828e-02,1.78928e-02,4.17094e-03,-6.81215e-02,-2.10684e-02,-6.05641e-02,5.05325e-02,3.13950e-02,4.33197e-02,1.05564e-02,-2.50973e-02,3.66166e-02,-4.72079e-02,3.44937e-02,-3.62399e-02,1.34448e-02,3.45928e-02,-4.69907e-02,5.06440e-02,5.90747e-02,7.03890e-03,5.19055e-02,2.48723e-02,-1.31433e-02,2.80478e-02,-5.52153e-02,7.82151e-02,8.14919e-02,2.90600e-02,-4.64367e-02,5.68243e-02,-1.05952e-02,-3.89046e-02,-9.84879e-02,-3.13941e-02,1.82487e-02,9.29872e-02,3.84530e-02,4.70373e-02,2.90230e-02,-3.14469e-02,-7.11347e-03,8.54050e-03,-2.14019e-02,4.82274e-02,5.70354e-02,2.36780e-02,-3.22124e-02,-1.34641e-02,-6.44921e-03,-4.24089e-02,9.33135e-02,4.17419e-02,-4.16229e-02,-2.71392e-02,2.01974e-02,3.20075e-02,1.82065e-02,-2.24888e-02,-4.93072e-02,4.70824e-02,-2.85479e-02,-3.18699e-02,4.70241e-02,2.00688e-02,2.26842e-02,-5.34568e-03,-5.32909e-02,4.27839e-02,-7.57962e-02,4.12984e-02,6.02480e-02,1.68484e-02,-9.34097e-02,5.74058e-03,-2.68583e-02,1.99111e-02,5.66976e-02,7.48238e-02,-4.11402e-03,-8.97218e-02,7.72196e-02,5.06794e-02,-5.06013e-02,1.87363e-02,7.26747e-02,-4.04953e-02,-1.66330e-02,6.01563e-02,9.49822e-02,-3.47200e-02,-3.43368e-03,8.06770e-02,-9.34979e-03,4.48695e-03,-3.10762e-02,-2.33912e-02,4.71714e-02,-1.05636e-01,5.46812e-02,-2.73556e-02,-4.74131e-02,1.37565e-02,-6.37722e-03,7.33992e-02,7.97372e-02,6.48583e-02,1.01848e-02,7.14170e-02,-1.78253e-02,5.72486e-02,1.75506e-02,7.37513e-02,4.49914e-02,2.08280e-02,-5.04902e-03,1.81967e-02,-1.98909e-02,1.22738e-02,2.75725e-02,-3.13716e-03,2.53365e-02,1.50555e-02,3.17170e-03,8.10014e-02,2.84890e-02,6.04221e-02,3.72219e-03,-2.18805e-02,5.25573e-02,-3.25077e-02,5.44801e-02,1.04921e-01,-5.07886e-02,-1.84821e-02,2.60323e-02,1.00044e-01,7.44671e-02,-7.70930e-02,-1.81517e-02,-6.89282e-03,-2.88323e-02,7.53531e-02,-1.69557e-03,-7.40214e-02,-1.20687e-01,2.02166e-02,1.30993e-02,-2.88961e-02,-3.06354e-03,2.12262e-03,-3.93881e-02,-1.32961e-02,-2.73346e-02,2.02031e-03,-5.55174e-02,6.00336e-02,-7.62484e-02,-1.07606e-01,4.23587e-02,1.18730e-02,1.12920e-02,-8.58124e-03,9.66312e-02,3.91472e-02,3.59812e-02,-9.16073e-03,4.35561e-02,-7.49178e-02,2.86815e-02,5.42903e-02,5.34342e-02,2.13252e-02,5.22993e-02,
-4.90587e-02,4.56625e-03,1.60491e-02,-9.35938e-02,-2.79621e-02,-1.00190e-01,-1.06386e-02,1.57085e-02,-2.12404e-02,-1.04496e-01,-6.74184e-02,1.01294e-01,2.09428e-02,-2.44992e-02,6.26546e-02,4.92435e-02,5.83328e-03,-8.34474e-03,-7.27774e-02,1.25278e-01,-2.71157e-02,-4.83934e-02,1.06173e-02,3.01861e-02,-3.00570e-02,-3.52752e-02,-2.27203e-02,-3.56379e-02,6.65669e-02,9.78762e-04,4.84908e-02,-4.06522e-02,-5.37536e-02,7.79763e-04,4.85000e-02,5.58036e-02,9.55637e-03,-5.20768e-03,4.90749e-02,-2.65643e-02,-3.37853e-02,-1.17059e-02,-1.18326e-02,1.40663e-01,2.02845e-02,-8.51602e-02,-1.28340e-02,3.79890e-02,3.30863e-02,-8.86180e-03,-3.48334e-03,-1.45539e-01,-6.87747e-02,-1.57295e-02,-3.70018e-02,-1.96408e-02,3.41313e-02,-4.51713e-03,4.83464e-02,-7.22926e-02,-1.77435e-04,5.61447e-02,-2.78371e-02,1.06022e-02,4.17492e-02,3.83195e-02,2.47204e-02,3.67164e-02,-9.94759e-02,-3.82738e-02,3.01522e-02,-8.50066e-02,3.46951e-02,-6.94853e-03,-4.06080e-02,7.43308e-02,4.95754e-02,-1.14788e-01,6.84507e-02,-4.83111e-02,-1.78164e-02,8.08760e-02,-4.84248e-02,-1.02847e-02,5.79229e-02,-7.68910e-03,1.00494e-01,6.40399e-02,-1.95315e-02,-1.85816e-02,7.18092e-03,1.11015e-01,1.28582e-03,8.01300e-02,5.97423e-02,6.63954e-03,2.38367e-03,-4.02749e-02,5.66226e-02,-3.79629e-03,-5.99245e-03,-3.69786e-03,7.11807e-02,-3.07500e-02,-3.79147e-02,2.40046e-02,-4.17318e-02,-1.32827e-02,-4.65440e-02,3.57757e-02,-4.61232e-02,6.77394e-02,-7.60887e-02,1.44900e-02,8.47601e-02,6.38880e-02,-2.87855e-02,2.62261e-02,3.05397e-02,-1.17142e-02,5.62328e-03,3.48389e-02,8.65185e-02,1.52084e-01,2.77816e-03,5.32793e-02,-1.22012e-01,2.58693e-02,3.05911e-02,-3.41508e-02,6.41396e-02,-1.74745e-02,-4.17864e-02,4.91401e-02,-4.32358e-02,3.38332e-04,1.23137e-02,1.82732e-02,6.73666e-02,-4.72630e-02,2.09833e-02,4.75274e-02,-8.38397e-02,2.94258e-02,-5.32854e-02,-8.45553e-03,-3.45192e-02,-2.77839e-02,5.95754e-02,4.09776e-02,-2.05753e-02,8.64680e-02,1.23224e-01,-7.02080e-02,9.15684e-02,-2.65823e-02,-4.65164e-02,-3.73872e-02,-5.76829e-02,1.81861e-04,-7.27028e-02,8.28740e-02,1.33212e-01,-8.63908e-02,6.57407e-02,4.19257e-02,-8.78757e-03,4.02230e-02,-7.91092e-02,-5.39190e-02,-4.77385e-02,-2.61607e-02,6.12786e-02,-3.15537e-02,-3.79140e-02,-3.63856e-02,1.21168e-02,-1.00175e-01,-3.60063e-03,-1.17943e-02,-5.35715e-02,1.29803e-02,4.16459e-02,-3.43640e-02,1.77910e-02,1.80862e-02,5.30856e-02,-6.54243e-02,1.07888e-01,2.07381e-02,-5.57755e-02,-4.68292e-02,-8.72957e-03,-6.88546e-02,-1.74364e-02,2.12269e-02,-9.44686e-02,2.85351e-02,1.72878e-03,4.88050e-03,-6.93342e-02,-5.78709e-03,-5.55305e-02,2.46675e-02,-9.02478e-02,-2.98583e-03,-2.05083e-02,8.61087e-02,-2.63095e-02,-4.77756e-02,-9.41676e-02,-3.29970e-03,-4.10161e-02,1.89322e-02,5.54511e-02,8.34221e-02,1.13814e-01,3.68799e-02,5.85774e-03,-6.51440e-02,9.10858e-02,1.49151e-02,-7.32168e-03,1.02620e-01,2.57942e-02,7.74722e-02,-1.47401e-02,4.74123e-02,5.15632e-02,-1.93370e-02,-3.96947e-03,-1.80716e-02,-3.62058e-02,5.43330e-02,1.13409e-01,9.28329e-02,1.25057e-01,1.23593e-02,3.22451e-02,4.02387e-02,1.03173e-01,1.45307e-02,-3.01863e-02,-5.23325e-02,-2.98310e-02,4.67785e-02,-6.00078e-02,1.65724e-02,7.79360e-02,-3.27550e-02,1.00957e-01,3.80402e-02,1.03571e-02,-3.63386e-02,-4.45164e-02,-3.94759e-02,
-2.98019e-02,-2.29256e-03,-2.70596e-02,-5.03392e-02,-1.05474e-02,-6.58098e-02,2.62174e-02,-2.14237e-02,-6.55442e-02,-3.13296e-02,-1.20455e-03,-9.97368e-03,-7.57658e-02,-6.00065e-02,2.68616e-02,-5.34114e-02,8.45363e-03,-1.72606e-02,2.41043e-03,-2.70055e-02,-2.91328e-02,-1.16421e-02,1.80235e-02,-6.61925e-02,-1.88407e-02,2.88063e-02,6.22363e-03,-2.75145e-02,-5.18912e-02,-3.46268e-02,-5.25798e-02,5.94116e-02,-1.57461e-02,2.17664e-02,-2.58236e-02,3.27309e-02,-7.58150e-02,-1.09199e-02,2.21023e-02,-1.02156e-03,-2.38383e-03,2.88520e-02,4.07477e-02,2.06402e-02,-6.64033e-02,4.62048e-02,-8.13709e-03,-2.26162e-02,3.75999e-02,-9.66735e-03,2.86499e-02,-2.16010e-02,2.04050e-03,-1.46666e-02,-4.07196e-02,-4.60049e-02,2.59463e-02,-4.68671e-02,4.16000e-02,-3.23722e-02,1.75188e-02,4.17037e-02,-2.32912e-02,-2.23245e-02,-5.95879e-03,3.79775e-02,-2.22637e-02,1.15086e-02,4.85347e-02,-5.58099e-02,-4.67591e-02,-6.03404e-02,2.74056e-02,-3.90740e-02,-6.21549e-02,-9.08020e-03,4.28151e-03,-7.80332e-02,-3.54665e-02,-1.83783e-02,-1.25260e-02,-4.16586e-02,6.18395e-02,-1.41987e-02,-1.50072e-02,-6.71822e-02,-5.85888e-02,-5.99813e-02,-1.02648e-02,9.37350e-03,4.04978e-02,-6.01394e-03,-1.95347e-02,1.42219e-02,-5.83210e-02,-7.42054e-03,-4.05583e-02,3.40616e-02,4.50213e-02,2.25025e-02,2.09297e-02,9.26690e-03,-4.21880e-02,1.92024e-04,-6.58430e-02,4.40484e-03,-3.03039e-02,-3.98294e-02,4.24369e-02,-2.46566e-02,8.34220e-03,1.04300e-02,1.02234e-02,4.20328e-02,-3.13798e-02,-1.98902e-03,2.60884e-02,2.95089e-02,-4.61465e-02,-7.37683e-03,-1.41968e-02,5.26743e-02,-2.23546e-02,-2.18192e-02,-6.41778e-02,4.78697e-02,-9.49263e-03,-5.39044e-02,4.79170e-02,2.68918e-02,1.63829e-02,1.81922e-02,-2.79395e-02,-2.29181e-05,-1.92120e-02,-1.91117e-02,6.51316e-03,3.04987e-02,3.72409e-02,-8.21161e-03,2.43768e-02,-4.00754e-02,2.82634e-03,-3.49439e-02,4.79223e-02,-2.81249e-02,1.52408e-02,-2.89054e-02,-5.86863e-02,1.78253e-02,-4.61775e-02,-4.50947e-02,-3.76581e-04,-4.01091e-02,-3.07055e-02,8.17992e-03,-6.83065e-02,-5.84968e-03,1.64132e-03,-5.81576e-02,-5.71506e-03,-2.49168e-02,2.56092e-02,7.99342e-03,4.61800e-02,1.41787e-02,3.98775e-02,-5.95568e-02,-3.12522e-03,5.85465e-02,1.21639e-02,-7.28776e-02,-7.57873e-02,2.98789e-02,4.04640e-02,2.93741e-03,-4.29202e-02,-5.06834e-02,-5.14904e-02,-4.99776e-02,-2.94023e-02,-7.71870e-02,-1.79936e-02,3.52185e-02,-6.84233e-02,-4.73544e-02,-6.50304e-02,-1.18505e-02,1.35267e-03,-2.55564e-02,-1.47611e-02,-5.60489e-02,-2.61693e-03,-7.29012e-02,-1.43045e-02,-3.66040e-02,2.31993e-02,1.50161e-02,-4.27076e-02,-3.83467e-02,-2.17571e-02,-3.97058e-02,-2.22096e-02,-8.82834e-02,3.78978e-02,-1.95492e-02,2.46171e-02,-3.00994e-02,-5.94001e-02,4.65852e-02,-7.59458e-02,-2.31322e-02,4.50895e-03,-1.22375e-02,-3.70881e-02,1.82595e-02,-1.89063e-02,3.18376e-02,-2.57436e-02,-2.56938e-03,-2.63805e-03,-6.18642e-03,2.75570e-02,-1.13474e-02,-5.59589e-02,9.39413e-03,7.64166e-03,-5.59084e-02,-5.50103e-02,1.45336e-02,-3.68293e-02,-2.67062e-02,2.79089e-02,9.78993e-03,1.99985e-02,2.10289e-02,1.63337e-02,3.18509e-02,-5.74342e-02,-4.65963e-02,-3.88108e-02,-3.36306e-02,3.43821e-02,1.37342e-02,-6.21723e-02,1.47875e-02,-1.13147e-02,4.34471e-02,2.63244e-02,3.65249e-02,-6.01707e-02,-4.15959e-03,-3.84379e-02,-9.59134e-03,-1.98881e-03,-7.06822e-03,
-5.32635e-02,-8.91857e-02,-2.48654e-02,-5.05969e-02,-2.15606e-02,3.81524e-02,9.81440e-02,-2.01128e-03,-3.63792e-03,-6.89996e-02,-4.16215e-02,-6.65072e-02,-1.59223e-02,-3.70539e-03,-3.61223e-02,3.53352e-02,-6.89364e-02,-7.26207e-02,4.17797e-02,-4.89291e-03,-5.56221e-03,1.11267e-02,-2.12330e-03,-1.38676e-03,-1.86430e-02,7.12184e-02,-1.15497e-02,-2.56346e-02,-4.20575e-02,2.56436e-02,-2.49802e-02,-1.39310e-03,-1.72096e-02,5.63356e-02,-5.37900e-02,5.90665e-02,6.62199e-02,2.83246e-02,-9.33767e-02,3.40988e-02,-3.38809e-02,-3.86364e-02,2.07802e-02,-5.19870e-02,6.35628e-03,-9.25252e-04,-6.54109e-02,-6.77275e-02,6.09292e-02,-5.59954e-02,4.85172e-03,5.30697e-04,-6.44012e-02,3.76054e-02,-1.04729e-02,-2.77253e-02,-1.15873e-01,3.52147e-02,-2.46620e-02,-1.21247e-02,5.56659e-02,-3.33080e-02,3.71359e-02,-6.71005e-02,-6.19459e-03,-1.44519e-02,-2.23585e-02,1.62807e-02,-2.86269e-02,-4.52824e-02,-6.87931e-02,-6.13931e-02,-3.23650e-02,-1.03607e-02,-8.19762e-02,-8.40680e-02,-7.80593e-02,-2.08683e-02,-2.21206e-02,-4.36876e-02,-3.55119e-02,-4.26712e-02,1.41743e-02,-3.36616e-02,1.66418e-02,-7.84249e-02,-7.41034e-02,6.03696e-02,-5.03567e-02,2.82744e-02,-7.62693e-03,-2.23497e-02,4.03392e-02,-3.05397e-02,-6.40134e-02,2.82592e-03,6.57836e-03,-1.50390e-02,-6.60634e-02,3.29797e-02,3.43740e-02,4.70235e-02,-5.43751e-02,1.32449e-02,6.30473e-02,-8.77623e-03,2.84855e-02,2.65954e-03,3.00525e-02,-3.85783e-02,-1.94487e-02,-4.58035e-02,-2.65888e-02,2.76063e-05,-3.12032e-03,-8.47097e-02,-2.98812e-02,-5.47733e-02,-4.79620e-02,6.41622e-02,-3.92265e-02,-6.49865e-02,4.22992e-02,1.61074e-02,-3.94535e-02,-5.02135e-02,2.63162e-02,-6.88733e-02,-1.92804e-02,-5.17798e-02,-3.74582e-02,-3.91711e-02,7.97917e-04,-2.51749e-02,8.20793e-03,-3.95902e-02,-1.05273e-01,4.31008e-02,2.05282e-02,-1.34462e-02,-1.00613e-01,3.19338e-03,-1.19760e-01,-7.30155e-03,-1.03376e-01,-7.80790e-02,9.23636e-02,-5.42991e-02,-1.65925e-02,-1.16783e-01,-5.04997e-02,3.48933e-02,-2.30395e-02,5.39979e-03,-1.81247e-04,-1.90229e-02,-4.53741e-03,1.39766e-02,8.01561e-02,2.89714e-02,3.17758e-02,-9.01443e-03,-1.32920e-02,-4.59320e-02,-7.17271e-02,3.58836e-02,-4.42632e-02,-7.41550e-02,-2.36597e-03,4.67572e-03,-5.98026e-02,-5.83052e-02,-2.12368e-02,-5.07556e-02,5.38725e-04,-5.54514e-03,4.74709e-02,-2.45204e-02,8.26051e-03,-4.22409e-02,-7.06545e-02,-9.80615e-02,-2.76395e-02,2.74162e-03,-1.44023e-03,-3.31391e-02,4.10339e-02,1.73964e-02,-4.60921e-02,-8.43288e-02,-4.58154e-02,-1.20061e-03,-1.05700e-01,1.94581e-02,-4.20805e-02,-2.86851e-02,-2.67075e-02,-7.34762e-02,-4.51767e-02,-5.78864e-03,1.27818e-02,-3.88593e-02,1.23464e-02,-9.75633e-02,-1.04864e-01,2.22208e-02,-1.95589e-02,2.94253e-02,3.75950e-02,-5.09686e-02,-7.47421e-02,-9.56126e-02,-1.32957e-02,4.16154e-02,6.44485e-02,-2.24150e-02,9.41527e-03,-1.20319e-02,-2.75246e-02,-1.82634e-02,1.68232e-02,-1.47909e-02,9.94847e-03,-3.32461e-02,-4.49709e-02,-7.11367e-03,-9.70934e-02,-4.02085e-02,9.66612e-02,-1.17466e-01,-4.76937e-02,-1.06338e-02,9.61825e-02,-1.17014e-01,1.50700e-02,-3.54878e-02,1.17066e-02,-3.61436e-02,-8.82918e-03,-8.96732e-02,-6.59217e-02,-4.50957e-02,6.10345e-02,-3.35843e-02,1.51734e-02,-6.53827e-02,-7.04454e-02,-2.85546e-02,8.52468e-04,1.57485e-02,7.23455e-03,-5.21193e-02,5.49759e-03,1.74398e-02,-4.63584e-02,-5.04639e-02,
2.41297e-02,-5.39184e-02,-1.85275e-03,-4.41198e-02,3.56426e-02,-5.42056e-02,1.12228e-02,9.07429e-02,-1.86640e-02,1.30186e-02,-6.14464e-03,1.53822e-02,-4.74553e-02,-1.12544e-02,-2.79521e-02,-1.25252e-02,-4.60753e-02,-3.20280e-03,6.18469e-02,-7.70131e-02,2.71906e-02,-5.59397e-02,-2.06881e-02,-6.17552e-02,9.01100e-03,3.94674e-02,-2.96683e-02,2.47054e-02,4.07852e-02,-2.88132e-02,1.43506e-02,4.44482e-02,4.96021e-02,-5.22964e-02,1.79541e-02,5.49060e-02,3.67294e-02,-4.15659e-02,-5.39141e-02,6.30460e-02,1.98667e-02,-2.24569e-02,7.43416e-02,-2.39958e-04,-7.64126e-02,4.27377e-02,4.65253e-03,-2.43012e-02,4.84450e-02,-4.47758e-02,-5.83071e-02,3.58472e-02,3.62893e-02,1.29506e-01,-5.67631e-02,-7.47501e-02,-3.82135e-02,2.40489e-02,-4.45629e-02,1.42578e-02,1.71457e-03,1.24942e-02,1.83949e-02,-7.28975e-02,-4.26134e-02,-7.12129e-02,-1.06157e-02,3.72448e-03,2.34082e-04,-1.65647e-02,-8.73405e-03,-5.41954e-02,-6.52440e-02,-1.03485e-01,5.68379e-02,-6.92132e-02,-9.84333e-02,-6.24307e-02,1.01430e-02,-2.50320e-02,2.56240e-02,1.89955e-02,-1.15223e-02,5.89542e-03,8.73748e-03,4.07067e-02,-4.68653e-02,-8.08656e-03,3.90202e-02,1.84961e-02,-2.39963e-02,-4.16410e-02,-4.95350e-03,1.44722e-02,4.73996e-02,-7.11320e-02,-7.75699e-02,3.49776e-03,-8.47275e-02,5.03732e-02,2.29679e-03,5.33876e-02,-5.16506e-02,-5.02489e-02,1.11363e-01,3.56220e-02,3.71861e-02,-2.06541e-02,3.84202e-02,-1.83435e-02,-3.37912e-02,-1.19975e-02,-5.59312e-02,-6.35011e-02,-5.84838e-02,2.64256e-02,-4.91426e-02,-2.37371e-02,-1.32397e-02,-5.37046e-02,6.24183e-02,1.49622e-02,5.60145e-02,-1.01934e-01,1.37937e-02,1.46474e-02,1.59166e-02,3.97096e-03,1.85073e-02,-6.69801e-02,4.31469e-02,-5.31295e-02,-3.44668e-02,7.36804e-02,-8.48791e-02,-2.33446e-02,-1.82737e-02,8.32125e-02,5.09954e-03,3.81412e-02,-8.55880e-02,-1.48243e-02,6.28045e-02,-2.02074e-02,2.77897e-02,-1.05488e-01,3.58712e-03,4.29098e-02,-4.14216e-02,-5.69247e-02,1.46334e-02,-3.98822e-02,-2.32149e-02,-2.82018e-02,-6.99782e-02,-3.55238e-02,6.52271e-03,4.36213e-02,2.66145e-04,3.38416e-02,-2.35697e-02,7.44381e-03,2.70751e-02,-9.84364e-03,-2.84066e-03,-2.55244e-02,-5.88937e-02,9.29228e-02,3.91282e-02,2.71532e-02,-6.18766e-02,1.07692e-01,-5.30654e-02,7.50919e-02,-1.27312e-02,3.79489e-02,9.17932e-03,-8.54822e-02,1.80059e-02,6.61204e-02,-6.18765e-02,-2.91694e-02,2.12754e-02,-7.00874e-02,-4.50705e-02,2.06725e-02,1.38734e-02,1.28822e-01,2.38010e-02,-1.23608e-01,-4.07676e-02,-5.79589e-03,4.08737e-02,-4.68812e-02,5.74064e-02,2.69662e-02,3.28107e-02,-4.88946e-02,2.94897e-02,1.41109e-02,-4.27831e-02,-6.52346e-02,1.81262e-02,3.46308e-02,-5.82620e-03,-4.53610e-02,7.31487e-03,-9.67368e-02,-3.00407e-02,2.97970e-02,-6.97521e-02,-9.93113e-02,3.48231e-02,-4.59151e-02,2.49263e-02,-6.25203e-03,-2.41520e-02,-1.68394e-02,9.48364e-02,-9.10226e-02,-5.20575e-02,5.30501e-02,2.15434e-03,1.86931e-02,7.15591e-02,1.00136e-02,-5.99045e-02,-9.69972e-02,2.07387e-02,8.25280e-02,5.45124e-02,-1.79778e-02,1.56516e-02,-2.18613e-02,7.22884e-03,-1.30160e-01,1.14156e-02,-1.64364e-02,-7.52394e-02,6.33786e-03,-3.30328e-02,4.49105e-02,-5.15896e-02,5.71180e-02,3.04682e-02,2.92809e-02,-1.17069e-02,-3.13003e-02,-6.02367e-02,6.86067e-02,-6.56715e-02,5.71660e-03,4.69983e-02,5.43685e-02,5.59580e-02,4.42673e-02,
-1.55364e-01,-8.73408e-02,-2.68238e-02,-4.47752e-02,-4.79466e-02,9.89435e-02,-6.97955e-02,-7.43488e-02,1.02033e-01,-1.98257e-02,-2.08298e-02,-3.94021e-03,7.12411e-02,1.18615e-01,1.39797e-02,8.15764e-02,-1.43641e-01,-1.23769e-01,-1.53624e-02,-1.78224e-02,-1.25350e-01,3.18933e-02,1.00473e-01,1.75529e-02,-1.79450e-02,3.98167e-02,3.07015e-02,9.36994e-02,-4.03162e-02,-2.03161e-02,-4.61648e-02,8.69148e-02,-1.41399e-02,3.47955e-02,3.07881e-02,-5.31826e-02,-1.90171e-02,-6.47323e-02,2.66924e-02,-5.58943e-02,-4.46724e-02,8.41011e-02,-1.11438e-01,-8.36344e-02,9.64182e-03,3.70122e-02,6.70753e-02,3.43164e-02,5.82848e-02,2.53843e-02,-3.65446e-02,6.29184e-02,4.98845e-02,-1.29262e-01,6.85670e-02,1.14468e-01,-7.20083e-02,2.98107e-02,-3.75345e-02,-6.00739e-02,-4.00640e-02,-2.48420e-02,8.29604e-02,-2.15316e-02,2.52312e-02,2.66629e-02,4.68963e-02,-2.46528e-02,4.89988e-02,6.10985e-02,-8.62130e-02,1.51084e-02,-7.58151e-02,-1.87033e-02,-1.76632e-01,2.31006e-02,-5.98560e-03,1.17824e-01,-6.20095e-02,-3.33913e-02,-2.00891e-02,5.21584e-02,-2.23588e-03,6.75176e-02,-1.15105e-01,-1.37556e-02,-1.56783e-01,-1.05925e-02,-8.66667e-03,3.49237e-02,2.47348e-02,-3.36464e-03,-5.48273e-02,-5.16439e-02,-8.59957e-02,-2.08822e-02,6.68353e-02,3.04919e-02,-8.00208e-02,-1.59690e-02,-1.17818e-02,-7.07913e-02,3.22914e-02,6.37387e-02,-2.37053e-02,1.22700e-01,-1.56504e-01,-7.58085e-02,2.73849e-02,6.86623e-02,5.35978e-02,-2.99275e-02,1.13334e-01,9.89998e-02,6.28526e-02,-5.90106e-02,-8.25010e-02,2.80811e-02,3.97689e-02,-1.12400e-02,2.18894e-02,-6.11121e-02,-7.18467e-02,5.03960e-03,-3.00616e-02,-9.35997e-02,7.70059e-02,6.44135e-02,-3.15431e-04,4.56974e-02,4.86363e-02,-1.13764e-01,-2.41370e-02,-2.88433e-02,5.72439e-02,-1.03954e-01,-5.63148e-02,-2.06681e-01,-4.28175e-02,-2.10703e-01,-9.52185e-03,-1.65230e-02,-8.94223e-02,8.34020e-04,5.11600e-02,6.67153e-03,-4.41872e-02,-5.24389e-03,-3.90198e-02,-3.44647e-02,-1.80241e-01,-9.02716e-02,-1.50881e-01,9.37035e-03,-6.76871e-02,-1.22371e-01,-1.53253e-01,-9.66854e-02,1.00551e-01,-5.93871e-02,-9.90329e-03,-1.32283e-02,-1.29848e-01,-3.62615e-02,-9.06132e-02,-8.65338e-02,-1.30972e-02,-1.09381e-01,-1.23275e-02,-1.98906e-03,1.13630e-01,-5.53585e-02,-1.25829e-01,-1.41273e-02,4.32075e-02,3.55407e-02,-7.58363e-02,5.84770e-02,-3.13653e-02,-4.46588e-02,-5.66059e-02,3.59451e-02,-9.83426e-02,3.68505e-02,-6.11729e-03,-7.35037e-02,-6.73111e-02,1.83263e-02,-9.40777e-02,-5.26841e-02,9.14924e-02,4.40022e-02,-6.70007e-02,6.17180e-02,-1.12145e-01,-4.15400e-02,-4.10316e-02,6.11675e-02,-1.05319e-01,-1.05124e-01,9.88664e-03,-1.29651e-01,-3.66934e-03,-7.84189e-02,-9.84756e-02,-9.98121e-02,-1.50360e-01,6.46644e-02,9.40584e-02,1.58962e-02,5.42077e-02,5.75240e-02,2.62982e-02,-6.33293e-02,-9.92631e-02,-7.97544e-02,-2.80085e-02,-5.54300e-03,-3.48270e-02,7.03099e-03,-1.27662e-01,-1.14184e-01,1.27687e-02,-5.67783e-02,-2.31605e-02,5.08811e-02,-1.71747e-02,-1.14875e-01,-4.90812e-02,-1.73859e-01,-7.39992e-02,3.54711e-02,-1.53364e-01,-6.16905e-02,-3.01620e-03,-1.21778e-01,7.41631e-02,-1.81813e-02,2.88314e-02,3.85259e-02,-8.74930e-02,-4.63709e-02,-4.64725e-02,-2.02583e-02,-2.87148e-02,-1.22147e-01,9.24329e-03,5.20839e-03,-3.22158e-02,4.42582e-03,2.65254e-02,-1.02079e-01,8.20233e-03,-5.27381e-03,-8.35563e-02,5.10481e-03,
9.73053e-02,6.50162e-02,1.41090e-02,-2.27978e-02,-4.81675e-03,-1.74540e-01,5.12328e-02,2.42020e-02,-1.81189e-02,-1.53992e-01,1.05553e-01,-1.38024e-01,-4.52002e-02,-8.68604e-02,-9.18090e-03,-1.68733e-01,-6.78800e-02,3.02662e-02,2.29610e-02,-4.43472e-02,-5.66993e-02,-1.55904e-01,-5.07986e-02,1.49141e-02,-2.35694e-02,-4.42382e-02,1.70561e-02,-9.83940e-02,5.57849e-02,4.11573e-02,-1.18789e-01,-8.47417e-02,1.44722e-02,3.83117e-03,4.64243e-03,-1.94727e-02,-1.15987e-02,1.74974e-02,-8.80112e-03,9.86902e-02,-3.93439e-02,2.91425e-02,9.43629e-02,7.43173e-03,-2.19111e-01,3.51507e-02,4.04459e-02,-6.12878e-02,8.78464e-02,3.80754e-02,7.55711e-02,-1.05340e-01,1.30739e-01,3.88022e-02,-5.36329e-02,2.64034e-02,-5.44085e-02,-1.74440e-01,-5.74733e-02,1.31053e-01,1.45652e-02,-1.36650e-01,-1.60482e-01,6.51094e-02,-5.34389e-02,-7.32049e-02,1.33201e-02,-6.71732e-02,-8.10373e-02,-1.25832e-01,-6.78777e-03,-7.35871e-02,2.21385e-02,-3.45251e-02,-4.03184e-02,-2.10787e-02,1.95152e-03,-2.32146e-03,-6.13322e-03,-3.96694e-02,-3.08191e-02,-1.42566e-03,2.12833e-02,-9.47882e-02,-2.60799e-02,2.43832e-02,3.90179e-02,-9.38083e-02,2.33729e-02,-1.54430e-01,-1.61120e-01,-3.77815e-02,-4.60895e-02,1.05515e-01,6.62665e-02,-7.95130e-02,-1.07588e-01,2.48566e-02,-1.24079e-01,-4.01567e-02,7.43492e-02,2.32475e-02,6.12973e-02,-5.66158e-02,5.29864e-02,1.08528e-02,3.17504e-02,-6.48115e-03,9.87064e-03,-1.67657e-01,-6.85038e-03,-1.28545e-01,-7.20731e-02,-2.74497e-02,-2.13548e-02,-6.08270e-03,-5.18669e-02,2.01398e-03,3.44312e-03,2.50661e-02,8.21192e-02,-2.09002e-02,3.58696e-03,-5.27471e-02,-1.21713e-01,7.31413e-02,-1.26892e-01,-1.95387e-02,-2.44961e-02,2.48991e-02,-1.12949e-01,8.96531e-02,-8.05486e-02,1.72749e-02,1.80395e-02,4.42096e-02,5.26146e-02,4.72940e-02,5.58320e-02,1.28182e-02,-6.98940e-02,-1.46892e-02,2.42453e-02,-1.04407e-01,-5.31999e-02,-6.42558e-02,2.59858e-02,3.41520e-03,6.15143e-03,6.76576e-02,-4.65380e-04,-1.26676e-01,3.52192e-02,-7.80224e-02,-7.51441e-02,2.90380e-02,1.46656e-02,-3.96958e-02,-2.34527e-02,5.11650e-02,-4.32945e-02,-6.91921e-02,9.97821e-03,1.07408e-01,8.57367e-03,-1.40296e-01,-6.08813e-02,8.41486e-03,-6.83470e-02,3.57073e-02,4.65722e-02,3.61674e-02,-8.59780e-03,6.67345e-02,-7.60001e-02,-9.41305e-03,2.52910e-02,-7.39427e-02,-1.78705e-01,8.23026e-02,5.09111e-02,1.05118e-01,-3.71200e-02,-5.83371e-02,-8.55098e-02,1.63346e-02,8.90004e-03,7.85089e-02,7.16737e-02,-5.58355e-02,-1.50053e-01,7.98970e-02,5.35940e-02,-4.37038e-02,5.29183e-02,-8.52523e-02,-4.89323e-02,-1.02971e-02,5.63327e-02,1.27906e-01,-4.01128e-02,5.62274e-02,-3.04281e-02,9.77356e-02,-8.48774e-03,-6.48126e-02,9.35987e-02,-2.43512e-01,-9.41240e-02,-2.08411e-02,-4.39432e-03,2.61698e-02,-1.27407e-01,2.68741e-02,1.40030e-01,-1.09020e-01,-3.27292e-02,-3.68520e-02,5.03915e-02,-1.98344e-01,4.63366e-02,-1.07468e-03,-4.88394e-03,3.43958e-02,6.31719e-02,-2.84142e-02,5.15953e-02,-6.26134e-02,1.07831e-01,3.06963e-02,7.75403e-02,-2.93339e-02,1.28126e-01,4.12265e-03,-2.65320e-03,2.30933e-03,7.52239e-03,7.82886e-02,-3.95652e-02,3.46347e-02,2.85661e-02,6.77888e-03,-2.09787e-02,8.38117e-02,-3.36298e-02,4.95049e-02,1.82380e-02,-8.22386e-02,-6.82165e-02,1.72002e-02,-3.93925e-02,-5.78931e-02,1.64208e-02,-1.04785e-01,4.96986e-02,1.24576e-01,
